solver_type L2R_L2LOSS_SVC_DUAL
nr_class 3
label 1 0 -1
nr_feature 310
bias 1
w
-0.05537628175832042 0.1348819512988335 -0.05294928044297043 
0.04856371430037267 0.08422893052215949 -0.09786458329399877 
0.007245218619491818 0.2499949046623908 -0.1738114590531691 
0.06803429062288947 0.04663896666107255 -0.1033924479306002 
-0.1118333521708337 0.082170170375236 0.04708077024548155 
-0.0287850299418561 0.04859206106277513 0.04023431320945962 
-0.0488563166605774 0.1280384548680274 -0.01926038549621441 
0.1543388502680081 0.05054340018355343 -0.2451240931920651 
-0.04250555511129858 0.1647926969574314 -0.1458653862745312 
-0.1575520621511602 -0.06246925244537029 0.1183473969028865 
-0.07540608355032785 0.2165621776016714 -0.132506063070867 
0.05423910269665585 -0.04271919801318592 -0.1100675796222625 
-0.09983150746583738 0.0423567145091775 0.05624150258624788 
0.0001730638673575175 0.2021724781420907 -0.202477555275502 
-0.05358680525711131 -0.004092456716596584 0.08927502338098886 
-0.002534030644194754 0.07991842494493719 -0.06200620315366416 
-0.08163186023803445 -0.1372680754256713 0.1776227380165822 
-0.1308661515524453 0.1415788458029154 -0.07595824868629225 
-0.1609655992500987 0.02801275771042644 0.1210142968425518 
-0.09005309322897562 0.02020969814562279 0.06412938671137688 
0.04343401359161232 0.144518017873352 -0.2582643018987006 
-0.004092046531854442 0.07717946941389496 -0.1006683210097649 
0.1166395701395151 0.1914213070331526 -0.2999561063626223 
0.06119249624438582 -0.07957836227981695 0.07485740775038678 
-0.03229428950159673 0.1165842147450872 -0.0212456609961655 
-0.05151320606108365 0.002466552165189615 0.05711477597480108 
-0.04358080624701104 -0.0571184906906383 0.01932567087504576 
-0.1499185472041451 0.05492482860144854 -0.0825209971251441 
0.1067201237537489 -0.1307084301235646 -0.0468080346067398 
-0.08274072894504526 -0.01316131430333578 -0.03563010072134223 
0.01679804460837141 0.09035256356265373 -0.1034850219558681 
-0.0442027189642327 0.1301610895708609 -0.09752270380080758 
-0.01465218882161645 -0.1745595266110226 0.2450757232337344 
-0.06976178185672088 -0.01391441936132017 0.135529805782883 
0.01029236333858884 -0.08518820481578218 0.06430623882535304 
-0.1945913299519149 -0.02315156526445983 0.1129887767881086 
0.02939964954272148 0.04332092074916803 -0.04426096103826103 
0.07187223187230259 0.05972687957800975 -0.06280515122811554 
-0.1938056858457978 -0.04384233896193412 0.2746554585099003 
-0.0170636648852675 0.04462598171352523 -0.05040353999576346 
0.0388411022498097 -0.03577500992391082 -0.03843825709872052 
0.1290227727616645 -0.2032698049299302 0.05539689743744712 
0.04182041848570257 0.1034783673066396 -0.03289804340841969 
0.09913593705544124 0.07077766619974622 -0.1321156411761691 
-0.02838395364855369 -0.01219505472356522 -0.03526204670088522 
-0.2409828391595791 -0.3503209042032548 0.5434523368248443 
-0.1316810849684537 -0.1525040305189486 0.2112215296686908 
-0.002760353789653909 -0.1387192193983836 0.1699363959837885 
0.02718598018498217 -0.07822341071547527 -0.04861003007707277 
0.09901695609984212 -0.1018946033149394 -0.06730791087912544 
-0.0100778898390376 -0.05462972184240515 0.1410873887664604 
-0.01052041556316059 -0.05229821779241025 0.1391100218340482 
0.05544671206771914 0.05177948458333137 -0.001456930553883847 
0.0547322079887355 0.01361869406209571 -0.05938461397715466 
0.09936052396759455 -0.02315442094526949 -0.05820999575965015 
0.09747003833134493 -0.01858099950565197 -0.06114689032530685 
0.121866002162986 -0.156343832838872 -0.003883925929494087 
0.04244232718320493 -0.0545729972580714 0.03562851683738226 
0.08642841698824541 -0.04920899989914546 0.01056178688606394 
0.03741422431072788 -0.03390276132549667 0.05529033130959494 
0.2752961993315013 -0.0579883551818301 -0.21395723362762 
0.07225434782706472 -0.1349776270094109 0.1349921417188198 
0.02505681658370793 0.003706397558175734 -0.02557107659059693 
0.03248164985962119 -0.05079018191362458 0.04841015289131339 
0.003117455662412788 0.006361836755856838 0.01716430627803776 
0.04788594695604204 -0.04835152246663447 0.008850688136129159 
0.02622767058481099 -0.01378531541530618 0.001306141519991473 
-0.01376357139825162 0.1815847166028345 -0.1595954119682658 
0.01577649460126777 0.1021623756333413 -0.1113695008903666 
-0.0242105245709416 -0.01458952548218116 0.0332189676158669 
0.04703307439467789 -0.05549355175085929 -0.001590145742666581 
0.06602138826938661 -0.0816504995748483 0.003135776833450416 
0.05516154598415959 -0.002474610377979128 -0.0663827019027467 
-0.008180346136289264 0.01272310502800343 -0.02173319543202421 
-0.08101222368412979 0.06467324763163546 0.01869836214305651 
-0.1123899046297441 0.1419634960084389 -0.03729750589090162 
-0.03038897334668845 0.09336642974498106 -0.06965596796417513 
-0.01565013031308998 0.08170421734069259 -0.0487762136232825 
0.005452543529401553 -0.02141540473541298 0.03795195026062495 
0.0217966827223402 -0.001642797527564224 -0.009498646607083615 
0.07951502602433956 -0.03540492068453854 -0.03916235927869881 
-0.09268995544676716 0.0212215120695016 0.09922985915729778 
-0.05614328044080089 0.006391151696494255 0.02908640549187275 
-0.1287742234828419 0.04355837038161504 0.04634326428665973 
-0.08131580331080389 0.08966340932650192 -0.04379800805717167 
-0.0003091892685575201 0.002718877737765368 -0.01080208781680927 
0.01863463060176682 -0.007758603121779582 0.001642764559753073 
0.0447427592547586 -0.00717898151475779 -0.03193484507146389 
0.01520421207417344 0.0391244113342154 -0.048184341430586 
-0.1841520028694156 0.08924405951961108 0.09984923510891679 
-0.01962678083823492 0.09598612690253956 -0.1153556828219515 
-0.08211426391072355 0.101302075716079 -0.04130150616185416 
-0.05287793254566046 0.01609307701221703 -0.01355445448132962 
-0.028939151441832 0.03675244170300605 -0.06151205596014504 
0.001936913076173104 -0.07246333990945217 0.03438294314925579 
-0.000875570441588841 -0.0545969531433478 0.04777379895728301 
0.01780658197942944 -0.02131542583515091 0.008002609016486327 
-0.05773792841241732 0.03746328550888765 -0.01401366586354918 
0.06332413899371415 0.03280555543572274 -0.07221924172956211 
-0.09174057151030378 0.02970791200253626 0.07674998252254166 
0.02838160184920575 0.04415814231298934 -0.06126270168410733 
0.02396620138689026 0.01589947823258845 -0.06480993299497842 
0.01032347426586873 0.009410516937569434 -0.05726460747179882 
0.04628169579913886 -0.06641955798477849 -0.002287668324423862 
0.05197918018597664 -0.04650175601652659 -0.02481662921488572 
0.04718345451065734 -0.03657079878296295 -0.01162341781413772 
0.03273700144408355 0.03322164956216677 -0.04918452988903806 
0.005414436717590394 -0.08281125415999864 0.1237135034848326 
0.01673801628724635 -0.1627626896280611 0.1892285902222899 
0.0390227221777562 -0.1315370812420701 0.1269379680639352 
-0.003697724391638157 -0.01931268692652419 0.03400735958077022 
-4.13720813051147e-05 0.002399935543689542 -0.02305200588244915 
0.04615817185035339 -0.08062386501801912 0.01410908658539882 
0.04254207826947083 -0.08532946251409776 0.02159377985861349 
0.07355364344518291 -0.04547896174128779 -0.003002708418028721 
0.03091988073917359 -0.03994584932996263 0.06639595641996823 
-0.01904932947978118 -0.06576633660256956 0.1201917406658922 
-0.02013475863377216 -0.0651708692189492 0.1172691468790122 
0.006287260431519557 -0.05783977869623207 0.02617672027577583 
0.007732028647320188 -0.1081569606121421 0.06598771489615925 
0.008642459052821959 -0.07112469791691156 0.04923539721038874 
-0.0008202338038941355 -0.05331660986816786 0.03763117543207151 
-0.009419302714404816 -0.03696357346169274 0.03940403207566588 
-0.01679262066876327 -0.06943465836707885 0.03186630203770231 
0.02481096568888377 -0.06182806216424013 0.01352535425523937 
0.02945492777209698 -0.09458589484399593 0.06367347239510712 
0.005889326337632836 -0.1208644924012686 0.1325161790475073 
0.02476911948070663 -0.09836134708869791 0.04149723981151589 
0.006890331696054259 -0.1349217926128256 0.1342567854284627 
-0.009998375668917281 0.122001920305356 -0.1462460868518055 
0.001973675840942891 0.02574492681989464 -0.05375388844892783 
0.05103232169485341 -0.04802691069223206 -0.0251286062402163 
0.0398011771974848 -0.1172338994148289 0.07076223957906246 
0.03194502009874445 -0.1151813454903503 0.08020358130110621 
0.01536710156396089 -0.1097786515257806 0.08018891543966061 
-0.02171505557467158 -0.108127980658543 0.1228492439943754 
-0.05490194967478744 -0.04267943918225217 0.1071315358406048 
-0.08874499087148785 0.04032561426119567 0.04033443268645032 
0.02237344360178385 0.1073967889000155 -0.1468052884721974 
0.02233904858139346 0.06755211168729187 -0.105937589749943 
0.07897537025605861 -0.0836265525075061 -0.001752072242734935 
0.07837041351545559 -0.06285132119174693 -0.005901155808351002 
0.07771138749813566 -0.1174742284052132 0.03643578595281961 
0.04083804461341809 0.01254075706895824 -0.05883154125409709 
-0.08868061833751377 0.03542021068443194 0.04967446703366273 
-0.08618469893799975 0.02334626513625178 0.05756402416493496 
-0.09116549801085197 0.04483490369809624 0.03296563013295666 
0.04244177351197698 0.08811307852114293 -0.1297694349133409 
0.05442352121898397 0.07417171850621203 -0.1184301781909586 
0.04156568323452108 0.03691937577833737 -0.06703328689213323 
0.03689627863998879 0.0248342655409626 -0.01462892297599818 
-0.0357336229090924 0.03092098498781018 -0.006078281918325144 
-0.0297814085502743 0.004325419506319936 -0.006927675878967904 
-0.06624571599727185 -0.02480202270623852 0.01676914080993286 
-0.08663901269161084 0.009427823241186463 0.02407933576947381 
-0.1402328560340682 0.07895878833409911 0.03901936530684261 
0.02476043232335407 -0.04054533740077316 -0.05054028388788179 
0.04932199740498202 0.02656059226388947 -0.08158489158137712 
0.02261647871387391 0.06512200787254829 -0.09230813312296357 
-0.06068921542214793 0.05711276650542533 0.01935306569161857 
0.003844338761731117 0.1627043044253993 -0.1288063561959635 
-0.03130662665007437 0.1023772476372073 -0.02979049987276509 
0.01566159566818685 -0.03605816164928908 -0.004108033420799713 
0.03773118200576916 -0.004070138068835587 -0.06173894521343859 
0.005949267343638771 -0.03069641325964512 -0.02476026778490874 
0.05069786781460513 -0.0535841538703085 0.003581740270687447 
0.06780680777563577 -0.02288341369716139 -0.02610578641221187 
0.008875862566710236 -0.04220131586971161 0.03045889747529362 
0.06373262650793514 -0.01061590284528537 -0.03120245757272922 
0.05307901220250884 0.007475070649898234 -0.01310808309719921 
0.08082317789916842 -0.02243782321679344 0.01738152248352209 
0.1062523601141178 -0.1775054595310273 0.1352836565501057 
0.05381010693230248 -0.07707426461677724 0.02181158038599148 
0.05177541358698041 -0.03662728084063906 -0.06562393901916841 
0.09909090177747686 -0.08518595125656429 0.016138171030395 
0.09938327183232919 -0.08475069846682445 0.01537608411397678 
0.1083727270670362 -0.0494617540873836 -0.01558312947950612 
0.08694600601804472 0.02804954185386964 -0.04557558368790627 
0.1035064716180915 -0.09115141253217175 0.02810773632473321 
0.1026434081014107 -0.09089442416962387 0.0245315953762807 
0.07140556252256139 -0.06515382233178517 -0.02158120223236155 
0.05604164287554143 -0.07400115029300793 0.02069249307080945 
0.07757777448588322 -0.04891476634911662 -0.000833450885237549 
0.03415996015455697 0.005603468422116347 -0.01507708782606538 
0.06458444058216364 -0.03617952609284499 -0.02045931024025972 
0.01428583050655391 -0.02458391886188752 0.007150621935403376 
-0.01820164816136647 0.01647265899993939 0.0109661663958124 
-0.006146318123906366 -0.0240623150053844 0.04114719069573617 
0.009338609258457579 0.008840858317326736 0.003454674404390257 
-0.01189572837525433 -0.002899556213009213 0.02450079976593584 
0.0004502122398785636 -0.0158721759613621 0.02897379572195592 
-0.08172862614069032 0.01218142215767127 0.04356475269868147 
-0.08074620544825975 0.007296156094841208 0.05005628088968804 
-0.004084805306033394 0.01908291086905186 -0.02310361708413207 
0.01647674726912447 -0.008229192297596258 -0.003576850346399303 
-0.01220804216432586 -0.02200088381703383 0.06288039506286634 
0.01344625558879519 -0.03100362462726851 0.03464182577241642 
-0.008468825981470673 -0.01812167686029497 0.02510534009202462 
-0.07915295659463982 -0.01156504840690835 0.08035117961429741 
-0.1227902554307551 0.0249145981935382 0.07948541549719761 
-0.139083002954489 0.06491763389168662 0.1024350040121422 
-0.08630263060229813 0.06800927523599701 0.01810411962075261 
-0.02854435057978029 -0.01340857505510899 0.05177844110519646 
-0.03013168100182181 0.03072757194327006 6.066592487840589e-05 
-0.007091448032858688 0.00844552762542267 0.01703367682727472 
-0.02439561947494617 0.01586101270582034 0.03438686279049497 
-0.02839571838641627 -0.01481454306564847 0.06594561698660001 
-0.05566619149980048 0.009771279369833586 0.03968183037963302 
-0.096761014483716 0.08984223929435506 -0.01803362224059092 
-0.226439596841829 0.08526702974247262 0.1337522503778227 
-0.02193832530203024 0.08426484705210445 -0.04613419761779015 
-0.04350904007973944 0.09563161764725422 -0.03964544292489865 
-0.043736877925676 0.1157726627692685 -0.02235289727656982 
-0.05546260766767567 0.06321496417957941 0.01365434228046477 
-0.005013535766125318 0.05077856574668989 -0.01651201682910261 
-0.02000221763979037 -0.0109832569054143 0.04075847611245307 
-0.07436675672055244 0.009616914350992618 0.04682277134286571 
-0.1418658735186334 0.1451619616389751 -0.009706960258082441 
-0.2623708623869714 -0.2000241791808567 0.3493727478233423 
-0.04883003540402205 0.1288008528538533 -0.04732386970003392 
-0.06141018610977418 0.05246398826413132 0.01768177577558922 
-0.01483610121253169 0.08768984219157383 -0.0363363129373357 
-0.01937147641477624 0.0783159490929282 -0.05836203573344118 
0.00494367745534442 0.1003044066928906 -0.07316974955465416 
-0.04660229364314632 0.01786101515846097 0.0232626138216565 
-0.02025096659368369 0.007155182145419921 0.01237837884748815 
0.03712786250765396 0.03994259858330886 -0.0679514972868894 
-0.08078884158313387 0.06014733497015341 0.06530153957797727 
0.01867002590651697 0.07862135764957651 -0.08712032608944668 
-0.02303396339318328 0.07192426036143694 -0.04186475720856892 
-0.008619778449256708 0.08420985317468509 -0.07322785963916512 
-0.0009029029359657333 0.08232246790962687 -0.07330389514527359 
-0.01630938414632249 0.1049543259544077 -0.07920504249836942 
-0.08068405165591402 0.0466832733575988 0.03771234307430059 
-0.02433366931458259 0.0241455174033754 -0.004359512048676762 
0.1125126792905862 -0.002663997790275268 -0.1345138207940598 
0.05217174278334676 0.01565696955070904 -0.07767470776466294 
0.05161986713809977 0.01423130165375788 -0.07532037833008062 
-0.01020588999441027 0.06926045538363101 -0.07259874670461458 
-0.04754249827184277 0.1111358516683615 -0.06208704548495938 
-0.04173527679728831 0.05666538297644988 -0.007919761958283684 
-0.03837260571601218 0.05241827194062985 -0.008826702175543153 
0.1659359572276741 -0.0347573904248627 -0.134373473420196 
-0.04049466304144354 0.006091654392580093 0.008728237545686631 
-0.004296901209191711 0.0337641140485645 -0.04221001298154202 
-0.03935215454012701 0.07426075493533846 -0.03912802169323835 
-0.02791092705504716 0.09786254763570908 -0.03020824748748658 
-0.01970267574878812 0.05489090037585633 -0.03108099587762588 
-0.04194433977623505 0.06261281181769361 -0.02784189345678605 
-0.03842163450064592 0.06671863023573407 -0.02545151306223347 
-0.006303764645147493 0.0147766110201897 -0.01507269358486387 
-0.01010256270224131 0.04022337642815437 -0.01941764589735949 
-0.007139049512135358 0.01657417528374319 -0.004712874349011863 
0.009306289930911449 -0.1126222659784656 0.08330960684903134 
-0.02965181449185187 -0.05128523952519286 0.07226634965802915 
-0.02613643096830174 0.02274010575056648 -0.008418541555100165 
-0.01771658287679665 0.04298661201745013 -0.005651058324777449 
0.00357536383511565 0.01305933546490258 0.001787513088114104 
0.001905998842240536 0.008953135112543847 0.00157718399986837 
0.02724144788641313 -0.003872631413294943 -0.04027494788796706 
0.03280812356905751 -0.02669250210974032 -0.04365887633109928 
0.02860217201151771 -0.03303894796460306 -0.05155970794550548 
-0.05701753327980302 -0.05401816071085835 0.1264161510282105 
-0.04650359196954935 -0.03526887620958256 0.0601648022904088 
-0.01295068290861412 -0.02346712113711218 0.03350134058036226 
-0.01848160447269014 0.0319729510170868 -0.007409897665773447 
-0.05203991900149374 0.01566334782115886 0.06379031894013749 
-0.0332141333101029 0.01192485363442463 -0.000158550059668855 
0.05911995303163449 -0.04190127618687989 -0.04745537395528778 
0.07231317400405862 -0.02646594937602341 -0.09836596848432914 
0.1656730649929015 0.00161421836565965 -0.1811859611584698 
0.06916240906200402 0.1548007171393592 -0.1972221860084059 
0.02790876988726966 -0.02238930619730636 -0.02990014276928914 
-0.0407454858652446 -0.02632163322153525 0.03860536642844748 
-0.03082105967537218 0.03737344963545065 0.01140518954314194 
-0.03434773612580786 0.08023477516785732 -0.02368934425162243 
-0.03430976438608254 0.02674374869184996 0.01316969350276899 
0.03538658986700155 -0.04079859412012817 -0.0362256691418898 
0.08554198838586488 -0.02125724346196041 -0.1234329960900908 
0.1236400111489561 0.002507102964763897 -0.153400958618132 
-0.2333983416662623 -0.3534454092660011 0.4104350313683459 
-0.03747516310342032 0.03794277960198653 0.03751770979542549 
-0.07743633191601913 0.006215209392860564 0.07065405782860951 
-0.02055270120829841 0.08242515627338809 -0.04263544785486226 
-0.04353084098905334 0.03303992680303804 0.02355013523069987 
-0.02089870779347116 0.06701701111915136 -0.06456585043304253 
0.02111161474207189 -0.01060744614801962 -0.0411528630029586 
0.113116846243649 -0.08369896769298925 -0.06393981793099915 
0.1658553677394992 -0.0345779211149876 -0.1145428055203033 
-0.1056674508940995 -0.08207984951705954 0.2559812570288811 
0.03838020873798197 -0.06785267236553678 0.04370580190634632 
-0.005666838491098162 -0.05013153101002892 0.05931909532012859 
-0.0229866746912809 -0.002175532183527986 0.02009915907038635 
-0.02128952365337591 0.02571494755992423 -0.001950932471016611 
0.001533993443921228 0.02909245068182778 -0.03860383783694542 
-0.01193882492014638 -0.0003421425166567456 0.01848915864211844 
0.0378572468933461 -0.04341784778190329 0.006842277345396054 
0.2505885942594047 -0.116861518985324 -0.1331883497325354 
0.06459391645918071 -0.06698357790015164 0.008105791730425143 
0.07385187266334299 -0.07251701904731883 0.008027823659624797 
0.07221705507179142 -0.07846039293969349 -0.000603567207716368 
0.02340591178935212 -0.01603500332771071 0.001703719708882616 
0.004664599852991339 -0.02302904089775996 0.06554781061509007 
0.001077569513792504 -0.02180690904828285 0.07056071145064201 
0.2777117883501276 -0.1611476858704704 -0.07036842225039304 
0.1171870503522261 -0.07430743831661608 -0.04755768135784166 
0.1423644574177416 -0.1120153294141542 -0.05146859164044581 
0.04791672425091987 0.008434753995366841 -0.02684614085772135 
-0.06846918000886802 0.1503941741363604 0.06441274413596888 
0.03388584471203784 -0.06591382309528747 0.1210519401189577 
-2.33274270938533e-05 -0.003335726562207918 0.007008434736426713 
