solver_type L2R_L2LOSS_SVC_DUAL
nr_class 3
label 1 0 -1
nr_feature 310
bias 1
w
-0.07073666236205811 0.1197419208870203 -0.0472982514684211 
-0.09226724563221324 0.05487200758207748 0.02017295659865975 
-0.1363517666133441 0.1451114346047529 -0.04545488015588087 
0.001859862970691004 0.18503316512034 -0.1105902570554704 
0.05666993020866883 -0.08376559708917898 -0.0156011088354193 
-0.04504664648949224 0.04870992858075916 -0.03785713239201146 
0.02200841873553018 -0.01264749508396095 0.006290044783267522 
0.09767154654916117 -0.07242891234811351 0.0008699753693706727 
-0.06373606799819234 0.101032680749331 -0.007569927464018083 
0.01657169583862213 0.1487443316242013 -0.06914089376101613 
0.02271297154840354 -0.11515911620402 0.04376165883456099 
0.08432615917185263 -0.008889253510522766 -0.1208924282921759 
-0.01001309643579847 0.04227627233455231 -0.08820312860689246 
-0.05615268185300412 0.05004230670000997 -0.04530819474796117 
0.005283037355287332 0.09325773506647077 -0.05937611714324369 
0.005195825291064817 0.1335024883529367 -0.07815584823527225 
-0.07858114187939857 -0.04334598877813253 0.03322182220067302 
0.00778242110395964 0.1839143553098647 -0.08537738996558555 
0.07390319917748195 -0.07431555157453335 -0.02992898868213141 
0.03361351936917963 0.01558499852597408 -0.07179673961426977 
-0.008075095859080336 -0.08664308613600817 0.06263657008619447 
0.05781866345866046 -0.0009266402096541559 -0.1051516344982577 
-0.0429079295989203 -0.007941458192710088 -0.03547580437008031 
0.03275983159203259 -0.1185467940892326 0.08278518592077458 
0.1134390833797904 -0.1457305197236645 0.05129426977548067 
-0.008247810141544718 -0.05267965390280642 0.03091724769837008 
-0.01474297519647411 -0.02869665580362821 -0.003833218683220593 
0.01535064310400817 0.06013654854135309 -0.01764236376353829 
0.07354208771418795 -0.1366676238410176 -0.02433501971253609 
0.003810096615177219 0.004536937026278704 -0.03440173907175946 
0.03701207912315275 0.03856585966087333 -0.09547335201793004 
0.09998756913851786 -0.08677833018816009 -0.006349066063686077 
-0.01175071697663415 0.01287713594889779 0.05557902143595832 
0.06741227882065658 -0.004021053290570293 -0.0118797451205516 
-0.07459334483813625 0.1003124273789815 -0.004677362346138888 
0.04284429715240481 -0.02095034966560745 -0.03434628473334977 
-0.04925405180677549 -0.02985631429770143 0.05789777404606226 
0.008693881240833793 0.06566397324362878 -0.02639176146031278 
0.05833659432688067 -0.09402893867769202 0.006317427185203248 
0.113782127597146 -0.1782472295089541 0.004761419449520798 
-0.03961541188841496 0.07142546144477326 -0.0302283297910765 
0.08498622383272739 -0.002126354970405126 0.02424590711902394 
0.01609988244813461 -0.009182758610841935 -0.01004693979849752 
-0.01897340276906097 0.03366178251242804 0.05379979753082165 
-0.01782910371186668 0.1023705996738756 -0.01781314209117073 
0.01770731834808775 -0.04143499049613118 -0.006765346989231666 
-0.1052706221551392 0.02709231626119153 0.05887508477143655 
0.02281003202043641 -0.1262428108423573 0.1222124163448659 
0.07945186158733242 0.02047007786732288 -0.08721258061588015 
0.01770834485091855 -0.228684025238186 0.1567080513160682 
0.07998071893673815 -0.115676443400701 0.08612068751279149 
0.005880207644906952 -0.01389925665893532 0.03212885322152039 
-0.0187548387020431 0.05298248333758619 0.02907366532722083 
0.02224697811417092 -0.01050648259811219 0.01955765884235705 
0.03628534830733728 -0.1803844429790512 0.08810581542195088 
0.07474960668096899 -0.1511997080691941 0.077765443471076 
-0.008006311055436347 0.006738346695422009 -0.0071416451067271 
0.02071509263491747 -0.2121168891741632 0.17333909794818 
0.001282098089159038 -0.1230300577791941 0.07599285011815092 
-0.02290913063729009 -0.1487172837452571 0.1521684424854312 
-0.02412402590061146 -0.15144176458359 0.1730386840666998 
-0.0317322941174357 -0.08355508203194803 0.0903265896397448 
-0.1041432420300274 0.1606730903953455 -0.04919697258241782 
-0.09753425808243751 0.1505261409271261 -0.05578168163212437 
-0.09216476252247191 0.1447995130342384 -0.06978659934310712 
-0.07287618444888637 0.1559379526587779 -0.06297852466336432 
-0.04189460248412188 0.08845237066012591 -0.0727304909095616 
-0.08855205382521002 0.1276660066900351 -0.01536203607354584 
-0.02752371055194219 0.07319790987392115 -0.02824900043702396 
-0.04486686979599843 0.1210946270490838 -0.06397822804221595 
-0.06402479968422344 0.100536265820163 -0.03627997629735925 
-0.05922046123010582 0.1257710626935719 -0.06337749426865535 
-0.04292394638009323 0.07246369656677693 -0.03920468405022567 
-0.03732058284828113 0.06257764843275142 -0.04857541066862538 
-0.01593750455953048 0.0668171843316606 -0.07236127509466209 
-0.05240090387741624 0.0725787471581579 -0.05938170970021856 
-0.005754532574450905 0.02016601672251278 -0.01237287063923985 
-0.01665340575661541 0.02491475595173338 -0.01639288323189167 
-0.03847411320044503 0.07613851065352976 -0.03228640976738646 
-0.03020822771034348 0.09280904906533385 -0.03335621112053861 
-0.02426553522576202 0.07297145644959274 -0.04682524919907261 
-0.03417446568183449 0.02861034444901722 -0.01389271918677029 
-0.0246014715701617 0.02610785529706897 -0.01899264800070841 
-0.0274850849181277 0.03738029953000215 -0.02512124899806314 
-0.0271262187417747 0.0204042595104499 -0.02144209173778865 
0.00249958862419995 0.01025168943267821 -0.00667600383289073 
0.002641037290164574 0.001520880192561357 -0.0232819502389299 
-0.01675693066023236 0.02841568195573833 -0.01998206537818568 
-0.0007106294098455293 0.05607409778579322 -0.08181937507174102 
-0.01173698913827605 0.02665688047437494 0.02667664095147632 
0.002322890618755221 0.02529638958283827 -0.02189201981820307 
-0.02504013076523619 0.04660846418281359 -0.04390915031884551 
-0.01844540411564842 0.006193437961332757 -0.01372260740768788 
0.006577489857013018 -0.0226426610397262 -0.01167242380255876 
-0.007428139854192924 0.05866246019672842 -0.01943873386344196 
-0.003750603051234812 0.05180404334194081 -0.03293193830877592 
0.003649603625653349 0.07917896001509055 -0.06370507882961041 
0.005214740330888879 0.016472591244423 -0.01276678969397081 
0.01742140734727637 0.02129030535940533 -0.01372314734635167 
0.02583490355109096 0.01900619705871966 -0.02654458465787168 
0.01496076802802189 -0.04106727046814706 0.01223006128827131 
0.01177791515593983 -0.002147726519255495 0.003421148373650208 
-0.01092840168076131 0.01403860289215252 -0.01674847803179403 
0.09643936019763875 -0.03646619625704992 -0.07518079117224498 
0.01627144553178086 0.005822567653484682 -0.01457963051231031 
-0.004169486673299126 0.05405384407143666 -0.02723637424940323 
0.003454722781966888 0.0114277374216713 -0.00920646051288012 
-0.004241200731548063 -0.01169785955125027 0.007522957078646053 
0.01090502327419563 -0.002157201845400565 -0.02413342918595321 
0.01701348866369002 -0.02993860892973452 -0.0002071776707581324 
0.01004066303221336 -0.01087969498948639 0.002037056509219909 
0.01925930995939895 -0.04894893874610782 0.007430049243361316 
0.004060545906235656 0.02702436693582541 -0.01727897844901712 
0.002522884779296347 0.01521297959709467 -0.003243756967866744 
0.0003986988127052163 0.03454362727794916 -0.02109053621736046 
0.01047481883575001 -0.02612920174889124 -0.003400408475296227 
0.01724986814118732 -0.01323617741542342 -0.01270556476095083 
0.01291237274321024 -0.02730577287111411 0.005337785530961756 
0.01285775733841043 -0.03520445800043936 0.01221322740179093 
-0.01008538542771204 0.0107834114317316 -0.0005168510817745426 
-0.007325283228772276 0.0135111714545741 0.002308050372235437 
-0.005945406854331339 0.002196663473406287 0.004140363477513605 
-0.0002783226303436803 -0.0008285679405941903 0.001678642417168304 
-0.0095980427289288 0.01126735635581054 -0.009938988893448514 
-0.0687726983666693 0.08979794528273333 -0.007627518716408303 
-0.06535807676995899 0.07397850983121253 -0.004953274788878194 
-0.05509223817705048 0.05793293836310626 -0.005951630600026896 
-0.04125284760725972 0.05219325925175639 0.00352233646007085 
-0.02855444203038401 0.03634418774628816 -0.009447684522436536 
-0.1402677540617834 0.1657084432273494 0.03065854749713804 
-0.007677757444939207 -0.03409996367880521 0.05530500481716671 
-0.01958984218903365 0.0202823912290189 0.009182558006220615 
-0.02804129006470487 0.01025885119165385 0.01907280173536462 
-0.02383199589444615 0.03740861194393371 -0.01076675701658067 
-0.01098104222642473 -0.01337463681768073 0.01881983867706635 
-0.0144724205172406 0.005638705476537823 0.003057665130950351 
-0.02074642491450062 0.0289342082908561 -0.01883905155543747 
-0.03285572253288003 0.05057270101799542 -0.03239523801788865 
-0.007449935950512316 -0.010022734287755 0.007781507976309795 
-0.01867969427059066 -0.04791507154812799 0.04168737507741326 
-0.02698439342878268 0.0002459031080570803 0.01614471358843992 
-0.01746530176600238 -0.001809782298811739 0.007838922316101267 
-0.006909490916671823 -0.009820931465985512 0.009409136810116663 
0.003090486316915946 -0.02569717064652089 0.02325375729797977 
-0.005843724622537481 -0.01197912969159576 0.008805682798304508 
-0.00592262431340925 0.02144024883582689 -0.01986628883259039 
-0.01940837982874145 0.05436741710200904 -0.0445783426244318 
-0.01150823847810426 -0.02920791528442375 0.03703337557234447 
-0.0008799945644501362 -0.05492224007265133 0.04604484315892162 
-0.03020297990227088 -0.02636509942928619 0.03378428995644958 
-0.0315566800020872 0.09801067912546023 -0.08714017275388232 
-0.02381424366034936 0.05513190556486555 -0.001935758562610442 
0.007180093189216303 -0.02525731583724827 0.006521038261286988 
-0.01238289157979336 -0.02128763615520685 0.01146295927253571 
0.0100603771808214 -0.02253348287346633 -0.003003067481661801 
0.03593322726784393 -0.03489709636674138 -0.01755871774178366 
-0.0237392475135803 -0.04609171815045903 0.0581958399612595 
-0.01828609474158065 -0.02147993332777052 0.03555887797536524 
-0.01194453510240856 0.02063261379846665 -0.01108496113985191 
-0.01567514460004124 -0.003450933498046769 0.03012479189555097 
0.007975997587412818 -0.033571055347037 0.03109689625352448 
0.01014287610825345 -0.01024582811338766 -0.01300473405761844 
-0.01662853430271476 -0.02825812518404763 0.01799936503715023 
-0.003859911887959926 -0.01610357934806101 0.002114227271897773 
-0.01041878199889981 -0.01762432969036726 0.01812632500493279 
0.06838490565689834 -0.05722359833736532 -0.03403134349478341 
-0.02068812605245498 -0.03835608950052861 0.04845651431585689 
-0.01777781545126246 0.01215813882676255 0.01488822735014236 
-0.006856500539993032 -0.02485843934782505 0.03866465709081039 
-0.02133196676952517 -0.0005107658318560648 0.03836907571744306 
-0.008720180738163691 0.009460558330669536 0.009171180240205579 
-0.01318964859792027 0.001599879245218643 0.005519494411991106 
-0.007386653941348533 0.0137760074676191 -0.001380437340440768 
-0.003204173239065959 -0.00511192971288203 0.007799148365713967 
-0.02092127002201944 -0.03053486691082744 0.05137693275504497 
-0.02280749138928789 -0.01490304565558447 0.03824878969441502 
-0.01869114940180297 0.0004115593590454906 0.02192516452737407 
-0.0123979461509945 -0.003629448329587491 0.02003072615327333 
-0.02456954870606372 0.030359456678692 -0.0007622007164684831 
-0.02590889549007323 0.0164053024749407 0.009953383802655121 
-0.02006828768883332 0.01788939663510155 0.006013310084917722 
-0.02979751146111416 0.002638775744402291 0.01960928861137473 
-0.02982606673767582 0.005515271224950042 0.02825343527525672 
-0.03666924170125739 0.01966272073577878 0.01898801832969347 
-0.03334548622390841 0.02146798315900479 0.0124484005602115 
-0.03167846545886149 0.001709212467346328 0.02319781851085624 
-0.06165562980408549 -0.01017164933106665 0.05233046632691555 
-0.03198606221810079 -0.02951310907529391 0.04658445259497831 
-0.04086146294197554 -0.04995823181746888 0.07133600106326279 
-0.02896162623849548 -0.00882338353549857 0.03284708304412993 
-0.03288694779409706 -0.0630909119525865 0.07591837956316638 
-0.1170312905330664 0.06127619106618583 0.1192985082188486 
0.0283700142853028 -0.02191019793437969 0.07205535267820228 
0.0009211399618297216 0.01192382976354131 0.01243960774156164 
-0.01108927550208335 -0.02721427955069447 0.03839708697290222 
-0.01568222015454893 -0.01321440795646607 0.02430930050452579 
-0.006931299835239391 -0.06042497369770497 0.05669674291009834 
-0.0163819573317761 -0.02014015220806371 0.03474803739293318 
-0.02425099107192127 0.02292988634587301 0.01273843231615548 
-0.0399276558052138 0.06664485276066603 -0.02491603540492054 
-0.02036250483700329 0.0198750971668787 -0.02033718584156797 
-0.05150912133132418 0.04831245616333988 -0.00298661749100041 
-0.006349977577156645 -0.003221438486765412 0.02702919312083217 
0.009761702883604853 0.00925198243646903 -0.00520528181465566 
-0.01373225548797418 0.006473196140858094 -0.002623173595970647 
-0.01096105669397944 -0.01253372052591199 0.02321081864707781 
-0.006468828325871901 0.00550784780241988 0.003334443216096253 
-0.01677989798226827 0.06627825834944549 -0.04278339230507744 
0.009760467122346283 0.02239929876698412 -0.03859953404913478 
0.07885676914728845 -0.1266407607491043 0.02598031308000555 
0.08151698750239021 -0.09880006541532033 0.02259792594621037 
-0.004251314055755853 -0.01466741018040914 0.01881506024288195 
0.008113453095557955 0.08529827159079068 -0.08428224402530471 
-0.008504235643494215 0.006272293089790889 0.02327073784224545 
0.01296429347510502 0.01349850715659889 -0.02365350567337928 
0.01892461391510994 -0.0200961296255024 0.0001549071101939364 
0.06157272877772415 -0.00228825447814031 -0.05600905787323947 
0.1186842143325915 0.0307838822361128 -0.1213007026553372 
0.06992119181726091 -0.1363001042899163 0.06514607225503036 
-0.001391503495193639 -0.02448559444919843 0.03038349804783626 
-0.004469761740825581 0.02370289173951325 -0.008546111114077597 
-0.01385323045980628 0.00836843830141738 0.009463964554545692 
-0.001188429050274569 -0.002608173908563759 0.002298755046127618 
0.02096193242986703 0.03052865350878065 -0.04374989040103997 
0.02273220806927462 -0.005217961156951048 -0.01654552663320148 
0.04330391363924668 -0.003022984704078286 -0.02324754935465624 
0.05685932802104712 -0.00405652686243943 -0.03537218447951625 
0.1179893696499443 -0.04706167143728505 -0.09213270916062162 
-0.01500227569357147 -0.001855260658591877 0.02698141325198177 
-0.01349762282365493 0.0352242582676267 -0.02022376227448975 
-0.01957709583626716 -0.00229446873510973 0.02222037264323568 
-0.01997001626265061 0.01565543103028616 0.001268698590855003 
0.003325417683925733 0.01933708515291471 -0.006091214123029459 
0.01450346627785809 0.01340968421976213 -0.02995270717173238 
0.02587676962498444 0.04054727800835663 -0.05664655155537179 
0.05459776502358502 0.00867462947869764 -0.04621159550510628 
-0.007329152655861829 0.01467730645780197 -0.002548186331215234 
-0.02392437686130498 0.02580652250999113 0.007049341041982139 
-0.01681141412119783 0.02453879198573838 -0.005669476179337016 
-0.008236299868293891 0.008354089979893614 -0.00193782744267192 
-0.02057896021818739 0.0327809373538079 -0.00780862014893493 
-0.01468441861798538 0.04064367643101871 -0.01384932165390286 
-0.008716564936512395 0.03313840495987911 -0.01121825209128129 
0.008980170913588031 -0.01989064863984206 0.007738600585727158 
-0.007975448712014716 0.009152253062071928 0.002840305755846755 
-0.01270645306464174 0.01198189487394255 0.006719783815307389 
-0.02580017207331356 0.03587178713783339 0.004567526616953885 
-0.01163039559113576 0.004844671803568424 0.01843641740532572 
-0.04071611339854439 -0.06531131045306846 0.08720763402038825 
-0.01976220482224623 -0.082757872474 0.0771468078877746 
-0.02974202867964757 -0.06864690382395089 0.08046498927687738 
-0.01482190207424424 -0.03212246310900552 0.05488032177622252 
-0.006451459359423799 -0.1240255191612482 0.1015273273199144 
-0.1410583024823665 0.07877427509358938 0.135937027776635 
0.00956360548607455 -0.03172084567005967 0.06876857667708566 
0.007124320514879714 -0.009890175590774973 0.03741878744966027 
0.007290748697182669 -0.03879998337399149 0.04853980529420337 
0.02100157464774425 0.001535279823251621 -0.006985233731000803 
0.01461746682655811 -0.05680900647534721 0.03649379952552673 
-0.01577356241409275 -0.01165755467974323 0.02400888597886668 
-0.05494914306911496 0.1225268763861862 -0.03524570055845778 
-0.06872372080983846 0.1315747823918437 -0.05177429890060724 
-0.05284209124882844 0.09425530420817796 -0.07758342885868842 
-0.1077647648790891 0.1297281232027484 -0.06555195622776855 
-0.03386992408661565 0.03180612716685664 -0.002315472005509947 
0.01793982057037326 0.02795755819208414 -0.01878474379780555 
0.02478917897620195 -0.007676145805633383 -0.005040275601994158 
-0.02171572873445071 0.02235008490436905 0.005914307512876439 
-0.02868454188624635 0.0742951531158134 -0.03609403931178968 
-0.04173824738455368 0.1079200145415703 -0.05740041652164748 
0.01032234269318774 0.02005242593398946 -0.05574436263648089 
0.08375458624323236 -0.1442019216393467 0.03381051539438315 
0.09302026400697019 -0.1022384105000519 0.006099685081940523 
0.002355242688792538 0.01089300016455634 -0.02226452477650556 
0.02044376470025993 0.08035872698455108 -0.08589893638902057 
-0.002150241803312686 -0.01175473582882218 0.03431276598119994 
0.01987178596342834 0.0163351292176306 -0.03098126798565951 
0.0319465623312726 -0.0111496845673341 -0.03754626337353941 
0.06901164476781528 -0.05312930196039647 -0.05402171028605834 
0.1076692356177305 0.05599344840947598 -0.1493496691984538 
0.1162996398196478 -0.2907467777749323 0.1621022176294054 
0.04452184203241956 -0.04350284179993483 0.01205869220276187 
0.04015280431714841 -0.03118781190138919 0.000761316124782373 
0.01009798521277086 -0.001807960635862986 -0.002962537554128457 
0.01526395850329825 0.007464931741140053 -0.004627775667886603 
0.04334992545520073 0.01735119791962062 -0.05692387666639513 
0.06594500566840512 -0.05316828192204855 -0.03044157601364084 
0.06805883950596726 -0.01148890187972285 -0.04838749606990614 
0.108057525719396 -0.1179874410561225 -0.007690074630390591 
0.1822581188861907 -0.1493749499188979 -0.04712589979492805 
0.04180912942172375 -0.08366795187526192 0.046922723292121 
0.008775331612350199 0.01632601683075726 -0.03071670865938095 
-0.009052216274021039 0.009564452217372543 0.01331876065006966 
0.005116487860857927 -0.007320563752618806 0.006379228459337848 
0.04597492918444872 -0.002833008770201583 -0.0388976611242939 
0.06765692731375608 -0.01778863715390887 -0.05456086084067973 
0.08032322692688901 -0.0284438519925575 -0.06430359851656337 
0.1104544701228533 -0.1501565918467944 0.01269760825598862 
0.06489357290857158 -0.1279972849288671 0.04688725879267647 
0.02518444003909341 -0.05030355812166386 0.02260699850821303 
0.008916621878018061 0.02820439816675839 -0.02941415059537888 
0.01490088301399597 0.0005565023118764868 -0.004464535978389502 
0.0494924267214399 -0.06870541735301708 0.02502406935331171 
0.06889649923328289 -0.07342062662636897 0.01483840999321919 
0.08414654220291647 -0.1275716004182043 0.05377193050844159 
0.06707122709418381 -0.09204474855292559 0.0139259359113235 
0.04516688240290064 -0.07358783691034604 0.0203638889290712 
0.02199202875343892 -0.06689824216853628 0.04801343918808501 
0.02247354175422633 -0.06453832032474512 0.06222799769136977 
0.004565190154409587 -0.07409221854465099 0.09493482427437916 
0.0005890668880692587 0.006139174963846476 -0.01040176936093209 
