solver_type L2R_L2LOSS_SVC_DUAL
nr_class 3
label 1 0 -1
nr_feature 310
bias 1
w
-0.05491390323745163 0.1178934241450248 -0.04979902449552974 
-0.04445736991364458 0.1289246774143603 -0.05118461708471452 
-0.01737076142297223 0.08285904686059474 -0.05348021901522967 
-0.0581263217574142 0.1314672451689599 -0.06912441526898824 
-0.03078721035038611 0.0431595790838748 -0.02521350155792821 
-0.03041604229091823 0.07382583582398917 -0.03811135939088517 
-0.03148116695513469 0.07015867516199681 -0.03532937437185001 
-0.02735955908717227 0.05602871616915327 -0.03177309063002428 
0.03025185884463656 -0.02389736075741885 0.01125379001278851 
0.1066146487996029 -0.2725503250798794 0.1158263726800766 
0.0717033616638011 -0.04109600794501547 -0.001980150564025619 
-0.06690530566096445 0.09474996610095017 -0.05723434159591908 
-0.08756191527292527 -0.03222426720167464 0.1067381135143612 
-0.009170390997232086 0.09392427394330849 -0.07993627384926189 
0.1665576116087944 -0.09440531144216638 -0.08406788095518464 
-0.04604945758755546 0.03857629961097975 -0.003517969132369681 
-0.008039277075103326 -0.1435118897007553 0.1281762103089618 
-0.1396696205827622 0.06405787389678576 0.09754027475196042 
0.1257059707777278 -0.1046042461192015 0.05033991236805388 
0.002843737158119089 0.057562845742297 -0.05420253700538711 
-0.0819203064843826 0.110740562284911 -0.07045926562125615 
-0.05724231473433783 0.07976902414530729 0.006514952130741058 
-0.008269489757164496 0.05898235881549466 -0.05513929249380785 
0.09143422575589159 0.02231749463131867 -0.1007025068788182 
0.0935950194479644 -0.1267759513759285 0.02789517654863521 
0.1408376207700054 0.06907925837602499 -0.256880460193138 
-0.0153714478273021 0.03372616116697768 -0.02925050125532164 
-0.05431205256182348 -0.04666849429401775 0.05275787485517157 
0.1421614493134493 -0.08713822623254203 -0.01227576846073269 
0.0336283935972171 -0.1086072340641574 0.192253494170621 
-0.08012885364070287 -0.01665319997502139 0.08078642591296403 
0.134304583504737 0.07052862336345676 -0.2100706110133552 
0.1204497109820534 0.02366902341895871 -0.1606918363903496 
-0.0322143240925083 0.01713648170667607 -0.004356890516134476 
0.01911824892803994 -0.1092024363977682 0.03429073220697666 
0.04150455747781592 -0.03648114474028419 -0.04430057082228069 
0.02663007896062858 -0.1910611537780889 0.2470070772942032 
0.03062588204030545 -0.01872575073104223 -0.01220699477128325 
-0.07259381937576372 -0.02015780567451139 0.06391206525587691 
0.00300764075703983 -0.03272165069538643 -0.0005887581762016847 
0.04406135870423258 0.00669712612462077 -0.01625704416097917 
-0.01640792223388036 0.01406282434315398 -0.01226119207533617 
0.07059056534422099 0.006220784148818159 -0.1015019310335477 
0.06218903519064133 -0.01692839233331806 -0.02771847325119663 
-0.01926592418663432 -0.05826153614958866 0.06023265533261292 
-0.1475889004931268 -0.02668569730175636 0.1240518927380617 
-0.008167277658153293 -0.05378127030572582 0.06533152436035013 
-0.09639835507234232 0.01925893100599731 0.03863993966339865 
0.05673845936524467 0.01276737304388386 -0.07059919369284738 
-0.04750321782723761 0.04045033013323326 0.02274079941024069 
-0.02949407807491109 0.02494225555261683 0.01434492929534969 
-0.03158530905851868 0.0271312347687755 0.01092347590870713 
-0.05381625509502794 0.01325659619415702 0.08128881824012758 
-0.1839099777841018 -0.02508821618536718 0.1336203172915468 
-0.0119920770231568 -0.006519564408354113 -0.008945258878247495 
-0.0662212522976126 -0.01009629933676169 0.06446194581257678 
-0.002905370316925029 0.1137025666748459 -0.08813151282910497 
0.01943689253010317 -0.01059268358957067 0.01045515749121801 
-0.0555175385898876 0.01704836741805174 0.07892160997190288 
-0.04716832265991341 0.03273468564075074 -0.007277720552448922 
-0.07158421150971711 -0.005734366450700827 0.06702520158299211 
-0.01868044939213316 -0.02229026006910332 -0.005101826764094301 
-0.01797009875806387 0.02715877153075183 -0.01347598956306439 
0.0002109224321252777 0.02398763090566776 -0.02966392829521109 
-0.002637208540500143 0.03981225771254996 -0.03435529515923397 
-0.02542272383967781 0.01908253047074285 0.001781798159495302 
-0.006470909524251217 0.02208809135337689 -0.01334401202235255 
-0.02460729881696861 0.0426407744899357 -0.01653957742475644 
-0.02381784866724176 0.0372920820139961 -0.01227346070342103 
-0.02322592226321929 0.04084973887234105 -0.01622292675352727 
-0.0002190319718378051 0.005995846513743885 -0.008679721510105334 
0.003595348930383356 -0.0338950468176658 0.01648985626951115 
-0.008469697813287703 -0.007339257131613024 0.01353402751122715 
-0.005416215118605256 0.0006392100869250607 0.007894131293790121 
-0.008207308052349977 0.006875499600375455 0.002405012001281673 
-0.007741781840905643 0.01858603218418033 -0.0009677847484043492 
-0.005922593605611946 0.01820790129271954 -0.01313091577120197 
-0.03217370269456202 0.03902951533048083 -0.0101241141927902 
-0.02244684284535734 0.02267007447037065 -0.01519653883177585 
-0.01626771989769277 0.003866442739948813 -0.006038146453320812 
0.02005871602884209 -0.03688551901170197 -0.00192019951686888 
0.003471408768629659 -0.04430978093355435 0.03119095607355679 
-0.0194866452942097 -0.003513901955982055 0.03224900086152668 
-0.006162608989436802 -0.001205767798383689 0.01669898425045466 
-0.01127977930035042 0.004181135210807214 0.01223020940458729 
0.02079828540443103 -0.03111119238852122 0.02083962739685201 
-0.002612117390566957 -0.01523962707730557 0.02094038341628389 
-0.0187258093390712 0.002389374915202216 -0.0006353406515805342 
-0.01466042430478943 0.04284882131409035 -0.03980834732122396 
0.009269800240177968 -0.0195517016446085 0.01072608405121792 
-0.006736516145402255 -0.002538527364766357 0.007574097072014467 
-0.002558680453497825 0.01312237185045985 -0.005449226544909042 
-0.01043699858311949 0.01212230528340381 -0.003049084973514215 
0.004742011466774753 -0.0271266398989902 0.01013316630338319 
0.008587700273604297 -0.04269709853214108 0.03009356341752227 
-0.007726234163315785 -0.01273446345641416 0.02142585327277802 
-0.01376751182196475 -0.0005067171482663581 0.02138434076108753 
0.01763557675486633 -0.01255291422289017 -0.007905300649010572 
0.03186443384023575 -0.009256445666473802 -0.02459491412409859 
-0.01627788666533205 0.03221809179677338 -0.04502408450660989 
-0.005823590084741814 0.01857845530561608 -0.02759419410217391 
0.02610092283085921 0.008844110628813826 -0.02685974279827637 
-0.0003803598841738366 -0.02361003779060131 0.01049522104380354 
-0.01463252416678428 -0.04301674718630961 0.05429675307743569 
-0.004530649775918896 -0.04060223965356184 0.04285651029429728 
-0.01987966173746028 -0.01723132053423035 0.05623515778089167 
0.0004463133640184033 -0.06168738460993264 0.07304810498003216 
0.01347825377208252 -0.0375086803292788 0.0259696103640361 
0.01047439778960441 -0.06924757813560412 0.04251097653382589 
0.02404840690962105 -0.04343987416370026 0.002402915371187507 
0.01419269771775082 -0.02880281404471108 -0.004723786290149723 
0.01912986817698309 -0.04632664142976662 0.01224724693041907 
-0.01961948271154072 -0.0454647358815351 0.0635095358653377 
-0.02315160184765246 -0.04601893492870253 0.06771345515532716 
-0.01808270065981597 -0.03160657066291134 0.04676164928752594 
0.004409107031416474 -0.03860641095989594 0.02828050269166778 
-0.005258809182533093 -0.02589747354619737 0.02443654780648029 
-0.0003757374576536612 -0.03489512149402665 0.02222494073686466 
-0.001052458420512901 -0.04988568924914436 0.02903464033593239 
-0.01625293652814602 -0.0352219918091141 0.0473743974577153 
-0.0193595000305427 -0.03271298664778076 0.0473997691705109 
-0.009839612552779943 -0.03956116446108161 0.04045785002937823 
-0.005062860747645023 -0.03240704779205319 0.02919636541674395 
-0.01974065493505816 -0.03279251629420413 0.04468837161020779 
-0.01360146658990344 0.00334310168967641 0.01500491804646314 
-0.007906718331437556 -0.00171992845160526 0.01027223522588738 
-0.006693677982796168 -0.001046549257758683 0.007726542013783192 
-0.009629291223931165 0.006448288755417964 0.0115642170923007 
-0.009666039362726241 -0.008016520690091745 0.01532582627680448 
-0.003256807429570088 0.03259827672439855 -0.01878359303285373 
-0.004485240154319228 0.02851434826204553 -0.0156266367144982 
-0.006739730927365823 0.03184676351034053 -0.0168501847989372 
-0.02373978767499327 0.03285731351885782 -0.004889217411309358 
0.008776208745539952 -0.01731575017957276 0.01663551223061934 
-0.007608908353079188 -0.008519106325650616 0.02481772491007562 
-0.005895455362456139 -0.008736052014988135 0.02304000398346603 
0.009466257366026937 -0.005715509985674545 0.008247267348515681 
0.01566702044680828 -0.02338276257142637 0.01103562160883514 
-0.01311560933357278 0.02559573535104475 0.008239368672609694 
-0.002609789901390145 0.02657711718231574 -0.02224141956982458 
-0.03094809429791643 0.0109221586597566 0.03150543254195703 
-5.300339938639858e-05 -0.005940475161923522 0.02404303359505225 
0.02232888081276018 -0.0240172232743762 0.01483779035704222 
0.008137653898847181 -0.01708059426482705 0.01452110553535798 
-0.002868412563881545 0.0002616053498501726 0.00608580342507088 
0.008218711064712298 -0.01815950202427817 0.02213453913883365 
0.007620354675984552 -0.01714978496273767 0.01564913470804685 
0.05551753181072991 -0.01160229411307299 -0.02974758832897093 
-0.006137208699206951 -0.001495524140347453 0.02304089642040999 
-0.0006752509024837225 -0.0001371919835519407 0.002585523984953952 
-0.01424389092940347 0.02869011174106896 -0.01409309469811259 
0.02378265159791209 0.006667283007444956 -0.02015556776404209 
0.006187440296609531 0.006400848187643527 -0.01246895532888564 
-0.008448277941924614 0.009783973149833085 -0.007325654194870372 
-0.006563792414937672 0.02025791168749418 -0.02556809070869996 
0.02902445165678561 -0.02491232300042198 -0.009043111448675593 
0.02422784960993415 -0.004516092086697547 -0.01543069447789938 
0.006387844740840572 -0.009022663735901824 0.003328384701152892 
0.01382466810888519 0.02780567580930845 -0.03826965757063583 
0.01433305205687385 0.01677271830709183 -0.0536167432895136 
0.003785493134206379 0.013466733065576 -0.02629694960664238 
0.01612273976226728 -0.003378147591153712 -0.002361382664275962 
0.01143248959025473 0.04007398389182119 -0.04443417080267787 
0.01715606902439101 0.02000094503265344 -0.04161764546224991 
0.002551098476052008 0.005951941890502323 -0.02982128237174076 
-0.00778985119806661 -0.0001945314232798695 0.0003032310202743709 
0.01675206919975445 0.01365382744541321 -0.03312051599390602 
0.02363925451480289 0.003900223483930545 -0.03384210696408779 
0.03998659778729183 -0.05410522360373852 -0.006424648298915787 
0.008776612340575227 -0.04469091260300976 0.0245445648612821 
0.005599904935574772 -0.0201235461141813 0.01410933341514348 
0.01666195340504169 0.00184146106602741 -0.02046199695842459 
0.04022546123702333 -0.02210537523271532 -0.02073077619851506 
0.01519281436400321 0.002399217150365582 -0.04115039781125443 
0.02575462803179943 -0.01657973461869118 -0.01749843222307025 
0.0266215141338229 -0.02255588325014693 -0.01445769646530577 
0.03405117879099501 -0.02416890040246488 -0.02715902657521389 
0.01785549376763023 -0.02454631115384258 -0.005168405084926416 
0.03153247845657395 -0.02672363204094889 -0.01170922822288741 
0.05125699467596817 -0.03695286399721227 -0.005263761229945502 
0.04739899079354271 -0.02155529369531872 -0.05572407119400662 
0.01051003342717498 -0.01468914686231816 -0.003309468474050848 
0.03226621439810917 -0.02350929473314082 -0.02717068467867989 
0.01862923028698392 -0.02651252395550536 -0.0231800034492586 
0.02382265355461308 -0.02541123217322372 -0.02961178569528944 
0.02226553914756191 -0.025410179236584 -0.01875871174419047 
-0.03519706737879862 -0.005506107710314835 0.03235060782045143 
-0.0176190722509435 -0.0129324611324177 0.02406284036821165 
-0.02187585967817023 -0.01899163642574592 0.03456593788485583 
-0.01537502079577781 -0.005270620280395834 0.01476821632099395 
-0.01886091158110377 -0.01173619175456558 0.01704474107128401 
-0.02037646831080163 0.02215168553466112 0.005830892797603646 
-0.01877330142858748 0.01754039592936447 0.009762252590220639 
-0.01737816963646747 0.01893727859416497 0.005743804095911394 
0.003303635273428216 -0.001034566808895112 -0.01235467439304082 
0.005929306443868342 0.001602167626980388 -0.008988717292583496 
-0.01684135452227652 0.02652452619029835 -0.02001772871660008 
-0.0339766259527303 0.05313896832338412 -0.03386625119514129 
0.02423641553772329 0.06450410815588133 -0.09765334649386438 
0.1183058053721846 -0.1218592039885 -0.02814276859134846 
0.0322828658540241 0.03688082059544464 -0.05335325125652041 
0.05766145179742286 0.03769172607880023 -0.06622453995573276 
-0.01876211066524746 0.0324345260618769 0.007642039664606162 
-0.008820749607712185 -0.00450343610592532 0.01670027506197895 
0.01060298966726658 0.003425697161361839 -0.01748852405750799 
-0.02026009777871391 0.02465847603447874 -0.02524037879716922 
-0.02085889295858672 0.008105922991777117 -0.001701445357112867 
-0.0002260789867805405 -0.04508024611232046 0.03604669288132166 
0.08891814983466972 -0.01908454120350413 -0.09250806536200214 
0.1468288649448721 -0.1183666758492299 0.01145159426522444 
0.01098315778524541 -0.07281807877056665 0.06346451790895434 
-0.01114442511897784 0.006075473579883593 0.003194995936464897 
-0.0217406480014239 0.01962437225790718 -0.007143227320816363 
-0.001461059457020733 -0.004663150229310201 -0.006158658625640334 
-0.02881345307782317 0.01909674577954232 -0.005341291224037764 
-0.03123901539659132 0.01929044729351457 0.004032059417676428 
-0.01057736231176847 0.007737322358498498 0.003251697338974003 
0.06067268460560187 0.05736210152701977 -0.1337062738244657 
0.1379629621543297 -0.1253413798227887 0.01776338390371534 
0.04062230973555339 -0.05820098542834095 0.01724318785006705 
-0.01819509255258723 0.003215627346955635 0.004422973562650278 
-0.02249392670928523 0.04080542541676031 -0.03091337541258213 
0.01359231060214802 -0.01527852128804775 1.089344748134736e-05 
-0.003739674395625275 0.01212342414133924 -0.01107684652366024 
-0.02573031682235581 0.008853977754042201 0.02692376060585468 
-0.01554734580119219 0.01871884091792435 0.004380177833122532 
-0.135426847960407 0.2198995074685107 -0.07300906105806577 
-0.04947043416092339 -0.04178837139348909 0.09604499836722714 
-0.002330060690599748 -0.01885236854816835 0.01914589147848072 
0.0005934867258344969 0.0270967471774229 -0.02062229048266246 
0.00438169006989138 0.02466227333525976 -0.0347697350249821 
0.01024946446864431 0.005208379843432124 -0.01484166732341154 
-0.007753570498841545 0.02083608466689722 -0.001537858416990556 
-0.01415928567133243 0.01116482304428714 0.01750046684815073 
-0.00758662773568014 0.05079033325915429 -0.04336939761475574 
-0.03543894320716375 0.1020168290330083 -0.06651059686625768 
-0.009208178342244293 -0.0247639798080782 0.04375997900138961 
-0.007517203774116156 -0.03197973176936428 0.04944958018225943 
0.01580993029882679 0.02736221671898393 -0.03902500991123586 
0.01447995498927632 0.005697675166127282 -0.01907533288439596 
-0.004496776680188591 -0.02137189179736342 0.04077579087361317 
-0.0008808921364163262 -0.04999314096016683 0.07296733666081459 
0.04357821115562353 0.04086355797317585 -0.0924598030171551 
-0.002785079152277175 0.04422855547995586 -0.0290003670447955 
0.01376397269388767 0.02622366281509968 -0.03689164124157179 
0.01379194721792527 0.004895529305095805 -0.01597682548010057 
0.03968966112099008 0.001049430897993572 -0.04210171064447573 
0.03318488785893388 -0.003966563660084786 -0.02160202943580679 
-0.09511392933614096 -0.01906668801303962 0.09211203898633694 
-0.04654984914375385 -0.06325933830450575 0.09096536038126159 
-0.0603158486396364 -0.06078155772247217 0.111470438334532 
-0.04032865549373495 -0.01498022256648881 0.04493866162270727 
-0.06079997671813857 -0.001293585291117252 0.04171836313256992 
-0.05300606031870705 0.08604954966937556 -0.01294099075834454 
-0.04894294910089535 0.08600084055879986 -0.01454543397132581 
-0.04601243795873031 0.0831568817806554 -0.01549546374534901 
0.006209490608036915 0.00460282221256837 -0.006707003002689442 
0.004766180892901285 -0.005499758040943168 0.00830910730675866 
-0.05396129895535815 0.08946492588943859 -0.04165178057175203 
-0.07148705482041806 0.1596126496661375 -0.08898767472601764 
0.001656658018710673 0.1303948358627699 -0.1358959240826711 
0.1059198449477785 -0.1401061190787503 -0.02228738840761795 
0.03571982797712462 0.07586005847464493 -0.08254127550824833 
0.06776033262162495 0.07984800667845478 -0.1070912136803777 
-0.003722592120019756 0.09006591895023533 -0.0502228820103675 
-0.002626482938270613 0.03287529097231048 -0.01559546522283111 
0.019131235854288 -0.0002738365897336434 -0.006596650564969674 
-0.03923317199943785 0.0541938899480852 -0.01649342738118912 
-0.04764849054295679 0.01143715589145024 0.01626025040737612 
-0.01988767675060185 -0.06596249280414743 0.07226384477215933 
0.1247677704909064 -0.07473820014899941 -0.08277769674664526 
0.1845925434286091 -0.1412515586002341 -0.004311790601212461 
-0.01290305294657835 -0.09408513336277166 0.1155396550594733 
-0.02202773732815988 0.0276917843767446 0.007795525186739045 
-0.01753158204786066 0.05170466154292429 -0.03319964531080623 
0.005037776071367283 -0.00335488536508201 -0.007256563829761848 
-0.03372554723926748 0.01401801468352555 0.01408908080581005 
-0.04891895229646134 0.004773307876061366 0.04565250060309181 
-0.01856041038994056 0.002234385778333777 0.01932072452754421 
0.04676241156104929 0.1131430815726704 -0.1855178327322456 
0.1567059578510643 -0.1678609019692554 0.05070325507021485 
0.0435895780181924 -0.1072831214926769 0.05891771360709118 
-0.04512683816500069 -0.02469980920585394 0.06429531560002165 
-0.02098622987985452 -0.002590533997021118 0.01527889657094212 
0.02920253442583173 -0.006552618981046485 -0.01776059761029202 
-0.01396228547172926 0.01952173918627573 -0.00462039828410767 
-0.0429105090730498 -0.03584365598728706 0.09437627661638635 
-0.02737820473072946 0.002342161399426177 0.04730484460254301 
-0.2007962286702407 0.2396122940206573 -0.01536793009080312 
-0.05239570578689615 -0.07396412257410007 0.1411631203827017 
-0.01328111005971263 -0.06455633000103392 0.06478631292436893 
-0.006115990042878871 -0.02539478931990411 0.04011931438418632 
0.0177081920294748 0.01164970142028953 -0.0174474533812808 
0.03397158486592289 -0.004917316316466607 -0.02600529862535123 
0.0059016791327852 0.01495311971281563 -0.02199147576444794 
-0.03323971529329982 -0.02945913381120473 0.09349867846888912 
-0.002201334032255898 0.05850821475118275 -0.03084294217826578 
-0.05102712803605833 0.1444653374271126 -0.06019801278762885 
-0.007270854866290513 -0.08708663035953253 0.1144533677345275 
-0.004250738229538264 -0.09657558578560511 0.1218365077605091 
0.037834799250389 0.0400996327152827 -0.05734633392215369 
0.03689417881679161 0.01188380326324636 -0.02895819910707683 
-0.01475427821172274 -0.09012256539192502 0.1373106149157471 
-0.004682842906529022 -0.1259321581446311 0.1666070397011686 
0.04754252837517397 0.09391377864030999 -0.1343385202384575 
0.01640868937959967 0.07974177652093373 -0.06610904039534454 
0.04153871873157018 0.04072692586374175 -0.06053867170752881 
0.03436943278312804 0.03126685421664637 -0.04535276796012033 
0.06068213009452326 0.03384850349927727 -0.08370707247798131 
0.05040330425120781 0.02275766524240737 -0.06204289579154307 
0.003915729722606119 -0.004039477831993995 -0.005679106127810573 
