solver_type L2R_L2LOSS_SVC_DUAL
nr_class 3
label 1 0 -1
nr_feature 310
bias 1
w
-0.008733170654084377 0.07702139326108952 -0.07229856785189087 
-0.01172138779005901 0.04991304959638933 -0.04675650969211446 
-0.01399376378156322 0.0923225923152013 -0.09220652982114956 
-0.01203570127392805 0.09700425548164082 -0.1108104461011243 
-0.01224657016050029 -0.003540948323299744 0.01899854788441043 
0.004487640946062938 0.1152054390867199 -0.1062780775667431 
-0.02755550401697591 0.005510668197278276 0.02330862952666727 
-0.01379588711687364 0.07212857851971968 -0.08873578767052863 
-0.01409457886800959 0.03012683080429834 -0.02750759916075993 
-0.01478600860228614 0.02121426355543862 -0.05254600498999887 
-0.004743561067931302 0.09458574709764173 -0.1044543995397537 
-0.01141046243869093 0.0339308218527527 -0.0146827933481623 
0.01115041536954971 0.04839728700132465 -0.07942750466448779 
0.01264387504672603 0.03021474511331079 -0.05068525166601349 
0.005326192089518901 -0.0118789079055029 0.02237338264066662 
0.007009518474495694 -0.008418388819913511 -0.01914503848823042 
0.00368568132517047 0.01972562917839542 -0.03877136307383811 
-0.01145957294417254 -0.01791783569187477 0.03719663149019748 
-0.01723979915610658 0.03384657209522118 0.01260053381124896 
-0.01258365140404691 -0.02622472188428267 0.09059488588557721 
-0.00854693110384112 -0.1170277316459707 0.1664447745939384 
0.007377315152219114 -0.02611774555060985 0.01843293090922722 
0.02607375971499302 -0.01806769396523946 -0.03369931310790525 
0.00851871081386546 0.00317112222016081 -0.0002044586711553804 
0.00424307864350702 -0.05665800211721771 0.06849806083900324 
-0.0002832722978886878 0.06365404570117056 -0.1095717685154286 
-0.005442192446763546 -0.04144049455548105 0.05042968172507255 
-0.02386427172099986 0.02039474493177243 0.01837706627481757 
0.02920878622051137 0.02177901143865025 -0.1875338353687305 
0.01339294551590944 -0.1764518156238717 0.2078547113847214 
0.0192297559895231 0.02072721512709232 -0.04237172364077094 
0.03646185125619551 -0.0349189507969833 -0.09200149893869176 
0.004287094277577418 0.05559680445008691 -0.07834956351786576 
-0.001840054741698812 -0.0064071582761906 -0.001364258299157722 
-0.00748155119775295 -0.03480290816164579 0.02732022116453594 
-0.0125130953536268 -0.05780212663869227 0.09106573713054325 
-0.01402459636050911 -0.07949754752184916 0.1173621112394693 
-0.007859124515544297 -0.09683109773135962 0.1177944115619247 
-0.002001946837237709 -0.06685567308779138 0.1491263379430581 
0.01095343574460399 -0.02347302716875779 -0.01085123163772337 
0.006418171521228777 0.02664730435480199 -0.04850328169689486 
0.007191536418722395 0.05877884313270115 -0.06411707035568706 
-0.02791937712328588 -0.04729323382603236 0.1241684426793345 
-0.002390275335879504 -0.03641398164166258 0.04281760455584289 
0.002171904471209921 -0.03337951568249743 0.001687973588979411 
0.002330915954521087 0.01959356244316421 -0.04949882597406902 
-0.01380402388309365 -0.09478563263911584 0.1229728115069091 
-0.02849858940454594 -0.07376011865309842 0.1038197728137774 
-0.0003655632492121586 0.02007715370234404 -0.030395186367929 
-0.009171447224706248 0.01697253961690151 0.0008552898082376743 
-0.01163371651718903 0.007670849081502122 0.05125713596516031 
-0.01455170009315944 0.03242995185544671 0.04091539836229855 
-0.01102463321268387 -0.02836302991092925 0.06132148797063855 
-0.009304283699108604 -0.007369637606309745 0.0009500486883683596 
-0.02322647978893002 0.01667064916268159 0.03755354403870909 
-0.02359460876483817 0.01763887611904696 0.03801537427012597 
-0.01606670754475561 0.02717572392766946 0.0155214297020203 
-0.009223688833060247 0.04436684635311519 -0.009051024100950848 
-0.02066766620779759 0.008874115447198211 0.06032265733647118 
-0.0131749209199082 0.02631046580752864 0.005822041112430966 
-0.003618362767441161 0.05032616754048354 -0.04871189478383015 
-0.004628496105669705 0.01457754277381393 0.02425610414590787 
-0.01197376654281056 -0.03066339920098771 0.06167722519296838 
-0.01203053176578614 -0.02210198353991242 0.05472793691195774 
-0.0119220180673253 -0.01878153591351829 0.05199143409960409 
-0.01069186834798494 -0.01492269485519398 0.03633024436472519 
0.001505855106590883 -0.04132739534306084 0.07120241008008567 
-0.0220803257276634 0.05724546055479513 -0.04768326468071537 
-0.02837924378577667 -0.04365593198793745 0.04277581333205056 
-0.009152841420931269 0.001616769994863744 -0.01188850139535303 
-0.002858785726010251 -0.00558476802241649 0.01047746860194539 
-0.002530380465658649 -0.004868869851251294 0.01581869334053205 
-0.0036199903891964 0.000828379028311648 0.01963857402172498 
-0.003734583155040795 0.005387273791851606 0.01815215427034707 
0.004866217531519637 -0.01438020480711445 0.02799272701087416 
0.01434097896828563 -5.035376698619454e-05 -0.01803921160136372 
0.01328731796839228 0.004708521415882819 -0.03082370930700737 
0.007597305896243863 0.002247654697230707 -0.02019568054523642 
0.00383032861741518 0.004341384724611182 -0.02146183782593287 
0.001413456498021939 -0.006588950815459406 0.005437688545695577 
-0.0005298068758355892 -0.01353084235289542 0.02788209240352042 
-0.0006317468326981552 -0.007860158192792429 0.02422261088816595 
0.00229773750413654 -0.01577490558039825 0.03053257185424771 
0.01273849033937499 -0.01794146051503565 0.008003089073554211 
0.01972750273924084 -0.01294046165610959 -0.0154147138654069 
0.02006220451327398 -0.003610934802149727 -0.03592101510915493 
0.01278850624670513 -0.004647091378794176 -0.02855649696667724 
0.01171588374110413 0.01275325984443746 -0.04974043893023855 
0.006978616488261324 0.01503171597787558 -0.03874068501929441 
-0.002262956472102807 -0.005685910321437429 0.01124586564984787 
0.006378233962370969 -0.002201278400144313 -0.00130276499302437 
0.002715580205177453 -0.01633764087164888 0.02869986584885931 
0.01055444665052246 -0.0119982618233374 0.001828543458009627 
0.01581272503288679 -0.005665392424271586 -0.01713864315204542 
0.006800228333820745 -0.01507070485855497 0.005874399761288091 
0.006045561169735629 -0.007714745217263963 0.006487794270429057 
0.007309783005304286 -0.00605694302304934 -0.002463344352487547 
0.006878067888841686 -0.0086189366032694 -0.003169864220564196 
0.0083868737623048 -0.001848445308422659 -0.01387423520911667 
0.006461372212159011 0.01904230542746584 -0.03648346138437482 
0.004857549568088522 0.001324119840008797 -0.01655635457421066 
0.007698821663896914 -0.005568707873961204 -0.0007989260449103301 
0.009429207357544694 -0.003794054147019664 -0.003763998663757569 
0.004123114709890742 -0.01593071783154877 0.009670096066670368 
0.006080854267281791 -0.009665839458179813 0.01351756369251613 
0.01038440554589032 -0.007882825589200842 0.0008873897598874255 
0.01223372845363495 -0.02198606909934246 0.0008733905552655068 
0.008504616860053374 -0.03127728133086839 0.01472004115703649 
0.006728597699621785 -0.02466007220376353 0.0101645436352646 
0.006798897272867982 -0.009135868679382025 -0.006163447923920666 
0.007633726837517513 0.0008231659458967036 -0.01372638735140631 
0.009527780567817279 0.001561312305775801 -0.01031611353782749 
0.007548798428202959 -0.01995917218819098 0.008977709341743627 
0.009540098789497383 -0.01496894276702097 0.004401323961158781 
0.01384865888875937 -0.01299075225691964 -0.008864221998377546 
0.009392666011849415 -0.03018930987517594 0.01174359600314588 
0.01026837511452739 -0.01350510307663809 -0.01210888202841527 
0.01020890144441269 -0.01285367771875422 -0.01199558949596502 
0.01058491551559697 -0.005542080436066429 -0.02302408398852096 
0.003466735242208826 -0.01358371142582309 0.01020426916028382 
0.008356818994933009 -0.009261934341784656 -0.001991158116562018 
0.006677437375497143 -0.01252131662462578 0.0002794676798108095 
0.006974115820167413 -0.008331636306100072 -0.01227036473398857 
0.003365811675168589 -0.01493137574498572 0.01002043331930782 
-0.01308570267843333 -0.04217092659717209 0.07181138783122611 
-0.01108040649863214 -0.03746801986896729 0.06395526199408702 
-0.01111533368232021 -0.03431811317334785 0.06316401541476326 
-0.01419198426444508 -0.02145489164305008 0.05125794780756802 
0.01389085679389574 -0.0004843732214234977 -0.0665692831966236 
-0.03509638993670447 -0.003086905444428646 -0.03114220826094082 
-0.05668918411277732 0.01192946460868952 -0.01915846866915214 
-0.00610765657009066 0.02854883182280127 -0.04103227763038948 
-0.01251811173995905 -0.012366907892782 0.02898189098613924 
-0.01345673866184191 -0.01655635346833388 0.03730568636560062 
-0.01241850024696349 -0.01706167032524031 0.03366498086845592 
-0.009162302852040029 -0.01572160393892811 0.02399327377277639 
-0.003483967683027429 -0.02007352850275162 0.03318994073746476 
0.00186132915444044 -0.02153313811820556 0.01945603570543929 
0.004980685057241601 0.0026091873936294 -0.0126313958317066 
-0.003528720550471 0.006901081636582732 -0.001145529199358164 
-0.01091925621569923 0.01228836232002273 -0.002042864366121319 
-0.01481530331059832 -0.005357613836862983 0.02796384246346342 
-0.01285803344648381 -0.00496840656895265 0.02412724945268195 
-0.006158713562804368 -0.007499313453286839 0.009893429571361342 
-0.01181485964398826 -0.02233054434300153 0.0333921124760646 
-0.004605236043284448 -0.01907297898962803 0.02301386046613741 
0.002146082603821644 -0.01049411716680102 0.01078063893498384 
0.03382976663400215 0.004738241467740397 -0.07710059072128972 
0.00612957445667866 0.02761586932659487 -0.04404406508729732 
-0.004577905124008739 0.03155325572176843 -0.02745000815987746 
-0.01583818555813266 0.02551280534523103 -0.0108117805551979 
-0.01045114741156503 0.02117511077746851 -0.008821235337815351 
-0.01814296233752694 0.01091734019918537 -0.001672214361248778 
-0.0253701440433481 -0.01220320638660342 0.03941187971028062 
-0.004550423111647344 -0.006624224877764645 0.006734374536188673 
0.01258172395178183 -0.03114860689412344 0.01432193645089182 
0.009156992476096984 0.03053870967943233 -0.05163254990962798 
0.001271477801758307 0.03562891449177501 -0.04195509323294005 
-0.001199847613367235 0.04246035463150759 -0.03191422143332862 
4.057857468283028e-05 0.05531299795172206 -0.05084710428454429 
0.0005396883754718076 0.04186645400083602 -0.04080530638741713 
-0.02354059820068353 0.01320093352562192 0.01582042774671707 
-0.01908801096815426 0.01287665407826049 0.0009724212187584769 
-0.01195176019808378 0.00989763943419705 0.008602982303426489 
-0.001830674510755781 0.01718440470684772 -0.01678669156541998 
0.003181049517458056 0.03359954622025101 -0.04576462005125048 
0.0006180370621431581 0.03658040446961334 -0.04139856878525786 
0.002817824214329585 0.04579967958102853 -0.05575568967513226 
0.005401304836630667 0.04638982981220215 -0.06331021337757267 
0.001749725922929026 0.02427251282498955 -0.03167153819557215 
-0.004257397777565403 0.01882686135595094 -0.02541372477516012 
-0.003103564165789638 0.02313494895695306 -0.03250830959315486 
-0.004104689266762055 0.0292869630941469 -0.03454188640711983 
-0.003069960875260129 0.0287052687454555 -0.03158672910776193 
0.00138963099083102 0.03486678920126615 -0.04578473239245428 
0.0005525193531101731 0.03996127836244605 -0.045265747746555 
0.002150363842818638 0.03699879265741619 -0.04901961920577839 
0.0008535297179590208 0.02577225137751174 -0.04934766069880515 
0.0002343680136869517 0.020394207375965 -0.03158810678297547 
0.0001415936538269727 0.02052884348466661 -0.03245586160583848 
0.001418898223585969 0.01579767640074297 -0.03868585908496825 
0.002357576595825819 0.02538332902153026 -0.03559345960094112 
0.0009994682345826817 0.03201877659939692 -0.04686376596335819 
0.002900221192700476 0.02572416896099217 -0.04604468549446874 
0.0008387266702392146 0.01781263630858087 -0.03360057626317582 
0.003501830058629151 0.007483251160270155 -0.01634805931533822 
-0.01157711995369334 -0.02803969910577063 0.07633917180235079 
-0.01340105215324802 0.002023711772513192 0.03751414049648377 
-0.01539165068137801 -0.0393346626947703 0.08793437529700367 
-0.004921933090890867 0.01265911018959586 0.01458965648818894 
0.003755964648878625 -0.07149784097761994 0.08267806376880518 
-0.05028038178713994 -0.01177604114644862 0.02670066736720822 
-0.03177327747092307 -0.04365727893598279 0.06414932113826689 
0.006228052978343214 -0.01577514280807677 0.03246654569163727 
-0.0003668332249936303 0.03913684418255266 -0.02806145786621971 
-0.002028265858399688 0.04751457713553171 -0.0444940255116396 
-0.006668328553361011 0.0296252223692732 -0.02168958771307328 
-0.01323745475779593 0.01500426098088869 0.003460160126916742 
-0.009332980286672638 0.01787758639957305 0.001290661240724189 
-0.01190227337193047 0.03328831456971844 -0.01188364363422325 
0.01060326099842008 -0.002439958921985572 0.009349765908625476 
0.01441002112706477 -0.0003571295080360027 0.004252292363765886 
0.001673004807792981 0.01959223502730041 0.001488420881547116 
-0.001132473322614654 0.04072859830606781 -0.02557576446765917 
-0.001448860683527847 0.05349847845448367 -0.05105556161470117 
-0.009002374865314456 0.02842748270338914 -0.01506243240426424 
0.002781056423932338 0.02083264657631093 -0.02529598600037806 
0.02663313870897169 0.02043097276163094 -0.06972231421912567 
-0.01026654878627631 0.02253160029011637 0.03478634558889487 
0.1193751466428773 -0.04463320253726624 -0.180530124160228 
0.0443054915937558 -0.008956950038772069 -0.06221983525370265 
0.002942303473657714 0.01108024340439093 0.008843548062651942 
-0.006083050838836338 0.03861397515894668 -0.004899655109190073 
-0.001428747507395608 0.06949799245255663 -0.07689690859140899 
-0.007204830726100817 0.02460474492366606 0.002072574650119064 
0.002807551861563126 0.01279998019745403 -0.003292998411114405 
0.04779948290387191 0.006893499488481083 -0.09719518847143049 
0.08577921555144051 -0.07336700641193948 -0.05174944247014126 
0.03517078729310651 0.01093087750920437 -0.1036029811419358 
-0.006100068463841514 0.01661250924584827 -0.01111132092658211 
-0.005687347772200993 0.02089078635525079 -0.004157310285328218 
-0.006279269551847186 0.0346104932658715 -0.02458048879568259 
0.001608258235340184 0.06782254686064559 -0.08488934148219039 
-0.01071747726084221 0.04590147381505912 -0.00996149057224599 
-0.01149331757362088 0.02503298069402785 0.01251427965778549 
-0.01062028071529299 0.0124677133684757 0.02915699882804676 
0.01387741654270129 -0.02569924529329784 0.008728236995912925 
0.003418001216862276 0.02609066430652138 -0.05968652449132123 
-0.001060768949604384 0.03359976379847261 -0.04214692159628152 
-0.001260063118053846 0.04023079039376552 -0.04583199917511935 
0.002582504421226327 0.05574056418780166 -0.07342709066089242 
0.002697934864846716 0.0611357029974388 -0.07933179949885434 
-0.0006306512455651393 0.06181329213077781 -0.06162168599082484 
-0.003228557549975198 0.05775828664484003 -0.04181043324074329 
-0.003357342548141256 0.05148580294739006 -0.04017143539313159 
0.00596164398685722 0.05030534779585338 -0.07334072943214941 
0.005526310287440128 0.04157182254726098 -0.08756337529882975 
0.002774034852194466 0.0507508470068331 -0.06732914210895652 
0.004700680311409644 0.05400228272340667 -0.07552412785079179 
0.003577969306319741 0.05829077407691404 -0.07664776762518737 
0.002143975517432233 0.04753510848329476 -0.05756253660648247 
0.001997011196951073 0.04755320485898986 -0.05742190926263883 
0.00182408985885186 0.0313203409548491 -0.07355119898978044 
0.0003108657530117005 0.03038047644753292 -0.03385678030300889 
0.0019458820184401 0.04417618256887153 -0.07421326938081915 
0.002437501049943141 0.04312322275695749 -0.05187968164130474 
0.001872247955374401 0.03101817739573142 -0.04270709839306432 
-0.0005042027697104226 0.01477839638159055 -0.002579030267525259 
-0.02163667810123469 -0.1169033704387824 0.2047935052261039 
-0.02200363717364434 -0.08717597708372735 0.1599707502880749 
-0.01986006136937241 -0.1234223356257231 0.20140770784798 
-0.01379416291329956 -0.05310187704143277 0.1010831947670616 
0.008589123728780627 -0.06478209593706456 0.03617585290344606 
-0.05551450002076678 -0.03101655916965648 0.04031778066968408 
-0.02686685073819511 -0.03193328294067539 0.04667924199006493 
0.02323768150216839 0.03439556561642797 -0.03644468789006453 
-0.008171475419245356 -0.01005547867481465 0.03429600660233385 
-0.007609108393998343 -0.01305490953353692 0.03129440722355867 
-0.01346081130881754 -0.01252746192679882 0.04313515496652754 
-0.02253916260760758 -0.00572090904036485 0.04534049951701517 
-0.0159168476797476 0.005238120964428666 0.03271514971655248 
-0.01812867166301357 0.03384242903404009 -0.01297077829575305 
0.01724147197310144 -0.05514832621394126 0.08320058431169583 
0.02388745631668737 -0.03125876816872108 0.03226350111857182 
0.004346314947432532 -0.01622249010290749 0.03985663832212914 
-0.007445269374007089 0.0003571784507216958 0.0326615909994005 
-0.006882768169927604 0.003438761033722327 0.02181457730401893 
-0.01016657833358534 0.00172614046864155 0.02366925520076932 
0.004673345485296967 0.02323713320929692 -0.02377868108804527 
0.03500255849011643 0.03309938541202537 -0.0947550417438268 
-0.008105202889789566 0.009877881084056846 0.04366780392168985 
0.1399466663526829 -0.1291203394474082 -0.06234925087613272 
0.06455847997198076 -0.05559367151594885 -0.03440866143202227 
0.0136913194302198 -0.01006045030790617 0.001661528798211872 
-0.006033398711044577 0.01277349143668034 0.02072927477012939 
-0.004854830506646998 0.03981804239369568 -0.03025774758903307 
-0.003428872685400593 0.01672943745152224 -0.005445987675044313 
0.01343517478187319 0.02904978277734036 -0.05140625711318716 
0.06057911253820291 0.01194767729849897 -0.1039166161373883 
0.09770868673356138 -0.1576836887597388 0.06262610002680237 
0.06378778617102665 -0.04872180313499366 -0.08141203179906763 
-0.01322950584277209 -0.02546976728913357 0.04699602360603475 
-0.01042145236762584 0.001484091343919036 0.02784637915345507 
-0.01173769784202412 0.01580336104816113 0.01365595459519195 
-0.00225323622644685 0.01970168514266542 -0.01599951909210968 
-0.01293434463981247 0.006509786591527142 0.02671782508403408 
-0.01528389340576112 -0.00180356794931807 0.04288622541427192 
-0.01816135080584797 -0.02079629638025714 0.08023294759256834 
0.01901252842954312 -0.2221938144870957 0.2437541507145936 
0.003853656234804372 -0.03211601552457289 0.01155974094480548 
-0.01256357480861836 -0.01118526640539418 0.02615717940185206 
-0.01288829763032377 -0.002483214924116767 0.02644529127589832 
-0.006599653436065332 0.007087294366191793 0.006940376320430875 
-0.0006287643636418255 0.006759507656849723 -0.004477324009780572 
-0.0005359200596073578 0.007697714736109421 -0.01369850085769811 
-0.008480403658607135 -0.01998322755920372 0.03507437635692437 
-0.007965770299838977 -0.04668679042218084 0.05459163921639316 
0.0108793114776556 -0.07277569501745418 0.03992085177560123 
-0.004037699123567188 -0.01793877288505442 -0.002607202033182435 
-0.008674486230071752 -0.01532840335373925 0.03009130027443338 
-0.00516265292582887 -0.008570411881822964 0.02352874071070006 
-0.0007191490626781467 -0.007905984081466371 0.008168136175884185 
-0.0008600658663222992 -0.06116782620632338 0.05401598465757147 
-0.0007307359211064364 -0.0615583105207452 0.05380066629798496 
-0.005882479473273193 -0.09374958789140721 0.07114098711129141 
-0.008595865079781715 -0.01826160475049319 0.06204491612614017 
-0.01409547348058538 -0.01619334131326839 0.02880557298552863 
-0.006064250906125134 -0.02966001097841909 0.04978536555375894 
-0.004890072266243019 -0.07919747402355704 0.09439597986492733 
-0.008470214182402191 -0.07702698052873454 0.1306388711485175 
-1.411520633758646e-05 0.002430419606085753 -0.007425398485977923 
