solver_type L2R_L2LOSS_SVC_DUAL
nr_class 3
label 1 0 -1
nr_feature 310
bias 1
w
-0.075824287268937 0.005696789161903223 0.113395685079449 
-0.110140130498764 -0.01766150149735101 0.1330665586620638 
-0.06677576980017338 -0.08779793146238236 0.1365305406493924 
0.08812068076348736 0.02837826884116702 -0.09045204465645561 
0.004935769978646345 -0.04934072588828127 0.03809652096265152 
0.3096874964226399 -0.05356150298776418 -0.2900964929450257 
-0.05512934913016604 0.02612443190313813 0.03478008106255055 
0.04937793535151902 0.01732620364571042 -0.1070927649404326 
0.06062028999608367 0.01537232564217313 -0.120376904901182 
0.119623272904961 -0.1420855021063931 0.1500511815307834 
-0.2683534272217141 -0.02072961801991991 0.3331587958574649 
-0.1238410977010173 0.001877441996682178 0.1442601255803685 
0.04942838067771046 0.08311761064013796 -0.1334107658806032 
0.08800146520167504 0.05155122750387316 -0.1609947597330274 
0.04074700071986023 0.1286577267105538 -0.2143517315927545 
-0.1548940346736765 0.06622514370915855 0.05145175802358538 
-0.1903082405496502 -0.01709699154128588 0.2307168470837351 
-0.18695436399657 0.09151193670477319 0.07475297010739276 
0.04886441183227713 -0.02419494583445204 -0.05339818285278174 
-0.234742727129821 0.2033704924875206 0.04157379861320754 
0.03985219789668271 0.04399440972842084 -0.1360082330380554 
0.04815050210228076 -0.01405847299079818 -0.06999063231210043 
-0.07445314839784924 0.0977709117300597 -0.06725365350404051 
0.08370611950539875 0.1133207736785164 -0.1533630503270884 
-0.06382869845760654 0.1399400296792895 -0.08795531019936463 
0.1415281897084052 -0.01176121343312507 -0.08759167758451818 
0.0802097036345449 0.1215631884040146 -0.211584659466028 
-0.02209410227968335 -0.02589836580594012 0.09840839063503756 
0.04367670205579449 0.06302619141949017 -0.1997620815554898 
-0.1022918818121989 0.09396505932706763 -0.01706007475229616 
-0.0009186391362352887 -0.003355458769885387 -0.04385125622326577 
0.1134442223949007 -0.02593645951953695 -0.1429603649783263 
-0.0057241293836366 0.05359023717509115 0.01245330576075867 
0.04650089435784704 -0.02530578134863121 -0.006583581625118487 
0.1664407543357929 -0.06594812653931975 -0.0154217105406661 
0.01785676456833209 -0.0005419721935761663 -0.03703416269203928 
-0.04313691732745871 -0.04963180827095912 0.1636090868465178 
0.03038877847606023 -0.2189145394052527 0.1724672452188429 
-0.02180980741257998 -0.1185869614073202 0.1609624869247221 
-0.0711701161896163 -0.08631343634266758 0.1550543348453492 
0.01397314244076189 -0.09609020738339624 0.1156558182177356 
-0.03782939833018316 -0.09259885557673204 0.1311076949805992 
-0.04983888021326553 -0.06186063441826842 0.1215611795464914 
-0.02897082455651473 -0.0771268645637886 0.07924130267101058 
0.1240662350830968 -0.1265080151065066 0.03603731793560366 
0.03713245776607078 -0.08057419255848765 0.02561146530007247 
0.1951844189271062 -0.04070433431044823 -0.1744061442386567 
-0.2839541134553444 0.1203389090105332 0.2389409661616184 
-0.09140803425505771 -0.03917484142836766 0.06376949607893892 
0.01479018218627796 -0.09360878298414872 0.1115422256850485 
-0.007491602097492372 -0.07342762035649029 0.07632128110264053 
-0.00437688120046784 -0.07413639309338896 0.07301314315263131 
-0.05363878703138319 0.02619909405029803 -0.07809184175592643 
0.02973971793534273 0.007023562904901449 -0.0307221171248257 
-0.1165320132573766 -0.02081327665128398 0.07457648888334395 
-0.04283170165856796 0.00994278088866489 -0.02496743660705405 
0.009440762787949064 -0.0368515019736563 0.01820753115171177 
0.0714854857280348 -0.02462795952796757 -0.02196124948566705 
0.01894009107323224 -0.01450990413851977 -0.04518984359819877 
0.1392947257453175 -0.04327320135715172 -0.1329015868257942 
0.0321707878205626 -0.03604764690103771 -0.05352845068547064 
-0.1191599504993165 0.02679018616805251 0.0443152202902326 
-0.002486191463182174 -0.1170216292567764 0.1237600980671925 
-0.02736141736367909 -0.089313173224201 0.1219384208397002 
-0.04637907661393664 -0.0864294969933647 0.1234191387952874 
-0.03889670716329617 -0.09154475274686848 0.1460879831716344 
-0.02449838627374002 -0.0696091026584772 0.07741301396407313 
0.2045529848429413 -0.04000673948773988 -0.2331103359264264 
-0.09646650280377228 -0.08285704466383648 0.1299822616762307 
-0.01239412377982778 -0.07625219498947795 0.07790056043799302 
-0.007457349183808909 -0.07546783856652324 0.06991011799193542 
0.03492500994687363 -0.0882606207653182 0.06151289499710847 
0.001826317646896226 -0.05013165559346078 0.03077765788552328 
0.006220286285893098 -0.02700473698963193 -0.008863852840004072 
0.02264554084534899 -0.02450000174079814 -0.008611791323363087 
0.03842736295703202 -0.007660100146619662 -0.04888936744789803 
0.02968775160241272 -0.0110618440007191 -0.03624764136861246 
0.01146603667782478 -0.01882360993777343 -0.01229346210727197 
-0.000364204456784375 -0.05147770141869266 0.02816011543177466 
0.01598786946309745 -0.02475126168888387 0.003700380805859715 
0.09302261473709944 -0.04495874204779673 -0.07895330775745737 
0.08643670232341064 -0.02982012782464386 -0.07055043086071847 
0.04433908900209101 0.01078090284442311 -0.08352219952626704 
0.04985856471365347 0.02517719033499437 -0.09550586693219225 
0.07106942464135273 0.04315652319996929 -0.1286262867884501 
0.0008976815401150245 0.03223316823975369 -0.03531068032193387 
0.0503082995693622 0.0226089157680574 -0.08149547772107645 
0.06969003549824435 0.0127080100067469 -0.1070801648395357 
-0.0249403875753001 0.04938027845742286 -0.03394778052639623 
0.05543658140721067 -0.05878614494323464 -0.03809223571694875 
-0.05180967970872665 0.03245603042361653 -0.02675092753063472 
0.0315839349770841 0.02318566280999291 -0.07883756262396407 
0.04621810282503799 0.0290899496191972 -0.08847747897140743 
0.05370970315493227 0.005575489553761618 -0.06625986928651889 
-0.006214616178720925 -0.01540496967261499 0.004513343004110753 
-0.01039403470948525 0.005665400564135213 -0.003964945037376594 
0.03554266510299407 -0.003620595444911235 -0.04381691613845425 
0.04724124537984606 -0.04221437557868161 -0.00506809684876251 
0.00845176336946764 -0.04734422121910611 -0.01945576813197904 
-0.008644559049414944 -0.0203204557560338 -0.001423259939329191 
0.02953800844410512 0.00251401620564184 -0.02533787678416032 
0.02934022789407349 -0.02883564649384664 -0.007241327331123973 
0.04309192164088976 -0.05486649344807925 0.00306151626474289 
-0.0110004643327284 -0.009781894895507936 -0.001366207875403238 
-0.09193435408727528 -0.03925481709923902 0.1299374651995546 
-0.008223791797965445 -0.0003045255024031757 -0.005391762530127476 
0.05681652205054916 -0.05000453145905881 -0.001779545190712122 
0.1109855492491298 -0.1206461857930422 0.04818613370594858 
0.03281481531635172 0.05277037698716044 -0.0855508007731135 
0.07410514863104328 0.03876812626199846 -0.09215716888954308 
0.01265408711758155 -0.02585042505298601 0.01968998705094004 
0.04619925555090464 -0.05399873696639054 -0.002156038383357665 
-0.02784379784923595 0.02404411674379358 -0.03202376770054394 
-0.02493897482770583 0.02313750589969221 -0.03573830427544854 
-0.03053311908455939 0.008901599582622858 -0.001942912488844613 
0.07054677323068606 -0.0614065506000714 -0.01722185755015999 
0.04034112950229943 -0.03102294603643331 -0.02742747633687633 
0.01899919398830127 -0.03712939959328479 -0.01123040514617555 
0.03429187180126521 -0.05593986626485204 0.01225195075035825 
0.011972479576539 -0.0543860855675637 0.01669749122856861 
0.01685214908104656 -0.03975342879731293 -0.008106413537442235 
0.02999403128625586 -0.06125546709115792 -0.0006956366254857932 
0.04037166694583736 -0.06460076177428764 0.001189803735985826 
-0.009407442777472097 -0.06731430928146935 0.0739455437618433 
-0.01993836221488329 -0.04475927153118348 0.09777366943339423 
-0.009853984157180791 -0.03329691321195673 0.06745476867518332 
-0.00908452525547687 -0.0373000115547114 0.05504558927175729 
0.009774174210488651 -0.04245307203432737 0.08305818292500095 
0.01305274763863985 -0.009022005278641028 -0.001509765028746702 
0.05182481586808636 0.008634155810386113 -0.06842086021365197 
-0.06345776361596026 -0.01781927190425678 0.07323320921065771 
0.01788752429291728 -0.01775445823660609 0.03242966361099348 
0.01279574764430283 -0.01647084619188553 0.03354049793133985 
-0.009257695225344266 -0.007551299699780994 0.04648190312585258 
-0.000525078216982897 0.009181498852719794 -0.003729859805748771 
0.02417061968050904 0.0208894698338001 -0.04779361628683609 
0.0289825786698964 0.01118107598614138 -0.02366872416849593 
0.0203273873577849 0.03929139128340582 -0.02527470998331298 
0.02124891983114251 0.03279770659315893 -0.04623015213331493 
0.03034076269473763 0.02998704334062224 -0.04557982950330307 
0.02451344216826124 -0.03066017568762283 0.01828782131538703 
-0.02457452065667235 -0.01360144966642498 0.07092084918631579 
0.06569995503326054 -0.04180338395086748 -0.0718144130996842 
0.0836606199416417 0.02926146475444244 -0.1352646365406674 
0.02816839955018251 0.04262278105714003 -0.04833676628625352 
0.04953654525618585 0.04633851650731036 -0.06099553633242867 
0.06135301386400712 0.05189395341551687 -0.09027137937125154 
0.01549985507144368 0.05211460826967572 -0.06387914742060018 
0.009927325320196904 0.04410555708829442 -0.04613428653463228 
0.05738308515981509 0.02296471466208121 -0.0591569958533399 
-0.07190820785984699 0.04078318318199233 0.0746526570905159 
0.05144129319368552 -0.05201826281365329 -0.02776291533078024 
-0.1184748231991194 -0.0001979245708893499 0.07626053159664285 
0.002809367919427624 0.05798819968438469 -0.03661278044294907 
0.0387800332558581 0.06110903612466702 -0.06410052687622353 
0.04950618448235455 0.05248160243847385 -0.05375552531452427 
-0.01266739498051202 0.07452336853547646 -0.05504499263453531 
-0.0279890984408635 0.07183306364788537 -0.03707895187397842 
-0.00379629908260583 0.07214482246795366 -0.05713204069248137 
0.02962245717801078 0.02672888069637933 -0.06963944067512409 
0.05397178406406162 -0.07517365958637109 -0.01300511877466492 
-0.07327436462404691 0.0495117506068704 0.05837278862134603 
-0.05464868594383004 0.1048664236316909 -0.03343141445075547 
-0.04654203542455428 0.09814029580169596 -0.03229790748550788 
-0.02251088321381844 0.08955631823194667 -0.03798825025505272 
-0.04074176360841066 0.09046206047732921 -0.03783480666121555 
-0.112248596893683 0.06948562988296215 0.06122880888005651 
-0.0304663424293207 0.1041891690776792 -0.08327745708452215 
0.04085299921477104 0.06745348418720333 -0.111056159074471 
0.07875394167905045 0.02914215766090912 -0.0753198688220085 
0.04524722580428362 0.08172628695269539 -0.1500592002007256 
-0.0264312446488043 0.121023106937032 -0.07712869552337782 
-0.0654958098042064 0.1057969437304138 -0.02443979323640546 
-0.0222511450474126 0.09088768704869075 -0.04095722570530369 
-0.04003158557262517 0.1043701536924084 -0.06267239966647351 
-0.03878139328615935 0.1034607273807027 -0.06263397313391621 
-0.00022943855740986 0.08872301551592497 -0.07694783659499291 
-0.01282669546673035 0.07433187142533668 -0.04272216557666003 
-0.0463250542516247 0.0877206397236833 -0.007901661882760081 
-0.0674208076552715 0.09464723662231496 0.008426009196011115 
-0.02796874135600318 0.08121360961752454 -0.009190584258981503 
-0.01866532762085882 0.0599421577539952 -0.0330859357461157 
-0.0008932788525684433 0.07012584437285596 -0.05989973841436396 
-0.03693601681556913 0.06578096145644267 -0.003364148957755488 
-0.04065547643867751 0.07574428509953397 0.002370170652574061 
-0.0550684771435755 0.04677215932091285 0.05577420325373682 
0.002093191280595234 0.003092428995636786 -0.004431466866708093 
-0.000775159533755108 -0.008691772577782704 0.02979088463366244 
0.0001725535527880464 -0.01370359556040736 0.02718381015711838 
-0.02296157414052353 -0.01934311410834728 0.06793523792377128 
0.005172101531732437 -0.02024409987447488 0.03388770133417656 
-0.1094937681255832 -0.04932101097429487 0.1891419754698417 
-0.05913414703414444 0.001826374899709337 0.04437526741717168 
-0.01067033840005427 0.02136185957523815 -0.008315982169342479 
-0.02348628782773536 0.02286028942448621 0.002473422047617804 
-0.03794990779132888 -0.00602907856989436 0.05705330799640262 
-0.02106836530655364 0.004730392668399446 0.02828011976090344 
-0.0007636014571577111 -0.00775007560941115 0.04058958723933472 
0.01030796119617569 -0.0233375790905616 0.04514307900239157 
-0.008203738677460871 -0.01915740200169194 0.05349010532556602 
0.08387088362221697 0.01202056918015226 -0.07541851353111605 
0.02517080587236761 0.02504759926946256 -0.03957389232485093 
-0.03271531514639309 0.02057688841346702 0.02696201815883374 
-0.1081358973982479 0.006507080682957985 0.09959840973783948 
0.02829346462915594 -0.05987577500008065 0.003166720760098004 
0.06721192819654884 -0.01348596373709864 -0.06543993957223594 
-0.01583518041153695 0.01393400474085962 0.05113901577459579 
0.01018408813112312 0.02013135150227044 0.003181583565245203 
0.07697209670575174 0.0001780830798027737 -0.07842564650763675 
0.06800567322413446 0.01466917870836315 -0.07781486242952143 
-0.009597588080057297 0.03103678746393073 -0.01935270891938322 
-0.02985278662365037 0.03781690622248917 0.01278846810310917 
-0.1015029249655819 0.03897665941285557 0.08642801291157168 
-0.000130150494832742 -0.07240680211970613 0.04476621510813854 
-0.1179173592646073 0.003130615136816394 0.1297050627133995 
-0.06868122471343095 0.0342365852079836 0.07762073300862213 
-0.05422063270451333 0.02372074730576146 0.07096052616776106 
0.09863369385544643 -0.0388499876115377 -0.03926463681649912 
0.02420688400975426 0.03462087666516638 -0.04847664629820232 
-0.04026678082805876 0.04224500175981249 -0.001346913289982776 
-0.04784983248965752 0.04498915105647201 0.01362123060718674 
-0.02960639947652184 0.01239358578124086 0.01523694133996573 
0.01995095230125144 -0.07003349584449652 0.0140812083058936 
-0.1255641180553976 0.0375622096127923 0.07721038596485685 
-0.09976149033088895 0.04122876194755219 0.07973796301120886 
-0.09610729319444238 0.04426785209591304 0.07260459545751578 
-0.08103233355832881 0.03292308824392661 0.06049314036160971 
-0.02815166008511658 0.05169360379944211 -0.01493073626564985 
-0.08135891243338272 0.02432390049103712 0.07345715201200552 
-0.03007608872486344 0.03834540888990351 -0.004383457458975266 
-0.001969899206018858 0.02015879138893995 -0.009080216072521989 
-0.01529410597904812 0.01008477431653982 0.005398864060222284 
0.002158140237745315 0.02457192973697121 -0.04847444410471057 
-0.05873798676189082 0.03907917484849258 0.03802023343389155 
-0.1083979654147382 0.052184947310967 0.06590008622127819 
-0.07679102337763072 0.03259605864994847 0.05617586015829255 
-0.02040278554388719 0.0391748496284253 -0.01850576992220585 
-0.01914922295809565 0.03992172020349616 -0.02287580120673998 
-0.01538360301137426 0.02856593312934674 -0.00210847988409539 
-0.01143850155187811 0.01198463883150094 0.008523571321550535 
-0.0405448639344177 0.03731759656184628 0.01017189049864841 
-0.04650380677920307 0.05510395776740367 0.01251113056710388 
-0.0247650368915203 0.06788233082323498 -0.02869259706238919 
0.02890852513000892 0.00194554709448663 -0.04778494756672421 
0.01505189883168625 0.008266428496463892 -0.0285753710356606 
-0.01340555416885557 0.01991304252208626 0.002649501067108206 
-0.01670473938429149 0.04087403167497476 -0.009263526306701256 
-0.05297456577604331 0.03349917734712687 0.04195185673707027 
0.02452355997309123 -0.008427980038572615 -0.008344111918084004 
0.01170455580415541 -0.0003376602910305616 -0.01686016637089959 
0.03719990173525561 -0.01219296459613578 -0.04740812907606806 
0.005923060266424513 -0.02988211736377284 0.03974769341948377 
0.02982985314922346 -0.03615449612508204 -0.01342167709149988 
0.004409732417098357 -0.01235684280334741 0.02608003064020555 
0.02384372685257838 -0.04207690605230075 0.01723256986780205 
0.04400865859184009 0.01078954886634759 -0.04907159301776966 
0.02047658350670846 0.01070524304024002 -0.02502581051475488 
-0.03044696280141946 -0.007399097944150964 0.03665067415250918 
-0.004725317817004877 -0.007129913829027748 -0.00196765318296356 
0.03248124178843899 -0.04722244718012007 0.004362931336428322 
0.05051169211094658 -0.08575031854372793 0.03275308162496047 
-0.0005237042913232217 -0.1072641593758481 0.1338669925151888 
0.1735716148777011 -0.09071955387935075 -0.03477295488909615 
0.1366441855812331 -0.02685642436158733 -0.1202212254693744 
0.01166775542243534 -0.0259394215590147 0.02982421741215386 
-0.1367644785293276 0.005785338916420912 0.129234825692287 
0.05243154961050736 0.003943882454520797 -0.1070805060605487 
0.04043753576678692 -0.01040188020237595 -0.05009109473626043 
-0.01097701658275583 -0.01651353347926861 0.02481483437704945 
0.0574012256476628 -0.03850745217022132 -0.02100924557721972 
0.2132573784959676 -0.08661232572360708 -0.1790438260289761 
0.4140623980526318 -0.10811715472656 -0.3562944478114813 
0.05368230349351051 -0.03164581006167588 -0.04743275890155285 
-0.05459429500987016 -0.005101504344292282 0.05382316982025489 
-0.1919089320189298 0.04280815825943812 0.144674040126618 
0.0560448116655406 -0.001811366105512124 -0.1026713808093421 
-0.1565295692620895 -0.01204824882338287 0.160355429215562 
-0.07948406939426214 0.01181123182849804 0.07030383637976596 
-0.06995483709231594 -0.02371441185206579 0.1145205288631568 
0.3605439883890306 -0.2070942067255702 -0.1343819565274262 
0.2035713375635884 -0.06176299477958304 -0.1463885008899141 
0.002894186410338939 -0.01552922804132324 0.00140639640484592 
-0.08672844008126745 0.009414911874353822 0.06615630572966756 
-0.08557180057705437 0.01959332964737839 0.0547650802044286 
0.05449105689337505 0.01067922971569127 -0.1012950775796624 
-0.1186472713421479 0.01952097484263582 0.09872597821870364 
-0.09615196298685735 0.03164055485516208 0.06075811422367819 
-0.09711956439291321 -0.0174699288555291 0.1431719633557827 
-0.03011957788703073 -0.08104305364231316 0.1610133660145723 
0.01545643120514538 -0.02646318599691246 0.001698299991045289 
-0.07438273347298832 -0.07983287725904048 0.1667996908724613 
-0.07926722505897575 -0.01002556048868818 0.07905831084376215 
-0.07705356194085376 0.01823968145266611 0.03820926967770789 
-0.07324974794005881 0.01737110906746783 0.04265631264542702 
-0.02712559396625618 0.05111625527760792 -0.06737717520563201 
-0.06629796412396076 0.0573313542366672 0.01621483044006946 
-0.09364260586272095 0.007340112769013546 0.1127683206765005 
-0.02857054891130218 -0.08219169336725526 0.1621442837369887 
0.0366144157355603 -0.0846151482635594 0.03160568200050722 
0.04129072955140021 -0.08814141884458736 0.03118372422418405 
-0.02733042725031527 -0.01460605218867865 0.02375400253721366 
-0.005778574779184189 0.01288395988533032 -0.013109624128016 
-0.005630540859035078 0.05812091443317567 -0.04216695446513568 
0.01155463267581674 0.05260084599992924 -0.04420848151099831 
0.07386718075061356 0.057047112912876 -0.09846781176383333 
0.1463062730470045 -0.09765866805615707 -0.09281410030050855 
0.1022989814672472 -0.07957323070555196 -0.05710538922956118 
0.03342343620263279 0.001039631222110125 -0.03631843832793907 
0.04257100501457434 0.06583099045725417 -0.09183448290030911 
-0.02186957245661511 0.01200834237770226 0.05422958833102405 
0.008559469223000753 -0.0009676364093280155 -0.01677048192311876 
