solver_type L2R_L2LOSS_SVC_DUAL
nr_class 3
label 1 0 -1
nr_feature 310
bias 1
w
0.006754008006767683 0.1291358709470683 -0.139166868089027 
0.003245087887515432 -0.02092675465679628 -0.01797590255256143 
0.005342111892685966 0.06152102955825613 -0.1078472275462792 
0.001467244391067536 0.04878801232319634 -0.05373477874052111 
-0.0255208054201404 0.01970659934415452 -0.0258936506029156 
-0.00657474391339829 0.004186147223608021 0.02593542389137592 
-0.01970671309064237 -0.04785061931370033 0.0366472637450656 
0.007430037356913683 -0.04619339763080699 -0.01776293457425168 
0.002954935769420747 -0.0551485200083419 0.03258625474147519 
-0.01095988460991199 0.002798531019845595 0.006851551354202423 
-0.002500625242485472 0.04803015139036319 -0.04493812877773704 
-0.003049652157800558 -0.01080243500981259 -0.001919739042790745 
-0.0009330187483726907 0.09675221970088002 -0.07662061402785775 
0.006197812829606924 0.155919432458823 -0.1332310592172013 
0.004472501199738873 0.1151960508290767 -0.09545316978061662 
0.005367766486813018 0.0560336020143582 -0.04011891967864075 
-0.002840008282009395 -0.02285490133978366 0.03452702166014642 
0.00240863228137896 -0.005266276911520392 0.006018706473146188 
-0.02495217798882951 -0.0804685198451031 0.07593510495313813 
-0.008442469238296184 0.05463371368797961 -0.03443169731950797 
-0.01148381974744066 0.04431220522027841 -0.0244025895214115 
-0.007967939937982806 0.08502005631716443 -0.0693334264466013 
-0.003213855497228241 0.07628148341814354 -0.07025957518320838 
0.00822421699875075 -0.01926955712612953 0.02280244610353631 
-0.005524760636321527 -0.09690331951652591 0.07888911994486461 
0.009924101244916401 -0.08837931568275238 0.08156167318314912 
-0.005861625923562971 0.003951882379117524 0.03273346456067924 
-0.02124603344752305 0.1057319981235623 -0.03384976391116186 
-0.002101019395852207 -0.0120704705763014 -0.01647978714496828 
0.008045119349730236 -0.1815182412661693 0.1117402990805359 
-0.00427072168185251 0.071375073750021 -0.04779544738671591 
0.01458627316710922 0.009866036572586773 -0.03297316680908033 
-0.004680498867504258 -0.1048471300233788 0.09110533229032007 
-0.004447580814983516 0.03336351324381574 -0.05090305359115743 
-0.01027877443147459 -0.02394816698414485 0.04063155283835559 
0.005512308423445454 -0.2794248980856594 0.2008595945873303 
-0.02732601811247958 0.06495998645667148 0.006364237726970719 
-0.01039089237401536 -0.01861585255648915 0.02980653384646103 
0.0006858344215915886 -0.01621489561052358 0.0402912545967308 
-0.006872220783203862 0.0001752687552002924 0.02216576154597024 
-0.03689189449420571 -0.04103939702717962 0.1105126312827078 
-0.0007777996363530474 -0.0408820992721327 0.04807924072711909 
-0.009894385647596416 -0.1098764889786471 0.1155325656388082 
-0.02369745764727849 -0.07176350013331662 0.09898234626736857 
0.004930816580204695 0.07398195882232331 -0.07448248375400021 
-0.002295407283498293 -0.02843387655319182 0.02516952680929518 
-0.003163040172730835 -0.1304355719557034 0.09647980807776485 
-0.01918257347118735 -0.0426490119062828 0.0570174598880037 
-0.0002325914015148671 -0.1196306527013125 0.08114191619054036 
-0.01907076702885231 0.01874304325019955 0.03257812875036937 
-0.000576791800281413 -0.04074408073267455 0.047637096835312 
-0.01297110164089254 -0.1876571829535346 0.1440252251475889 
0.0006039198937635709 -0.0195153263787774 -0.003514220463847928 
-0.002234616904539484 -0.02989540711356311 0.02534725929932219 
-0.03559423292012254 0.03862340084776741 -0.00899243303458898 
-0.003109996594217897 -0.02245097587863099 0.001177157912859152 
0.00131195673756613 -0.0707872266096878 0.02974388326625357 
-0.004269686373621231 0.02841299865989493 -0.008306745144667529 
-0.005205432539748337 0.02637453059387181 -0.006085856224885003 
-0.01582773317662368 -0.01458759468783461 0.04092548147759005 
-0.002329778363246572 0.07311225713606705 -0.04023074409680996 
-0.002031710208968399 0.07021932801913859 -0.03869981229694262 
0.035507511656683 0.02058960382812787 -0.1149548807909343 
0.0292067064768333 -0.002013547102131571 -0.09033776741490869 
0.02982574804183882 0.03067321151322485 -0.11081193037728 
0.01817389019366263 0.0102296715317619 -0.06901117884355343 
-0.02010400739177565 0.01393257519508703 0.02867648835266906 
-0.01131915859532154 0.03058610274393027 0.007114438834687141 
-0.0177972649808717 0.03833208219282273 0.009971606495108106 
0.01314057200541712 -0.03305796115625229 -0.04164097048738775 
0.006577661953215005 0.007550632202383933 -0.03549775051472651 
0.007078416129354791 -0.008748909692286885 -0.02630674955968914 
0.006826336173191527 -0.01155659576904454 -0.02176644458839833 
0.01095486033778188 -0.01905518126689715 -0.02441813006188378 
0.01720770376897048 -0.01436880610286327 -0.03847351530690804 
0.02288791329250088 0.007538792608018564 -0.05946020919459123 
0.001531471067229663 0.04819445960357783 -0.03029209839627783 
0.006931294817489771 -0.004920814201780872 -0.00491172665648079 
0.004139999842957973 0.01217836514665489 -0.02341511764303602 
0.005797446948947374 0.001773628946756791 -0.0195323561391519 
-0.001896711834572534 0.01043354532097173 -0.009436515806273181 
0.005412383397524403 -0.005017508580029352 -0.01850768902646526 
0.006328862224355689 -0.009084226246197239 -0.01360730597970846 
0.008095854513967852 0.01686975354483718 -0.03150337267807279 
0.006788294289745199 0.043620828334371 -0.04300857753053719 
0.005530978454853064 -0.0193504893680449 0.01379513622139591 
-0.007051508465851454 0.004911304069521249 0.0145505957273826 
-0.002865084116708304 0.02620904857992174 -0.004589159057002719 
-0.002359325028219767 0.03265064071946373 -0.01733703526408372 
-0.02439321438391116 0.0291440509911052 0.01851558142808871 
0.002741277234088156 -0.03320759871507811 0.03523046848186708 
0.004196726660146151 -0.001488005315800996 -0.01317860507862738 
0.003905081140468772 0.008940830410945115 -0.01538637313539865 
0.006034003350225344 0.01560067973619436 -0.01498944879959046 
0.001859982785148069 -0.01397348907854598 0.006979290254637783 
-0.005888407616905439 0.00827933297064941 0.01349362898579042 
-0.002551608571578342 0.03359683277380749 -0.01591054827730262 
-0.007662316982773702 -0.01441759905271214 0.02541758006895175 
-0.0195233184782331 0.0352130996719714 0.006966708035125248 
-0.004135442636573877 0.0001731324747189571 0.007262838127361309 
-0.0108105268152057 0.02088961818533143 0.01554399681951747 
-0.003785583176031463 0.01064884684397287 0.005021024911081581 
-0.004348402710255433 -0.01114029813257826 0.02578622718525151 
0.01127872801298612 -0.06105160672504424 0.01998648844794926 
0.01242327813726718 -0.03694020577341721 0.005151057145987271 
0.002946802111384104 -0.0251752647452208 0.007746763947031802 
-0.001532261284405845 -0.09925778589855086 0.0699269653011554 
0.01232076962821848 -0.07829167603228269 0.04225753744298655 
0.003426696625614254 -0.06862718967231848 0.03731943785742665 
-0.008045434633592681 0.04026679866744991 -0.009745273105959603 
-0.001932124096364049 0.03330486985353152 -0.02165042691183946 
-0.001424053187905282 0.0371164065758776 -0.03471088016980057 
0.0113477140325725 -0.05888304317214769 0.01815142847228029 
0.004551650012041833 -0.009887744836017252 -0.002995367657874718 
0.00955438717727705 -0.04096640321644385 0.007488523324157685 
0.01234221620039859 -0.08152419877616686 0.04491196779643838 
0.001371940837456752 -0.04566392579395331 0.03052645680665662 
0.003400430364431328 0.01488582942810974 -0.02091648390806028 
-0.001142100686998631 0.01684367447817865 -0.02071580274405644 
0.008208423203628379 -0.07679950518408983 0.03218765595886371 
0.008274188681726278 -0.07862816729555477 0.03386742586567981 
0.007610086394079754 -0.08164969880384562 0.04531698351589316 
0.007717522248273029 -0.05314491699208059 0.01515879886273514 
0.008690445971670522 -0.05266415906062281 0.01368932354642327 
0.007917531091787408 0.02852828256626824 -0.06642047620777732 
0.005310869752470962 0.02127157415874139 -0.05483271761162132 
0.003932413000212532 0.03119566569849099 -0.06249769674673566 
-0.006515519326873415 0.04765937679074992 -0.04628492235173231 
-0.03245612334194656 0.08651198063588199 0.01509322030077395 
-0.01449260804680736 0.01817722060471248 0.02748605987893717 
-0.01192500141280846 -0.004320950040741262 0.04111326831471911 
-0.01298854270813317 0.03025777311032087 -0.02799468577817401 
-0.0175403858340548 0.07421194596754389 -0.04076146786428764 
-0.01619395591811324 0.06921315042073739 -0.04139868519781242 
-0.01618971045477864 0.06486574302349174 -0.03848073706585822 
-0.01322192632969796 0.05521397622410748 -0.03735333672822717 
-0.006351035818397727 0.04510232706042454 -0.04234970528805974 
-0.0006989615718335766 0.05363005545610526 -0.05691525284362568 
-0.003548543412073606 0.05234328292604724 -0.03766551353968822 
-0.01108183235909736 0.05727405896503773 -0.02798307894045947 
-0.02166258859535004 0.0687187123216334 -0.01878863892950592 
-0.02157794431035179 0.06582013013247072 -0.02414728714795784 
-0.01964865043281647 0.0694924589528301 -0.02759252978164896 
-0.01454060000479929 0.02857123026933599 -0.004593780796579129 
-0.009030888768016479 0.006243404825407429 0.005119624811772043 
-0.00360315736912222 0.02780130269641278 -0.01904838257522298 
-0.001916714952013474 0.06631090616828107 -0.04946950967824124 
0.01122073084443916 0.001862380638904941 -0.01462300270124105 
-0.01476873523251111 0.02773457824286457 0.003210753578214356 
-0.02128451905653388 0.03199440541942131 0.01081125201746152 
-0.02240487305133768 0.0382080333260368 0.002309262825712611 
-0.02140806668042972 0.0365067279789225 0.01124152636963974 
-0.01026664102429229 0.02698470080235581 -0.004173528470222021 
-0.009647398410824714 0.08063956834675697 -0.05293157731623795 
-0.001304957825800679 0.05255170062650903 -0.03491743807407559 
0.01422837373426855 0.03073419396221579 -0.04457144842157011 
-0.003922639479096911 0.02858013990310764 -0.02383086970809393 
-0.007719783822628772 -0.009313644932209845 0.01407322895622784 
-0.01709996665040268 0.008139203675303436 0.01384889660884721 
-0.02015104959122995 0.0234211414763895 0.007157884193997191 
-0.02064218006712176 0.09199907073179746 -0.02412525751314327 
-0.02053175345026744 0.05761914190241518 -0.02313332213393064 
-0.01568508501703281 0.05282279460510277 -0.02413379359532256 
-0.008871808327280798 0.05134727950310523 -0.02992088134919792 
-0.007699035303060453 0.02994855306801498 -0.0170503295289407 
0.0009890104320994921 0.03219194501235481 -0.03939206554701997 
0.003964591397594225 0.001813135866468867 -0.0199506509459928 
-0.01473458657259943 0.03316821482261509 -0.009830547558597325 
-0.01492906129913784 -0.1002269764971276 0.121079964468626 
0.002136294457166955 -0.04579449873784716 0.02464420043571282 
-0.01213909655621243 0.001851570089910582 0.007379599817236327 
-0.01019292289094299 0.03008789712919779 -0.000148561767442893 
-0.009839311312606163 0.0433701939944652 -0.01918377328075205 
-0.006266071598716711 0.06606921645663955 -0.04845811418121745 
0.0008161376451281074 0.03275394647713231 -0.03972386350246236 
-0.003889735435500054 0.06648230709105603 -0.05405574686707993 
-0.004985331667450432 0.01802689703162749 -0.01709485531494007 
0.002330061899062924 -0.04989980546930989 0.02770690350894533 
-0.005006248728498573 0.02258536081271119 -0.01411779970667052 
-0.0002447886201089373 0.007634720077995647 -0.007669869582744515 
-0.004662740825536965 0.02464679684195125 -0.01682900984799603 
-0.006964023690946091 0.04865692846438426 -0.04520133308183591 
-0.00710659033669898 0.04769166873736123 -0.04448431057367173 
-0.004580291864636305 0.0287562929606922 -0.03383687393850485 
-0.00557709278178026 0.05296272953301136 -0.04610397247859351 
-0.004422858344798589 0.05343145757486346 -0.04768816900729966 
-0.006886600187544426 0.02009205044373355 -0.006957815812979955 
-0.006416794444109853 -0.02146844582172571 0.0258160138183906 
-0.004377539063850761 -0.02259353455991052 0.02270274493251285 
-0.009812739237959995 0.03536376740325866 -0.007638081246155793 
-0.03322792053004131 0.05634347291730932 0.04310429920713249 
0.0003624050519924907 -0.02425235359678587 0.02471652758782783 
-0.02105140808749389 0.03770455990922348 0.02503925911721071 
-0.005553768166501963 0.03143475741689902 -0.01378634030246368 
-0.01237229682808001 0.02690147913618735 0.004947847316363966 
-0.01222966557774197 0.02511790150190387 0.005407454169120894 
-0.01099385299271808 0.01342191797989685 0.01187241453063927 
-0.008670068819636782 0.008038437311969448 0.01225345305862676 
-0.004057351363835499 0.02133180169137813 -0.008394290749295437 
-0.006025094174208332 0.03895560362526625 -0.02078059393523932 
0.01690869095305375 0.145519102156094 -0.1199897315426111 
0.01211259552906852 0.03258816834353141 -0.03335315369706707 
-0.01231920698744767 0.03614178518947186 0.001038745229630432 
-0.01337542166903259 0.02833527556866416 0.004993040912275205 
-0.01467794920528413 0.02466212367192341 0.00805377697184856 
-0.00935052142018597 0.009028774608093744 0.01193504606250944 
-0.006209675227433114 0.02840139112996723 -0.005602499289974561 
0.006327700871786611 0.01512742754528305 -0.01511769300730281 
0.01899486002209287 0.01947788615950642 -0.03319123383573618 
0.0593983556910221 0.1030717302353871 -0.1501169226277654 
0.001070392745666064 0.002991379750609522 4.140693247447408e-05 
-0.01217919870005849 0.005839002462668889 0.02404816707743607 
-0.0140964354231717 0.02112064529274462 0.01286774099570517 
-0.02040848527157687 0.02625675893921428 0.01455802889736974 
-0.01156646906382078 0.03223341953673074 -0.002002930411717798 
-0.008425500424975063 0.05005535532026009 -0.02322447333371463 
0.0178266418950047 -0.02535409659495854 -0.001889303599329763 
0.0430298934985974 -0.05176328172978817 -0.007644059093283493 
0.01368617533439625 -0.02903321100001907 0.004971322304511738 
0.02157950459064869 -0.0655079173225173 0.01724264410964251 
-0.002872302216681035 -0.0115305282184857 0.01367443555418654 
-0.01397500886181905 -0.01262362859316084 0.02733753980245929 
-0.02316116879074516 0.04117100201680582 0.0081281114750828 
-0.0141775887954376 0.04490971630402919 -0.006565933088785503 
-0.01173344573146034 0.01894311165174919 0.007588705279723542 
-0.004384325538897067 0.01552938144580141 -0.001037348805412857 
0.005105502349067388 -0.03868520973269631 0.02534178746240382 
0.02538276431241029 -0.0378598619870636 -0.01253225884366781 
0.02905747580861936 -0.04602780706721099 -0.01123794689020832 
-0.008747645248907662 0.01945344918738913 -0.008013480530300222 
-0.009674465225857968 -0.1927943900786078 0.1513452636717936 
-0.01124719421156778 0.02694488613036226 -0.007011152543679938 
-0.01393677892641914 0.04068443391364544 -0.01175988577092428 
-0.005936132313443023 0.05896654396817808 -0.0127704062436355 
-0.005523911938847376 0.01868998184374197 -0.0005870055985124085 
0.006845832472666331 -0.002369295796561049 -0.007615518157374118 
0.02541036160161095 -0.03876260449144314 -0.01200589733505872 
0.02125793351941856 -0.02638985216962191 -0.01010071122208457 
0.004712622752262566 -0.002529806089556262 -0.008572272887399908 
-0.01102417279706553 0.02614980775602651 -0.006731214307874534 
-0.00108272172817979 0.02776480192426803 -0.01284588485309487 
0.03152223454223741 -0.04540177574183846 -0.01126789181647906 
0.01955321629565549 -0.05402086605307239 0.01938883847438544 
-0.008527443234555003 0.003083437939248158 0.0101774304937383 
-0.008552733170027296 0.001675014811161296 0.01186793819444078 
-0.009143328577477749 0.0125145580521928 0.007534756197525295 
-0.0134492665827159 0.005927730864528175 0.03017520548829097 
-0.01196694279922158 0.004722571867842349 0.02902611945150725 
-0.01643498869498573 -0.04713900602591613 0.06178720751836139 
-0.006445062968632706 -0.2150452593697768 0.1765120023121953 
-0.004572732905047106 -0.2720113558592888 0.2204420963022813 
-0.007406303540679969 -0.03444959493837567 0.04528483372519223 
-0.03459778169399774 0.05929642035386322 0.04634410462558907 
-0.008500320505228441 0.01499980382417185 0.009506898932760343 
-0.0160961708048492 0.02945555730414187 0.02447721665680379 
0.0001430008193058887 0.0264927276800305 -0.01252498764754183 
-0.009197229670681187 -0.0002915959789091724 0.02973250647077471 
-0.01437574675029542 0.004459748465800342 0.03362702506272782 
-0.0142739958626644 0.009153493129671215 0.03262702444946786 
-0.008926743389910861 -0.001733612401375262 0.03159591808919285 
0.002181979716576782 0.04213160923832261 -0.03090572652701899 
-0.01070296413144235 0.06479125425294194 -0.03144258741788659 
0.04723906535090022 0.352760600255441 -0.3087102686974053 
0.04577735341843261 0.09558369592892399 -0.116083910392169 
0.01165544360292449 0.007207773982469835 -0.008654949048938784 
-0.00292134515947701 0.00489299768901883 0.01546435640489118 
-0.01323281532983084 0.01380002300853108 0.02214410508963904 
-0.007881617095611766 0.001842672326778952 0.02221631608284135 
0.00905326719040341 -0.007621468597095602 0.005706915660416923 
0.03226261054936014 0.002490944960490855 -0.03272588995077091 
0.05311053799156008 0.02287649378378031 -0.08828701434803442 
0.07974345847478928 0.2480080868786839 -0.280988056672161 
0.02979671801511048 -0.03058966433114257 -0.01439039598524564 
0.01979997033875288 -0.0140740281940355 -0.01002373063536042 
0.004410084912792356 0.02089117565511555 -0.01021186207235318 
-0.02076360597497332 0.04620436266123411 0.0009380777855928546 
-0.006248011518789071 0.001332645075456136 0.01372970612921871 
0.01286310247032182 -0.01211008519458873 -0.003739573854684015 
0.04566834706638194 -0.05831210563407418 -0.007500562717326036 
0.04907297303100086 -0.0236049556742024 -0.03184360243198925 
0.0421668608479753 -0.06542816638754494 0.003759111405220421 
0.04786038914871515 -0.1142459226885318 0.0220407040130028 
0.03101392533772427 -0.07873929588101602 0.01542734068230503 
-0.006216955127759065 0.01008474169338721 0.0007822259800029491 
-0.02070867107154514 0.05489914035265787 -0.006112875774965932 
-0.003213234120524537 -7.196687572096903e-05 0.01220590167034649 
-0.0006114869360993173 -0.01052013082322477 0.01135004415798074 
0.02789385874694787 -0.0947845854033286 0.03246966246654751 
0.02236209453497124 -0.09069650382561963 0.03824712340568806 
0.0591407019324728 -0.08588567050340609 -0.02444644562043544 
0.07414968143189686 -0.1901604198097604 0.03000848376051382 
0.005973908509855831 -0.02181577411963425 0.00817432877893572 
-0.01752076113379271 -0.1084392708406256 0.1240882004247739 
-0.005451721657864887 -0.03111823137151742 0.03818558928769002 
-0.01026309765041525 -0.010395362057985 0.03026359928976371 
0.005631907407965353 -0.02971877599268645 0.06150286871771554 
0.01773618785025996 -0.07070074963633365 0.03812615324597152 
0.0305909786547122 -0.0632855208815707 0.008983769945955842 
0.05913546877548763 -0.09038125630207897 -0.02121069851444366 
0.04809732119302926 -0.1484959444841871 0.03894213407996248 
0.03282971873270651 -0.09910679908910584 0.0200668143634762 
-0.005300160669424955 -0.02671409317781141 0.03466345868030514 
0.02094664739803804 -0.09324331157534541 0.06585852067089275 
0.08430766571950185 -0.256690041482611 0.07654240309124999 
0.03840251564998278 -0.1794230520659614 0.09776192188567356 
-0.01376749021049085 -0.04874503880713349 0.05518411292621984 
-0.01416280235006555 -0.05657752550263387 0.06305135440632127 
-0.01396351484697192 -0.03110482747538235 0.05950783649397028 
-0.03219071277713739 -0.001570397510330975 0.08460245699630464 
-0.03106662631578967 -0.001242560913902663 0.08311103491836694 
0.001099232400055988 0.000809307421624554 -0.002965886512641657 
