solver_type L2R_L2LOSS_SVC_DUAL
nr_class 3
label 1 0 -1
nr_feature 310
bias 1
w
0.01987702477627045 0.08143401167467977 -0.1527210020783932 
0.001800512109782246 -0.01359274772157422 0.04264190150706905 
0.01382872155700908 0.08322048023680294 -0.09139674485780822 
-0.04426028554785137 -0.01422789362123933 0.008263126900839518 
0.008698381121217348 0.04522069189449655 0.01048729188256138 
-0.06692130164751701 -0.1023626870793561 0.1115771012691785 
0.0437659671867283 0.06038140729189926 -0.1179595337719197 
0.00200781891737524 -0.05966458750600029 -0.004965417871915409 
0.00468349492826597 -0.1938897760849981 0.1073546699807298 
-0.09573622799431948 0.03367304740789611 0.05960424186437743 
0.09015538019667445 -0.04450849648403844 -0.1388663268595978 
-0.01151036979975516 -0.0285063673786319 0.03127323948077463 
-0.008758406546979102 -0.06165707471793663 0.0675129456516622 
0.007477374233885645 -0.1380866640507656 0.1020112982143378 
0.05038842151113566 0.0208241748149789 -0.08821256251176804 
0.01237110040497023 0.03379223522272422 -0.09119225134255282 
-0.03823704193025843 0.1417795998143717 -0.05551173333016438 
-0.02095154516987094 0.08626832740310583 -0.01475554854743512 
-0.07100835989611946 -0.03530277309506312 0.1269971799863049 
-0.09255093195731473 0.08281030713839875 -0.01243901980648958 
-0.110543621588109 -0.01636923146724157 0.1726320959281016 
-0.009638169211456984 -0.1378667721732144 0.112193339609068 
0.005287198930334784 -0.08116767341173303 0.02618197450441002 
0.09289876478109438 0.07094870205063336 -0.1268103113945246 
0.03166773670309941 0.08305820289743722 -0.1571336428564659 
0.02141876195949444 0.05173830365995655 -0.03725004780924221 
-0.1338434398833924 -0.06687799887241315 0.1671209773995181 
0.03060411961772985 0.09749350735811803 -0.1067558959992129 
0.0244690281429696 -0.02128596887566862 -0.1233688282310672 
-0.09075922398388453 -0.04181418969684352 0.1125585262352626 
-0.06890230365931117 -0.1405001787651017 0.1774814542785214 
0.01175661850135825 -0.1131670345294713 0.01486285632685544 
0.1188345419036986 -0.007019325635810513 -0.1472371020589276 
0.01267360469488957 0.01860758784680222 0.04706573057259972 
-0.03643891680464743 0.02411549167916607 -0.04336881988328885 
-0.05004766897065223 -0.05858118439724263 0.03157499156553586 
0.01332168718408958 0.03746431389560747 -0.008124542413739059 
-0.03429281502496045 0.06219017619936751 0.04007652158966765 
0.03559809389352876 -0.07782758434113776 0.01150379458169501 
0.06672052897431317 -0.05058008122541877 -0.05885888568922242 
0.01582300535180049 -0.0940426255094166 0.05654990221843453 
0.06079349311769854 0.02414672157797922 -0.000710476516025795 
0.04499522343328995 -0.0603013737702329 0.04428354196890159 
-0.08771128165984445 0.06761679391784585 0.02979538355136434 
0.01554163272253324 -0.0003339053214019201 -0.04963355277419602 
0.04576960043416035 -0.1104215711493402 0.1148157185715333 
-0.03080001501327758 0.07375486590863473 -0.03903644673360104 
0.02412503204855366 0.02227236837251172 -0.005874773058437009 
-0.03481055300741758 0.01946094268148267 0.02478542116530566 
0.05694226610755955 0.006491832155511523 -0.03583461305904383 
-0.05558727523130597 0.0603991006834889 0.02469004116750442 
0.00702838581094826 -0.02809184658318858 0.06952467043073228 
-0.09208959942765123 -0.005033394657118299 0.1166512070399247 
-0.01301764016656643 0.01357327254928725 0.008534678663535793 
0.07850557538776615 0.05749815024981302 -0.1155716163189984 
-0.03375191294582233 -0.0007199104283603021 0.0727951449603427 
-0.03357455692258383 -0.0005915068251894891 0.07230616556084388 
-0.03927585389291799 -0.005387804372979828 0.06309071636481829 
0.02172330455092389 0.07350098483638966 -0.04665950207934686 
0.07199474432487711 -0.01088470262277555 -0.01118706439188669 
0.06026451263425027 0.003559910142926379 -0.0464051550318569 
-0.01722963021772521 -0.04386945810102533 0.06890384351031448 
-0.06645320951441529 0.188022994314753 -0.1265520075906048 
-0.06022899711754622 0.1706506104952652 -0.1161052104762622 
-0.05961246105535693 0.1499250365181091 -0.07796534540358534 
-0.02969483925383751 0.126786682701972 -0.1073407727383783 
-0.03669508109447205 0.08393826607432683 -0.03949048094336277 
-0.08011540944049624 -0.02209149785562755 0.06314750888527572 
-0.01308082458578642 0.05451045990270049 -0.04711719364230491 
0.007144610857110062 0.04324921770421301 -0.0527450444751092 
-0.009215093674068364 0.04801457253741671 -0.04767418602322077 
-0.02606866091557765 0.03221155064264884 -0.02377701778116988 
-0.009304540735666396 0.01922618325834049 -0.004105109859696199 
-0.01014734627222594 0.03087266595919492 0.009385229977058859 
-0.001553059733438116 0.0446550908769888 -0.0166511689315148 
-0.01074162878026631 0.03334949773213115 0.01204910010512842 
-0.0002762382212695081 0.01068122725832744 -0.02276454305734173 
-0.008969057451061283 -0.01575962997063905 0.02536071712287338 
0.008116662822336857 0.002503219006039086 -0.02199488160725743 
0.01756615449265021 0.00877281944181374 -0.02748280687117357 
0.05541675437983698 0.01715987872064221 -0.05372089379555215 
0.007949300918078925 -0.01995304760940006 0.04082489183741312 
-0.004272884109808112 -0.005651169324839902 0.03630697083379249 
0.004744597429754116 -0.01655758305635983 0.03833145619036661 
-0.006988458657734733 -0.007763480067379674 0.02828407301811876 
0.01414958240768699 -0.01140170967174494 -0.01111029406062052 
-0.01228996366921247 -0.00347208225671609 0.01980843407235583 
0.0129011814771389 -0.02721274310913957 0.01943600166414797 
0.02668925673099319 -0.0149602486867185 -0.01621645147094303 
0.01158428321455002 0.00205172860574716 0.007126278965923207 
-0.006627971394009795 -0.02308858932946145 0.02042131066545764 
-0.03174549861372979 -0.005136296840123445 0.05876337980719169 
-0.02453202853348904 -0.02130751022492899 0.0505058406550827 
-0.01204248465809835 -0.004790437573049243 0.01560572241240637 
-0.002930282280389526 0.01592959378978633 -0.02046466750446518 
-0.006366264983224621 -0.01026065820768962 0.006488053500198921 
-0.005174597003093296 -0.005621664585178173 -0.003074374454107705 
-0.004031384905632875 0.02013405721846923 0.02296691766717731 
-0.08723591268020681 0.07383217225690397 0.05710957321807753 
0.06474334709842855 0.01333722316992525 -0.07392359635165759 
0.008272215014043216 0.02659969772065973 -0.0320979832132573 
-0.006025709352958561 0.01761558827183967 -0.0143676378068819 
-0.005238052204269541 -0.0008539886887806464 -0.006581351684913777 
0.01687119046256516 -0.008405490020330786 -0.009854509536562608 
0.01655079071071032 -0.01197330278671546 -0.01643569184445199 
-0.002178674557639565 -0.01577510514468968 0.03048173750386559 
-0.001492135747145436 -0.03626459779254361 0.04337902446128451 
-0.008330397931941484 0.04027113659218823 -0.0260206296927444 
-0.004412020218872854 0.00445630865891104 0.01753850772852803 
0.02122698770427935 -0.019428101151391 0.01315753275733488 
0.02352347994049817 0.001701570140935785 -0.0141623759516116 
0.009553878639134787 -0.001552877177044494 -0.02059030576310084 
0.01316727298805732 0.01107748614902188 -0.01545354336089529 
-0.004756155736962812 -0.002409205820671246 0.01833399169330256 
-0.008172946293131185 0.03635739698007717 -0.009420855031705455 
-0.02991819106970436 0.04636430415932291 0.008544755788080116 
0.0109349357485472 0.02889053521399155 -0.006947445786039416 
0.01570612470961604 0.0147862614654609 -0.01329242835812288 
0.01609642978761725 0.01662778716820798 -0.01672115939503837 
0.006437549290943974 0.0247400908216816 -0.0196537603475942 
0.006299330200229942 0.02904814821571335 -0.01066507372711767 
-0.004089945643615734 0.04783184103825793 -0.02520725586542243 
0.008441636220628379 0.04961241837027765 -0.03529592411499533 
-0.002735196694657457 0.03444287969440687 -0.02878961890934529 
0.01949332732919636 0.03072835712760947 -0.03415880452707402 
0.003958211348162104 0.02001515099995728 -0.01050977293267591 
0.003950995598488444 0.02055189114146786 -0.004234119540135737 
0.02675297463862293 -0.01296973833615218 -0.002497934424665119 
0.02261123272790045 -0.007640125023118513 -0.003744469436385372 
-0.05991799747913679 0.01919204196084845 -0.02187103296148342 
0.0137739858820565 -0.01159633992686038 -0.01004746551002961 
0.01830200646630427 -0.01927749016543788 0.004369793477808263 
0.007940414606759318 -0.0153624942637785 -0.001540861543539653 
0.0147586054397916 -0.01964976635873684 -0.01690780083803891 
0.02644687081124726 -0.04456626630644672 0.01606589340734462 
0.01808169476698579 -0.02927535475717448 0.02809074081181077 
0.01482709402842167 0.006452987076163528 -0.01904216974921281 
-0.0071764390536933 0.01860707320498043 0.002571967446658188 
-0.03026640696178365 -0.01585283037051743 0.02694917005896231 
-0.008842094288009375 -0.02160182838341018 0.01866524081499372 
-0.02019742928371876 -0.02180863640593516 0.02870564857926437 
0.002494250273970133 0.001934979983309465 -0.0155808839779422 
0.01490389210713836 -0.01380235621676442 -0.01949979224217132 
0.006914467881436094 -0.03550219120045353 0.02699703086782106 
-0.004932196340357344 -0.03195380344850814 0.04375783869608064 
-0.009582730293734649 -0.01926495259645513 0.02823105092953935 
-0.005175975727618825 0.009328639893002625 -0.01515843790046484 
-0.0004194306587904564 0.01473605819715189 -0.02596299960123683 
0.002681795500716422 0.0581619168769627 -0.0587387880604737 
0.01122891372238212 0.05366248413315655 -0.0639417996991892 
-0.008643524209837704 0.02678682064914241 -0.02659617346508593 
0.02734094675694589 0.007589932649602315 -0.04646331110636515 
-0.00484542847833584 -0.03994997236014323 0.02586441199715283 
-0.006860889748364054 -0.01800578681896056 0.009726915706841349 
-0.01581373848410097 0.02051176463699978 -0.01944560529038921 
0.01211893131539453 0.09710109256271218 -0.1069880887253052 
-0.001510050132322033 0.03154006513996899 -0.0304108197703873 
0.002169702107589442 0.03609682745562336 -0.0370097908235361 
0.006266430211246979 0.02386202496967682 -0.04502625592415331 
0.01536941925406733 0.002487533311829742 -0.007233363600409519 
-0.0811465319389772 0.0768757322743073 0.0498065435771044 
0.0788018084781847 0.01508774234229303 -0.06967309182701995 
-0.003155163400201748 0.02888994252752336 -0.03722351291743073 
-0.002279621223415026 0.02732280843897041 -0.04409071367571368 
0.004604761971868268 0.01223126778464819 -0.03722098515082509 
0.01299058694097294 0.02091484324846714 -0.0154907756986249 
0.006178669842622347 0.01714842073249586 0.003552733416012117 
0.005777164509618811 -0.01558593627025824 0.02309868582074708 
0.006991528881921197 -0.09741586747213618 0.09181076757151888 
-0.01871224194417606 0.05485874523745211 -0.02737571014480254 
-0.001719552001738949 0.04544192370519535 -0.03979980039153636 
0.00561433289504082 0.02468232170893612 -0.03260620611533332 
0.001028596053438811 0.03106849218790274 -0.03904582922218101 
0.01799683957808463 -0.00806084445544931 -0.0328170184706299 
0.02605476083926793 0.005155772804563453 -0.01538051242138735 
0.0200642187644564 0.01267522199942712 1.574169872548768e-05 
0.01784133711649549 -0.002714528296933355 0.01325754911948195 
-0.03862209156955304 0.03898853449781396 0.02293563921915252 
0.00761678049298 0.02112614236894839 -0.009577507183367723 
0.02656848467574855 0.0008927497554511997 -0.01954940221123431 
0.02681803725867477 -7.415342846338185e-05 -0.01787922036755977 
0.01779249272211134 -0.0006443699419395844 0.0009714382535751877 
0.0232904699045167 -0.01621817459388911 0.01954152915394748 
0.0003906299488488733 -0.001311596263475979 0.02874760250705566 
0.003254822185001699 0.003334818592442111 0.01494352696144296 
0.007643719380153152 0.0005417880963301754 0.0008698556084608191 
-0.08362754692982641 -0.03872051417207569 0.08277074030429685 
-0.1242898327887223 -0.05507852791741189 0.1418680323095808 
-0.06109314890373255 0.00675950580155935 0.02491157067370534 
-0.05400233944864721 0.01149125655492554 0.04026700252684547 
-0.03244893235246055 -0.02178478073754336 0.04377173459748087 
-0.07439121236298768 -0.04384697701967069 0.1130349495844423 
-0.05967838722153799 -0.002996054329703768 0.03854061742433024 
-0.05329823962894854 0.02981579736828821 0.04579610628581144 
-0.062417855656185 0.0268669193079659 0.04248385327535607 
-0.05835533824647793 0.01956094442990026 0.04560890385785408 
-0.02212335529921996 -0.0269687058034926 0.05781961629451654 
0.01613661003442185 -0.02293641649604124 0.00594484604064536 
-0.001578406182172793 0.05294804869459481 -0.09962756238439631 
-0.02160033067353257 0.05517617714602088 -0.05157469851001865 
-0.02912388291716878 -0.008278564626584838 0.03618554089936947 
0.02365982218630497 0.0523186183374795 -0.05011727945427624 
-0.01374558139662478 0.0193163573489948 -0.005078229600161567 
-0.04610707946564428 0.02327460829525757 0.02289638670481802 
-0.006714296635212814 0.08163420141512728 -0.02009897278219271 
-0.02038513067679213 -0.01491060657085932 0.04202280466794996 
0.03338317494848419 -0.08948328386626013 0.03621556487118378 
0.07710676994806206 -0.08096806551111232 -0.01106289447325949 
0.1056716992420339 -0.05390275401782591 -0.07753125404518607 
0.01078394844557489 -0.01160601773850979 -0.02302515616453103 
-0.02690298731809415 0.04956588956795996 -0.02247828011056276 
-0.005420261030461756 0.06399858214880351 -0.04419596331358264 
-0.04285441912140529 0.03629427806585751 -0.007203782702403396 
-0.01875951547992005 0.04035435327321124 0.02301687542635115 
-0.02065822081071294 -0.01765920088986437 0.02287817459682916 
0.01165478303308473 -0.07665278849667451 0.04498315917402201 
0.05632245243985178 -0.1563973394826228 0.1100050498523181 
0.2685687159301924 -0.1440306066180276 -0.1328396858953162 
-0.01219632044272297 -0.0551070239549313 0.02335432786663502 
-0.03271856594955027 -0.01373342905416869 0.007523380553154972 
-0.01205759313472279 -0.007413341660691161 -0.01303425812581032 
-0.04060664911459525 0.01926016341391901 0.00389547855025433 
-0.0793452938336783 0.07998028935769 0.03457230789315534 
0.04919374551158508 0.01493579781466002 0.001943117722734172 
-0.02678799111370613 -0.03014657622618595 0.03774232443673107 
-0.0003743372834243331 -0.01139783959467163 0.004142160906139831 
0.02984000743617867 -0.06738683633429388 0.03363513232499539 
-0.003684237591918308 -0.00649086247482851 -0.01899187310363838 
-0.01253170435621411 -0.01716242924808228 0.02277395971926219 
-0.02719355481298076 -0.02537744041081275 0.03823100501431697 
-0.03010973639327022 -0.004201327259207781 0.03832697174817466 
-0.04263806126378049 0.02662640576081887 0.0309090195685795 
-0.04514150165114141 0.04236075275058543 0.005535054824494337 
-0.03087277356735865 0.03951130325858754 -0.008609282348917426 
0.01218602261389398 -0.01236125722927894 0.002315548200271671 
0.003782112384705689 -0.05060335314762649 0.02224433129769826 
0.02478008777074414 -0.04283939432532174 -0.005346312245144639 
0.01093359819229173 -0.01278017562042614 -0.003720882051674625 
-0.009998465402480457 0.008338097705754803 0.01334848907348377 
-0.03576837973723947 0.01945245665206418 0.01922321475007465 
-0.01376018394691211 0.03036518583313273 -0.02535466706257088 
0.03155532636547381 -0.003323595655534548 -0.03915489795977997 
0.03070955228550633 -0.003858731450776646 -0.0381831711619175 
0.00595082974136126 0.01503705944748445 -0.03138126633439465 
0.02674885422833763 0.007233356212767286 -0.03427287359551906 
-0.005632180813354724 0.02036054730324994 -0.02030112074751986 
-0.0110588835264484 0.0326727468019703 -0.03268500355000602 
-0.01615900711251111 0.0478056344991731 -0.0371852316484003 
-0.1478188750876684 -0.04605629327324648 0.1623952394905652 
-0.2276439627222136 -0.06839705867460885 0.2444231171667501 
-0.1112049350282975 0.09259382258731201 -0.02089978395706418 
-0.1091236780113275 -0.002221779484013549 0.1119561103488932 
-0.07183902549271322 0.02013614257700386 0.04283167740500263 
-0.07543549652182853 0.007803074591747263 0.04856871836229547 
-0.08202268778423606 -0.0353760681716532 0.08406248690294024 
-0.07508628431928899 0.02269005548851949 0.07517447628270975 
-0.07972016802627389 0.01682805486440219 0.08782810887463778 
-0.0894298929820921 0.0404014100684971 0.06945776310680701 
-0.0340310889398041 -0.002887207283950791 0.03243476131392347 
-0.001503532633137243 0.1341840459118532 -0.1525109501249838 
-0.06222939939699202 0.2037476945095181 -0.2258009927626262 
-0.05135459205525658 0.1924845094575234 -0.1960081243226568 
-0.01997126541564113 -0.02863507250284425 0.05949650967303515 
0.03861057980573197 0.01705135593525793 -0.04192758531640279 
-0.001477710169335706 -0.0006055587799661748 0.005593796871843401 
-0.02325112219902813 0.003708904442837736 0.0400323670099788 
0.001830921869248029 0.1033601586347955 -0.0396034022572585 
-0.006945271157301347 -0.02376529065487446 0.01001109022889694 
0.0865973082399441 -0.1275500491644602 -0.02849679994524113 
0.141338375767347 -0.1230341470815935 -0.0658150024050821 
0.2276729403238411 -0.04234238559591648 -0.2352562768365898 
0.0444967646609335 -0.06036767174128344 -0.008148760050167292 
0.001829569371998962 0.002130555797766259 -0.01412478737595916 
0.07342581934626523 -0.0241275058052226 -0.01459585478340734 
0.01456443456940745 0.007207199831351226 -0.006290313486934526 
-0.03900068167389907 0.04334856559571604 0.02276605919237799 
0.01296985617984209 -0.0711434614610892 0.02535161077098617 
0.09694590547362671 -0.1476877711094712 0.0312145707397051 
0.1122496683178395 -0.2412560820984517 0.1548775791589306 
0.3337452593931333 -0.195621687260528 -0.1320741297508355 
0.01789761967881952 -0.131515655058008 0.07925523910540878 
0.008607783663092186 -0.1065360009509106 0.07018288973843774 
0.1177895498045262 -0.1032479619716838 -0.004956076205896713 
0.0473069419816991 -0.0404626714057182 -0.008730509701238525 
-0.07206561638902328 0.09243633663587981 0.03181761226667683 
0.04053489072883576 0.005687391355148872 0.0368815820786054 
0.04845303876205764 -0.107796708658924 0.05476853034726726 
0.06465261677729331 -0.06307431333621091 -0.00165940678340066 
0.07878385682988072 -0.1136736944324203 0.04276881128594733 
0.01123319757351066 -0.02887395822033972 -0.01319811998139655 
0.04058691320238565 -0.1093764666868409 0.1029784499420297 
0.03475278383405652 -0.1197913670660875 0.06775905170953796 
0.01335683373867202 0.07132084506651677 -0.09989536609048481 
-0.04755005351218501 0.03399394731548057 0.02473265565212726 
-0.04180654822983523 0.05277029268806424 -0.003805070761053573 
-0.0065350174390434 0.02491009529359684 -0.01186780540138548 
0.1060356280736651 -0.1040228358021009 0.02754072254863884 
0.05891726439690155 -0.1013520354266404 0.02127414296799899 
0.06244310166687818 -0.07210347287408173 -0.001307725514647718 
0.04416346390350172 -0.06624847599673485 0.03107901607144472 
-0.004607334916565701 0.06673557278734131 -0.01784369477084271 
-0.02265580088638995 0.00924534196831156 0.01596383833487512 
0.007473053848938595 0.05036546489906154 -0.04207142831054143 
0.09762738911768475 -0.04449925194077357 -0.04165784973103187 
0.09491213449797678 -0.04275599852376345 -0.04131031480788555 
0.04033727998727182 -0.009952127654856653 -0.03963656892515061 
0.0891940498925281 0.01697522817450204 -0.08595505884462945 
0.01791350234075051 -0.00023579796213641 -0.014215079941398 
0.0009562505500555751 0.05014765952184031 -0.04405530576119904 
-0.008446228834553812 0.08363183188701084 -0.07003337306995132 
0.003935939661675018 -0.02022280636815298 0.007200274045583 
