solver_type L2R_L2LOSS_SVC_DUAL
nr_class 3
label 1 0 -1
nr_feature 310
bias 1
w
-0.03178811394493197 0.1712320851074609 -0.02256485464809953 
-0.02097310911452296 0.0202535217654317 0.000125488045351959 
0.03205444234709972 0.0441521452636439 -0.0781602806080581 
-0.06072247174542655 0.09303728798755559 -0.00313738950541449 
-0.02362533117730571 0.02830967748197634 0.005345507893455601 
-0.01325174948566541 -0.1323830729111687 0.1607229460290736 
0.01147356941227881 0.0868318274956373 -0.08112881255547887 
-0.05654874717114826 0.09773562840015351 -0.03755978131801484 
-0.05329127757757768 0.0394964690428142 -0.003986662711110971 
0.008634019618925032 -0.08839629734096585 0.05685133020437181 
0.02109752190557008 -0.1157401247659203 0.0753583481485499 
-0.01164315195120113 0.01069089067710528 0.04494208632871172 
-0.03795497639818758 0.09861746523274224 -0.08588963221980325 
-0.02165157648623013 0.004119569971399034 -0.01874635325319315 
0.02859079419473993 0.0588012289761591 -0.07837218376098876 
-0.00149972828363905 0.02766970796230367 -0.06464010847430229 
-0.01350039532763788 0.05788029358346101 -0.01589577475989273 
-0.03770769636763422 0.006313974104865359 0.08629575425156159 
-0.007869993120826105 -0.1527906360355477 0.1478880873899248 
-0.003081301024118056 -0.05408780581608438 0.007331200333486645 
-0.008061657440349776 0.04331666317980938 -0.08358171832859573 
0.002193651827915857 0.007924355723271829 -0.01025753138751274 
-0.002550024286668854 0.0309526416936284 -0.02378446474592559 
-0.009057806725980486 0.05357910142464813 -0.02541514663094321 
0.01504688546587081 -0.07566233089620193 0.01596249690793762 
0.01694950097145707 -0.1051844012349094 -0.001712671372672898 
0.01011739882004476 -0.05557271019990866 -0.02417270181164025 
-0.006445066454977503 0.1217805294736109 -0.1329695655131207 
-0.06562348529969882 0.04838613087906923 -0.01962896613467804 
-0.02342964078243659 -0.08157321138363199 0.08900206192326279 
0.01018277176589622 -0.08680522552590642 0.03939289355320884 
0.001498335346065515 0.06149523637497709 -0.02342156349854335 
-0.01410940848742714 0.03384501878454752 0.02887508447972131 
0.09913717927316647 0.08119093743204095 -0.1056441000103145 
-0.007136383026889205 0.01706374002082294 -0.0323324798656404 
0.04937579153071808 0.09272467858616287 0.001359820743052016 
-0.01834121416241118 0.03632971210617138 0.004842376094433041 
-0.007196892146442413 -0.005128471184734732 0.006059180435026645 
0.0449292872317943 -0.1472429648057136 -0.04172640739889911 
0.005746799638499708 -0.03697432124759057 -0.005976285888825733 
0.005432456708777677 0.03710860457851448 -0.05545489937337485 
0.06469431995333434 -0.1030787531362903 0.02931444331979619 
0.02726237294858064 -0.03148794834056457 0.01365753594062544 
-0.03672262022326606 -0.02477794034448502 0.03275407674578863 
0.05044882966966251 -0.004141671322403112 -0.03684568814746944 
0.04735435183721452 -0.0005942949015475673 -0.03620742462851717 
0.04475233666280532 0.003234749882256542 -0.03394848705343954 
0.05860229489394111 -0.2152995452691304 0.02147388099294972 
-0.01511504448138931 0.03238795718215295 0.01319087174645961 
0.002497684470861188 -0.04499670581311353 0.06339253783734652 
0.06635633002108739 -0.07509051941374534 0.0008465938367699784 
0.01743352897507819 -0.09146398425245794 0.0887988300084869 
0.01715305607392831 -0.09220155614348957 0.08940756277285206 
-0.01952042408327912 0.0482564713456318 -0.03442208870904163 
0.03247242165301666 -0.05029671671749161 0.0143337599331662 
0.02242470864332788 -0.03109611661116965 -0.07403436326181377 
0.02253557842970515 -0.02901929766010515 -0.07649083776449482 
0.01665511525536363 0.03228514537739375 -0.03735852620122022 
0.01302367024918199 -0.07488362580614859 0.08328350687080804 
-0.005941876605185974 0.09526495235571328 -0.07214731509424725 
0.005838649160703783 -0.1029514092076398 0.09500382641859885 
0.006193173024128234 -0.1040170606345478 0.09452141688503937 
-0.05849557470412391 0.1472483880287093 -0.08523244575886724 
-0.05268331901519926 0.1362623898304003 -0.08650104848522426 
-0.05271079359656877 0.1296106398719769 -0.08456646775429628 
-0.05283283868214998 0.122109824433533 -0.05641076496157647 
-0.04483707340870677 0.117369960360172 -0.06246613311914315 
-0.03475452046315924 -0.05909588712268615 0.1078826796132455 
-0.01525916727643416 0.0808415443096248 -0.06764451934272134 
-0.04046828116363341 0.08594269230847391 -0.03436005174767245 
-0.04093648652515811 0.09603752713076394 -0.03236282900007673 
-0.03915040912849786 0.07737541258066291 -0.01631582257615246 
-0.03449169578851544 0.06820274445325686 -0.01751093842405202 
-0.03842822984935278 0.08160932008516637 -0.02804919767411377 
-0.0373617000590619 0.08383894790289634 -0.02457813259737598 
-0.03524633043542474 0.0799931126215046 -0.0356279568394741 
-0.01484394861715302 0.03643912149796982 -0.03427481059681078 
-0.02086666844377295 0.03757957674141064 -0.01644769712810107 
-0.02244160274572085 0.05805084135118022 -0.02686233900296816 
-0.02496054298063551 0.05402083487078056 -0.005910217730431159 
-0.02130440782808004 0.02049290854042179 0.02026503243297541 
-0.02953861904238864 0.03594385451409225 0.01868361759103679 
-0.03183837965456412 0.0505252179931447 0.005463089965614456 
-0.0256088564023984 0.02187082556376969 0.01283447171038513 
-0.02242573176334189 0.01999347758726831 0.008137624653114912 
0.005369310066888571 0.003842577488574592 -0.02858187339148919 
-0.008586144448595786 0.006336234100733779 0.0007470563732505112 
-0.00833239765140785 -0.0008850017437848998 0.02404736505957123 
-0.001181823469785732 0.02374881223324997 -0.0008489884659005108 
-0.01685308996923552 0.006739924487718216 0.02233444674798343 
-0.02707456656215228 0.009180452354166757 0.03779986774435722 
-0.02015142248165994 -0.01183580757610115 0.04415556371973288 
-0.01378307316645865 -0.01687628823980651 0.03846194751998577 
-0.004725684856453423 -0.01179187977448864 0.02772706650192856 
0.01753121880436109 0.001815673717035266 -0.01821573508629204 
0.01844188638209742 -0.01302198646835503 -0.004545289373533593 
-0.001281724559114676 -0.005829733651369934 0.0315831479819945 
-0.00747291518360524 -0.0005733513944437845 0.03199782153566663 
-0.03423327836377371 0.06630656925390545 -0.001712769592399195 
-0.001661541895782938 0.05458026451560852 -0.02678239606136236 
0.009344953913789224 -0.0089781360647901 0.01296471057105724 
0.008154458652664025 -0.04251004665983277 0.04748057982434686 
0.009968386481320247 -0.02345266816404891 0.02731407005569987 
0.01527977545859365 0.01175158262977805 -0.02150721996361216 
0.02313419591866064 -0.03955472001864807 0.03493659001898909 
0.01229349187865107 -0.03787935204610348 0.04995704321814692 
-0.02503436049929118 0.07427252519956407 -0.02199515386878595 
-0.02654300998228469 0.07636227228443783 -0.023136573169547 
-0.02655712533818428 0.07758373870448949 -0.02560935981741391 
0.005763073777447975 0.02210384173509481 -0.007354587708108503 
0.01602235455499605 -0.0362062313407177 0.03516048302151269 
0.02630994696104721 -0.0612816449339388 0.0389148318877577 
0.017742430120425 0.01513821257188614 -0.02074498382002663 
0.01621539441193785 -0.01736980499774821 0.02351895925064309 
0.01667756262133894 -0.01565446133436529 0.02230419882308402 
-0.02353954268843701 0.09879914384765724 -0.04502745457599564 
-0.007606041619488214 0.05492969288462041 -0.01640629642646055 
0.02030446261106524 -0.03097869855963221 0.01928493828019416 
0.02070644475093041 -0.02924966659035703 0.01544210916234817 
0.0122422705509768 0.02727161672032992 -0.0324565498874223 
0.003393888045835223 0.0265341095210084 -0.009055281579555444 
-0.0002989329397061167 0.03930806636476009 -0.02109482398098507 
0.003141238852570484 0.03230172194595072 -0.01926784141271147 
0.004837879955397834 0.02681692998085902 -0.01703494282914307 
-0.008429227301901258 0.02981305442820913 -0.04699654571308508 
-0.01589149469295487 0.0652618168343742 -0.05900695510334047 
0.004998415321945818 0.04328516558894169 -0.05169321433346694 
0.0009696865473863242 0.02074745163536138 -0.05068359950135942 
-0.005282694151244699 0.04509742909556289 -0.05384797496269639 
-0.06619005330826692 -0.07932719750216467 0.1389536967879029 
0.0220424479872988 0.01068283914520297 -0.0388329468920722 
0.01032763248736451 0.005804036733700533 -0.0462593187815667 
0.01289529305094606 0.01620150455095945 -0.07049573748836152 
0.01483379286751878 0.02463965320918913 -0.07757831478073754 
0.006087115433179959 0.03121185289687365 -0.06453812609477573 
0.0003776737903189295 0.03195694257242323 -0.03978838462996427 
-0.002182359624666619 0.02869371936230763 -0.01161900536669099 
-0.003527537957866395 0.001491788171621274 0.01630376095211672 
0.01935211635522261 -0.02891610771972968 0.001122861559155381 
0.0154001433474325 -0.0210974634592559 0.01212518472617069 
0.009108371122558532 -0.0224662036579425 0.009692437191667336 
0.01605042223593237 0.018258011979582 -0.06523434239132041 
0.01993500797670295 0.02488000526235893 -0.08638197889726826 
0.002489879828549492 0.02409032464104696 -0.05515474388855583 
-0.007736270477903534 -0.01611734718356045 0.02065761587469998 
-0.01333169657939972 -0.02615571505922337 0.0680186937649305 
-0.01028929700805426 -0.01412824895788392 0.04981086181262646 
0.01421943770888105 -0.02193156395641178 -0.005220168052376226 
0.005319663973619225 0.0003802008588181438 -0.009760706449763587 
-0.0003538201333052417 -0.01882526460765021 -0.01144553109603554 
0.009603769301564225 -0.01029307968328368 0.001628402701233626 
0.004476444721334659 0.0410814505355598 -0.06672038234222015 
-0.001954172927757171 -0.01270807434744309 0.000782999128879182 
0.01293865766117825 -0.01468771871371044 -0.01487539468913567 
-0.003384266548076499 -0.02243248486681635 0.03923945578399171 
-0.01076261021568497 -0.01472933184671852 0.04983753848102791 
0.01932211866176431 -0.04316713330882697 0.01297828889926344 
0.007370013993698276 -0.02009270061244811 -0.0009315325549848253 
-0.01185027041360125 0.01353567033322491 -0.01753765745677349 
-0.01771754144895086 0.03674311425395475 -0.02242928314554525 
-0.03359528839041671 0.07408081512968714 -0.02467568847961882 
0.0002980800971362959 0.04209819687976838 -0.03916510933064189 
0.004439615249539775 0.01423087228820272 -0.02876216708849924 
0.001733160645610526 -0.01260593074725294 0.002160951760887535 
-0.009427302925381681 -0.01813651292099286 0.03844865322884517 
0.009325611841792515 -0.03305727578332223 0.01116321897973233 
-0.002297842814113677 -0.006622935253850828 0.009975459139694933 
-0.02067439635417467 0.01460901598827094 0.02015544748702505 
-0.02968580373912607 0.04196494070283983 0.01014708365463726 
-0.02992878512316455 0.04201848973082149 0.008976950621531542 
-0.0298780956655887 0.04525116878398153 0.005261539122631448 
-0.005642977197013543 0.01640187504306987 -0.0125429520305684 
-0.00217704632312397 -0.002825466969509827 0.00306510573042375 
-0.004444196534845365 -0.0165227532971047 0.0296018320421166 
0.01539341453594915 -0.04390888951734315 0.02408231028250166 
-0.009614600138952746 -0.01550996568725431 0.03618592684722154 
-0.009784304763583242 -0.01745200255954424 0.03823014891181246 
-0.02808350258024711 0.03003302293891835 0.0179501620101506 
-0.01397756924372902 0.01072950320111977 -0.000878074339168619 
-0.009018519431243332 -0.01011557438503717 0.02371183594902751 
-0.007982761688871047 -0.01052508267988983 0.02069906142602092 
0.0123093283703356 -0.0347251678691663 0.01521167578555266 
-0.04090408526746843 -0.01080172370028571 0.07192813701147829 
-0.0267387176313588 -0.009037357019621847 0.0493566662308211 
-0.006966144889330725 0.0002558098169060855 0.01720257943254447 
-0.004402635704792485 -0.004455559234291852 0.01774343795533952 
-0.06972582951501195 0.02042532057526155 0.0453025947333761 
-0.08071952852963596 -0.008752606869509259 0.1192098386281353 
-0.0287941996621973 0.02860175125572809 0.01211170678616524 
-0.01400272818257194 0.005161989815877626 0.01104534184737396 
-0.03764781266210535 0.04685979251785633 0.01746455607390863 
-0.09192608665103653 -0.07471679945967089 0.125456399259648 
0.0532475964526777 0.02330596358226678 -0.1078377506346231 
0.01146298112340773 -0.01349625418510904 -0.003488694964906805 
-0.006167777550330738 0.0003238401577730758 0.00870450593358247 
-0.01140558186573353 0.0007344958104864453 0.02061355779066254 
-0.008700095135739862 0.01102693529002023 0.004953702498920061 
0.01531698068594175 0.03160555062665537 -0.04858348188114003 
0.05266949403864025 0.04657145558050933 -0.1259473037344505 
0.02043735090880242 0.03963968067100167 -0.04558865174652803 
0.05866654030043702 -0.06359221347819471 -0.04760082407307959 
0.0814325783343607 -0.01742675684031342 -0.09973052013171843 
0.04253433250323228 -0.02420540133468959 -0.04044913363448824 
0.003163465968118648 -0.006993882519317576 0.001276142715374515 
-0.01528475482858246 0.007814574126836643 0.0181154141219639 
-0.00196781612871353 0.009289909045674859 0.004472321517095619 
0.02491697528744896 0.000304488827447193 -0.006283172600298966 
0.02957422210017922 -0.01787345266870097 -0.01400361796601237 
0.02265954798620917 -0.02292202064966136 -0.001287457443884659 
0.06882842116323509 -0.05770627713991749 -0.04475510991682718 
0.05100489981269846 -0.01020887756115614 -0.0835017733349285 
0.02142079563124746 -0.02643927468514692 -0.001933831972153934 
0.008329396123930417 -0.01120878607698456 0.007063498967217705 
-0.02659480865919992 0.03649483769889691 0.001617407882115787 
-0.0004435282627249929 0.004027921659273722 0.02244137915789489 
0.01650404784418609 -0.03617331732493886 0.03570084944274289 
0.01120575080971883 -0.008579787305670949 -0.007332098900790328 
0.03490753734886629 -0.09488266099838098 0.02638704486722148 
0.03040712122890343 -0.04012248680336418 -0.006905382905110764 
0.02387783041367055 -0.04235180402629123 0.0004906681879488693 
-0.005428035329409315 -0.004060295340420702 0.02267457996743219 
-0.01865949381228869 0.02690601790459018 0.01638924768385848 
-0.03296222919641094 0.05447457735568902 0.01106933279438391 
-0.01828014044895964 0.02065612804974652 0.01488034319154654 
-0.01169387065875857 -0.02054929712909546 0.03468485491196711 
-0.01938190733072003 -0.05312145962145434 0.06494366021980466 
0.01205235440315925 -0.04366724993385386 -0.005943036123325628 
-0.00973840999305523 -0.05093595740544887 0.05758812886996349 
-0.002810970770817834 -0.01889679169233218 0.01806993734162435 
-0.0160173147362252 0.01195349703691559 0.01581194375214995 
-0.02632220047670805 0.03901584657407117 0.007750084261383875 
-0.02576977038751157 0.04011640423833729 0.007390592388396076 
-0.02643309051792636 0.04544418535242322 0.001615497594124012 
-0.02014789706124041 0.001292630208769172 0.02241397699851244 
-0.01797694019089118 -0.03993882813577398 0.04759253444646373 
-0.02641112007507702 -0.03165725544697214 0.0596172448231568 
0.01434545862992822 -0.03767141149298784 0.01206304428086191 
-0.02436273416678659 -0.01704304853427884 0.0487155910460187 
-0.02403929926093011 -0.01689364988577282 0.04905267220865259 
-0.02564034571695507 -0.0006092224243030791 0.03967909500524991 
-0.008684838679347349 -0.03291951856928393 0.04093329052541386 
0.00201607486809652 -0.07243078827994302 0.05978685052625743 
0.002327094537844154 -0.07180158761037364 0.05836426110593707 
0.01209933947959277 -0.05805301018822216 0.05226163368984646 
-0.06422718658190436 -0.02722547020465457 0.1067123662509292 
-0.03763442876344112 -0.0802321193136183 0.1296230062229369 
0.01300768734040634 -0.06662071335908912 0.05744902414271477 
0.01390623992275827 -0.06691987997837653 0.0569510990558862 
-0.1013229825331629 0.05741136120193012 0.06859295138950391 
-0.1290363635650725 0.06635980036649562 0.0865295488269214 
-0.03021715653456957 0.05200890067848335 -0.02464890445734589 
-0.05243482000470877 0.07844517692438469 0.005952556528686986 
-0.07121418041265319 0.1177814798439121 -0.01838209662635156 
-0.05663002587411285 -0.1203580688232262 0.1242553497351062 
0.07674000890916587 0.05446491431197204 -0.1558463553290912 
0.01023269984880925 0.03246569034457292 -0.02250989962222397 
-0.02989637552404319 0.05470533428282948 -0.0001049516145093988 
-0.0522107098310076 0.06338365177418291 0.01716560607192214 
-0.039153524088911 0.09113445763008618 -0.03524451402293591 
-0.0003427771375698097 0.1216672028995126 -0.1308502934005558 
0.04543042981206525 0.1278350387603693 -0.2213268339497544 
0.0269910031357314 0.07304852218698253 -0.1069209633071184 
0.1282697411115354 -0.1197034397396223 -0.0666811685084289 
0.170165194405952 0.05397755125319411 -0.2508899295305185 
0.1068634890026834 0.01379915527250542 -0.1301436485774621 
-0.00117112430739258 0.02319315475559875 -0.008288782325008863 
-0.03154714727825929 0.02921730962350183 0.02616451930303409 
-0.01345864775455944 0.05356411658080242 -0.03054654256197173 
0.03029086901608131 0.06807762775290739 -0.09459698733392152 
0.0481312312478368 0.0288881411633546 -0.1027843715908479 
0.05619359537086232 -0.02782512147698255 -0.04080991734344933 
0.1215944332358379 -0.1305135203919911 -0.003253663194306472 
0.1197842274018909 -0.05392216417718974 -0.1215915498735522 
0.05538418171415757 -0.008881189122117638 -0.07173526234556386 
-0.00756789096424707 0.0258193172395517 -0.005234730673019137 
-0.03834626674793459 0.01749495202838802 0.03910038354740067 
-0.02348815532121692 0.01321560598495672 0.03065215507512038 
0.01156304032364057 -0.01030745543831053 -0.001091311981733889 
0.02774398070928631 0.01456796702623057 -0.08144436473230411 
0.07173155223227248 -0.2000315338196153 0.1025015091981232 
0.08888692536915763 -0.09350860811461337 -0.03425513311781607 
0.07691025782234391 -0.06896426184779182 -0.04849073547838959 
0.009433944616611539 -0.03613953232017707 0.02794425418610788 
-0.02311570486489424 0.0089192291058842 0.03715156118668272 
-0.02950631354492211 0.03805966023728342 0.02577460045265129 
-0.02437584144301012 0.02982692672233008 0.02091115720721353 
-0.007635725753086657 -0.03751177335455047 0.03758041773072229 
-0.003378073552227992 -0.1179371523628108 0.08866897339881799 
0.03398498557047409 -0.05365314333266252 -0.0336169057138184 
0.03831048936383216 -0.1027358780774824 0.03450180993662286 
0.03893410574050421 -0.07352019507425971 0.01333200745525994 
0.007971132152785552 -0.03734888422311779 0.03220528842111205 
-0.01287272098322507 -0.009938778088332904 0.03718439663184615 
-0.01035327392238853 -0.007277927072652414 0.0323098928060216 
-0.01056144164304383 -0.006036667920739843 0.03099315366606482 
0.002556836030154883 -0.01814610269986324 0.005871899732588394 
0.01302483933007808 -0.1198223455663416 0.06326358401371811 
-0.003567445495725737 -0.07509601696235003 0.04691402656233475 
0.0659689895277113 -0.02236889423785886 -0.05570083802637235 
0.01014246268246652 -0.05212606978966714 0.04728505054316463 
0.009664993370584234 -0.05138695342186909 0.04778134931591333 
-0.01076529250556944 -0.04031436902871114 0.06122119095698229 
0.03154495017065256 -0.05962318782344806 0.01275231130260652 
0.03168916352766869 -0.09495166662005038 0.03755323110233408 
0.03069739434310099 -0.09417425489684679 0.0389828886293205 
0.05222252214125767 -0.01446581000109863 -0.02588528180187582 
-0.0419498491986094 -0.03954793376387175 0.116737526143959 
-0.03024892409523358 -0.1064806162817388 0.1603826627151321 
0.04596840382673231 -0.06105831309107108 0.01256737429698541 
0.04724747632028647 -0.06234134493125975 0.01177936287534446 
0.008475967602111476 -0.01118366386601762 0.005178525632162211 
