solver_type L2R_L2LOSS_SVC_DUAL
nr_class 3
label 1 0 -1
nr_feature 310
bias 1
w
0.02135023579421261 0.2449340564325167 -0.1777573498591859 
-0.06305812636366954 0.3127676460365421 -0.1863616252793777 
-0.03746303521391649 0.1675624846690471 -0.0987399222853563 
0.02077200036632298 0.2792142430361549 -0.2335852284445708 
-0.06698903156302159 0.06735776893149092 0.03847636228505927 
0.08965213802306841 -0.3168598086523327 0.1803334407455746 
0.05711226587963555 0.06795842863131957 -0.01940320606949468 
0.04761096199923279 0.0730997929117678 -0.1029881092221466 
0.04058988083282172 0.04388635566144935 -0.05971962275467996 
-0.005655198978775792 0.01500459288413759 0.003449802619299405 
-0.03792457974606947 0.02676583123746247 0.05360125030466831 
-0.06777993241670571 -0.04372178053138021 0.04679625257639439 
-0.09025215177210325 0.05364413242397337 0.0009180731987710543 
0.02671616084554207 -0.006455922510635196 0.06724753627701618 
0.06087103845269823 -0.1862589794799269 -0.01651244307866681 
-0.07584459418988666 0.1582736314953762 0.0237977718559292 
-0.08604646966927307 0.07663189709497964 -0.01517933899536531 
0.07675298200054063 -0.08432367892070815 0.1086750291015368 
0.05133631075353554 -0.04118089983050858 -0.07215871578154943 
0.05276299186852295 -0.05721466804764772 -0.04329507429215628 
-0.04196975867022194 0.02816317334512786 0.01962827066156208 
-0.01062122623601863 -0.1137297811256834 0.07050530138507818 
-0.07236215010125206 0.07486581868370024 -0.02977481884796456 
0.003140698656355332 -0.03082083235812592 0.04214198353814643 
-0.06761111398567174 0.07681978641422027 0.04288193003308595 
-0.08940969938677339 0.1310926322632067 -0.06352081341715525 
0.0007198202562277803 -0.2100412727521078 0.01443191141951435 
0.0453441325805536 -0.09526208052273025 0.05200108961650583 
-0.04798484424926429 0.01167523131960689 -0.0002305501972215119 
-0.01614745281974187 0.02759174823227482 0.06085758831664003 
-0.1235909556952077 0.1244431311247725 0.02005753612104887 
-0.1930756511695081 0.04441516502913578 0.2678617574045809 
0.1094071547964292 -0.08000625986029945 -0.1011396220326556 
-0.01755981533263696 -0.03611943581695529 0.03743432678333156 
-0.06450201579867618 0.2242765291253644 -0.08200920475794837 
-0.0478462035627434 -0.0564464863991303 0.09975138683754135 
0.01725102770302592 0.1972465102630007 -0.02503718542571396 
-0.04672742924084825 0.06495390504428922 -0.05894797551244477 
-0.02093139070227982 0.08404396987978559 -0.1074316381825656 
-0.02791769777540212 -0.09865114016179397 0.01857457742269156 
0.01473592322546212 0.02490332709551432 0.0852404826335534 
-0.08489399015941657 -0.2883331855007569 0.1927238397569024 
0.101150796974712 -0.1202060725501551 -0.1447772696260357 
-0.1407217042874755 0.3795102885967679 -0.1342662585262791 
-0.1035897217487848 0.1661841147945451 -0.04321824356279282 
0.05216626868674264 0.1034877914115277 -0.1922144587630939 
-0.08790128079958416 -0.100325271121386 0.2425971318958221 
0.009013043505005954 -0.04307598330400446 -0.05353647805722282 
-0.04930325206193056 0.1668159776879169 -0.111207122528535 
0.05933448633039031 -0.1369272851248085 0.1012815607123349 
0.005155862179932113 -0.1290693084889329 0.1027339925272706 
-0.07429133549889945 0.1648437314255504 0.03106082890088806 
-0.009269814642407132 -0.0732586702881412 0.02960037654727529 
-0.2512736793628447 0.1343121333604105 0.1194843655724939 
-0.01112798900706412 -0.1090561296810163 0.07568517306615914 
-0.005056147471232644 -0.1120749288585728 0.07350532736883943 
-0.0006495798464459155 0.001551902611765977 0.06084687712971142 
-0.086304874133618 0.04851086641647343 -0.09258670746797634 
-0.008042749017432451 -0.2221283423495695 0.2196353071319849 
-0.05141240166965438 0.02900827346871809 -0.007051161131311873 
-0.05132582427209834 -0.1993846919954454 0.3099081068222784 
0.06723303250322293 -0.4322794944690284 0.253972205300602 
0.04851159237933959 0.1767962639119314 -0.2129951018034755 
0.02886515638181116 0.1485009460263047 -0.1997756554006301 
4.704299065617769e-05 0.1069321250488506 -0.1493451457640549 
0.04892871460194956 0.08752202464148194 -0.1629704789647655 
-0.009257734324243899 0.04828614623153583 -0.08677129692071882 
-0.003989512991194474 0.03008677878165541 0.02046296305258302 
0.04531367660718514 0.06597787575631975 -0.1012939973919109 
0.08617694473975693 -0.1451896182981481 -0.06128813644480612 
0.03163104651575968 0.0008827822597851702 -0.0889065170974615 
0.004943585513127601 -0.01835674903370257 -0.05464918359316701 
-0.0191848557311534 0.0248383769698689 -0.05827922742334933 
-0.05216940058441472 0.04346706103682103 -0.02386780070274354 
-0.02738202254411583 0.04713377671462827 -0.0262542692608337 
-0.01248151942824093 0.08769473678788058 -0.05424462949557346 
0.02696944845655681 0.01246375021854055 -0.02680619081110341 
0.02472539496538033 -0.03645764307422038 0.0100332376527457 
0.03103593709288719 -0.068223024220504 -0.0142609875548827 
0.01361254230873735 -0.08039649727555173 -0.006018960099940422 
0.00522707030520087 -0.04653900997975069 -0.006453763229019182 
-0.05419666330938196 0.01142644341042525 0.0151251275594849 
-0.03823585340365188 0.03601976520708464 0.003613437354980259 
0.002232906844232691 -0.005254074955732943 -0.013442914101629 
0.01575932450946806 0.04703131470509848 -0.04169601450194848 
-0.009581958591846781 0.01013473588613316 -0.000792262644846251 
0.006675418842428077 -0.05132340652734609 0.03676068953597746 
0.003883430447406689 -0.07047567497355471 0.02213713737011277 
0.002521464514804984 -0.07418572364458553 0.01014394167867025 
0.009410743294454876 -0.04844488040115698 0.02782758707168512 
-0.09117603105225434 0.1270176034874954 -0.01129252460582542 
-0.01918543840133622 -0.0188107786341611 0.03851389956315372 
0.04319626972046821 -0.02206957839831906 -0.02025246958726288 
0.07520486328617243 -0.01993248373880857 -0.01544118590409599 
-0.02299008727365676 0.04512709192116712 -0.03255313149766337 
0.01220644417585558 -0.03450335401343535 0.00954597889665159 
0.0007924543715266927 -0.04335077774545638 0.01277932834735115 
-0.03461922002101055 -0.008929954839135643 0.007049139092435846 
-0.05831865042104237 0.02210948693706992 0.0252939977779378 
-0.01095929932254532 -0.00707857071158072 0.056955520343653 
0.02607098834571856 -0.03092427003875165 0.004099318256833662 
0.06936455564106075 -0.06566151157530815 -0.0202111366294611 
0.1059642242991817 -0.1599676200420067 0.0204446301709046 
0.02821447738904847 -0.07640870296385822 -9.086572762034934e-05 
0.02529829257940197 -0.07315511780083685 0.003651402928900393 
0.04868211497387972 -0.1215980458467513 0.0172508314816141 
0.005368241124537247 -0.02914345242154576 0.01674313406988106 
-0.02494985197853291 0.01645571920006717 0.04762208578090139 
0.0186072826505561 -0.05962230750108158 0.06415446539195215 
0.03394481966162864 -0.05660188649639051 0.02706349292575177 
0.06571842915346215 -0.0725739975728366 -0.008241278144625712 
0.1006533422551697 -0.1861384701214046 0.0306714114449661 
0.06642780184290641 -0.1525921966806001 0.03382621677721977 
0.06269016573049684 -0.1631002151747578 0.04435578600300435 
0.04154593596139205 -0.08467575760199025 0.03202653304380996 
0.01207477001197728 -4.968941175463982e-05 0.04379827605896398 
0.04263087099051756 -0.04051369950455321 0.04236406908427803 
0.04322397992013422 -0.04547580663421728 0.04423871750346887 
0.07443420692155081 -0.0911950130010408 0.02363390866229204 
0.01293715282175168 -0.03464951939613405 0.02888878403276825 
0.05112523770865468 -0.06891394196781081 0.02972943462902786 
0.03147656027863776 -0.0147807076436694 0.02665097697123707 
0.03626948013592222 -0.02292085569064309 0.03901501978361473 
0.0273503133193071 -0.04194314634539351 0.03825889514941089 
0.007485690223418246 0.05916172902048058 -0.1031874750737555 
-0.005542551313649933 0.06244374978829329 -0.1078451523434862 
-0.02440987455590769 0.06567303463855081 -0.09183902035440362 
-0.001032511073407917 0.04769468430866539 -0.07895561076614792 
0.01753055835339365 -0.0561304540513996 -0.05304884693015534 
0.0146058801340582 -0.09768265554037589 0.03281105767584681 
-0.03651639971258622 0.08788497069947772 -0.04206928028193962 
0.01011138623479391 -0.09782482236879347 -0.01009311413088962 
-0.007216988387279269 0.05513875438941286 -0.07858518737598981 
-0.02063035441296037 0.05790426234924623 -0.08267046512004703 
-0.03304138858327546 0.04605287240386412 -0.08393940321203577 
-0.04738225191702463 -0.002015869260915501 -0.02589345734931225 
-0.07646962948008365 0.03290015070102422 -0.0003733931884020795 
-0.04665659422369869 -0.01503664084422141 0.0204212670856963 
-0.07113459904531608 0.1492529260995893 -0.01739248382910243 
-0.04965200122027529 0.03961354924814971 0.03836711985952793 
-0.07031762984005728 0.01068507593626052 0.08633445681524096 
-0.03585813065442516 0.06352607822888201 -0.04928430461063108 
-0.02550262307463803 -0.004662145028626985 -0.035167978586606 
-0.03135154449725321 -0.02854244355618242 -0.03987964507001431 
-0.08470879135621122 -0.0159522536905081 0.04936629104152685 
-0.04056803181442424 -0.06685391121070257 0.01395676418731629 
-0.02311622912055509 -0.02828761691106123 -0.008403685570295985 
-0.04287440191417888 0.1621820915061512 -0.07297497909891099 
-0.05850610226706748 0.04966782645878856 0.05602521781710616 
-0.07565661610681101 -0.03994745728326572 0.1109431525648844 
-0.0512770460411884 -0.03864842603450663 0.0683932201670652 
-0.04467150038261247 0.01673386919308876 0.0002752402596861981 
-0.07026192635817416 0.04677061817086309 -7.863531546497349e-05 
-0.1217222793338763 0.05576444053248707 0.07638413606716923 
-0.03534380273247324 -0.00646040161313763 -0.007962880466708136 
0.06915712194238967 -0.1115270129585505 -0.04550074437869904 
-0.05627287432053286 0.1643056278474896 -0.05275651769213667 
-0.0512816356127383 0.1131689223875422 -0.01029982675268415 
-0.08341134779358926 0.002640063274364651 0.07106268582590855 
-0.1064225145461607 0.003407696556392647 0.05516346578442213 
-0.06076662706907473 0.06773913916077588 0.02422566449665125 
-0.0900703953694717 0.1011079502335628 0.03113515502697461 
-0.1101431107857128 0.09251016110864013 0.03376851756109618 
-0.04080893493564442 0.0870886649032822 -0.044953769016636 
-0.02076927602524034 0.02570159457671317 -0.03644062225229227 
-0.008208219115655842 0.1018156574422857 -0.07310535668538365 
-0.02832220959750852 0.09997322062056878 -0.04468136564788263 
-0.01915399921659549 0.01939311921278471 0.001106402677344289 
-0.02136857817635551 0.02386107958759765 -0.02270247297726016 
-0.03292734595983079 0.01149611332208174 0.01117180546965266 
-0.03774553059243513 0.02948707518663505 0.03470465170969516 
-0.03544331332827663 0.06732601984836166 -0.0158390452627595 
-0.01316937265935954 0.06218310331566373 -0.05502684206027717 
0.01656820288815406 0.002795607715668963 -0.06143556299185105 
0.01791087871029985 0.0009228051947718621 -0.02982533509147453 
0.01819968748058712 0.02571783256724336 -0.0468958377443313 
0.00916432048620462 0.01600683465976731 -0.02227300122706537 
0.001223068517700502 0.01064395384780661 0.00214038116077166 
0.001273447255928 0.02244573264183986 -0.001789113219253113 
0.002211985219845675 0.01852298928469141 -0.002422754672237736 
0.03505282683908477 -0.02717327579726826 -0.02395976478097793 
-0.01347702969567634 0.009271061917501034 0.004597058191766493 
0.02794408629440403 -0.0421039916826115 -0.001464299735836154 
0.01605096433889009 -0.003080711674709507 0.008327639978306562 
0.00784886997468081 0.01992532614943945 0.008737586941475719 
-0.0178307521722342 0.02451289454856086 0.00791564173927249 
-0.02397997654242502 -0.06290270238117512 0.08692664292749563 
-0.003604637682629583 -0.0814296410049109 0.07817963371934061 
-0.01622803448862657 -0.04159942052173373 0.07290637015004575 
-0.0006676322753605007 -0.05298688897494375 0.06433926780354755 
0.1040862598590382 -0.2287005093666837 0.05369935622046897 
-0.03386623583385825 0.1164366454298085 0.04757096556959561 
-0.0175321610429077 0.1319492706424691 -0.104791457617784 
-0.0004372031674936454 -0.1841791413784134 0.1177767892765278 
0.004245588156945044 -0.04376531410086954 0.04929651263148301 
0.0007239726382374411 -0.04415799966361094 0.04717780890125726 
-0.016915413555751 -0.02269334021430189 0.04351520817019722 
-0.02899558871285027 -0.01858722408660384 0.04776958927945259 
-0.03974687600052661 0.03752954328580801 0.008702637445210784 
-0.01713526904140385 -0.0658004493587409 0.04362585212370395 
0.003330208077442934 -0.02603216120460393 -0.02111082771074587 
0.009769136423549729 0.01168176658224663 -0.02591848583907709 
-0.06219966639918359 -0.09712516697927578 0.2340899528372077 
-0.0076869473222771 -0.03948470190946809 0.04583425479896468 
-0.007666703925573085 -0.006267886630240591 0.008627690333789651 
-0.00417899402265863 -0.06415115975109981 0.05016615035170327 
0.008437298361936671 -0.07253171000156189 0.0454195497907702 
0.04150506002941721 -0.0653913303029816 0.05164013329621258 
0.04932988689627622 0.04884953109432866 0.04199317049633722 
0.1477715022129466 -0.07426062738218429 -0.04108753051573842 
0.080289810471864 -0.09238125124933963 0.04255188210283145 
0.004629305898979142 -0.1691262681521502 0.1039301279619034 
-0.01627564203474856 -0.1269798306649205 0.08731269941591999 
-0.02484248734728202 0.02362823508553608 0.001943676380704593 
-0.01713431888991843 -0.007026584761679564 0.02289242390223823 
-0.01271116907935505 -0.06804007233830268 0.03456628258457609 
0.05321822742916073 0.02704213587814224 -0.05621961676757984 
0.09220713384053793 0.178177550715767 -0.1184477614651866 
0.02188320260357196 -0.03453128121001237 0.04531817057368313 
-0.05442713984862409 0.1116635425177448 0.02887586985068743 
-0.06026443132364889 -0.06225440572427059 0.09775251737367074 
-0.04693522997316322 -0.09433667878942119 0.09368744830942748 
-0.1143789610138984 0.1333182722429843 0.04083575236550292 
-0.06981513957065867 0.01268868013784428 0.03575643893808232 
-0.03808483533600456 -0.01053918216904987 0.005075270592138159 
-0.001254777845784337 -0.006550732755750924 -0.05530868101121324 
0.06044986664545125 -0.00563600121502717 -0.02800997189820932 
0.03840874980608158 -0.01824091526101438 -0.1088574300848407 
-0.03770480755517346 0.0645182850862572 -0.03159035769576268 
-0.0627524324122346 0.02087238568328342 0.0409436128722482 
-0.04427123516904079 0.03284245281136764 0.005472323203073665 
-0.03985686205009296 0.08661862315645866 -0.02796852797974111 
-0.03043803741582573 0.0701151760764637 -0.03303157528413499 
-0.02855113919168852 0.03797961406018153 -0.02579882829954092 
-0.03869029050822059 0.06480914121333664 -0.02712653207139114 
-0.003132332644507659 0.03599731680635555 -0.01123450751529601 
0.006881602809629544 0.01957671531396941 -0.1122340517760163 
-0.02833553619562543 0.03629360581053106 -0.04576097161190993 
-0.03922632697236032 0.04123791995967875 -0.01162288200328367 
-0.03133436284598014 0.05008555286601533 0.006700564994434492 
-0.03164149093219832 0.06168691980341563 -0.006587376923799882 
-0.0283170681494176 0.06502635932128455 -0.008811554876013561 
0.01549887124504897 0.02038462588758716 -0.01996513048163808 
-0.02947643137397089 0.01648911128487518 0.01037643601621689 
-0.03487287774565772 0.06732869140955508 -0.01845632176720021 
-0.03072992403979843 0.02586419264990022 0.03978865589883377 
-0.002264287425821021 0.03280722558105299 0.008484194669489999 
-0.009561849695799027 0.01952949604147954 0.02074138282772654 
0.0265059466990984 -0.156714565299918 0.1305080210596139 
0.01939975335842097 -0.1619020392702746 0.143641880737348 
0.000375624273722292 -0.05018196411226104 0.09047018203235366 
0.003580073791601373 -0.02444238328016314 0.05453330247494574 
0.1514398225966838 -0.2131578978155347 -0.001385151879451253 
-0.06032613536055653 0.03017544458277984 0.09918788673388033 
0.0755558779091422 0.152249106713343 -0.2717233164770564 
-0.06049623208055464 -0.2262994871127938 0.2142977742047455 
-0.0204441622506684 0.04153452202335253 0.03598594587865563 
-0.03818879905957068 0.06625057530873991 0.03048538415802834 
-0.03181416041913607 0.06934121309237692 0.02283253637214286 
0.007092039501258898 0.0884634280025028 -0.04317981015858195 
0.02560946630455567 0.2600966108888194 -0.1979339819249139 
0.007173438799669351 0.1274876413232499 -0.1469475725614372 
0.1717891344779736 -0.07435088274108771 -0.1639182816307088 
0.1346907776644521 0.06829277823215708 -0.190208237880427 
-0.07360747714102799 -0.08189047157736826 0.3955452205147643 
-0.04320674761077292 0.01336890183131406 0.09817179066396696 
-0.03141850681917875 0.05157069314816909 0.02334627512510776 
0.00414777300610643 0.01569479341515031 0.01652504229356179 
0.07830517166371359 -0.06371061900405234 -0.003287519154659681 
0.1105005937289593 -0.108400638719923 0.0449572625932075 
0.06629369985813126 -0.07249792219514313 0.1000482188022147 
0.3079070511119221 -0.1796274200365214 -0.06363025918547875 
0.1793135863893519 -0.1200814055918599 -0.01626159893960791 
0.03496533904676603 0.0461420925863042 -0.06607380312448383 
-0.02221257718202514 -0.01855189847670524 0.03271102955918645 
-0.05372421166739576 0.04317354456005295 0.05216273124919182 
0.02794495365689643 -0.05995251640952014 0.004714611503105132 
0.06219707245524905 -0.04780346369009696 -0.03956292379509328 
0.09491786566177664 0.05030696327027582 -0.0837314837492829 
0.1704119499364499 0.05164040385834558 -0.1321573700499628 
0.1568973741964904 -0.08778351697825637 0.02801660468260316 
0.04198221130769753 0.07774722792664161 0.01653230431980749 
-0.07126119877359997 0.1581954596253534 -0.0619757672294018 
-0.06399324695646799 0.06341580501479949 0.02283092410346513 
-0.0889819665931316 0.1322070735463766 0.01853481674675291 
-0.04196665526836581 0.02552789674817554 -0.009074499280538519 
0.005547960834202907 -0.03139236783626624 -0.05024262497458625 
0.07375859382922262 -0.111247511044191 -0.08787818279102388 
0.136385418583697 -0.06856423798754735 -0.02631100012810121 
0.1966568280451125 -0.09828150600557575 -0.1638555721507245 
0.06574446906894936 -0.01605265521060688 0.008156253126385736 
-0.07687675821245081 0.03952737483305293 0.07002117197350077 
-0.0296708275896773 0.02052943159541376 0.06882227160833169 
-0.01789718197113323 0.01515341851426052 0.06894813741443714 
-0.03516087545257295 0.04447931795986818 0.01623305962539184 
-0.009022719534479529 0.009618430213056471 -0.03558007437592334 
0.03472465328770604 -0.02827904901561273 -0.07596320826828318 
0.1045167186772764 -0.06797117746364376 -0.08913923923536336 
0.1321405228188031 -0.1440929144276417 -0.1436481243160227 
0.07135337122382854 -0.04968699053065608 -0.05711692447019442 
0.008120741897268998 0.002301041788320718 0.03923302360304468 
0.02822508478875375 0.02077114078512493 0.01806615658242294 
0.08555272197281065 0.0008414310028084693 -0.06678736089767881 
0.0769795557335472 0.0007615108630007165 -0.05845514467923535 
0.2047946225625376 -0.03786821945322611 -0.2054252021807101 
0.04027678121730668 -0.07417362661329263 0.04664093543368787 
-0.0001852671927960075 0.06565239142298121 -0.007996405982028762 
0.02164523130927739 0.006525254577408073 0.09166685796488382 
0.1535351983613329 0.07030221466205168 -0.1519150667373177 
0.1186226454202622 0.002803816194199562 -0.08268499984959189 
0.01786341046162018 -0.04445316195406006 0.01617986239988234 
