solver_type L2R_L2LOSS_SVC_DUAL
nr_class 3
label 1 0 -1
nr_feature 310
bias 1
w
0.05625997090601038 -0.01377094245905418 -0.02942216252877053 
0.08650085999083935 -0.08238593172261767 0.004391986860681179 
0.06821823751670605 -0.05927829157610156 -0.005552082107633347 
0.06242706134565049 -0.0123093120038398 -0.03494288619566405 
-0.03125149298467424 0.0469571173187401 -0.1144975539529875 
-0.06627283179299612 0.05542234445134441 -0.02417540199898062 
0.06309019662123115 -0.03216823271098572 -0.01894559434603664 
-0.001070427775749705 0.1197355334122265 -0.1117350349452543 
0.09929014692853536 0.003082933038660541 -0.06894952858224403 
-0.008767283816403112 -0.1106352078886617 0.1014138479467334 
-0.07598428336137276 0.05128541038608794 0.09514515741560477 
0.0633582928725055 -0.06352459402064688 0.02207421244216788 
0.00659076777834399 -0.01980933933574706 -0.0109207726305778 
-0.004448457138886996 0.05163450465018261 -0.02004432765963348 
0.01120877097591569 -0.03028062870696251 0.01762386949844866 
-0.02503497811498781 -0.03429784357890508 0.0154517536851591 
-0.06809608113473122 0.08323892433465384 -0.02375892507397511 
0.01281264551551592 0.08299724803827131 -0.05838317053662671 
0.007755061060541798 -0.0208699653454172 0.02885983143776059 
-0.02479372215563982 0.06215285018156289 -0.06316721911519628 
-0.04976810497952484 0.01021919591683493 5.003480847302074e-05 
0.01195220630253614 -0.04222385047101525 0.01499915509416379 
-0.004069423956396011 -0.03239094978187517 -0.01828991595114452 
0.05500432814473164 -0.01046712624483483 -0.05349451466910226 
-0.02337469915100698 -0.01416611651809213 0.01583447346510874 
-0.09769812426020197 0.05661390427837114 0.003813883056274212 
-0.0206719419306864 0.04615429713250967 -0.0917277913170353 
-0.06060599048357368 0.04671586051547436 0.05148761342446737 
0.01519236762126043 0.004100729277455389 -0.03881284201007631 
-0.02582467425967928 0.04374843920021417 -0.02264284303063118 
-0.04623724625214057 0.06561213979087153 -0.03573448685970738 
0.01543138510659333 0.03972330898386579 -0.05409265938075878 
-0.008157568692858193 0.01948591434157239 0.01735869527248991 
-0.009004279647467596 0.01979888598578124 0.0175426371133492 
0.07406042431388578 -0.06585244800007138 -0.03824794769948138 
-0.008176997828228021 -0.06284767868079412 0.08838729723001741 
-0.03209308155305957 0.01775617883415584 -0.03578156829520596 
-0.00121730862508954 0.003089587868658714 0.02907619386785801 
-0.05541803193249886 0.04623676782731485 -0.02104669554941522 
-0.008854498848328368 -0.02692807547271859 -0.03010547442413581 
-0.0009034259861299452 0.01324692963649415 -0.003187046761942983 
0.08543746064719712 -0.05311149288275361 -0.01755375865459563 
-0.005317949511067895 0.06048945981372271 -0.04606303742057726 
0.0142135496736014 -0.008547927897472206 0.04916082714092436 
0.04250823452013664 -0.09469239377405676 0.05988816274906705 
-0.09602140549088337 -0.0359440146517013 0.03886402742278382 
-0.03833855116410252 -0.09297146863416494 0.1533154537387273 
-0.04738004957825085 0.01895852789248298 -0.004237928295443884 
-0.002996099894787559 0.01299774587976368 -0.0008154711416297859 
-0.00190960862364446 0.01431821288763906 -0.004045935649834128 
-0.01121705375326616 0.01991096565501965 -0.02156064752845885 
-0.01053932779238815 0.01929511118422461 -0.02141311711195791 
-0.02854305205045545 0.03521096396197239 0.02402249962486977 
-0.01261947267863157 0.004745691220031903 0.03614631802674263 
-0.001012980998212053 0.01358570064452897 -0.003954912617491272 
-0.00216445789408141 0.0143852487395033 -0.00283448304962938 
-0.0007908015101985789 0.0125847062288303 -0.003914979397618292 
-0.01300527602910533 -0.0178590911208102 -0.002501829432485279 
-0.01502487253265964 -0.01672210177609133 -0.002053525495203589 
0.03369069617124221 -0.008145901132277604 0.04338924668979723 
0.02782390450261824 -0.004010139115244956 -0.0134435488756032 
0.02583281855020069 -0.008673684334050524 -0.0163610379099298 
0.09225752206747749 -0.0979078333734197 0.01539526790203776 
0.09212479741183101 -0.1035128465383569 0.0127402191984727 
0.1130128968821366 -0.1135909809372569 0.000551435659908324 
0.04270882761154118 -0.05766788881970981 0.006032659116139105 
-0.068101044604711 -0.007277838877019839 0.0151481914682806 
-0.00595226413201557 0.02659893736638837 -0.003253990063820985 
0.03740010407828607 -0.06944618658285076 0.008995474317573584 
-0.0556755684337029 -0.03647932071382985 0.0674458126396997 
0.0207366648231501 -0.05389448950993073 0.04209497772289055 
0.02062535045344473 -0.03980826420199826 0.02914758733582 
-0.0200394150281856 -0.02217870551558559 0.04503851948052082 
0.01746815666073712 -0.0351796845316237 0.005474195049965457 
0.02410210881910745 -0.03447132871369116 -0.005926145684715349 
0.04124352942858609 -0.02261319087868582 -0.02399885730095267 
-0.002971645298895336 -0.04590467606285931 0.02091199641935317 
-0.0003185329420923657 -0.06900538012382817 0.04099380453536582 
0.01756189822491276 -0.06973751862157286 0.04018615365871032 
0.01239353021705666 -0.04638565895462855 0.06097094173355066 
0.004304501861096661 -0.02522996566437535 0.04354024238044079 
-0.002809414790862858 -0.03987881989738287 0.04320459731300695 
0.02879450315967564 -0.0488478077414157 0.00817956071142671 
0.01728398217041405 -0.02222573185734491 -0.0004405618518150819 
0.0156034713410878 -0.01905725876417831 -0.0025937993629526 
-0.006672823660781246 -0.04648342374475281 0.02767906822635517 
-0.01964193381993309 -0.03633719037284963 0.04128395818207906 
-0.007437203202564072 -0.05894823582403703 0.05557946286554653 
-0.01812245945295743 -0.004111903157241469 0.04966632468789149 
-0.02041042222794973 -0.001070326479763406 0.04533671116239588 
-0.01070448831996757 -0.034885259553524 0.04771632867004459 
0.00470386048073956 -0.03290323076126113 0.02323697767759868 
0.009936153197170613 -0.03833158469869503 0.0297135014785232 
0.01630721063284677 -0.02570189377357352 0.007542739722396938 
-0.0006592673397541477 -0.04698696283440679 0.03536174616508633 
-0.001106170583337902 -0.04822941001900775 0.03571080517152616 
-0.007874526164523575 -0.05329235096617049 0.04599893206458551 
-0.04218045323958056 -0.05620734313012597 0.0922055680615213 
0.01820487817459891 -0.03413264154787132 0.02111140468856165 
0.002075249024721001 0.0005348877663669466 -0.00387233834669485 
-0.02913629150547938 -0.007741622632794726 0.03160356933743425 
-0.0006625280475316963 -0.02892504513809569 0.03040767864429651 
0.03508397082053222 -0.05440235223636058 0.02045869363558017 
0.02259758271952083 -0.04555491948036752 0.03215510894264188 
0.02349217031032227 -0.05321688947020423 0.0402210673374792 
0.02282945802409725 -0.04892309798767758 0.0289182776402575 
0.01198595383168882 -0.01437479359124808 0.02227340806598232 
0.002700202827940568 -0.04331626689619192 0.04906403924386929 
-0.002037892939090365 -0.02332088149286843 0.02849027221895894 
-0.01560519388791806 -0.02694474991598557 0.0527309751714387 
0.03521021976714599 -0.0547122939614149 0.02018782085027586 
0.03424320148670751 -0.05414230227410544 0.02048852197795386 
0.0405672383051664 -0.04743807823151276 0.02020881448168571 
0.03958961705594607 -0.04644500319491385 0.01948602080223523 
0.03861218529978873 -0.03504328810688224 0.02084470569081711 
0.02306247151695614 -0.0379405143338055 0.02941260030268331 
0.03464865836468837 -0.05370037778546565 0.02042878868507236 
0.03547156225162344 -0.05455422736399715 0.0203576347743285 
0.03540233321671588 -0.05517445002516201 0.02016285643502421 
0.02734732161979797 -0.0361260794758617 0.02149192778118266 
0.02770432615659851 -0.03657417482014709 0.02266517557184589 
0.003923592764304226 -0.01335012957811619 0.02249858955873085 
0.03436703045895739 -0.05043806679827777 0.01767983792383998 
0.03564992633672875 -0.04778197682149085 0.01372943163143254 
0.03299866231253188 -0.01131045834151643 -0.003981775531305399 
0.01795085199816356 -0.002571651932174684 -0.009446623377717688 
0.04523830250557333 -0.03911938863779017 0.00874226787959494 
-0.01889711168419521 0.03620443345917924 -0.0277304700237172 
-0.1519381184406085 0.01378340990938307 0.07747834014074043 
-0.05501422081439324 0.02897548126273079 0.01061720844638082 
-0.00684078339827312 0.02525686949450688 -0.04449448385169763 
-0.1435162136468491 0.02814164365933829 0.07171216582410087 
-0.02475278378041128 0.02227346878758379 0.01351393051168247 
-0.0156833480120885 0.02090259255803955 0.009239021148021899 
-0.03665145648183776 0.02475348244507212 0.01003546465362773 
-0.003908919895727402 0.01928684572380492 -0.01437298854542004 
0.00412051847477649 -0.01717965844087817 -0.01268509336370405 
0.004466802892421151 0.009459395330508462 -0.02647133348717013 
-0.02704518105381655 0.05486286295728959 -0.04369907115433084 
-0.03019433191033594 0.05167181761364222 -0.0335915804011187 
-0.02682632117109486 0.04705923505610594 -0.02839697632325793 
-0.01451213934796786 0.026801744482428 0.002937732655551892 
-0.007358514361170608 0.008344845406726713 0.02326870151396331 
0.0001393966262246678 0.006330989892880395 0.01566865554940436 
0.007789877687272087 0.00145013749272417 -0.003439288009293032 
0.004214910314650021 0.01244432337570086 -0.02882822963112519 
0.007901292535048034 0.0007421479893071072 -0.03182723663536714 
-0.01567277375742384 0.04524596020622924 -0.04904392251245785 
-0.0380939115073444 0.05901493713794227 -0.02190320671378247 
-0.02029162107229463 0.05122583898341825 -0.03115917557700772 
-0.01440896306577708 0.05351885454006179 -0.03286820699381086 
0.00635735437248934 -0.01374247577936161 0.04104801716485316 
-0.0176003621115061 -0.01798297881616293 0.0677009896957189 
-0.004478248630981032 -0.0148024456307369 0.03663533187245282 
0.001811867913699928 -0.01232906935617486 0.003165005782073123 
-0.002016505555520111 0.008002107481418438 -0.02860077423691805 
-0.02713708179889428 0.05595537253866361 -0.03592018990059741 
-0.02613516871063884 0.05514545935760508 -0.03568451663592319 
-0.02230328228452529 0.04900969400991617 -0.009907356417719995 
-0.0299636758375509 0.02696420275074712 0.01421172566799105 
0.03938623729207534 -0.02733490022207251 0.01137756581123543 
0.00244123871161168 -0.004266056697827159 0.01628210234315511 
0.01178085690549851 -0.0312066654773397 0.03692092422485699 
0.008765430305008499 -0.01636929115756923 0.006263530996671707 
0.01186935214229355 -0.00207660503612368 -0.01814792412138445 
-0.01054800428842765 0.04587518806160762 -0.04561643909009331 
-0.02612819309264351 0.03549137375036562 -0.007294819538044664 
-0.02666819019592943 0.03987180197972429 -0.001044231716792697 
-0.03351035437926782 0.02976959091509421 0.005702380849367949 
-0.01029653994065841 -0.00749169557169751 0.01709658893416569 
0.00425228641554256 -0.02358647565318545 0.01897102291316854 
0.001809870175362044 -0.02370007528691088 0.0223286756869196 
0.01210281245526638 -0.003378537674124887 -0.0167360741121839 
0.01092324327062388 -0.002398982524370636 -0.01756696391721261 
-0.008566892414780796 0.03590306283471568 -0.03924913370136402 
-0.007607799063431521 0.03483438271727996 -0.03821037160962953 
-0.003534391644475973 0.02855407894324683 -0.02300817358252102 
-0.007331183772711053 0.008192883231284762 0.00114515573437835 
0.0108824771244985 -0.003011287703445068 -0.01719245155645572 
0.01182595680726397 -0.00237377753877087 -0.01791483888382584 
0.01120136065299266 -0.003201561863097628 -0.01760605581440004 
-0.01236670567630107 0.03603514807511159 -0.04364317878239423 
-0.01320836497358629 0.03537617811652632 -0.04322682338688194 
-0.01423712789189288 0.02026106504103099 -0.02246872002599138 
0.009388622054124737 -0.0001028338325195628 -0.01927000972837058 
0.009654518027714708 0.000482593945400826 -0.02224775939178578 
0.0007936834236316917 0.02186966707767634 0.01911096733159853 
0.005986363376435105 -0.01674452647512183 0.03874142377993906 
-0.0814321826751731 0.013994033622519 0.1218626415249181 
-0.02942843348834562 0.05350738319427894 -0.009875426446844067 
-0.152530018019602 -0.02120579751812727 0.1456011228564216 
-0.01446053503321295 -0.01626261887679947 0.05427420833849551 
0.0395048628666386 -0.02228614262789818 -0.001921029755954444 
-0.1465763993654026 0.01218919429687034 0.1191324025058443 
-0.03152610198752388 0.03410387823869573 0.008797871745263823 
-0.02495297693410316 0.01614190763096259 0.01434910571724 
-0.05596460290670532 0.06274379277165347 0.01085119437621559 
-0.01917331982827099 0.04737428175857063 -0.008670144252686619 
0.02692216193093859 0.1030243868340545 -0.1223884888933996 
0.05909752623609017 0.05596260577241678 -0.1195522550375603 
0.03927436141326138 0.02807615828634079 -0.07420687465718821 
0.006133797234287633 0.02108312245933182 -0.0379672562817184 
-0.01989869609388176 0.02995115437995048 -0.01046012990574241 
-0.0360453715039557 0.03497728078252784 0.003674838065177099 
-0.02623503774502144 0.01961262266522883 0.01427336370436277 
-0.01331371714807338 0.007875558445689539 0.01115742865232205 
0.009973906119443085 0.03838159145871707 -0.04581049427723898 
0.03037699382831935 0.1226037996093419 -0.1672484418339832 
0.03166238802449554 0.09166320106732193 -0.1260234567380097 
0.2078892739853879 -0.1861318778141982 -0.0512332925035966 
0.03128329414603882 -0.003198022110106934 -0.0427967168864199 
-0.009205115993484111 0.01666224612009591 -0.007949823371562307 
-0.0424199333013518 0.03690570926249234 -0.001520789146920635 
-0.03221953679410523 0.01459812808934746 0.02840633311109734 
-0.02352109779340416 0.001537903250473798 0.02210213315776456 
-0.01772580764868081 0.01434220987331933 0.002394107985849967 
-0.005702871037663187 0.03569092555974037 -0.04708287972259792 
0.09275674751038107 0.0861384608798967 -0.2063450553929115 
-0.003257827567779984 0.01184671214607609 -0.0152901120010918 
-0.005435325642079641 0.01111433562629341 -0.01415206386276118 
-0.01465246474003935 0.007631264300526277 0.001186235229563129 
-0.03509079110937955 -0.002243950100294486 0.03316995627865171 
0.02689560792031659 -0.03215117710782846 0.03284264224071397 
-0.04096619541451547 0.02232464509444413 0.0201970553358105 
-0.03267248702344486 0.009253492721472443 0.0197089703700813 
-0.0003008509049090336 0.02607614898354253 -0.03782700279103544 
-0.0008791061856162651 0.0073065654945616 0.0005893546717705277 
0.0007843995374274725 -0.01193598732152793 0.006975423608538129 
-0.01342744504089327 -0.004146785273199513 0.0233553116770519 
-0.02602551575056254 -0.01102644354349438 0.02453764476269557 
-0.03804955530881435 0.01318909187264946 0.02062427609181751 
-0.02628916813438665 0.006501539074239041 0.02239549537289573 
-0.0412208925853763 0.01194078458322915 0.03705506489135725 
-0.04205027277326447 0.01871721703991564 0.02721719300314658 
0.001008270528115347 0.005617651909801832 0.0006632815670964565 
-0.001812301267975365 0.00870807770269897 -0.0002524302467838061 
-0.01261314337997897 -0.01841126880721186 0.02663565048952976 
-0.01324209742386977 -0.01799359779369685 0.02733511012563357 
-0.01987274852671378 -0.007571847536549092 0.02926155883197798 
-0.01292307841534246 0.003090242395886082 0.01521929262624108 
0.0001564793297467833 0.006990081873777805 -0.0005227362561966916 
-0.0007166757620835025 0.00725094920449427 0.0006279700215390012 
0.000104352749746433 0.005410323624798533 0.0001480072391648708 
-0.01377464986351568 -0.01782370483176755 0.0254673823158602 
-0.01292069990413503 -0.01679029560349693 0.0239503894954541 
-0.0005287604818130547 -0.004349628700396835 0.01524860003541259 
0.001011475481881149 0.003502322379954244 0.001944032754252075 
0.005326313865390575 -0.004226288020869054 0.002707062872525037 
-0.01487796643393949 0.08436973575983973 -0.02360390653877671 
-0.05666952760143713 0.05533660159971224 0.03963462065240995 
-0.1342432540241783 0.1054252302745841 0.09267392409750777 
-0.04078433587106711 0.1088363335824425 -0.05026933333781379 
-0.1331578961155393 -0.01740088835096039 0.147789682427181 
-0.01471873535013343 0.002623835690228891 0.02563396417221445 
0.05095474697334299 0.01386657195368189 -0.0471686575607703 
-0.1596629636202505 0.1122805101978729 0.05673764086959201 
-0.05033362628128021 0.07019707268525219 0.007012228684219675 
-0.05631572060375373 0.05732932254017699 0.03104048879963144 
-0.06344484494970662 0.05674353534287007 0.02741595530826514 
-0.02405819613330209 0.1003575798448811 -0.03655373491498446 
0.06430619398079199 0.141317563031655 -0.2013150425214764 
0.06673582576528353 0.1329297151025118 -0.1943738570954915 
0.1322777682413265 0.04522805331524478 -0.1821017610727988 
0.06812186636446114 0.04196495044382513 -0.1226777783663745 
-0.01225105086164263 0.07892682977390239 -0.06615247698494162 
-0.03171490549328128 0.04990608261607875 7.40117597798079e-05 
-0.03975875472027215 0.03529106153164758 0.02788609701084343 
-0.006099132758970553 0.06542685867905652 -0.02802357274914207 
0.02271701409408595 0.121573494615339 -0.1250094745768884 
0.07695215032405223 0.2345996117961496 -0.3075287806728025 
0.07809086017265808 0.1180066898006873 -0.1979672128838783 
0.4041310612946686 -0.425930556370162 0.004901425736284302 
0.1580170102576443 -0.1054078588098703 -0.06370029717400337 
0.01439077611612321 -0.01261039777517906 -0.005136908017843861 
-0.02665884705212953 0.01165097386489341 0.01297725426835556 
-0.007624264783641448 -0.002733692455835666 0.02807527417170829 
-0.02441109981410681 0.04050236087965678 -0.004010958893049999 
-0.007609796395663087 0.06683707045892148 -0.04690137295610586 
0.03566259636882634 0.05697410653594704 -0.08952732392355214 
0.1862795424787494 0.1833657168437798 -0.3964448812001249 
0.04166863661720678 0.009214974503327696 -0.06026049477622894 
0.04563484446599667 0.008555185348871749 -0.05984800979174831 
-0.00413859007140542 -0.0176698497942916 0.02132090303135211 
-0.01063921418808894 -0.04634767818182634 0.05536284525343851 
0.03344293327319232 -0.027167922551202 0.02406961446998947 
-0.03391889880438256 0.02787773440797476 0.024854768242225 
-0.01527217358679609 0.0132462231902902 0.004358989813955385 
0.03590653711321723 0.0184781912505507 -0.0616325094503495 
0.01902188793179221 -0.03300355149889003 0.01122370439263433 
0.05779055264817158 -0.06229458800770149 -0.01007177086079761 
-0.01089729845756996 -0.02811845861487246 0.03990374331494852 
-0.01852112354301442 -0.01590249576753148 0.04153277973721365 
-0.05761914309448742 0.002970799900732139 0.04747381876740153 
-0.02460901366752049 -0.02384918746526091 0.05199677800361693 
-0.04411654424933057 0.00400157139265463 0.04519362673225839 
-0.05259787047471499 0.02066751723910235 0.03295878217585586 
0.01925456138654773 -0.03683844070482757 0.01729591914574421 
0.01975678043317377 -0.03559302232186402 0.01542960096214137 
-0.004898514846984544 -0.08379855997944317 0.07244145767963946 
-0.001180873945362397 -0.08376503556261516 0.06778511635641599 
-0.02622762370019162 -0.04576894414323115 0.0605103573887069 
-0.02000078064858649 -0.03821417256838756 0.06138405609945084 
0.01462349522124979 -0.03740591756364418 0.01878207910600486 
0.01706277760486441 -0.03512502633926687 0.01531104755672526 
0.01681054591261078 -0.03708075962725611 0.01995435738584912 
-0.01277005402291679 -0.09679643827275809 0.08630329514103451 
-0.01137181620253323 -0.1012355184926632 0.08915355159200365 
-0.000470558341593261 -0.04985175899692449 0.03674606558245017 
0.01645042433134183 -0.0437807635751027 0.02065314794211947 
0.02846370489179246 -0.05978519934361257 0.02420609090202324 
-0.006636585890295439 0.007944764992959517 -0.01257830103627123 
