solver_type L2R_L2LOSS_SVC_DUAL
nr_class 3
label 1 0 -1
nr_feature 310
bias 1
w
-0.006838435454794678 0.006228234891931597 -0.0100790384843017 
-0.0344298296222984 -0.0292406899583708 0.03505847730439096 
-0.007938049668742373 -0.002320011648235904 -0.006860970321808956 
-0.01234345234917002 0.1035588620103894 -0.1341331400087231 
-0.02454270566349542 0.07177402837481991 -0.03024158927874305 
-0.004622342427972707 0.1169358223181341 -0.1087708050581511 
-0.01303214429688905 0.02083467133340825 0.0142408287727675 
-0.0228287270578784 -0.03353021056933696 0.06559511254425883 
-0.001229237478672743 0.01253527319579738 -0.01215649936833899 
0.006424717437689337 -0.04671860305947404 0.01348496668612178 
3.260266024482961e-05 -0.1087200609810423 0.09488529574673647 
0.004095464771920922 -0.01523624785765592 0.01373712811282277 
-0.03608612277286187 0.05439818435355818 -0.01259670067951994 
0.002023518807840206 0.1128700892056895 -0.1325092692824485 
-0.007830060395235235 0.1005687842246354 -0.1010012398523048 
-0.02923156978370096 0.1031150004749578 -0.07419919057249769 
0.01245130191947566 -0.05552939040238045 0.0668483814725913 
0.002192998480867662 -0.03502367657565857 0.01581440161161428 
-0.05342043184508156 -0.2577709227289904 0.2771156479072823 
-0.04183455036068372 -0.01227076666062313 0.04386358695248731 
-0.008569336576297918 -0.1419344899283394 0.1404515659852703 
0.01141760898942113 0.07727887682698327 -0.09113469781843572 
0.01018154808115742 0.0723996921316005 -0.09379467621117173 
0.0179238692062016 0.05898962498967249 -0.05729377984791241 
0.001445054361680436 0.03561425085664953 -0.01073572881382897 
0.01858805324202066 -0.04868805343573208 0.08666975242891006 
-0.03095531360354904 -0.09609597814732987 0.0643210426065222 
-0.09211791457248765 -0.1666110551928975 0.1929149443657827 
-0.01613692233384698 0.08307232524509713 -0.1287717101683877 
-0.05785503338602011 -0.02626832578162013 0.05685087593340332 
0.007594571783294671 -0.004470440309156144 0.02279103512640719 
-0.03502031433184717 -0.0624642137364737 0.06871263867318229 
0.03246318004400551 -0.02145918692326755 -0.005462101801439376 
0.006802290909943468 0.04206714010671598 -0.02929863782061607 
-0.02333853824411908 0.002161389037306092 0.001248573773320805 
-0.0284647432103666 0.04688025378841872 -0.03132917169271453 
-0.006958769010105655 -0.03125046858211141 0.03580923022790222 
0.003941318166370004 -0.2761333432477375 0.2562312771307315 
0.002917327079245688 -0.0774670537082555 0.04271135602799456 
0.01340293750799175 0.004339778640410841 -0.0283167222184954 
0.00653882743016146 -0.02171145098082413 0.05912929952578923 
-0.0255917277689351 0.04582277496807881 0.003785445796713493 
0.03254303000580309 -0.08994499954820387 0.09573837918155301 
0.0294679461443908 0.05897837020324435 -0.04945927642806996 
0.03307736424230114 0.04372487623393725 -0.03567918270102335 
-0.02998582735143285 0.03894171820985553 -0.03813194447792494 
-0.01789681229080824 -0.04077479837102449 0.04689246734823456 
0.02163758199423193 0.01045384418891188 -0.01303997888360179 
0.01519901956832727 0.000949684239238871 -0.02703620174396855 
0.01011160531387166 -0.2284142190394895 0.1883243212122903 
0.05321690959704406 -0.0233829215657572 0.01655469755324288 
0.02556987289303329 0.01228190911858204 0.005987775483983754 
0.02372068705642945 0.05939149543977769 -0.06772794049742727 
0.004510722247290711 0.0419817528748321 -0.05783060956040897 
0.03839040585208755 0.1042864277771763 -0.1533978921131246 
0.03077549405221815 -0.03080378082141421 -0.02090013983137083 
0.007554586868654176 -0.1404725269412279 0.1347451984324358 
0.003536553030012767 0.08833853581739036 -0.08854580221753283 
0.0043929274322995 0.07554320636636323 -0.07087936657458661 
0.03500389267970733 -0.01721419591852298 0.02376760127482038 
0.0201476636922892 0.06915803804000571 -0.09511662607842961 
0.01656154179077688 0.09608460960169804 -0.1254205178956027 
-0.001607661278471417 -0.01309211237978974 0.01678250380835089 
-0.008917322926388341 -0.0298938796159858 0.03615924904040726 
-0.009196359434479598 -0.009779098924778629 0.01725964963123794 
-0.003204958055069988 -0.02543460488913477 0.03366542540714026 
-0.0131580352129421 -0.02376936195190532 0.03393293880793307 
0.01139652570467128 0.03520166816990542 -0.03933568458428004 
0.009629172405809948 0.01608258685011238 -0.01239561898821939 
0.001846358740337061 -0.00357253662822763 0.01452012234871195 
-0.008864923066472356 -0.03317350132380123 0.04692278621910837 
-0.0133739061644298 -0.0397671142299181 0.05635307191487788 
-0.01390049295264672 -0.04133589121715161 0.05647113607425633 
-0.01296913179558822 -0.01405687543967837 0.02589542003072775 
-0.003257773221898665 0.03545328321900677 -0.0277178602180916 
0.0006942580834380573 0.06974520670420568 -0.07196658717175096 
0.01140473092547554 0.02497288337190587 -0.03229103160734729 
0.005294122788563113 -0.002964820084045471 0.008905002498489592 
0.001839335033546532 -0.004361898213813034 0.01710251377531853 
-0.003574278093665038 -0.006173938396985961 0.0180936352990421 
-0.01508172146160115 -0.03852022591203297 0.06095730993367526 
-0.01948491826630531 -0.0005056538452054456 0.01856536570599287 
-0.01135202631063836 0.00463106526056594 0.01206755254034826 
-0.003241961611219288 0.04093147113369586 -0.02903353627260413 
-0.0001597088730148627 0.08143216394754693 -0.0858544652665514 
0.01957782180957432 0.03120437860298106 -0.06076701138933346 
-0.00442745404543082 0.02211289085902196 -0.02037180331127368 
0.003353677415878057 0.004135029641989845 0.001528603808627022 
-0.002271861287650727 0.01687872462064358 -0.0101871007396795 
-0.01469053914722485 -0.0233455279704706 0.045229348423446 
-0.01640622062280828 0.05514971044733128 -0.03814692430651137 
-0.001931376438449376 0.04675894689221765 -0.03501326632592606 
-0.006696534167363826 0.04691835865019732 -0.03761601613807354 
-0.01167970924881794 0.04498854482296226 -0.03806047960031804 
-0.001064679380655382 -0.007549965919850442 0.0005858693689684112 
-0.006551590165042026 -0.006616467488611747 0.01064024120589203 
-0.007153759604326685 -0.006581169356304623 0.009875863891038858 
-0.009640284960884303 0.00462900623522699 0.00119447785335572 
-0.01490542711375181 -0.02104940259075193 0.04294288927528686 
-0.004065718997732823 0.01587206247908691 -0.008770710188939598 
0.005700602364717128 0.0285473492575803 -0.03814242006775205 
-0.0075434640972713 0.02475546139699326 -0.02963376422265063 
-0.01022824920709742 0.02935025941685441 -0.03005496813317146 
-0.01852135460034936 0.001883914712227683 0.002959458811087104 
-0.006755995148259403 -0.01250192192936166 0.01467279911412597 
-0.01067944031228449 0.0003285017010234689 0.009351904308725316 
-0.001610374686031662 -0.002535703239995689 0.0008992860007004565 
-0.01623466511276062 -0.0102093215449964 0.02553686304213122 
-0.02048522976724704 0.01028537730992926 0.009982625193061468 
-0.008450540671905185 0.004996867842058666 -0.008037727754828906 
-0.007738236628510655 0.02922446873122104 -0.03597322748853031 
-0.01277596995909701 0.01959417512091567 -0.01835485959637255 
-0.01791542178899105 0.0007714169222990425 2.920994824971437e-05 
-0.01493911990217411 -0.00351092051120732 0.007605335400224761 
-0.01784051277227293 0.001561159908911709 0.003719904043208881 
-0.02198342298384206 0.004351696871288683 0.002327164881633878 
-0.02418687269612172 0.01742097065794954 -0.01023285819941449 
-0.02213297063410988 0.02393135646655619 -0.02198205663660849 
-0.01359574144435052 0.01081429014568052 -0.007078318629219506 
-0.02228887411133067 0.006073337315006202 -0.006576542609129058 
-0.02120521455383943 0.006865564390205553 -0.006958501687554469 
-0.02239449873430978 -0.01428653356806004 0.01307149358433242 
-0.02295157430807369 0.01262030086645053 -0.01106921346004573 
-0.02123192381142395 0.007286340257860174 -0.007520399818280427 
-0.009300408284814987 -0.02890164304849141 0.04574678288105748 
-0.01116257484681517 -0.0391873861665407 0.05036254765180642 
-0.01221491945447139 -0.03608281921732687 0.05537664288263395 
-0.009808649608011706 -0.01762945476592119 0.03035977146759553 
-0.01561125418657268 -0.02339193421924617 0.050017869642074 
-0.0009338257908544735 0.01355413035339023 -0.003576345836677844 
-0.0003279053318839537 0.01708780451456039 -0.003869804391395245 
-0.007232021754065382 0.01079920026437125 0.006906593974021148 
-0.01233320738175557 -0.003061355712575726 0.02009885768300733 
-0.01904559548943145 -0.01110329773947828 0.03265912958973706 
-0.02053190859069532 0.0001038459220596161 0.02703030441000512 
-0.0144924762527864 0.002652654890846796 0.02888116402814855 
-0.002560327039074959 -0.01795126856911738 0.03673152174964634 
-0.006752436020992265 0.003352881263994216 0.003892469309432974 
0.001428357430827786 0.02562632042808834 -0.02532187369800944 
0.01356248280475481 0.0159252940566694 -0.03236557469236578 
-0.002407079295394124 0.005714093723005671 0.0001228868410422202 
-0.01024548542658898 -0.004936946623680302 0.02571624785506485 
-0.01595340874738432 -0.02093360787527452 0.05254741447538656 
-0.01664387053625151 0.0006320478222800895 0.02751810650763686 
-0.01012485056225062 -0.005038065553123384 0.02885767681518123 
-0.006552180998299881 -0.02105249227884068 0.04439248619934414 
-0.008818034259037429 -0.0324950618547407 0.04593815364924845 
0.06142944988266521 0.004002839016735897 -0.09377314538287562 
0.006099156172795972 0.06719533891205894 -0.08755086424826207 
-0.005903610727460388 0.002437022736113892 0.004162744823348582 
-0.004947292203784853 -0.0223767600396735 0.04013126940704626 
-0.01517142451517736 -0.04414755171991195 0.07356896254643945 
-0.01659576373757436 0.0267076617016082 -0.0127225475797676 
-0.006494191058482735 0.005633356348269528 0.01718580517795202 
-0.001366367040043752 -0.007191167113370866 0.01763720158666171 
-0.01579340912905077 0.004639973527453193 0.005626705500692987 
-0.0013656665294129 0.01855540475047753 -0.02456623446598447 
-0.01339790366426212 0.02786454420220072 -0.02231852533414591 
0.001833992901242796 0.01789409446067304 -0.02536640145244992 
-0.0007124037558770583 0.001272268009237194 -0.002658748223960166 
-0.008726600496731381 -0.02563784670719086 0.05039135484628292 
-0.007419730979829686 -0.03006580306534724 0.04064446574787417 
-0.005707030916403223 -0.008684118978703958 0.01299831677826043 
-0.001939176365512557 -0.0128017315440414 0.0004244471788301752 
0.008922337507225089 -0.03316831350584245 0.01223047885039393 
-0.01446966018504951 -0.03194964027526041 0.03444462552346168 
-0.003843633607161182 0.0007719606184451716 -0.02021241503787746 
-0.0004385402240223604 0.02238467971161583 -0.03424688771014903 
-0.01134259851824768 0.01255155689295249 -0.000367627460010752 
-0.01951631293942344 -0.009940555729470321 0.03793253701761067 
-0.01256114067932777 -0.01904580132994083 0.04459031215851542 
-0.01258484636700224 -0.01316105168196555 0.02409389741889889 
-0.002280664200793341 -0.01413254103131958 0.002158812982627732 
0.004509550645254882 -0.03658529863693168 0.014741504427916 
-0.006078711804059663 -0.01604985844390325 0.002795987644381122 
-0.006108082376191954 0.01286308654537601 -0.03224560751256422 
-0.008322849878612608 0.009552939694134425 -0.01965204474373496 
-0.008853291635961645 0.006918038469727944 -0.009186299709525796 
-0.003280066925963866 0.01205249632523273 -0.01790794811886826 
0.002273953403066432 0.0139704774081346 -0.02430145197678574 
0.003776641309083362 0.02256772872742568 -0.02882292179341881 
-0.01042087525873864 -0.01574841175940998 0.006270037572221109 
-0.01013650108490114 -0.01251194899607732 0.004651835382512651 
-0.006665475113068988 -0.03026087392955875 0.02456860104796019 
-0.007921316639392531 -0.001664771862919073 0.003815386180264228 
-0.01071595115953227 -0.01471886686917227 0.02094654453181671 
-0.05770717491831139 0.05559628904313103 0.0339961652749154 
-0.02999803796253211 0.009566183951970706 0.03729420679874323 
-0.05568752981319722 -0.01036096515641109 0.09249849280321205 
-0.01870391316898156 0.04281585203252981 -0.02365654267514713 
-0.01790340261078129 0.02896493368597639 -0.006960105226829379 
-0.031062655444749 0.04291503227336466 -0.01146998654126952 
0.01534076109758082 0.0663009424865631 -0.09264235572757788 
0.01018597793870503 0.06350703512485439 -0.08323752623731027 
-0.003840478974333924 0.04678900069151191 -0.04708849898587285 
-0.01200090508634855 0.03351264549115325 -0.02403030286336942 
-0.009286603646269657 0.03514931565512178 -0.03178791412720781 
-0.004890600391079632 0.05664357332887508 -0.0501260874677137 
0.005904771840557262 0.006243747394675089 -0.0006284485652125685 
0.02291597142124078 -0.0421969929790396 0.01623896334887951 
0.02798644189828491 0.0611162043487915 -0.1131245484240164 
0.06602119458272789 0.07154622370837367 -0.1609186320279728 
0.03825333595743288 0.02754499876395625 -0.08927512364137699 
0.00767241679716616 0.04900088290877427 -0.06983766951592724 
-0.009607961589678547 0.04090933869760297 -0.03605581934964775 
-0.005678486403765334 0.01669732913146962 -0.01122318047584455 
0.005172690231037372 0.009112138769593667 -0.01760211818793363 
-0.003004682952318603 -0.07310980167225835 0.0868207327502296 
0.07028386007320885 -0.06466664527939285 -0.01075667780850324 
0.1053636457956552 -0.1101838600271595 -0.04627367212103951 
0.03138326200370103 -0.01052041177598051 -0.04541564384264677 
0.02045455477521833 -0.02181927106340868 -0.0128021565068502 
0.007992314458849882 0.006781003119299651 -0.02556268204579879 
-0.01107821011813825 0.01196143764799726 -0.009476896027876653 
-0.01593349102412473 0.00842244103294866 0.01180706314064239 
-0.01156872798505838 -0.003802307939452422 0.02711400323075663 
0.009681151735179187 0.0141684722579089 -0.01877459532396631 
-0.02792184994012271 -0.09949987796670004 0.1666560840114467 
-0.01701286369072352 0.01169558394136353 0.007987330379696097 
-0.02412545138050847 -0.03486184471589904 0.05833334598416711 
0.006817194095809639 -0.004193639913162246 -0.01315829303473615 
-0.007762614096144304 0.02527722253389986 -0.01608473420025574 
-0.002849125386556739 0.01631353020530877 -0.01822593888271602 
-0.002762425450742735 0.0001903670497527098 0.002531285453084203 
-0.01442173690268971 -0.03174271770818753 0.06143769752722256 
0.01385203894369381 0.02722364406187262 -0.03420580800965315 
0.01814254796643535 0.1062068188489549 -0.1372117494492752 
-0.03642934685810114 0.03901129076448023 -0.007301777333470874 
-0.00226944687296049 0.003045951175904471 -0.00641129140711215 
0.0005201532376195274 0.03756318309710376 -0.04639651194460021 
0.001013244120418771 0.03257017396125349 -0.03731165879052699 
-0.002353158560234261 0.01816706633125722 -0.01524962745313382 
0.001780467648778201 0.01047673142370426 -0.007850755788068523 
0.000314259429665345 0.00257532511430813 -0.002096084669668775 
0.01418792739660905 0.03024055376751737 -0.03963668027093621 
0.02012878349005524 0.0470803578310378 -0.06597449104011568 
0.003827736053733162 -0.006332208292310374 -0.00681758471956696 
0.003392092485048697 0.0292556593834192 -0.03569209872518754 
0.005346881428521895 0.02500706700376237 -0.02358935102521012 
0.006905196474965696 -0.006077566247637267 0.007439434907185578 
0.0130659216761522 0.002052695138357098 0.0009956100034034282 
0.02555938668621408 0.01325465333985328 -0.01955958893366889 
0.04619216864564885 0.04870140140349805 -0.07896055387759496 
0.002649413428767681 -0.01043354670426602 0.01005932828331201 
0.002994625532723807 0.001378032632620272 -0.001962595999354748 
0.002563719869350356 -0.04750386883027363 0.05836581211952662 
0.000757386443525559 -0.02959530507971612 0.04618832726188209 
-0.01021843793697601 -0.06795764153474643 0.1013155589205181 
-0.08828054448154007 0.09831663497143199 0.03697094924563341 
-0.03911654625500587 -0.002865333575001061 0.07819042093717464 
-0.08001817742815032 -0.006799962318402793 0.1302246243121039 
-0.01853400861785673 0.03402130123219574 0.003402150565827874 
-0.00576799150319482 0.01326823912798353 0.005448366750168045 
-0.03275848336394043 0.05403313023501263 -0.006465502888864246 
0.03600709281079366 0.05221466986886395 -0.1035201087395745 
0.03914814597046759 0.05894928056550416 -0.1129498667087842 
0.02025947375508498 0.03581163731502073 -0.06485266850623006 
0.008463779831399438 0.01279042959387373 -0.02308880224033227 
0.01244070458416602 0.02204293220470327 -0.03276336047289934 
0.0004300937531453941 0.05670355776000496 -0.03783234101902442 
0.01703501903025068 -0.01083205746662095 0.03615906556132825 
0.02830196854240179 -0.0912668849445578 0.08784509496572013 
0.04813108970204372 0.09127161979999068 -0.1526518128693361 
0.09558152227609383 0.1000680326121126 -0.2120727290727012 
0.07575836128761604 -0.001563444908171299 -0.1023937882258793 
0.03749010802537773 -7.272874551190648e-05 -0.05616130945052662 
0.005590340410691353 0.006185508755079178 -0.02088379003763334 
0.004563896383290629 -0.009501887493697387 0.01135012569835844 
0.02246485700583005 -0.03144158184631442 0.006974280836713535 
0.01065909927705741 -0.1351517582971977 0.1443930716999366 
0.09002923916180834 -0.1374704255842529 0.05738428068301327 
0.1271325637950311 -0.133408237885354 -0.0265682065376928 
0.02703216828555084 -0.004295310582471703 -0.04297040076267743 
0.04186839208010204 -0.06264040037634801 0.005545742130568231 
0.03025829227895062 -0.04318223005017752 -0.005300804403336241 
-8.410983214908937e-05 -0.02668948272315733 0.01539824407130987 
-0.01437236693167156 -0.02824431995754484 0.04378793814363365 
-0.01150874823990021 -0.04265606363233324 0.06421556873275337 
0.01472085859549862 -0.03516436074292796 0.01915997892996011 
-0.0251264689641236 -0.1234087293967719 0.1919569298484092 
-0.01759319456608154 0.005925316500314521 0.0360956867023923 
-0.02445611332986274 -0.02195710770587717 0.05547169834700436 
0.008815689646740784 -0.06363986987888286 0.05912058199301445 
-0.01019935896071632 -0.0175467493752586 0.02678129555160788 
0.002571486008296629 -0.02226949178919853 0.01576563205008484 
-0.002329127271222367 -0.01638499881420072 0.02296998601638032 
-0.02078529624085891 -0.05815503060281601 0.1020574086033818 
0.01825829783290046 0.009422768142785068 -0.02488899891110012 
0.01626610895291534 0.08747609904679586 -0.1273063500412422 
-0.01704936816282221 0.03065021397850171 -0.01314191729381284 
-0.00621297257214597 -0.0313752852270019 0.03748618378411998 
0.0005328603107476552 -0.02705621178925889 0.02692915515527084 
0.01223300819267557 -0.007913111361820119 -0.008895039889954512 
0.01544704576504552 -0.006951212983878114 -0.00416809228836224 
0.02108488227866835 -0.004283902287016588 -0.0111918484543729 
0.01547849804816031 -0.02293088698804708 0.02323708170243535 
0.02107599916897105 0.01385554355464784 -0.03092110408758715 
0.02532940961562302 0.04632338282898808 -0.08038420617440097 
-0.006391183024675685 -0.02830729938647305 0.02216865049834753 
0.0005446084536660366 0.02061504215566824 -0.0268946096259793 
0.01038006625612663 0.03051804481118884 -0.03511613982614782 
0.02650129959958504 -0.0006183139154380548 -0.01378236300772996 
0.03941124955889114 -0.01322491509925834 0.006455763547107815 
0.05505760870224431 -0.001998172804525477 -0.01626326479298234 
0.08501831015835633 0.05484188008796344 -0.1040701405363095 
0.009386912752481108 -0.0129478210572481 0.004097783082040956 
0.01015694876497795 0.009656887913596458 -0.01904958840295165 
0.01259456864846299 -0.07429968579890854 0.08003119884949672 
0.03286255635734314 -0.03261004466309955 0.0271393691714954 
0.008990301934712078 -0.1080159796212371 0.1304503479253318 
0.002942092405303283 0.007068481457038811 -0.01050863688344708 
