solver_type L2R_L2LOSS_SVC_DUAL
nr_class 3
label 1 0 -1
nr_feature 310
bias 1
w
-0.05489634428421446 0.09530226249688536 0.04118694581634699 
-0.1293527105686225 0.01990744833543617 0.1015557156804733 
-0.04153894974754398 0.005645777637024594 0.09302731717294713 
-0.1638989682478799 0.1909833170352715 -0.05244841561967726 
-0.0447106795696885 0.09018194199171023 -0.03221055178408405 
0.004202008086962761 0.1965247049752489 -0.2510846554770684 
-0.1374073941162726 0.065099245408308 0.0251046694376784 
-0.1103462665642437 0.10668234184314 0.04610061248898979 
0.03229204047511267 0.1218350917858854 -0.07624404440403583 
0.06824147524119881 -0.09843649697679395 0.05450134039595875 
0.01017506385970648 -0.1424193721680551 0.08908703235726942 
-0.0652898775093594 0.1059495333306101 0.0381314459743476 
0.01458749840096692 -0.002953198148021903 -0.04117025499632865 
-0.05596036142761596 0.05395851483477754 -0.05580777656180833 
-0.01960002498528143 0.09295481613852077 -0.201754739622673 
-0.008423716138874883 0.1399817271876519 -0.1270991062010824 
0.02543966690364243 0.0601100206446592 -0.1073180043829331 
0.08728206462246142 -0.07741723316671233 -0.04860675772603851 
0.08516109717580417 -0.04708532832491295 -0.1185148921199881 
0.100628316863659 -0.1962158277632484 0.1595254346003246 
-0.02423502574421542 -0.03223869184080595 0.117722122452935 
0.02094106186181805 -0.03466533635765501 -0.003167319533785258 
0.04463307743790736 -0.04067530930910673 -0.0477476477726855 
-0.08204727344794722 0.1076708153820105 -0.04968932785065394 
0.03628128513911461 0.05840490301824022 -0.09972950333904644 
-0.02587208793456713 0.1453897719359246 -0.09284371460330992 
0.04234417861315055 0.04365220982228332 -0.0003240813333676002 
-0.1647670515738541 -0.03188965185685246 0.07878935186453917 
0.06628964980795117 -0.2770298418877175 0.1071650928865192 
-0.05390906328829596 0.005440906278937549 -0.04469396181789848 
0.03737323708374806 -0.03971919633770207 0.0522634635006483 
0.0003595274175359615 0.006177084942355955 -0.03609673982525093 
-0.09471592962843481 0.1077829955928539 0.0604720467866984 
0.04848531122397723 0.04292777138699314 0.06556236790118371 
-0.01596439856771529 0.2793030362742416 -0.19881861638299 
-0.02417209764007171 0.01391102315253533 0.0399145091736469 
0.1310965456407573 0.1408368326356127 -0.2692283868873402 
-0.05400544815080442 -0.007346139929640866 -0.08406581825280202 
-0.05371275148978146 0.1887973693045068 -0.06893931094177567 
-0.07700325200676328 0.1877268421353987 -0.08389584478297935 
0.01010199384962127 0.1324987019722472 -0.09360186215004916 
0.145419142537678 -0.1724529991336937 0.08600157033509723 
0.07762390388588779 -0.05568228010954762 0.09476988396556524 
-0.1574583252132886 -0.07881721327848605 0.1983668971040164 
-0.009530579978791986 0.07552009203456587 -0.1089349896533526 
0.179623817884228 -0.1648338482772436 0.1432377865904761 
-0.007171379674295915 -0.07716563819418841 0.006236591028686438 
0.1404510604139788 -0.07882752159781976 -0.02891174085590297 
0.02148443892560134 -0.04515185967989815 0.04420091451466115 
0.1160309141383758 -0.1772968201175897 0.1167697629293227 
-0.04655979177950269 0.0386079333423462 -0.05842612191813268 
-0.1023626786652905 -0.09454012936619315 0.106133117873631 
-0.0501969682707005 -0.07650922929755721 0.1117802118842892 
-0.01992206428545235 -0.0182187360974687 -0.05374728371308782 
-0.07328355221957338 -0.003593619904258416 -0.0228741530029979 
0.08549266972713208 -0.02698395227699868 0.06034621531410825 
0.1122096712199219 -0.08855457800894571 0.0784735505048304 
0.05627928507564103 -0.08011920250761019 0.1064944927944809 
-0.04595687414617083 -0.01917286465464243 0.03466128741333065 
-0.01443487360140564 -0.02964224926891604 0.03393339598575409 
0.02952544547981256 0.03215029945354716 -0.01111163290320081 
-0.06400272347848454 0.08209353217715479 -0.04897334186742239 
0.070198615948803 -0.09276678707219183 0.0386483423522772 
0.06336172713394927 -0.08116705337696699 0.03481535075930989 
0.04712673809694704 -0.05709967235945678 0.04325650849281624 
0.03230662307511502 -0.05241668991520987 0.01688028700513475 
0.01032868624906769 -0.02560574518067394 0.02697044148965429 
0.0782219805214129 -0.06061795227057543 0.1053834507954609 
0.07533143491795406 -0.05019278912005573 0.0170616879482314 
0.08954828630164187 -0.07069717253961268 0.01742837921028006 
0.05832101211920398 -0.05741499113720631 0.003447390223574714 
0.07116956402115131 -0.05249127134782162 0.005033827828727259 
0.02522571002802369 -0.01922543130511825 0.01176436390424613 
0.01637131871898174 -0.002581282883468355 0.001457443883629614 
0.01921720010869996 -0.005510157333776953 0.001384641480572327 
-0.0169590722872953 0.01170377392410354 -0.02476156823383003 
0.07725358911859645 -0.007733374263412081 -0.07331705159477037 
0.08686720494067321 -0.05742315598715785 -0.0325922017522744 
0.1023140537690815 -0.08109942092885147 -0.02670808095425279 
0.07344789650911818 -0.09671606400037924 0.03024094899576814 
0.07600923160697684 -0.06774141916894333 -0.00220747448077046 
0.03452613246816226 -0.03315178361342972 0.01659841444616105 
0.002072583298574294 0.008780767728907601 -0.006373672793168673 
0.01979288177626947 -0.0061619968790055 -0.02554953609359516 
0.08663208318331424 -0.05879944148866727 -0.02109009956514312 
0.04311015773840506 0.03778524891384743 -0.1058503120259046 
0.08032040884996004 -0.02650696874018032 -0.06388113458960992 
0.07470487577239628 -0.03915250680264375 -0.01005843811814614 
0.031647576623256 -0.001465879941979772 -0.03681335500299505 
-0.02162172568286874 -0.05227611483800425 0.05507260616354138 
-0.0487271112993836 0.004516903342671721 0.02120233907896043 
-0.000794842947693004 -0.01502910339659221 0.02494018898454 
0.07937897461796452 -0.08903731743218335 0.04418156353920798 
0.1316676541284302 -0.1005453848167721 0.007626041978502089 
-0.0156966048495705 0.02345546618784293 -0.06001228780251509 
0.02353681089777302 -0.02414905183454959 -0.03093992437777481 
0.05670279050270347 -0.03301437721495687 -0.03865398821153251 
0.002730608223495048 -0.0822775259316053 0.04865602894363998 
-0.04157473309543641 -0.05099936419380305 0.1220704052930189 
-0.04293287508104146 -0.086958696392683 0.09757996471161495 
-0.02220391817501457 -0.06118499225862685 0.03984994701412486 
0.08675460330557117 -0.1338786370985157 0.04680655350249556 
0.1197869234700152 -0.1246503701616426 0.0413580680869159 
-0.0565572663060195 -0.02510441291042257 0.03299491235953406 
-0.0477157201721356 -0.03705205679260207 0.04246144146673648 
-0.04326037556574996 -0.07088547044288135 0.07417093914965248 
-0.3531740111590879 -0.1380358619524304 0.2844267413391865 
-0.04380782108514775 -0.02601987134215494 0.05678911484617374 
-0.03288899944350809 -0.03081972098815159 0.04169056689283161 
-0.02508188423310898 -0.005527016862664037 0.01166072814854691 
0.0379878859189106 -0.08040080903332454 0.04709635066180128 
0.08646422181649145 -0.1496377686307445 0.07337694080471804 
-0.09324104964570702 -0.05960292353968486 0.09181885178371547 
-0.06928818942835571 -0.1051329728605375 0.1328361735165845 
-0.03202808154618472 -0.08382700867378109 0.0902535379501427 
-0.02171926345384161 -0.02375922098059699 0.04654775237538756 
-0.004982941952713114 -0.01319765198257276 0.01868817719376295 
0.03030011081062141 -0.07983108649085957 0.06204145544506992 
0.03663160316337549 -0.1077972557557772 0.06874759416854859 
-0.02915915679472227 -0.04697999912363976 0.03474045841714795 
-0.05385876782457508 -0.08383552501739114 0.09448891063388519 
-0.03032118316415033 -0.03864595994350559 0.03695530759906396 
0.01849255110364219 -0.05943419659547212 0.03407510596998001 
0.02666123824619909 -0.08489324897677644 0.04253109244325469 
0.04878077322167331 -0.06596294013355757 -0.03332845001682617 
0.05639964749294117 -0.09484272483825129 -0.02675661243605881 
0.07893559010992174 -0.09671741668192611 -0.0253519084587867 
0.00984447269595783 -0.02921429346748451 -0.03311812597962106 
0.01301945985614244 -0.05316061718060341 -0.02233401702587177 
0.03977583340911027 0.1116409987863457 -0.09224299957740488 
-0.03606338135498381 0.1109992811613415 -0.06268851489339743 
0.03689498947018643 -0.02350969017714738 -0.01603995032491932 
0.002583327388874742 -0.03959741648792221 -0.005682729303678052 
0.0004778717490182281 -0.06046358458021331 0.007125975721801996 
-0.01552833880375331 -0.05742446453169597 0.007767132131664836 
0.01411393086445039 -0.05578111393017442 0.01528988979694926 
0.04082778604117015 0.0008501994130316319 -0.03694481458067543 
0.07405842015378422 -0.006747717835028984 -0.0616820818159451 
-0.07879769128810339 0.1308743024361445 -0.1273331225462295 
-0.04056754559319795 0.09876531574692757 -0.1079791343407657 
0.01149294575385074 0.01873979595221036 -0.05248474303742355 
-0.008597141481949063 -0.03822103433297574 0.03088054070709215 
-0.006035998361084975 -0.04163325411153349 0.0279643770297031 
-0.05078926312462533 -0.05159997840087156 0.05291267426206465 
-0.006411398713338915 0.0004678551330452108 0.005262032464840074 
0.02474992247639046 0.04979230340180715 -0.05691009574470413 
0.0359862242876038 0.04392410287250045 -0.06248727140592141 
-0.09870251027922991 0.1653388006018804 -0.1190130366266646 
-0.08446660084450634 0.1346308683629465 -0.09000908340046898 
-0.05387136504862963 0.1117350624468351 -0.08919533771926301 
0.04780878310946014 0.03816053855957822 -0.0748809147023351 
0.00310329244260159 -0.0559169092324901 0.07361948110511472 
-0.06681818192367898 -0.02934727701084695 0.07542960008741008 
-0.03501695763209563 0.06196447477694511 -0.01274587325684404 
0.02228706426851409 0.06999132312036792 -0.05848951607985303 
0.04806126686261766 0.05580152557364805 -0.0569778094866065 
-0.1087724181626102 0.1347680317400817 -0.06882390328463397 
-0.1050852235827014 0.1312543823082158 -0.05939357052801762 
-0.04418765049751323 0.06382134156688206 -0.03013578807026031 
-0.0252975212770169 0.0338347529087169 0.01780007617781052 
-0.01940540067856256 -0.007522613860980584 0.04244951367856379 
-0.01702527665321056 0.07203804165699655 -0.02914046175257066 
-0.0349442406442876 0.08734057621444259 -0.04059561616006323 
-0.01421927498651013 0.09940809165498433 -0.06013190253563526 
0.009945075975352222 0.07735732112867807 -0.06074631944733161 
-0.1197206333758861 0.1259972983967541 -0.0520415079069777 
-0.08548657163767961 0.08785175642088226 -0.03085932067804515 
-0.04685234697552867 0.03372723663401418 0.02514784040313371 
-0.000987512298549821 -0.0119237452431447 -0.01930953263306285 
-0.01020695560163554 0.008068203211066724 0.02878401758509158 
-0.0278226736516928 0.07206151566915378 -0.02174298410437609 
-0.08433077887829228 0.1378749241068078 -0.05696429652553808 
-0.05930285555149432 0.1304994799865682 -0.06500867386207045 
-0.03739968372514405 0.1125627105579058 -0.07466484954495489 
-0.0973950352622457 0.05568058286261143 -0.02012003623475822 
-0.07268827248945968 0.08596396933875149 -0.05000212748630228 
0.01901127123882405 0.02184387672370545 -0.05348176883087535 
0.05196452633925372 -0.0139906574989336 -0.01805446678392613 
-0.02495618237164234 0.08890029772364534 -0.07973611274274654 
-0.05809483278146773 0.1299921101604372 -0.07807925793734644 
-0.04834319532577404 0.1203187941865173 -0.08418870146275369 
-0.05974243137933407 0.06098372464912515 -0.04723558377919104 
-0.03419921896789682 0.03783161554988768 -0.04817728517586818 
-0.003740524587646336 0.01039712039653969 -0.0401450433647375 
-0.01246936404705671 0.04929283655900507 -0.05921280612140466 
-0.04191908233191224 0.03603101141704437 -0.04100456727929647 
-0.0991218871672102 -0.1314115323950034 0.2289134111094993 
-0.07060235683146712 -0.1258857208184313 0.1926968493070934 
0.02369749740654405 0.01344688591527717 -0.02328899819628831 
-0.03778340389703772 -0.09358037656571135 0.1218527429299437 
0.03165788980367349 0.004183322036934741 -0.04078393991650642 
0.06441466711339734 0.1371797635726975 -0.09156647158777863 
-0.005137642265586522 0.04524227694084539 0.01613306755566886 
0.02886496031653414 -0.05570329399813369 0.05155367276061985 
-0.03661014986500395 -0.02097887387470817 0.07013280394856349 
-0.04318608126088718 0.004422289572838559 0.04758348740136929 
-0.02623985257427982 0.02278775436090408 0.01976355475839527 
-0.0002686204669335604 0.03960563189980063 -0.02775352594242502 
0.01842466374209678 0.009246055783878793 -0.0383783520181647 
0.03546380762282347 -0.08694656210485992 0.01623346554763654 
0.03745624625409933 0.01606109679208566 -0.0614762295532872 
0.05239408749099669 -0.01005815970244201 -0.01274066952199642 
0.04492714873690029 -0.01224333651173685 0.009650508534839843 
-0.03121719907984832 -0.008490876755104192 0.03443881844045107 
-0.03384592913650215 0.005871776050531762 0.02725539560376824 
-0.0216794180745281 0.04687256513746128 -0.01589309881345764 
0.005496635353172713 0.06211078057758591 -0.0531235972757761 
0.0213942536546553 0.05982519471010353 -0.06562286146554418 
0.06149669108902053 -0.02186865260030877 -0.02637874873073784 
0.05328686978011613 0.02162275948745948 -0.0623714267554001 
0.005976118265281098 0.04325860670486491 -0.02779981498274756 
-0.002368421544292345 0.03316868785912375 -0.01358254382192283 
-0.06723465846255905 0.01766928468602113 0.03900841849958233 
-0.05776700252535558 0.03852876394939484 0.0180716464345804 
-0.03023836761119086 0.05893882998109932 -0.02538419109613158 
-0.05882162289363953 0.1121444616914108 -0.05241624904681486 
-0.01859313624955399 0.08583427861788151 -0.0582939463612207 
0.179826224688476 0.0173236691035806 -0.1258835177949862 
0.06817205886000204 0.05129923103264222 -0.09119540686684749 
-0.01515073429494467 0.05277275265013622 -0.009261966799341459 
0.001742289793434069 0.02619906145481884 0.002854367207870384 
-0.01651923902265688 0.03904523897841373 -0.001056930208264461 
-0.03960816811024115 -0.008478699272264441 0.07767335516423544 
-0.04497126049179703 0.02749434939555292 0.02722361044120795 
-0.06498646343271287 0.08408101992713304 -0.01472491484100195 
-0.07011308520082996 0.08161314247046907 -0.0187563487024437 
-0.002594498557355806 0.02336068798870329 -0.009624757109932056 
0.00677217440130036 0.04634261086642597 -0.03654491602848473 
0.00391792648437668 0.05092526310650559 -0.01872730756367796 
0.004343658338484375 0.02759115145769757 -0.0006803074604807865 
-0.1050119136218594 0.05773312802192695 0.01880484748901704 
-0.003346623131895775 0.04884835223424071 -0.02707002010981045 
-0.04175609732467437 0.05367823995266939 0.001966837705033629 
-0.0449633906943626 0.0950029864485023 -0.04861559724969798 
-0.05793920311662602 0.07898082199216917 -0.02436984815245075 
-0.07422196196138513 0.06447814493679097 -0.00968387811151652 
0.02113097670378003 0.03727282980639459 -0.02643337053056752 
0.01044332246743251 0.03493396279389978 -0.0193306560809385 
0.02755275469094437 0.029765594109281 -0.03570046527075891 
0.01823300620316753 0.04568964210045882 -0.04476339852743794 
-0.01947689204156544 0.09458401863731665 -0.0733689631949193 
-0.03548545403208059 0.0648863311548321 -0.02059193177544246 
-0.03880800553974045 0.05705825489183531 -0.01794364907593055 
0.1112397780530617 0.01084607174785698 -0.04306787072680471 
0.05089832744686135 0.03107832896647482 -0.0479252874999955 
0.02929091092176137 0.0383188454275588 -0.03903774828416272 
0.00512824773842994 0.02645512619393298 -0.01466276483194801 
-0.02037953990125996 -0.03191514524477394 0.08252219005116405 
-0.1898147227283127 -0.1565724955190932 0.2591868903499482 
-0.1428834181188471 -0.1735916041014038 0.2630763565164697 
-0.03456648312375786 0.02286159499690439 -0.03019316722456306 
-0.05279673986925046 -0.1547980801569928 0.1800682523477464 
-0.006284030042400276 -0.01162327447209105 0.006675242474330786 
0.1708415861799054 0.08031699388049149 -0.1557702746923312 
-0.0005538516353162586 0.01486153652102874 0.01522348027942605 
-0.00918379401790108 -0.04788652421209862 0.03988302714100224 
-0.02836738039300238 -0.02536939256168338 0.06395342859434509 
-0.02329274320639992 -0.008418362722505989 0.05519473855696175 
0.002736585325480483 0.03840833000757989 -0.0200029729461452 
0.01908661434819035 0.09709368306270129 -0.09831037954693343 
0.04198400792860379 0.05947962644252541 -0.09909147855493598 
0.07276337568216186 -0.2531684656813345 0.111270439246838 
0.1959882620423684 -0.1431611470337006 -0.09986000766337105 
0.124247740864949 -0.05988465355947204 -0.08823101056700645 
0.08536997407052481 -0.04817427743298611 -0.03031009112380246 
-0.04732895566189461 -0.03934115498935734 0.07492811401291752 
-0.03439326072536947 0.008465994878834444 0.04244598767173992 
0.01069709063651716 0.0449052773378 -0.02856032690868647 
0.06240654345519486 0.06726890167618028 -0.07658264268666055 
0.1285151899977844 0.008760414448588882 -0.08425248165486225 
0.1330797392533759 -0.08459325351553308 -0.06738552174052677 
0.1928819656331632 -0.07422323786730028 -0.09773187308437768 
0.09795732920527778 -0.01480931538814448 -0.09543759197740363 
0.08136711973298638 -0.02841019535708074 -0.06377835287186925 
0.0008968156188311526 0.001612707852215466 0.02633400194632396 
-0.06067229250365099 0.0003886968656943381 0.04691326068955839 
0.0004203451048169452 0.01845963868921567 0.0213883650702866 
-0.0007102154179148071 0.05503321693785613 -0.006268631480772981 
0.09578379294178113 -0.004387321317888628 -0.0289411064522929 
0.3135713267753005 -0.08768433933471501 -0.1009015764115368 
0.2567401651401841 0.03421876590549147 -0.2695019669152861 
0.033866044122196 -0.02921505835073883 -0.04523838620603798 
-0.01738541933802812 -0.004074234534603243 -0.01149419813414925 
-0.07350758883035435 0.01674348340630775 0.03681398480773815 
-0.04036092100569574 -0.03695867558615517 0.06599423954126413 
-0.09492171414409664 0.02754388645429467 0.03697298414800278 
-0.08232347885523357 0.05410590927992478 0.03830275279319609 
-0.05683049452082227 -0.01262449619474966 0.08097709771977464 
0.0642377287387499 -0.1284533372840339 0.113076003968856 
0.1348998511576672 -0.07360764503118052 -0.08994374189077016 
0.02311246907006736 -0.05773653046598742 0.006032222915924782 
-0.04141461643234939 0.0009734801704502988 0.01370205815027963 
-0.02578287717612412 -0.06700792712561442 0.06212775443188799 
-0.09202331187849076 -0.004395571631272851 0.0647251004022867 
-0.09825729218749162 0.02948297892537452 0.04425151753683926 
-0.09809687991822798 0.03354613574347621 0.04915080090331855 
-0.08752625199679795 0.01810307328611234 0.05995969551808739 
-0.06469406168032635 -0.05518267590761437 0.124939018505637 
0.1244317048712518 -0.1031396441841732 0.003912517239080584 
0.01388008439306174 -0.05661676777919405 0.04549253657277649 
-0.04819216075714405 -0.0005864598862960609 0.04103713220613965 
-0.1023774604031952 0.02342323416004433 0.04361827249945682 
-0.09619937930529229 0.02696008175007829 0.05077770201712212 
-0.07390889179193391 0.00408234432021443 0.06624125568962318 
-0.06097978500026377 -0.04167836312966407 0.09947942884133419 
0.3057369047993789 -0.1019645384397636 -0.03329783851859999 
0.07430024042744485 -0.03580382725306799 0.01128492350089964 
-0.01670244757943407 -0.01911864281187907 0.05106686002962546 
-0.09374566122403898 -0.02339937152513861 0.1027185097587714 
-0.1394517910784285 -0.1597953981504555 0.2639398153653831 
0.01159718126129654 -0.003065873538023896 -0.002184626180092514 
