solver_type L2R_L2LOSS_SVC_DUAL
nr_class 3
label 1 0 -1
nr_feature 310
bias 1
w
-0.01528949605542195 0.04445262283161087 -0.03544860575078666 
0.04349838240618715 -0.07267860135497527 -0.01341182515653029 
-0.1011479905954299 0.03369022099514633 0.04580082563222151 
-0.155622042230521 0.05189716938514281 0.07050544291019555 
0.02901316435721523 -0.01620968930861485 0.07963886181552883 
-0.03362128802997114 -0.03700168173300418 0.02225932639115686 
-0.06237598270715924 -0.04215326979857025 0.004741304764587028 
-0.1363073018566857 0.1348881632134153 0.0844010156822723 
-0.126926376485754 0.031221293431608 0.08923445539578513 
-0.07153820755921501 0.009340625652563482 0.07292478119677162 
-0.04590130232120365 0.1110695899425592 -0.01201518243551723 
-0.04663588264022139 0.01485113618201372 0.04131216604461514 
-0.1872256563018302 0.09027757439865267 0.03451728250865895 
-0.194021441774325 0.1783319882383385 -0.1255817526171176 
-0.04839918220253061 0.05751431811901898 -0.1531033032262196 
-0.1719824373857101 0.2261216582931833 -0.08560825155389507 
-0.1242913119074324 0.06558345910990411 -0.003428046157209715 
-0.1728643280739606 0.1988242556133874 0.01498047527057229 
0.1833887835954977 -0.1107668621425281 -0.05682245166994697 
0.230625803961353 -0.05573737627681241 -0.09842650624762042 
-0.0874293708602909 0.1299660405623454 0.003231432880494422 
-0.2000639113061512 0.2334663921844123 -0.04884652642382199 
-0.1072230792674457 0.271226752815467 -0.1503399095021404 
-0.1236305208873591 0.03955237157505688 0.0635967841465874 
-0.1441166305666658 0.1328573241638094 0.01005623923857855 
0.0265174608090987 -0.01567109166733138 -0.01473801554672335 
-0.1611014457608206 0.2124859058911563 -0.02287243122558286 
0.1790116113899144 -0.2426460845425261 0.02992757407925708 
0.2203929332184022 -0.02112665322411746 -0.08703270844338451 
-0.01188586757525151 0.1450485831052972 -0.1311832690072003 
-0.2677929971469892 0.1636060106563215 0.06695125691903116 
0.1682258879836286 0.02418983574732523 -0.2245711590352873 
0.004562217945264638 0.02241314908733648 0.04209663021781417 
-0.0205801135570199 0.03024870024692182 -0.04427480137966273 
-0.19069672687314 0.0928153103409504 0.08976277117881594 
-0.05426928981804089 -0.231465584658911 0.1950390418519272 
-0.09057132435958368 -0.07527882914984517 0.1641529177376962 
0.09948846702809637 -0.02690450197442164 0.01933237842315364 
0.02560647164533651 -0.1208409477082329 0.03312525475175092 
0.01426223158004086 0.1379459681478788 -0.02915293954689733 
0.08006733155192619 -0.09042892849574651 -0.007095324595265622 
0.04919084947833593 -0.0431277991818415 0.03164541955649158 
0.02103813203007977 -0.1650596343706558 0.1011862936597472 
-0.1086156924983866 0.01419068331245123 0.1283256771584704 
0.02743046881794345 -0.1528706640606708 0.01254443812593357 
0.1319639474151141 -0.1066689436016787 -0.04248551019305088 
0.2756994660133884 -0.2227450404766991 -0.04449788132354703 
0.06231294963249906 0.04895252363563325 -0.05765874041879364 
0.1419559526650612 -0.09877033620218015 -0.03079735566412864 
0.0495797280953009 -0.2300954989746184 0.1011174187921148 
-0.004376697340597703 -0.08714315378543516 0.1052098059653079 
-0.005845230502146141 -0.04976445725695397 0.09966704086148864 
-0.0002707185135693973 -0.05757285368165031 0.0971429364806491 
-0.1831049723697502 0.05362098714122324 0.08887293739021924 
-0.08522803428347624 -0.007819600773745309 0.08378043556321652 
-0.0833288862573133 -0.01199215444177273 0.08515276519258773 
-0.07893431905165593 -0.01248761186394443 0.0813227840901557 
0.09421118724599409 -0.1196934768985505 0.07544403158812964 
0.1715118521220649 -0.324620139764865 0.125552517039645 
-0.1810649752242349 0.03029891839018116 0.1064852613512293 
-0.08316917448977482 -0.009652905515314733 0.08386675676820461 
-0.01592404179049058 -0.01171251683453977 0.01138660708803463 
0.08856057897062967 -0.1106673584621054 0.0001296997768733736 
0.09360309085195889 -0.05814365242217261 -0.0335399527573807 
0.07264832448670974 -0.02602767150915307 -0.03294337672039394 
0.04779752170362401 -0.05788985599734089 -0.0269744164546909 
0.06898295183471247 -0.01111695525340649 -0.05919723723670479 
0.1527322743703643 -0.1534445440310212 -0.02398959947072217 
-0.005762815807135746 -0.01290835447362582 0.0001788917004162627 
0.001737393207693417 0.0001585152929172377 -0.03658842245131583 
0.01790373029455476 -0.001800987468742099 -0.05035568914620181 
0.02609842609383381 0.03432605859448603 -0.08236455511400236 
0.0635425874874392 0.004929155121156516 -0.06001691773025104 
0.06346139897043257 -0.01320675910029077 -0.05073548303221424 
0.08188001805013496 -0.08839919474010613 -0.008155250576444598 
0.07355633366019813 -0.103612765427266 0.001759395097630592 
0.01993182123008291 -0.02932262682450544 0.01133172447774561 
-0.03058700428729141 0.02358730236115674 0.009662811450353368 
-0.02831433498005227 0.01798146771761811 -7.682491454435344e-05 
-0.04716409161725996 0.08495611955940105 -0.04478736932070468 
0.02596278476980346 0.04003932268486243 -0.06682404495502144 
0.05382744120265232 -0.01036696292926388 -0.05662434725243688 
0.05519516988399914 -0.07046682396314034 -0.001585269810488105 
0.04801331308587792 -0.07854233523799369 0.00192347562524964 
0.05083885528965303 -0.03026541107610129 -0.02980300609442779 
0.008341482491788135 -0.03334893238755537 0.01610476685015245 
-0.01467158453492122 0.02497609567742095 -0.0004087609553005163 
-0.05646238535387347 0.0687768787868122 0.008393962694869179 
-0.1028137642121963 0.1290986412864454 0.01143426279624364 
0.06009365113409944 -0.005859339287615099 -0.03613382461377049 
0.03615559603646726 -0.02891845370250742 -0.02489172610165875 
0.02012920165376192 -0.01517798049577581 -0.0007554806624595474 
0.04302603706454751 -0.04153504324600511 0.007058278132513899 
0.06067791656611893 -0.01828467920761149 -0.01822883805652203 
0.01515782078933109 -0.0422048577459713 0.02471647212560818 
-0.02049413189764152 0.004324924040724287 0.01639310090991767 
0.04793529048160446 -0.04321975179760042 0.00365122964632848 
0.05087196494849706 -0.05692758779296111 -0.008997074122095201 
-0.003583378567949345 0.007939744994794792 0.03383288212275466 
0.04041850539434613 0.006817746868968314 -0.006092339822904415 
0.08225784109650407 -0.03441479565874206 -0.04708153710759783 
0.1134723435459575 -0.04284148667130783 -0.05872893851139792 
0.1036041170389985 -0.01481974526949897 -0.05715312068078387 
0.02982937857571859 0.01548165182379429 -0.01780707512709629 
0.02996188393042051 0.01052775954901624 -0.008644769301157915 
0.08505263800156733 -0.05357573092824019 -0.0133615744448339 
0.09654177606272578 -0.04313823645064176 -0.03226728852255648 
0.09355424034344673 -0.0845652677858264 0.01207677174582151 
0.08923013329165252 -0.02437067561575123 0.0005866656889923465 
0.07054025955781221 -0.03459185084678994 -0.01664550722639596 
0.09687369734312919 -0.04167640612658222 -0.0471956667881586 
0.08421644910122265 -0.03139540491590158 -0.04483036938508406 
0.02074887989387811 0.03133385730100203 -0.02180804134278881 
0.08329870635942722 -0.007909709649610438 -0.03486911522259852 
0.08574388965957849 -0.009885546630327327 -0.03639443982751087 
0.08971741389403554 -0.08255159221056539 0.01045760341652113 
0.08507625393627247 -0.0609099487668492 -0.006546586625000052 
0.08198890932381772 -0.05698963436882966 -0.00566266675925853 
0.08596675024247141 -0.06125592183271148 -0.008720593304236239 
0.08354535745540084 -0.04007318334817469 0.006115624655703172 
0.01411194377117211 0.02417916977927889 -0.0001792712215684401 
0.08092030505074371 -0.06796602723262184 0.002816646642397188 
0.08563976972010424 -0.06303823876867955 -0.006721450098589065 
0.02504209520834988 0.001684586027732741 0.00524640073548947 
0.08159623080228866 -0.09123338509327586 0.06469623157668469 
0.05513420264503505 -0.08967012767165634 0.0881097333065833 
0.05835935839822358 -0.09888852534870397 0.09294661217205542 
0.06209218541403437 -0.0546250789889535 0.03299681350030135 
0.03767128961423986 -0.06047136492068521 0.06567803451121429 
0.1121410184370045 -0.2051985568030863 0.04843744820670657 
0.02637449428347821 -0.00848985897620875 -0.007539331429774127 
0.01372861169908549 0.02341890156705072 -0.008162443087676326 
0.02455615708159292 0.004049138803368961 -0.008909323521083435 
0.02165027066255223 -0.007495587016320159 0.004209867040022037 
-0.0152300426175071 0.03125166618513654 0.02204980068430794 
0.02050878899213178 -0.02288562451073622 0.03139830047792441 
-0.01735144866917292 -0.007919981746375478 0.04426173286638719 
-0.01681166096507783 -0.003603920043123005 -0.001717014262704238 
0.04786443016049555 -0.003034714868147023 -0.0524777835313163 
-0.01419204392182131 0.0266922671823312 0.002035809924880174 
-0.02627165828890209 0.06899807728759978 -0.0193198047445491 
-0.04944267772158863 0.07344863705565621 -0.02164484265810391 
-0.005884138766160481 0.01231286697765358 -0.008734339812459012 
0.008992520704801277 0.001805326891313742 0.008041404895183336 
0.03292852108872862 -0.02461579653128487 -0.008026312960343432 
-0.007712098509515137 0.02872022341269581 -0.01756087220428844 
-0.06379991705101397 0.03361211533987057 0.0001855611618820708 
-0.008350217753228844 0.06459146543037451 -0.05680925574985973 
-0.07400602151711751 0.1233051816728779 -0.04085328789440483 
-0.06068853207058846 0.03015420119992092 0.03806191958626411 
-0.08382193187666988 0.08978380065444706 0.01925197059054138 
0.01320080265104745 -0.02705971654858816 0.01984060419777493 
0.02891144965897065 -0.0152769746996184 0.01000198430329491 
0.009429954088692407 0.01139546312868574 -0.01332976875699689 
-0.02480035925363355 0.07076039533328929 -0.05031640665285868 
-0.05037139372561589 0.07186110757494055 -0.03764742164787108 
-0.02456189983917042 0.08894201849147959 -0.06500613929980745 
-0.0695863049797127 0.1424662826571832 -0.07012064244208924 
-0.03792342606287615 0.0606455613013409 -0.005849276894697564 
0.0006496410834386887 0.04221059016859655 -0.03452641886979254 
-0.03837752998381182 0.03333808539812694 0.00156319571986926 
-0.0329482195458504 0.0335040777682022 -0.01134671301506911 
-0.004712354363712232 0.05018621788981652 -0.06934636669336389 
0.0106793471207857 0.06903643685871391 -0.1074919813571889 
-0.04083042612826817 0.1274770684611287 -0.101145133325432 
-0.00282435861925693 0.1022719753744498 -0.1099676698746036 
-0.03928376440730251 0.09508550580337358 -0.085127948184679 
0.020414616230604 0.04327482127243852 -0.06834618021514294 
0.05183964035311566 0.0122365546791974 -0.04998354079349332 
0.04455903979140371 -0.05677705237701865 -0.004537241791857428 
0.03284888887758459 -0.03543653214244057 -0.01661984177429184 
0.008175067652579828 0.02314412604324956 -0.06807734255844496 
0.02182806792553526 0.04137770973969137 -0.1061216006341363 
0.005306064195552301 0.06225738870813124 -0.09203594801792227 
0.0234775263058247 0.06125126410017789 -0.1136730644986911 
0.03280838819005874 0.05142264915145227 -0.1121434087638439 
0.03693694643687979 0.05069238838664784 -0.1162003386866248 
0.06871360581630721 -0.02202249964994233 -0.03796985727839017 
0.05368056190401514 0.01856971688814337 -0.09195683344681298 
0.05250286093194384 0.0157476180601773 -0.08744899528158109 
0.05570213310715716 0.01483697077401962 -0.09190488317623315 
0.09733048536777394 0.03053769348336738 -0.1208524825401664 
0.04529122206727299 0.05648030884739416 -0.1037814914755368 
0.06483747112411249 -0.01340467420759897 -0.04907716713621878 
0.05310576012433414 0.01463288690197924 -0.08773263000446925 
0.05417691234512636 0.05357562863318907 -0.1085423985834303 
-0.01336623335982857 -0.01978454392555901 0.07449233178193189 
0.02295805585921045 -0.08825819109923605 0.06778391187645472 
-0.03828759892124538 -0.03949281218202507 0.0836425643798466 
-0.009942821022421864 -0.00736022713296025 0.0526211762028322 
0.0469469916901122 -0.05990115075710007 0.01452950365246782 
-0.1377000207654344 0.1156931779245377 0.03507088896203472 
-0.03880369374250295 0.01914482128410348 0.04554066859311807 
0.01773664572955141 -0.0292315274456985 0.0360399821108168 
0.03976903202771894 -0.05258843958965612 0.02360103743618106 
0.04414459114236693 -0.05349665066187982 0.006555168043708119 
0.03456797506751456 -0.03399046940666076 -0.001203934122599266 
0.04209334879463533 -0.04175941191447863 -0.0004288769090902547 
-0.038402454749644 -0.002550565667523 0.04105083059223775 
-0.04302603536096465 0.02513901458912847 0.01195886319603423 
0.1383373389848439 -0.09485330694305398 -0.0751144876509313 
-0.01317658953834358 -0.0909679615628113 0.1252104511804711 
0.01245304621532911 -0.01395071063985816 0.01321106514451673 
0.03079982604389289 -0.05505796898107051 0.04299123878465428 
0.03700359106188054 -0.05466977177697246 0.007498796411891271 
0.007279270736547755 -0.03028504364321671 0.01187347434286475 
0.03106765340323584 -0.06316645123900849 0.01224936368405992 
0.00367073308785998 -0.02601226177941328 -0.001734573049801264 
0.006033940588315685 -0.05613420826424351 0.04632859193803977 
0.1066162652220245 -0.01651953388195988 -0.1279453304073904 
0.02002325060886995 0.01992905848385133 -0.05683886955537377 
-0.0143949992893087 0.02321593630717377 0.008976371231416381 
-0.02269762328252455 0.0170804444264677 0.02490836374330812 
0.03291633361855816 -0.03379310717100634 0.006172606680172618 
0.000519703193292826 -0.01300537616884589 0.008001020353278803 
0.02443467725975533 -0.04222194861636602 0.002137559813731017 
0.009309479606165965 0.004582534578896568 -0.03174617346467109 
-0.009741576370477142 -0.0226288046285231 0.02237861474230259 
-0.028107684212918 0.07419514998055535 -0.04558205024190758 
-0.04431576425077437 0.05839113955888877 -0.01478154395073276 
-0.003535578911594742 0.007353569626303514 0.00788718933783609 
0.03351729731605303 -0.04274364880084406 0.003334879259329939 
-0.006230776605462958 0.001030157279893721 0.01928098330665068 
-0.01503302306700871 0.006831060559866656 0.02577711370015476 
0.0131850145719314 -0.001012496002069607 -0.00434563063308468 
-0.006094654999103474 0.05812250867686979 -0.04586344467218064 
-0.05339867131642766 0.1403023823164931 -0.0762736097586908 
-0.06753186175838093 0.1512902515454937 -0.08606200583613026 
-0.0491573669102115 0.03201858406647012 0.01918327161255516 
-0.009792144322076096 0.01833316944310441 -0.004123023033929089 
0.01697749973899523 -0.001143291157912818 -0.01574361805466423 
0.04903281932453867 -0.04951986769865609 0.01442527634382448 
-0.008882342138228016 0.03031171838744761 0.009377369768336615 
-0.02060834488625707 0.03399155992211718 -4.165672909000802e-05 
-0.01324309868293972 0.04557193715316925 -0.03113525774949695 
-0.07005393454109045 0.1485517082373542 -0.06383043033448482 
-0.04239319923597182 0.05515132891934657 -0.009994265972094072 
-0.01676943818468131 0.02432215189391703 -0.003050308030050615 
-0.01112597685851263 0.0230597614566907 -0.0074586122719076 
0.04566014037463972 -0.04035880911794926 0.01018684143713397 
0.02297469059794647 0.01264410670841567 -0.02266950160918101 
0.01909727442094056 0.0144694738239569 -0.01928038650270315 
0.02156501152745404 0.01450947415521232 -0.02265058123252413 
0.0317808941688227 0.01644777351428652 -0.03142697848869495 
-0.001639869780845618 -0.0564045736983582 0.07068995770245928 
0.04327178846704743 -0.03376394390094305 0.001866928704631983 
0.01701267477824582 0.01691627370828669 -0.02063361741270863 
0.001141550208247818 0.0457612411087676 -0.03321829329999429 
-0.2242679865280246 0.09417981287653847 0.1285966373431729 
-0.1648079582925917 -0.02291422032377572 0.137463838428414 
-0.2314972951256696 0.05950701684711087 0.140035962801514 
-0.2299009641853057 0.1649166327830869 0.09103754952222205 
-0.1357140090820582 0.0588290756616204 0.05402160994821028 
-0.1369934305046265 0.2040672135285898 -0.02946590643125661 
-0.2200608276263983 0.1262419934310769 0.07917398292839049 
-0.1234258314260089 0.0755015818743137 0.03209016375816016 
-0.07978963055064615 0.04396110982386851 0.01039716378026634 
-0.06979693050215326 0.02907493565142531 0.01709075595460998 
-0.09051238692250756 0.06421564418117455 0.009701432089765183 
-0.09892510699537441 0.07155272303660969 0.01278521564411934 
-0.2237259571027011 0.1199604343100008 0.08589120048313542 
-0.1802538016667692 0.1214441085065594 0.05950604036837841 
0.3080018521498505 -0.1574405952623898 -0.172816850862959 
-0.0533452404131082 -0.1727015599297852 0.2554805902378757 
-0.114267906082482 0.09287558094637774 0.005766056256126835 
-0.07511575500181697 0.06087179655257637 0.005183105635619667 
-0.01390229170097155 0.00967948548381985 0.001273855427546594 
-0.09172312248816249 0.06786242818026229 0.01960210402007244 
-0.09324999208363186 0.06126093878458112 -0.002716481477362068 
-0.1369822552963676 0.03521429996158486 0.05566870695609652 
0.0308690712746239 -0.17123187848732 0.1237560610659574 
0.1687456809220992 -0.0476567200496775 -0.1562061991973037 
0.0737728893108868 -0.01957127733791191 -0.1005956636072106 
-0.1210943488034152 0.1417191013062253 -0.02388577233479121 
-0.1145765380787724 0.1192290860898102 0.008357981910933844 
0.01771403554308446 -0.03173290104264559 0.0004685772764681712 
-0.05643617839551866 0.03894728905273305 0.01343766841555428 
-0.06301859971706184 0.04946978902875819 -0.01452345329639327 
-0.03534904196212472 -0.0001246914873693117 -0.02751368459691515 
0.03316239410000943 -0.1883442520377288 0.1216396216423009 
-0.05546453574105071 0.144523015071542 -0.05770706678579136 
-0.04630711721610586 0.001841250135628942 0.0386808106170008 
-0.070110852743377 0.03396254305951012 0.04880583734409378 
-0.02518639648661891 -0.003573446675189831 0.0280201218139744 
0.04436304419789185 -0.04313760137554124 0.009154861675710944 
0.008452105925515022 -0.03271636990630122 0.03538048356786772 
0.003813594113664677 0.01109714956638019 -0.005557028740762942 
-0.02978424825756398 0.08756774890143253 -0.04484078011702054 
-0.06245352768751705 0.1847275428195605 -0.06723752118506295 
-0.09240045408987198 0.2150620225534704 -0.1405525527882129 
0.04717724048141436 -0.2821044900228073 0.23051770514726 
0.007305934495171134 -0.1293095794288126 0.1193781418398135 
0.00331839371572228 -0.0446324517908398 0.02915953131315487 
0.06034002139228282 -0.08344239297956618 0.03462529517167529 
0.001023539685708769 -0.01128008709253973 0.01650068682969673 
0.03351978432001119 -0.04231072837064938 0.01560262347598878 
0.0471454202281082 -0.03212964912855153 -0.01425617533249662 
0.01793471256417625 0.04161050010778233 -0.02473250584310752 
0.02187820577904244 -0.1312551073577309 0.08909755354720589 
0.04257640945847274 -0.177831058496414 0.1079768902429921 
0.05192908758473847 -0.1871505712303477 0.102272571744417 
0.02298252570429415 -0.02149471969608001 -0.01752096101288015 
0.0514752502366762 -0.03595170274584026 -0.01766147599119079 
0.05351159741245159 -0.04180631036660919 -0.0144433361561381 
0.05430851898547765 -0.03614650388995123 -0.01989866626872687 
0.0328362416722965 -0.06521666683145595 0.0005970295525663337 
0.07962676048734181 -0.3418911858527061 0.2724282288614684 
0.02845056724503605 -0.02399003660455661 -0.02471774593620274 
0.05749931356186704 -0.04457019117438029 -0.01575042504844049 
-0.02230486457063247 -0.002035059214310782 0.00245182808864724 
0.003960040279128939 -0.009239932962565651 -0.006832290897850638 
