solver_type L2R_L2LOSS_SVC_DUAL
nr_class 3
label 1 0 -1
nr_feature 310
bias 1
w
-0.1074436733200225 0.0445315800111716 0.04083221548652488 
-0.06830438174103536 0.03001968585628228 0.008409611231667537 
-0.08169147374036588 0.04203007364764707 0.03149604502119373 
-0.1519034445972597 0.0713168148177233 0.09218858300412597 
-0.03157482164492569 0.04589619303220287 -0.01096267613450023 
-0.04115044884039636 0.0824525313970029 -0.08914097805973843 
-0.06017783022910907 -0.008110337106229791 0.05920204320598496 
0.01228068104167494 -0.00446208626211207 -0.03702985185107808 
-0.01607353367941108 -0.01818158314516293 0.02458577508366076 
0.1513318798227084 0.02800935398036883 -0.1960656011332506 
0.1211202276448918 0.006138976146420864 -0.179416379024921 
0.09850511759968462 0.01327764694264013 -0.09938469572778545 
-0.03947460551252045 0.02271997587733041 -0.0001077215950782569 
0.1016501741135409 0.02536472294023308 -0.1248248137878682 
0.02244055114894794 -0.0091909943211545 -0.04686137565002927 
0.02605992487288887 -0.02035724480491975 -0.009600732112181992 
0.1003251913164652 -0.003601620507351432 -0.1349433570431151 
0.0643277671435684 0.03390242445129125 -0.07122011169505676 
-0.02136347096830473 0.05087463232525294 -0.07530446521693276 
0.05041624716191748 -0.02851344678886547 0.04536016533758536 
0.05382156629857052 0.06635913785676439 -0.06553594414532782 
-0.04374748255914299 -0.01511054356129254 0.0533264120182991 
0.0564400523081061 0.001248813136773762 -0.06585684062775016 
0.07692075969236237 -0.0298378802293026 -0.06718664706538545 
-0.001524593187592391 -0.0442051417516265 0.04499426407702618 
0.009613185413766916 0.01327516748082334 -0.01720936214268351 
0.002955455597978481 0.04487756768818941 -0.01001272658347642 
-0.03026569168591673 -0.1022141687176689 0.134181726064054 
-0.07616662022677154 0.006036669178297181 0.08155456164977018 
-0.1350200737275179 -0.04057929636774709 0.1762028988909095 
-0.0272988621493607 -0.04487338912467672 0.04157596251486727 
0.09437523758830682 -0.005550346625147529 -0.07581370564853433 
-0.01666008430427608 -0.03421537148131721 0.05035413113538646 
0.04309243521573342 -0.01150628491694983 -0.04406825731886459 
0.07201923948346915 0.01287046934559655 -0.07372191121446955 
0.07570565922781203 -0.03642603367135763 -0.04919212111586791 
0.05121100300863757 -0.06898755049285453 -0.02531407488004611 
-0.1735986802915248 -0.03840551980444663 0.1870403751593301 
-0.04742089201473804 0.02962264957382846 0.04597530337457062 
-0.0125257996040809 -0.03709923740338651 0.01591791604850106 
0.1114853282136832 -0.009010656244821931 -0.07150069524097674 
0.03963722600210407 0.00174616202544408 0.02862914322365517 
0.0494692898120055 -0.02776430140153319 -0.01092967503528495 
-0.08129598363274901 -0.06458407598972506 0.07529158392645866 
-0.002409074343127325 -0.01114589856473087 -0.01588429913344131 
-0.2523556530901205 -0.007882668556895851 0.2335737615745179 
0.04534815408407833 0.01736030068560677 -0.04882019157293939 
0.0422283986112589 -0.008772155496242539 -0.05621607971515389 
-0.0486548749456619 -0.03057212535209693 0.1115573680637925 
-0.1025693015287235 -0.0439281175871205 0.1657801992581898 
0.002058319899717361 -0.04911951971459264 0.05144763343170527 
0.0006483669491249314 -0.04953437103040984 0.0533732404830843 
-0.004136254465426468 -0.04748236480723299 0.0547933264420855 
0.07589300234616948 -0.001507408860495583 -0.1357577588541243 
0.05855778616495942 -0.05744448267025746 0.003153777349713037 
-0.07775247588854582 -0.04363852746978834 0.1377310132668272 
-0.1404902889143226 -0.04036468304026865 0.2278397725066113 
0.0609137599473979 -0.03088457331074966 -0.01258836204290644 
-0.04240504517941217 -0.02555110161412308 0.07773299432470207 
0.061827628607459 -0.05004589217374318 -0.02891972504836739 
0.01507466509499696 -0.04498240016400876 0.04845662289402405 
-0.006970312271323473 -0.03007524101923652 0.04498395605885449 
-0.02696631364896179 0.08006907220397826 -0.08056415148207831 
-0.02289081054434159 0.07596119309361246 -0.08214609565978165 
-0.008948865787468901 0.07282538792548361 -0.0969711345857223 
-0.0550679005270984 0.07059203467436148 -0.04364951464919043 
-0.06880800538964109 0.06088961328881454 -0.02215711240935731 
-0.0739870344865854 0.1263169074773619 -0.07547171480299916 
-0.048920944680181 0.04587221294183177 -0.01801569384267037 
-0.04144527088655813 0.04689340093254202 -0.03221250392218544 
-0.05217444684772086 0.05061641137687033 -0.01918590906459453 
-0.06254658216387443 0.05660008656601441 -0.01726766608827558 
-0.04391925208552056 0.05418481369762197 -0.03057277282555675 
-0.03973063609320437 0.04405733036149137 -0.02481793502147824 
-0.002224546374625969 0.03939225793068177 -0.04201281662864185 
0.03716035342450009 0.02780748221061232 -0.07320855240629204 
-0.01123397050870369 0.006445272331996109 0.0003963200664904919 
-0.02661995362002489 0.0310389658263287 -0.006411928341126219 
-0.0256797443549697 0.0382113758805551 -0.01653549998129328 
-0.05626226362487351 0.03918072568487987 -0.000124772078319258 
-0.04914100937306655 0.04889333479893708 -0.01511166148338745 
-0.06395926525947307 0.04556494096679736 0.009663008108639666 
-0.03269112883636591 0.03991463528672053 0.001806802891699006 
0.004710153120937442 0.01697162907494433 -0.01180083732126754 
0.03009119237048517 0.000899132507036092 -0.01374017322554051 
0.01738388415329229 -0.01484029514614894 0.006717440896000565 
0.007359970952620973 0.00616777171093925 -0.006993797306892764 
-0.01922598280384915 0.0259304581911277 0.004971201773887458 
-0.03295288656608236 0.02803862685398759 0.0160848298839197 
-0.05944286604658604 0.02302860078726672 0.04318978752546652 
0.02494909804350706 0.02892330005138015 -0.03188999756231369 
0.005887436195335047 0.004572388440866954 -0.002581549776845165 
0.04384643947078903 -0.008590024823255205 -0.01554899324721618 
0.01457934323226507 -0.01473100915254227 0.02060926483640965 
0.006903335213372581 -0.01135913322335735 0.004858379184747611 
0.01502727021460364 -0.01413101685097548 0.005961768370736893 
0.02887431664124093 -0.00713315062862864 -0.0119301210621605 
0.01393140448153375 0.005671269539309217 -0.01005076400535515 
-0.01373988311078999 0.006836753368885543 -0.002245919656957932 
-0.01667873702012732 0.01107182748941407 -0.009488428382727707 
0.0177974273050536 0.01081503990978085 -0.03009316860892388 
0.01612193197107936 0.004815123789965714 -0.01211453454110931 
0.003222293097981435 0.008232395741820712 0.003961538065207772 
-0.0009928883031400139 -0.00202520197614603 -9.972829599126782e-05 
0.004187943527864357 -0.004834407446122904 -0.002097658516929075 
0.03008741817219484 -0.00120931631522452 -0.02978612001147073 
0.05013701645529493 0.006835235050171815 -0.05970657123604309 
0.01073996553514278 0.01097599305071838 -0.03546574538200322 
0.03793196502128697 0.00960821117118338 -0.06199570797294139 
0.01736702708309095 0.01349292904380561 -0.03066639081102846 
0.008301192371083226 0.008559904250251674 -0.007359330564659191 
0.008711370701427579 0.01383920683955612 -0.01412885016693947 
0.02002059862698993 -0.004972776745853527 -0.0224988043871957 
0.01992894848275976 -0.005197990888616564 -0.02232688764030684 
0.02625426055117183 -0.00377308457374146 -0.03025315304952576 
0.05616905716154044 -0.007379855793580065 -0.06367924522725749 
0.05050033085068272 -0.0006306307712380424 -0.0543500651238089 
0.02686603205854138 -0.002343258869318798 -0.02252959970349151 
0.01439817159917783 0.01233664923693374 -0.02070264332249461 
-0.0004113076458261063 0.007143796679571463 -0.007306781136729812 
0.02423091881970763 -0.0009359137808729021 -0.03321726249286851 
0.01947952306427564 -0.007907003412543304 -0.01922458581691483 
0.02126070411849416 -0.0006889185352637116 -0.02259661057263735 
-0.003041216315788512 0.01027310533364525 -0.004094624584933748 
0.004529755926578134 0.04369808358062052 -0.07368713291639102 
0.01163783852794269 0.0414788528926759 -0.07528897195512542 
0.0263211326716 0.02136356538512456 -0.06879291845967943 
-0.01038539118501836 0.04194765070803324 -0.04565274188382405 
-0.0304270951795841 0.03211487824107687 -0.01085458270101403 
0.05470159766213481 0.1010558875769847 -0.153359255156292 
-0.02272765290091397 0.002454147955565687 0.02995445863080618 
-0.01832623399514121 0.02927674219848016 -0.007172217720934938 
-0.03138437398771535 0.02900659000059955 0.005513720981068415 
-0.04445782103676826 0.0322685938591043 0.00359678537879665 
-0.051980389568709 0.02687188755460841 0.02942020345678566 
-0.03544726725316614 0.02501407393936137 0.01739511191621162 
-0.008479710614058483 0.01186636867542086 0.007338462836982279 
0.02085544547251274 0.003512728721399867 -0.01731678183217437 
-0.000487147333949504 -0.01691599160764928 0.02118183837920723 
-0.01454272507906225 -0.007507769266933085 0.02881798479124694 
-0.001516875145012768 0.01321476302032868 -0.002982509681052296 
-0.03862699809506431 0.02422986839126831 0.01674720525136643 
-0.06284564232351376 0.03300154769235123 0.03222407952496161 
-0.04008962024296279 0.01475524793737768 0.02001072292061254 
-0.01227755320953319 0.01682176624547152 0.006166305280725645 
-0.0169411411486429 -0.00534738102444934 0.03521553852656516 
-0.03110386754649612 -0.02540778774282641 0.05271447796664765 
-0.002784343527208028 -0.02755482536931336 0.02237357854683295 
-0.02827354161033531 -0.01967470737411583 0.05069406642515473 
-0.01091831723546772 0.0007602274296209751 0.0180835764586622 
-0.01459784921628466 0.00116172669304588 0.03030719950777232 
0.006542169610305058 0.01595692944343774 -0.01051871594067042 
-0.008948326925427621 0.01070443760336642 0.0144715140084567 
-0.02499660584728439 0.008854577787030185 0.02813626860199294 
-0.01188579558285694 -0.0008271605952644984 0.02289229030071287 
-0.01174358032810142 -0.0276286895606542 0.06610548692209657 
-0.01569766265745423 -0.01441866824530622 0.02062614951014953 
0.016446727455503 -0.01174277750061185 -0.01318909713332968 
-0.005605342841368467 0.002775925647737141 0.00394114666527249 
-0.01831423200788451 0.006044972052272052 0.02127296806519263 
-0.01546912365200915 0.01654777370298485 0.004101506558458578 
0.002981779256290717 0.01607514019752329 -0.001516719945720272 
0.025058875796246 0.007264772784969464 -0.01757276763546385 
0.03305216002591772 0.005098568063455272 -0.02388227774906779 
0.02227913663392248 0.000142325422459082 -0.01384653283612577 
0.009537801405802652 0.0003628025199577899 -0.01281586740032611 
-0.008385496891981059 -0.002757367597086037 0.01450593465673629 
0.01929628795992114 0.003926931299501447 -0.02274614782053146 
0.01153227626884648 0.007793874221961298 -0.02007631953343095 
0.001015368189784595 0.007858966326286321 -0.0007526021224457026 
0.01832414077759237 0.0003519605402012291 -0.0118801682253928 
0.01531175376094578 -4.800421189155381e-05 -0.001921003270708012 
0.02548621335177698 0.001410388435808716 -0.01368061466040538 
0.04754392097078788 -0.01186153021984227 -0.03843818764554362 
0.02361078112003982 -0.007147398238974588 -0.02099763326408893 
0.02479489089267733 -0.006976038621137433 -0.02233195273638165 
0.02561143398543588 -0.005128732101864078 -0.02170419266047719 
0.02099583850294252 -0.01251640516645815 -0.00617823722025867 
0.03542125178143904 -0.01701565799974629 -0.009952558943578452 
0.0382956797781089 -0.01388696399410832 -0.01618913999703874 
0.03653279706046396 -0.008441368439589821 -0.02099057274746701 
0.0008717085132590943 -0.005278665487102213 0.01046694951580683 
0.02654016639054819 -0.005335945344362107 -0.01716390462674305 
0.02211211719608282 -0.012434851337644 -0.003749417369875113 
0.02544749882956554 -0.01437444890298429 -0.002796313966018859 
-0.00866089000104057 -0.006813634207536536 0.0200197610373782 
-0.02440086532959984 -0.03023177909993968 0.0692489797840337 
0.02837735295450464 -0.02273056927013674 0.01657106642371374 
-0.01242610437771677 -0.04811031520343772 0.1094131814198586 
-0.03376969932261555 -0.02873406904438449 0.07277036651503793 
-0.01031004730192971 -0.03493342384049671 0.07022383453363266 
-0.04193545241780297 0.09843784296733823 -0.04860226959840784 
-0.03211419797652841 -0.03399275746831467 0.06936802097902788 
-0.028348827088581 -0.02400458603088822 0.05760395853760582 
-0.0176470125319932 -0.01545846748032026 0.04238010382187441 
-0.01629239246686221 -0.007144760826751076 0.03342529595156184 
-0.01549166978400199 -0.01735755104190756 0.04572797300528471 
-0.008443636853299862 -0.0278732563853028 0.05609055783056018 
-0.01805540343686461 -0.02520175140337848 0.05210507717643306 
-0.06255194523767038 -0.04753490420091525 0.1424155346436778 
0.02203948441262733 0.01517415772772835 -0.02291969553650149 
0.01452451258813102 -0.02954067145627651 0.0007480540222813414 
-0.01683326512723575 -0.0222762954165721 0.03924848498338838 
-0.02607164082550712 -0.004196115113997006 0.03212988243359104 
-0.01060930302467657 0.003348852248385391 0.01346231000162846 
-0.01054051019148002 -0.00225329680133595 0.01766483973150738 
-0.01134768100433271 -0.003941335927187801 0.01983525040676785 
-0.02825300952937177 -0.003438848695498139 0.02922831987231339 
0.03758032985834514 -0.04130765974929606 -0.002148129649797757 
0.03547899952068557 -0.008512819171035278 -0.02507621977081885 
0.04831798634398498 -0.01030522877984646 -0.06863294039719833 
-0.0004165612414941298 0.002034919551687552 -0.006898655719452448 
-0.01474432200375831 0.003403691871577651 0.02083249873389132 
0.01530270590820552 0.00658806213268571 -0.01822240749739673 
-0.009357360045502455 0.009483938570824002 0.01088875719604415 
-0.04065522878805262 0.006936835443851796 0.03229118990307077 
-0.05719363429281505 0.00956360427938489 0.05149986999009726 
-0.09506537574853574 0.02959393654136385 0.08801804131204093 
-0.0749984562678971 0.03983730501599864 0.03867115935366898 
0.0004732048359504678 0.02126405762574874 -0.03399327513165203 
0.006360032848577542 0.02667513000018208 -0.04008125774878005 
-0.01945092425674072 0.0215016267085687 0.006553497476663927 
0.002063271563289489 0.01663638421875191 -0.0131332705268053 
-0.02528064818371213 0.01236539058366752 0.0148621202657794 
-0.03240164277271988 0.01134474882954096 0.02999303880320344 
-0.04068243544426374 0.007342484475266393 0.0389339449684676 
-0.0358102511231858 0.0006360712373714003 0.04097810325708129 
-0.02616024570673327 0.008331783319871543 0.004236556307562556 
-0.008653824837950325 0.01588470987980029 -0.01275470677749928 
-0.02311770186603773 0.02281484660781189 -0.002021438903039328 
-0.01216584271235784 0.02011838264497518 -0.00336524477578362 
-0.03582043619983789 0.01433308203264599 0.02869121681009896 
-0.02356655861598999 0.007064346279999917 0.02073175184500549 
-0.03687312761222211 0.007538861131234219 0.03625498791919131 
-0.03115359038615914 0.002392913680884751 0.0350038482330348 
0.05025644719170017 0.003863594750051393 -0.06987170615459842 
0.003727486885373126 0.005374034812399576 -0.02489859362086525 
0.002311648371101844 0.004643187405923272 -0.02295144130316559 
-0.00101810770141105 0.005611415274671283 -0.01667327879016254 
-0.02639769989186772 0.002989818649927208 0.02186487889599527 
-0.01688856221038792 -0.004365461280769811 0.0228602256303387 
-0.01519523722184272 -0.007559670518357483 0.02231467810062207 
0.001212405666691404 -0.01219121627782306 0.006979584745729335 
-0.04642767524762501 -0.0197003794212658 0.06973796345472769 
-0.02895476602305458 -0.003278431962894255 0.02985447763421542 
-0.04341167648526862 -0.006406026153708465 0.05341558705780999 
-0.0256348902313476 -0.009844840322219037 0.03388598429523217 
-0.04179664914057347 -0.01442303761366826 0.06091785114996916 
-0.009033374385148332 -0.0726424563609855 0.08496815268651582 
0.04654905445025934 -0.06521070084624821 0.04196679932765534 
0.0003868740652740864 -0.06330001149737516 0.128726791411485 
-0.0003747724356951529 -0.05507262611755896 0.05492385594202765 
0.02929143671148097 -0.04165345021699901 0.04351225830850185 
0.008524780004209873 0.1116136681613187 -0.1180526149753188 
0.02688573474331581 -0.01838025295018652 -0.03587622796431428 
0.03258058476183592 -0.03392151598862381 -0.01248145758975316 
0.02117315165584384 -0.02148493937507769 -0.005008107515007651 
0.008058121441390075 -0.009650548351953756 0.006735243409009171 
0.01401391562100902 -0.01264707733575134 0.01453458634780946 
0.02747560939521308 -0.01982407241466473 0.0146238579770056 
0.05704380788252285 -0.0206813458273701 -0.04717008925807836 
-0.008238348544113551 -0.06521716155953734 0.1165078204789301 
0.1364047622986985 0.01423928232954369 -0.1328695664503985 
0.1133208765491637 -0.05598297919702749 -0.08445751406696765 
0.04531048808714447 -0.04443302357125472 -0.008167221049468676 
0.02055306859041628 -0.01224704752903419 -0.008934261992232295 
-0.001275490991630216 0.01398408891230698 -0.01638081339393692 
-0.02076818408849978 -0.0006807597945797728 0.02569708549858359 
-0.002912660216549345 -0.009202903484399399 0.01614585208647091 
0.003149082920928325 -0.01220027209722847 0.0105525680886642 
0.1536605603154374 -0.05594230480176645 -0.09831388531487176 
0.1393630829464034 -0.01486185086938521 -0.1064485542426633 
0.10747536486228 -0.02843466278122755 -0.1114908206553357 
0.03492591331737283 -0.04205347339913822 0.01318686937548153 
0.005744068601762397 -0.009577831012169592 0.001061845065515443 
-0.002281086059885387 0.01459898028177258 -0.006761197433665325 
-0.007514334543894185 0.01723481192546309 0.002007420639004391 
-0.03346732769630053 -0.002174604009109622 0.03273796726273566 
-0.04878960663914904 -0.00883689377107081 0.06971941749563948 
-0.07658917615217113 0.0238984994515278 0.07155974530356339 
-0.005793684778657402 0.06591184389951001 -0.04273392155751743 
0.028875324830036 0.01412044886842491 -0.05430802489396371 
0.009199458116044055 -0.004760789407735044 -0.01568334897449223 
-0.0269527731110769 0.00644017182074371 0.02408386877292156 
-0.02874104543122178 0.01220791021660272 0.01521304144521998 
0.001490348565123368 0.00941424727018636 -0.0122588877770156 
-0.01333433732877329 -0.005711074134518954 0.01724956547865705 
-0.001167290410954779 -0.01849531301650082 0.01499763269265621 
0.02098681222940974 -0.03545927643760311 0.009197395314373667 
0.04842402448827537 0.007915428820575278 -0.06742286800123752 
0.02132784053964026 0.0003329393875763509 -0.02777915121015296 
0.002013732541411501 -0.0005113311533188811 -0.0002611380953673372 
-0.02128835982219838 0.002213334465233837 0.01489247029853049 
-0.001936286488444927 0.001159521531963424 -0.005824273885248933 
-0.00262275022099829 -0.00641493236052788 -0.003016171448368703 
-0.01532549762559636 -0.01550528850326612 0.02227120957653065 
-0.001827895488891092 -0.0271077435447442 0.01921409491446032 
0.107858557058113 -0.02963605303958063 -0.1038866186218452 
0.07909003751507639 -0.0136383235292366 -0.08044423396541808 
0.07530472943788656 -0.01421782312955415 -0.07579270805323424 
0.06956252276151247 -0.01395124472101337 -0.06630404369864407 
0.01606925130747616 -0.01361822464979597 -0.006190143346765086 
0.008807547791481248 -0.02631256452747253 0.00590226619239861 
0.01947108154745951 -0.03495265782644327 0.0005582150138336758 
0.054280740536231 -0.04803165356722886 -0.02694289255905028 
0.01362037954070646 -0.04412930103436177 0.05202507668140117 
0.0404999565719553 -0.02095503820332459 -0.01441462579185701 
0.0152929529936183 -0.01904444864149283 0.01047087153140544 
0.02750629842847653 -0.03226161083355406 -0.005243385165811493 
0.01096950763707929 -0.03843570593579894 0.01631981464708053 
0.0001024352727015078 0.00314215290847769 -0.004396905998193527 
