solver_type L2R_L2LOSS_SVC_DUAL
nr_class 3
label 1 0 -1
nr_feature 310
bias 1
w
-0.1038786287671609 0.1235542988810342 -0.06039875148829982 
-0.083251019703197 0.190239053502719 -0.1360373650425696 
-0.1276235652794689 0.3165741301062917 -0.207103444899622 
0.03777070460142704 -0.05384355062002124 0.04573795759315142 
-0.01624149958479532 0.05594579421729872 -0.0257663217900882 
0.1208174086258371 -0.03977205744418761 -0.02196779294812215 
0.1109566262077523 -0.06227140341707276 0.001841631410792096 
0.1080312378369165 -0.07283401452986629 0.01132683229756763 
-0.01839314278094735 -0.04461885783491081 0.03369492723421165 
-0.1234685416872272 -0.009138144184335043 0.003695661788338711 
-0.03152659800669812 0.02738415427189002 0.001094701667004002 
0.001069921934444103 -0.04427676502554061 0.02771886956738296 
-0.005565249057235281 -0.04125756474644768 0.02422773952827854 
0.1257887996372725 0.1307948868003291 -0.2422588742361319 
0.08430521609447449 0.1418821832831694 -0.2076610683773328 
0.05187709832773908 -0.08550223456020142 0.04619900165289449 
0.05025110750302518 -0.08790974836145299 0.05328990503856473 
-0.02975357846978553 -0.2475429260587275 0.1651985505164063 
-0.0809335254887576 0.03517036688106791 0.01482043758452604 
-0.1195304206379748 -0.04494153141650448 0.05577984840802294 
0.02421624478621601 -0.03624458312957085 0.06912224982564789 
0.003389719479788144 -0.07468387065568491 0.07379174121847838 
0.1921302113907623 0.02059478126252683 -0.1754361178105714 
0.0391334179647431 -0.06211518184601827 -0.007616803628175547 
0.09127171657263219 -0.08400651539502271 0.03429336474718582 
0.09175815365765509 -0.1035876803002739 0.02443771869334156 
-0.2099447387102525 0.1297131296614828 -0.04845258012331417 
0.0219415684149675 0.0419001681851223 -0.01435973422622372 
-0.03902529070159746 -0.06615959388475884 0.06014581669836765 
0.08553974660490545 -0.1316864443899781 0.05338641846266938 
0.1160816408377195 -0.01219786001707207 0.02489528568892624 
0.05178015885067032 0.01235215581873851 -0.054696858734338 
0.006769221090651017 -0.1322176474151989 0.1374988889620565 
0.1127971992765675 -0.125359039281918 0.05166806587621742 
-0.1411900015387977 0.09745399509026088 -0.02104052099840475 
-0.1098748861112954 -0.00172565473566574 0.1134937528254009 
0.07018358555733756 0.04864972598411006 -0.02383595335840612 
-0.1647320240875091 0.2110195496267932 -0.03369526611820412 
0.09566753230318209 -0.03862668907154888 0.006956137425836746 
-0.04654611744148766 -0.08769839672750883 0.097432040933667 
0.02881080834662461 -0.06445586252513602 -0.02106291698269724 
-0.04502212099686416 0.1140399515396382 -0.09567649524042957 
0.01383951226379632 -0.06767679876279603 0.03663198936424882 
0.01522636703003137 -0.064496598647414 0.0347424403985849 
-0.2101775775657186 0.1618840304268855 0.1078869855548151 
-0.09001781785150287 0.01778272937558666 0.1773271798397834 
0.01075450125152561 0.09956318318514924 -0.08679778900159248 
-0.1455789341476161 0.2202646810404906 -0.01667579900736917 
0.04306397866293892 -0.0635318201334477 -0.007819648312533458 
0.0430324574342143 -0.05974019497145106 -0.00887760703648516 
-0.003417210137651458 0.007193230176632578 -0.04029449245889034 
-0.005785006399665538 0.006793056166185196 -0.03540182587057988 
-0.08369634808340516 0.1120007056205688 -0.02951450506906521 
0.009747963383353379 0.02884892339729729 0.02618478241986283 
-0.07554927178905782 -0.04249347184760217 0.07870108219874528 
0.01220816751907546 0.1544641068205187 -0.1011594983671746 
0.02150908704101143 0.01145454517611142 -0.04537377737280554 
-0.1426774959982963 0.06754671118374375 0.04891113169437414 
-0.09608193373802898 0.0303859908299288 0.03533737762780245 
0.04579957701161971 -0.138552492429648 0.0998406316294233 
0.03701419386732735 -0.2035819717218729 0.09081368813457558 
-0.05193036865263298 -0.1898836060786574 0.2039638949348712 
-0.05631998426338505 -0.002140663867815857 0.007960084783297088 
-0.08380237871167102 0.0572370305973121 -0.0172824934742518 
-0.08898629706788222 0.05315881470465223 -0.01188601370497802 
-0.06578081694394833 -0.007905542131258018 0.01137990414344635 
-0.06351562353005551 0.03419671588360004 -0.00928938079438581 
-0.03104381960062329 0.003059242328998553 -0.01032186412201134 
-0.03607800528475155 0.002761465893273595 -0.007571289656260395 
-0.03773055486165037 0.0004293356642196359 -0.005894669061497331 
-0.02903671049040953 -0.02691257756618388 0.009108935546486547 
-0.02336455049915447 -0.034780052734497 0.01185578389474232 
-0.01279898808468025 -0.02367362222062026 0.002929834530563525 
-0.00459998268384619 0.00764716390210693 -0.01549711878635383 
-0.002886192406205069 0.01068288669571416 -0.01728294324358243 
0.02058741458733909 0.06716286266205276 -0.05466288967713409 
0.03481615888908898 -0.03746667121801607 0.002024489729517814 
-0.01844330730504098 -0.03538823069968255 0.01354087965296859 
-0.01906763323620404 -0.0342147720465816 0.01334666119145659 
-0.02550720487832572 -0.02706573916110081 0.02265867776705418 
0.0151408947175003 -0.09184033023551465 0.04454158660960307 
-0.01096046346565429 -0.06941227369907009 0.028332251908657 
0.0537570197350027 -0.04566437422717182 -0.001107660125227297 
0.04723104253156234 -0.02815576944423442 -0.0002288862616984306 
0.07452858973385451 -0.01873944586463683 -0.02275789470726033 
0.03879419213953172 -0.06927438578488536 0.03464727146978702 
0.01323228873317558 -0.06066062877468854 0.03735930154861646 
0.002293386531741205 -0.07432583799177432 0.05316686645193373 
-0.0219794729984861 -0.008106185375837955 0.01995284506162324 
-0.06631708456675794 0.06664708899034483 -0.01225130971393413 
0.0407211074919001 -0.03510574411516554 0.004287079029735861 
0.0661294553642036 -0.07826749156103925 0.01827596665061991 
0.06214325819503499 -0.05110239444095634 0.004972046993137243 
0.07248092833348514 -0.05862024692557751 0.008016908555889598 
0.02230432477119735 -0.09927111757991063 0.06417282409838955 
0.02726542672514532 -0.08179862667878449 0.04657624109444825 
0.05603771401238797 -0.03851954208976783 0.01782510743711711 
0.06189338542652664 -0.02878205759537055 0.01056777047470695 
-0.04068520973236868 0.06430985726713376 -0.02670353391028255 
0.02925296641777844 -0.03932894446448424 0.02617492109873571 
0.04556706997409472 -0.03043327544418616 0.0128022421119753 
0.0291704735281955 -0.06721560007387424 0.0457217970900316 
0.02676585940820006 -0.08137320792967841 0.04591055513593036 
0.008558267283017743 -0.09845668764528713 0.06340987809458276 
0.03063085398277045 -0.08376473178837407 0.04359148290362823 
0.02860163458951123 -0.08151679457985504 0.04260866339167758 
0.03610823915955354 -0.02230795686439893 0.02061168954655936 
0.03421769482712671 0.002970254891306991 0.005241241056969278 
0.04024714522192235 0.01607342780921179 -0.000247651042001635 
0.002316671898379356 0.03375321938288318 0.0006904336245424492 
-0.005333579929493421 -0.04770821598427837 0.04493227890279985 
-0.005997700105964755 -0.04800344935522177 0.0464682142542085 
-0.001440283950340644 -0.07042377730762039 0.04863378390417571 
0.001890640782618674 -0.06961647330164486 0.04726633108160085 
-0.004702172965375217 0.008233619491429926 0.003238321852859202 
0.002974294156568389 0.1013361702105109 -0.03789261713823902 
-0.01655853136211518 0.08520559724745704 -0.02831370352939229 
-0.01609423776313545 0.04693547157193476 -0.01617017361938635 
-0.002623905855826246 -0.00193378983192534 0.01217637239751743 
-0.0241372885201799 -0.007335269346463101 0.02105468163752048 
-0.01807127594951745 0.04345570890948883 -0.01372431947935227 
-0.009922861065526365 0.1172524344006462 -0.04990674508244392 
-0.02873001918821567 0.06569480247722 -0.01881036651563545 
-0.008351516994804124 -0.0239160291131334 0.03901855097540539 
0.01376745439159797 -0.0161392181101592 -0.01456889132233455 
0.02378311598402749 -0.02774655803819798 -0.0008966361504526549 
0.0102048613604299 -0.02018282462300146 -0.003128993205717221 
0.0004132713403953337 -0.008852425894661713 -0.001468466112933372 
-0.009484314204267152 0.01194622845706917 -0.003856272561429492 
0.02064581782750342 0.004638868654450887 -0.01768446050876922 
0.01898486140504054 0.0009635852202307282 -0.01203660495555657 
0.01719401202185745 0.001395167285913091 -0.01129312543404166 
-0.0305922769648928 -0.01167687254284011 0.01856571750483167 
-0.03295814794922992 -0.004499702880742917 0.0196437011960975 
-0.04469483490297921 0.002886292334878874 0.01881897956149643 
-0.01996683588574264 -0.001263815397915348 0.01320581555258282 
-0.01699982926244218 -0.005686259071183518 0.01574526701615204 
0.01446815589160788 -0.006728317925480552 -0.01923328306826838 
0.02570529212392833 -0.02679754401868361 -0.003605162725479383 
-0.005039928383210429 -0.005464081465350259 -0.002711596815699316 
-0.005614208037559769 -0.008566745911261711 0.002060763202176088 
-0.04118762805609109 -0.01619746093296431 0.02720725755418293 
-0.06945017106277143 -0.005506450930672526 0.02697816533562591 
-0.06531152823032513 0.03690816914376809 -0.004694765579964252 
-0.0615363032245673 0.07648064879216836 -0.01754560046320193 
-0.02613213517227463 0.004167706324951368 0.006914156172040081 
0.02381493505762961 -0.03352905398142188 -0.003958116112488986 
0.0007407884560899609 -0.007209165604286447 0.002666675690517221 
-0.0487856007896883 0.007498063391065448 0.002494491310713009 
-0.06602522707682694 0.04351737979440306 -0.0001519589446223002 
-0.03957216032380755 0.01656308519079861 0.02220246193164855 
-0.06495420038065654 0.02818337499114517 0.03650287195417302 
-0.07472328909741489 0.1287148938157967 -0.05652262216538956 
-0.06138745773373092 0.1022203571197571 -0.03054110492237341 
-0.03696546090300494 0.04180056812528259 -0.01659111731038233 
-0.005242904094026696 -0.02762794017530354 0.01372459623971295 
-0.004180946095271456 -0.0004631720765789234 -0.004864507431915824 
-0.05527506993920027 0.02680957147578038 0.0008406802809873047 
-0.07895030461594513 0.08531314302472795 -0.01092302434664878 
-0.05603534708450508 0.08288054509829257 -0.02206851906852851 
-0.04963898465489244 0.02729002996852539 0.02994634543514639 
-0.06876468324256096 0.1267496918900698 -0.04768172701775568 
-0.07989584542690668 0.117371303964394 -0.03812526511972511 
-0.05265015488389866 0.05910395195783394 -0.01721186722235844 
-0.01045398699951623 -0.04010802747756757 0.02557598613382928 
-0.04930515410248188 0.005723975275569783 0.01909604821012912 
-0.05917576717422643 0.0544633867114707 -0.01146173859548016 
-0.05602657427663275 0.06728270093478335 -0.020449396671152 
-0.02277147732148354 0.07110868385823897 -0.02058341071406498 
0.0263691614758207 0.0332519694193235 -0.01299999769002553 
0.01337210043849756 0.07474972166467608 -0.02213011820943049 
-0.0184286175810078 0.06270073056080806 -0.01998689198604655 
-0.002860627627462661 -0.01763039413548178 0.01630671830371948 
-0.002244228580586831 -0.02047157306121035 0.01768220681159997 
-0.03219089667297628 0.01738813209305064 0.004905057552738596 
-0.03544189110290797 0.02560816868780851 0.001914333450414205 
-0.03223889168518537 0.09573476885095175 -0.03172577533328452 
0.04091628202491806 0.0903020775968672 -0.03960079695815399 
0.0358160871877389 0.06417411736846854 -0.01794203516483812 
0.01049074014843605 0.02212494958815065 0.002934252889693596 
0.008607413617475112 -0.02811340441309909 0.0155718660120351 
-0.03192213897614112 0.03470868374925384 -0.002511009428594771 
-0.04808506367569847 0.08770881797319657 -0.02257821982689304 
-0.01622109823502897 0.1225839362457091 -0.04467369303796742 
-0.003948535738790867 0.06708939302913969 -0.02855016260914598 
-0.01855097340943545 0.01580922886170796 0.002993926873615823 
0.03579236009524368 -0.08406131074365306 0.04071117722115947 
0.01772992737000343 -0.1358460233444575 0.09271903734861055 
0.01862643456997714 -0.102682492409983 0.07377397281944977 
0.03268853660287199 -0.08532241840824026 0.03823131792311641 
0.01955352569997678 -0.07995916869795569 0.05394811413408573 
0.03759097352575784 -0.09664409828817561 0.03744808261475459 
0.03721753983679291 -0.09791089316996915 0.0401872951402149 
0.03441799009946853 -0.09889267260623073 0.04113200196230642 
0.02705095415199054 -0.07456176412557014 0.03278017911234227 
0.02334908925887324 -0.04039351323064339 0.01962395837536006 
0.04066208545152768 -0.04084299589389787 0.01453611667220788 
0.02145993496062521 -0.0389782201935745 0.01859327201137002 
0.01923793774398597 -0.03384698412523465 0.01610227294506341 
0.005166786324182928 -0.0008549860467752865 0.007970341273967445 
0.05049393083102937 -0.01133418673840597 -0.04406290074957406 
0.02927229165117877 -0.06954259191991143 0.01098238913140658 
0.031047264069512 -0.0693934817461265 0.01153826899966417 
0.02797243938150784 -0.06823079582315415 0.03208324165137106 
0.01012572852905498 -0.02271861535429689 0.01447805636643108 
0.00863136101687006 -0.01980366797523553 0.002230649988018034 
-0.0108477111379219 0.0001428258315396077 -0.01193271075874971 
-0.0005283778132042337 -0.003140766759084223 -0.004117233798892028 
0.01056533532449443 0.001933484031633657 -0.004646855070168055 
0.003768775308497381 0.05118283901898429 -0.07564013697827461 
0.01362967428745211 0.06998520983852184 -0.06837627919200626 
0.002602098262053267 0.001335603069427518 -0.01843832913936243 
0.02341353229842284 -0.03037539825766413 0.00739372033089928 
-0.05640233879971387 -0.0204392744474701 0.06125066366709755 
-0.01056837026000115 0.005101347896326518 -0.01193847051030333 
0.01048536145411374 0.0223847010946076 -0.03265379460311038 
0.03970348017475755 0.04346779455759518 -0.06393703378701122 
0.05746844216849718 0.1187917165079991 -0.1215544699017979 
0.05293643205391929 0.06064265202420702 -0.1013430968621571 
-0.003731852136050979 0.01457712028279669 -0.0234107841933058 
-0.003172179553108907 0.01305967600425551 -0.02443670228102447 
0.006330057098971278 0.02053408350674298 -0.02765513923575219 
-0.05874337986088102 -0.005479043310717841 0.05115923734325861 
-0.005420178732707706 0.02389352141843809 -0.009811513993870574 
0.003451349828495619 0.05058038904513661 -0.03568223098630355 
-0.004915330793527199 0.05825728859208017 -0.04468945338195228 
0.1228062702222637 -0.04885367357029859 -0.06426848026233371 
-0.003953224685647495 0.04199212275740492 -0.04164716495856233 
-0.01019829917298088 0.04283791098089075 -0.03982788469084526 
-0.009251759428881826 0.04037692565350166 -0.03836358977617134 
-0.009664899018619113 0.03916799635232622 -0.03806141927952855 
-0.004379032368171339 0.05968449472658942 -0.04169333416833719 
-0.0004984931881041553 0.09940247710000859 -0.06064249327011443 
-0.0249638594176925 0.09362941676787009 -0.05097262743680157 
-0.02312979119224383 0.06460127047274639 -0.04218639129641982 
-0.02164949676952221 0.06449888040933653 -0.04174886891342187 
-0.02398089113695006 0.07325490118420823 -0.051075731536796 
-0.02601418107528061 0.07476427348540692 -0.04948807101936416 
-0.02122381772048484 0.06563998164693104 -0.04973386454741228 
-0.01478033177585446 0.1339907439042367 -0.07886939232841644 
-0.01884682604258777 0.1283222598274242 -0.0731930350873469 
-0.03300668061357596 0.1079046235694226 -0.05448943242784364 
-0.04379958986106797 0.09810719111771828 -0.06292088522406371 
-0.004149756348853765 0.09983627812901223 -0.07166394864516978 
-0.01203446640047633 0.1093345599026523 -0.07789838075576212 
-0.01768829743634014 0.1543174238824955 -0.09356988462970123 
-0.03164280389170761 0.127854646983383 -0.07749146804027798 
-0.02354403138680666 0.09636817165071054 -0.06068267659657335 
0.02189715393000434 -0.1332472861018131 0.1032015191557254 
-0.06888227548259136 -0.320051649515914 0.3023931396712198 
-0.02372603333467457 -0.2068289418539929 0.1979315731704591 
0.01171319859555297 -0.09497726840874045 0.0754501579669134 
-0.02068469356090445 -0.1930504264998583 0.1672925863589575 
0.05916695939643791 -0.1108164301253157 0.0462277545422652 
0.05398303003793121 -0.114161553051363 0.04777460591890707 
0.05270848393853263 -0.1105588915086274 0.04648569890224987 
-0.008930562986450768 -0.07020355565166482 0.06715680037746573 
-0.01229565305168512 -0.0456398951260009 0.06976440486693529 
-0.02929483260138352 -0.05244161652733068 0.07489018993779843 
-0.01432505561381135 -0.02411620546825298 0.03737922963567099 
-0.006492141562466244 -0.01896556819876822 0.03168352232160532 
0.02495629448626442 -0.04691839972482479 0.02123340668722438 
0.03796511926083133 0.009797823638153708 -0.05587320754734364 
0.003510501301445649 -0.03063116837724833 0.01423183376514504 
0.003341748658510603 -0.02544916789137793 0.009332093882074871 
-0.01962187125794452 -0.04463339168137465 0.04213384847322741 
-0.01987037396087524 -0.001917828199605456 0.03936669691812 
-0.02425394069738369 -0.01274802331512714 0.04890832656494011 
0.01012617212175069 -0.01216640371103144 0.01378496326532315 
0.04285391661301073 -0.06147925806537712 0.01876652699956963 
0.09109777318993745 -0.05318755978995274 -0.01744741819273023 
0.04667872845708101 0.07347705413365148 -0.1187327422924889 
-0.01004398379425713 0.1900262621449689 -0.1179938097178672 
-0.003471196418238477 0.01396676504184592 -0.007274438765630506 
-0.01476879975844694 -0.005147317262506736 0.01121244471447284 
-0.01857621503256615 0.0195022416735788 0.00457894987322217 
-0.02313655305284275 0.03624064796991519 0.009600857860756595 
0.01987600751122216 0.001936900602017374 0.007457897305784343 
0.1113842332554772 -0.0281851908264879 -0.04536368313074651 
0.1695013777493122 0.06266440414501771 -0.1362432804397778 
0.1041468900032735 0.06695887947361005 -0.1629434645523519 
0.005550137713560293 -0.01841676802133654 0.00625819434576297 
-0.001136254058733919 -0.04064366370591471 0.03761459091829539 
-0.01641718694532198 -0.008762164784623251 0.01955824878588868 
0.003914411756130488 0.02213256517936041 -0.003721293863223374 
-0.04750564423353336 0.02554473200146397 0.01304165658962378 
0.004082165451565178 0.009376234704698838 0.01671278622851844 
0.01195177080847314 -0.0175641438578388 0.006166306378391623 
0.2458589829431644 -0.1812628244247597 -0.07141560098627368 
0.03997764685814371 -0.02234367388244916 -0.03493061127071657 
0.03322414135178526 -0.02885806000473769 0.005285464541552682 
0.03328961591851046 -0.03075110316064627 0.007410268090760653 
0.00982748848903821 0.001436960517810432 0.0005366199446825426 
-0.002801744190706799 0.02091172755593985 -0.01030421305186355 
-0.006794660692061603 0.005283853525502843 0.002158137345742865 
-0.01225025104937673 0.005641630200583873 0.01087213224104001 
0.05224770955503732 -0.01883727459938065 -0.02061973562956591 
0.05233538540474066 -0.02342256402895057 -0.02021702071082447 
0.03674851209251307 -0.01616286189814345 -0.01724314415762117 
0.03697126746505596 -0.02042857519677684 -0.01226182926433267 
0.02576286929549296 0.008860146432330558 -0.01504425742051691 
0.0004383820146870832 0.01540545155747915 -0.02423700769920772 
0.001348248441196251 0.01185517463407466 -0.01276750435685594 
0.02736145521266393 0.007063932307318343 -0.008894172481294756 
0.05984042434079403 -0.01591966698403182 -0.03362006706758743 
0.03968824607035962 0.02539772090403545 -0.04890549299633664 
0.03712956737555742 0.02200562051258559 -0.04572972620407163 
0.02546884279659315 0.03441303710804185 -0.0502073581658768 
0.04045083796529387 0.01161181422190407 -0.03872419982893072 
0.06306124112076442 -0.01621215487924263 -0.02749092383601118 
0.01331496188564103 0.01151793130128746 -0.02294789396876901 
