solver_type L2R_L2LOSS_SVC_DUAL
nr_class 3
label 1 0 -1
nr_feature 310
bias 1
w
0.0607009609555414 0.001652985906687321 0.01860641141650587 
-0.01972775168831267 0.06136577941791232 0.004070886728943469 
-0.1104151911379926 0.05520557369852604 0.04371268684826651 
0.158301597122815 -0.02754339973735779 -0.04241209938069255 
-0.1974005090014938 0.07921815905226327 0.0926598929898933 
-0.0732375502241476 0.08682343532205163 -0.04170072506278651 
-0.1028572043580875 0.1932782453499181 -0.03443704537097968 
-0.2678659265251421 0.1818412034729225 0.1121652765323586 
-0.05410944188997877 0.09305161573120144 -0.04353331248856682 
-0.03160658218048421 -0.008713750549544121 0.03253460044023011 
-0.1120738824046085 -0.009348382478873117 0.0673987162985233 
-0.02684831267370247 -0.05062970396602241 0.0470719467855852 
0.01554337952185948 0.08396569072432894 -0.07541879788349296 
-0.0841702877911277 0.1656753351881452 -0.1001282248743488 
-0.1043431755969019 0.2271087877625032 -0.09696686484542452 
0.1758227570983437 0.03159090780676843 -0.1142200913624515 
0.06758730479852793 -0.02518558140249011 -0.08109001887911269 
-0.11232058915283 0.08544879627812023 0.05445892081542932 
-0.1306306738991012 0.01617840447082693 -0.03069267930697639 
0.1763885217005116 -0.1728142671588112 -0.03930958375646986 
-0.1425971045746267 0.06817211977328831 0.004422796564450721 
-0.0810507567271625 0.07450974777591038 0.02586285294114383 
-0.2176605883980567 0.1117209165640083 0.09146643616648499 
-0.07347434789843885 0.1818546678971255 -0.09952761446793403 
0.01746843112449354 0.09700824536192112 -0.1030562006948738 
-0.004915692858324941 -0.04569930223391609 0.03619702445242698 
-0.2577945975162796 0.1658845044019593 0.1335410844485303 
0.09148635072392856 -0.192558142284678 0.04974619468008395 
-0.08685888251183947 0.00191376174843954 0.00883786313948463 
0.07001010072297091 -0.00549135294669459 -0.1195775660160892 
0.2513181248900339 0.02722395787818229 -0.2250012872914311 
0.01286849597194225 0.1024603908685044 -0.1112623511849366 
-0.04305311675253325 0.02503182811183515 0.03069969731838253 
-0.1932510688605173 0.08698508929522412 0.09575569674660456 
-0.01223260270329775 -0.05801591409951057 0.05441570878162826 
-0.279954303763511 0.0705503216867352 0.2192081713676672 
0.1599519290760153 -0.05179399874848491 -0.1026510156424712 
0.2043380791546905 -0.1763618764282449 0.02764706990969449 
-0.1609882144719786 -0.05798776757602105 0.2482178009936823 
0.2259345625026546 -0.08570570128501959 -0.1467084286589715 
0.101457530756573 -0.07437452602164565 -0.03498479300040681 
0.02245562189161842 -0.1539331408572909 0.1168247682102913 
-0.1435798144691192 0.1147379824216131 0.05309666017869336 
0.02306236519742275 -0.01082423073544882 -0.1013979785808275 
0.2207879726228094 -0.1232373733183975 -0.09025660843642844 
0.006030098175030956 -0.08149382092833306 0.05213767055058195 
0.1870328463022386 -0.1828693911055985 0.02730535670068809 
-0.1257181309948741 0.03962211079727441 0.1003991089611879 
0.1736529369762986 -0.1798915029170632 0.06531794575905467 
-0.1642096049519359 -0.002869008803978846 0.1904839487320319 
0.06552419280700442 -0.0547980879896606 -0.01095520414302619 
0.06203612071496602 -0.0534224501305009 -0.009692540813934107 
-0.1092005022159468 0.05310051966042799 0.01610874213356286 
0.1819296735287588 -0.08068031922049872 -0.06558794820924931 
-0.01987556664191244 0.04792348394371054 -0.01126410366301009 
-0.02091147358729875 0.04993068763346446 -0.01156134144903099 
-0.02297116816188518 0.04980779117001078 -0.009789806630019115 
-0.04429086393203019 -0.03277902645327634 0.0787907730232987 
-0.04682183671704891 -0.03025564553340324 0.07767190392763801 
0.2576353045746376 -0.1694245117310814 -0.03744772634233798 
-0.1872081390213664 0.0335128566142204 0.126574779770743 
0.0436391174062568 0.03300196976437282 -0.02833838323307046 
-0.05780651676663984 0.05465337804397496 -0.02027339503496067 
-0.07146043234997136 0.06162128549876649 -0.01449852234093003 
-0.03828337567652568 0.01125826092460371 0.01239160435153645 
-0.07714875077009235 0.08184606141867436 -0.01831293778705903 
-0.08020043883279442 0.05935398193732545 0.001222352484611869 
0.106063758984544 -0.05828647558630704 -0.02661275965874263 
0.07181088970965098 -0.04476104032375192 -0.03590364138942475 
-0.07067168681272189 0.0649559960816074 0.005406931593541033 
-0.0943144737074596 0.09486189742963631 -0.001047049284580356 
-0.1284608612591343 0.1145607341581611 0.02064434873041451 
-0.09140476350944218 0.07732114455622847 0.01630519946788124 
-0.03443197084087316 0.03996130178157201 -0.001885662821657538 
0.04797655160367938 -0.02499268774714153 -0.02909785236068758 
0.06056987068419024 -0.01170663177225396 -0.06077705976656297 
0.1349795819181604 -0.04793430593696057 -0.06298909878133456 
0.08904359575704336 -0.02798616224847035 -0.04188949215876694 
0.09108114156431134 0.005161617724050057 -0.0661867524380062 
-0.0585272828333282 0.07164669059495048 -0.003009587881232636 
-0.05280340354662957 0.04234697324596275 0.008171519527281339 
-0.04433728640272408 0.04980905587293111 0.002381879345345304 
0.04299879911886592 -0.04815499392458933 -0.01368751660099394 
0.1069280990913697 -0.03492069448814296 -0.06153289211695111 
0.1042072192765023 -0.03090251454455255 -0.06597460261926155 
0.1106037236466217 -0.03704504925787486 -0.04321512864346222 
0.1006377383841323 -0.01915591085736903 -0.04389118917006522 
0.08582282282794201 0.01151878751333018 -0.05646791555266603 
0.05527277173837219 0.01794992971088424 -0.03661178975195417 
0.002280892142094729 0.02395970764177162 -0.02622922388210154 
0.05814623720316116 -0.02321935237111109 -0.0254936269562025 
0.1989558297602474 -0.1051782135652904 -0.07485992696143078 
0.1653548249372017 -0.08555038027378448 -0.07025484555856956 
0.1772064606262815 -0.1027493784268468 -0.0691124642932167 
0.07499158316219488 -0.05948398602887621 0.004227708640173887 
0.08841839241429493 -0.04188760005671305 -0.01873625772157455 
0.08503737544209265 -0.02404107084389502 -0.009688327911634598 
0.03751095473014892 -0.01929772198728151 -0.002537320599136221 
-0.006492188116903798 0.004516588724218191 0.03378923696950517 
0.09634711310836226 -0.04344953144628328 -0.04316943485043447 
0.19826758486673 -0.1483457735023839 -0.04095338692584127 
0.1994852197058394 -0.1495395160583871 -0.06180026226943639 
0.1686265898350484 -0.1547438039411254 -0.02527422127481015 
-0.004298748412146253 -0.04287591339184666 0.04851870324788164 
0.1142794401716891 -0.0998836730231657 -0.001704787416625867 
0.1586946757294062 -0.1129568014316563 -0.01222154920347962 
0.1235579556191042 -0.1010546816579934 -0.001481901606306358 
0.01768217933256139 -0.003331730404089596 0.01348303938841639 
0.04087644174473255 -0.08808399052043214 0.04389496690441396 
0.09704458017372931 -0.09704685319796821 0.01186231045219488 
0.1786596386288047 -0.1668747800959499 -0.005795802693280085 
0.1124028134561785 -0.1329697812563173 -0.001561529009965036 
0.03391434991064388 -0.05899023737892274 0.02339168570152328 
0.03649451151123276 -0.05977429665741724 0.02348618356995319 
0.09619911195210595 -0.08138407621376936 -0.01681398220116555 
-0.01372053349099203 -0.03306598325379852 0.03996013157152947 
0.03453539351822404 -0.0719649560232557 0.02072157138222954 
0.0284115135164112 -0.06914223279261618 0.02287500241108701 
0.02899367009853696 -0.07114379244134415 0.02391766549279624 
0.01707580592501343 -0.07961501811991127 0.03792600812830739 
0.01762843956365985 -0.07758593533588087 0.03666112509893397 
-0.01288890736704444 -0.0449877208312448 0.03291742819428991 
-0.01498748239430616 -0.07786180119016882 0.05865271741925596 
0.00171361225509873 -0.09727697576867894 0.0599293058253577 
-0.01978262262645159 -0.02968464010792922 0.03774393834830302 
-0.04528834153497371 0.001145401785760658 0.03672732065902189 
-0.04733314151609234 -0.01230942147872149 0.05117508461381998 
-0.04669605999374032 0.006771392496213825 0.0456185689353034 
-0.08760046470221179 0.01665592815229038 0.06482750704578756 
0.08084191820463622 -0.1199267574418248 0.02293654002760313 
0.02729377861111048 -0.07865702018646577 0.0489194347758756 
0.02101921510971231 -0.04195288610284589 0.02932518336032992 
-0.06998872091326452 0.0340256021827034 0.03720345509339394 
-0.113723844945118 0.06140634049323825 0.0526410014748102 
-0.0863949862880096 0.0304864146852978 0.05018860355334279 
-0.0556293719096745 0.002081380802214027 0.03735539433394743 
0.03750337274661182 -0.04071055816265647 -0.02808630192210489 
0.04872007884380777 -0.05170126725516987 -0.02131487214214147 
0.03649208451970029 -0.08017984012915225 0.00665770808902313 
0.01600300740449637 -0.05347792019363853 0.03402456027323847 
-0.003122444714072762 -0.03452814853538545 0.03928467886257971 
0.01049848187811824 0.008112147841517847 0.001102704278853636 
-0.0408334866403877 0.04063233559314702 0.01144773581746275 
-0.04726013759839301 0.009563374821700586 0.0224977702789841 
-0.001857887728181519 -0.03834905671670723 0.02070689848436931 
0.04803168185211421 -0.04355927292436827 -0.02016255964860542 
0.0545848238436149 -0.03621921787147305 -0.02893366589642891 
-0.03073448674851862 -0.02277712416802764 0.02345869067255478 
-0.02183695199999915 0.01610868085389285 -0.0009653272738487827 
0.02561690785124719 0.01566142132515987 -0.01898359417982464 
0.06522003541643211 -0.008160611483312296 -0.0238308855520312 
-0.005480800064610247 0.0337523190777816 -0.02394780026532359 
-0.00651254773535844 0.003696517817072234 -0.007798261059219576 
0.06246606441326791 -0.05625464637844528 -0.007267630548104822 
0.01316739278170357 0.0241598757787934 -0.03490031046306708 
0.03187915822155808 -0.001742451306771295 -0.0326638199708694 
-0.03527556256432139 -0.02406523216397995 0.01860435973959074 
-0.07156914190389529 0.07391087554892979 -0.02822192409130373 
-0.054959924476267 0.04897221958058599 -0.006498473179652442 
-0.02679268987329248 0.04907285012895291 -0.03569499207143849 
0.08936717500720606 -0.01176617726472881 -0.006572057448642244 
0.03796098497987537 -0.01754911778999369 -0.0134996829819555 
0.05263408982469869 -0.02071848298301031 -0.0340862250475683 
0.007756168033264205 0.06843533883175686 -0.07049159101090428 
-0.04620103469946105 0.07818447968848925 -0.03065350959438461 
-0.096466593528369 0.07450000571366232 -0.01975109351920982 
-0.09870841520713901 0.08517897065956889 -0.01154969502282765 
-0.01186141263899829 -0.002071310717395091 -0.007963841336873586 
0.02463651483120538 -0.02619777734307128 -0.01058995930230978 
0.03088586278169917 -0.004069993744436643 -0.007834244931440767 
0.02394492337069704 -0.06060646140798257 0.0258655312364567 
0.02771376232559683 -0.01635693662105979 -0.01710636882483836 
0.03180366611547862 -0.002784810039479547 -0.0184876713783447 
-0.03027882819890838 0.09344318995703924 -0.07207459096330114 
-0.0700009913775016 0.06829441065391355 -0.01779191192677133 
-0.07138375827541452 0.0723434768849642 -0.02137854972245225 
0.04087499280585532 -0.01339237499588483 -0.04165124320038332 
0.03013255541972704 -0.001622776830321492 -0.02963635214973769 
0.02730340737564379 -0.0132965648490514 -0.01039066372614844 
0.02955275229110274 -0.01291456131960021 -0.01343220336725687 
0.02443538939333323 -0.01195049943666886 -0.009857845427923213 
0.001023722970256277 -0.003835551314508749 -0.005114759934447412 
0.0001984826383879115 -0.00648233856112662 -0.002122176508891735 
0.02918539646742218 -0.03554419160846091 0.004063635590264731 
0.03434553732626199 -0.03522596385253903 -0.0005243087569590467 
0.03113656322978911 -0.05107154913499793 0.02475302040902488 
0.006571718415345601 -0.0813107239681535 0.06654800850038416 
-0.03603083767229167 -0.08040425799395676 0.1030994858374865 
-0.1326287395759028 -0.09700163666244277 0.2154672472189471 
0.03918100564819244 -0.04504190095597972 -0.002727674115685861 
-0.03593748697332751 -0.05055095990918982 0.06745768731290536 
0.03638964470194987 -0.04601811170074838 -0.01668585604481517 
-0.000599811545189719 -0.02287948424630059 0.006956646847945242 
0.07651538133739845 -0.04234379501826115 -0.04487994980857215 
0.03468424150489121 -0.02115077407797383 -0.02541418038715485 
0.01650328431504964 -0.02074578285930395 -0.004549192471137091 
0.0108652152940487 -0.03611887606497718 0.01441962850432978 
0.01927031337960893 -0.05831372303872813 0.02544390785756467 
-0.04692760422256339 0.02169935008207841 0.01037242241932327 
-0.01141746714162316 0.04735360081258372 -0.03367806035214336 
0.07573353591732583 -0.1403877311296464 0.02725726911024089 
-0.007938707856053523 -0.01046660492032252 -0.005305564329446359 
0.03093325843016561 0.01236797667661288 -0.03328821197931993 
0.0365667958229365 -0.007966530284497125 -0.03420591010522874 
0.03409172279767632 -0.007172493867456392 -0.03049303211550259 
0.02556278887494608 -0.02585155201929924 -0.01168160908640357 
-0.00125146965329424 -0.01585099970999808 0.003967706103311602 
-0.1018365319305685 0.09170074165579291 -0.001393323848261883 
0.006568289007076358 0.006362971994447656 -0.01460538546061782 
0.149137849976999 -0.08083485955041354 -0.08435901721988621 
0.006121128279385058 0.04037507702782519 -0.06807268803703194 
0.05368351715118617 -9.079679306641998e-05 -0.05593291432543093 
0.05288806891515784 -0.01463464404574259 -0.0264010236600974 
0.05530582618912496 -0.009171230902859789 -0.04849662127238647 
0.03170264214748484 0.01306067973105936 -0.04614135926068033 
-0.009541300726402921 0.02010759032686976 -0.00840027249158719 
-0.08611329646541596 0.08886392766793194 -0.01153321525757913 
-0.06988493097406767 0.07509906072752449 -0.02587430129613234 
0.08226228603667485 -0.01334903564130192 -0.08562021963105132 
-0.05044755725773448 0.06041663993224327 -0.03049139255632852 
0.00721741163017411 0.02105914827975412 -0.02715030095498302 
0.02322016730148821 0.009914242567214531 -0.04891865938621898 
0.04676804561858139 -0.03379718232510094 0.001937093997731707 
0.02309997736895591 0.02455277956382689 -0.03130305210136675 
-0.0009534724203237061 0.04041747160066057 -0.03256308544069843 
-0.06154141284680317 0.1230975370894808 -0.06717789814993504 
-0.06714297145258538 0.1153776202499286 -0.0551104166127893 
-0.007245014622080928 0.1119361012615711 -0.1029265514311722 
-0.1319545047260872 0.09468131108559633 0.01970086199117135 
-0.03585965740791141 0.03401336719132594 -0.02214718078854908 
0.02971106967211718 -0.02669651816690692 -0.02483944769689671 
0.05539530084880832 -0.0253832023343081 -0.0287634918590817 
0.005665506336550228 0.00601837008436586 0.0002611324353782702 
0.02898373767981284 0.007812692057900146 -0.02267580692616289 
-0.01927481289698655 0.03091787632707689 -0.01547195745418769 
-0.2124464405765664 0.3036494224874077 -0.133246326752505 
-0.08712730729836379 0.08867801708370543 -0.01107939992150088 
-0.08449926857659638 0.08664664066384956 -0.011284673567543 
-0.03790348802986149 0.002116832441281144 0.001932689339682503 
0.06671254572838284 -0.02322349610253248 -0.04024017177071756 
-0.01435471040254169 0.05272071261725344 -0.04158035170899264 
-0.01208023276027203 0.05283004258966543 -0.04529211538643872 
-0.009456270562170029 0.05042948288442187 -0.04452957762933306 
-0.008679899172342426 0.0448895604676365 -0.04699668517776757 
-0.01162074164713107 0.04425043861485206 -0.04349195323119943 
0.01845815135067668 0.001925084615752009 -0.02906503216210702 
0.02287316176460833 0.03171260114315948 -0.0677182535966027 
0.05228104687274738 -0.0003887935937420915 -0.06609510868119721 
-0.1327673778731613 -0.008452698630549149 0.1704948471011066 
-0.1736952451665783 -0.01916339869756875 0.2093130107613874 
-0.3873340497864268 -0.04784468588096045 0.4219908927972186 
-0.06434868999222891 0.02534777032360785 0.06617517523365683 
-0.1642413998479679 0.04715180487297941 0.1254328629900198 
-0.06486712293931425 0.02338541976736887 0.0296852191849513 
-0.167075408499499 0.08415994400500854 0.08203922795165818 
-0.001938833446638592 0.03265814234424498 -0.01154472983928459 
-0.02611663484443252 0.0340670438884316 0.007946367420956085 
-0.03620760417118264 0.03913291593724506 0.01139875787997298 
-0.05651381994541741 0.0345872824035201 0.04219103797985518 
-0.09547269952071519 0.06437395102310785 0.04490260025423562 
-0.1928531395560401 0.1492166034959743 0.03386840928058789 
-0.06662275158977733 0.1408047822245197 -0.06258754623841369 
0.1834017948930873 -0.2459274246262493 0.04772752588937901 
-0.1299499615819291 0.0553504423934925 0.06704384778479092 
-0.04423684578413113 0.05763559384178694 -0.0006880955337662329 
-0.0162134581163525 0.01485349439522912 0.009438694278222713 
-0.01419019188957607 0.01633681712875787 0.0102032163586946 
-0.04056973172176494 0.03932093479886335 0.008159131268534545 
-0.04964505117099725 0.06221507516815784 -0.01432646783651395 
-0.1592172608079542 0.1314747708840185 0.01628268231064539 
0.1558029311491448 -0.1170092658048143 -0.03597277103273321 
0.4160508374601374 -0.2332628816302416 -0.1823661637091175 
0.02471013315168114 0.06953016110051259 -0.1091048010861139 
0.002010575685915993 0.03310362105389524 -0.02728161373272174 
-0.01602673713023911 0.009055353784301712 0.02815788489244983 
0.02442628881498487 -0.01638817013773828 0.007436479911171201 
0.02992658072518892 0.01103119575830556 -0.03322642460587218 
-0.03940123372013349 0.06187195329839933 -0.009383766795415055 
-0.1162948812737113 0.1450694708808171 -0.0372831976821071 
-0.06778347861434135 0.06988377259012887 -0.008476800085743049 
0.1458448839296274 -0.01833989303125327 -0.1177728548147926 
-0.05971336527844505 0.03571624225389176 0.0403461776931401 
-0.05128849153928212 0.03368360729427378 0.02758210884936464 
-0.0627940558896703 0.02320057036013074 0.06141420828575492 
0.001530399460730112 0.02502850379077066 0.005504152008868316 
0.04649952151650669 -0.009814658476559667 -0.02493621829880787 
-0.006931909605312678 0.02782784515150642 -0.02071882174435282 
-0.088895877069351 0.1573954253825503 -0.08833340097558476 
0.1420608544777209 -0.03261846592013118 -0.09227478164308749 
0.1499790102201151 0.1095604270329764 -0.1804115734268486 
-0.1077541199058035 -0.1085563249223644 0.2133572610399423 
-0.1046206985131377 -0.02958774061337226 0.1398657788820899 
-0.03708759682572571 -0.02244927852021903 0.08261664377767454 
-0.004091559341558283 -0.007531830241760191 0.0423758861060256 
0.02625423615262408 -0.06029582179099371 0.04292437648926976 
0.0721832987611689 -0.05393898535147432 0.002222124171053559 
0.06371103078329203 -0.07202608012209075 0.03228951001781499 
-0.156332831710069 0.3586022225488144 -0.2351147579546703 
-0.04607064751220918 -0.03025646372500502 0.1012101100127562 
-0.04268650005083707 -0.03750695218584339 0.1025530257675591 
-0.08849880799537642 -0.1233840658565454 0.2012366711115177 
0.01385956280054283 0.04313968039707337 0.004560337816517354 
0.009016365949474175 -0.02971704475087969 0.01932848107523137 
0.009409307933580961 -0.03331310753291275 0.02217601648027006 
0.01344351520763034 -0.0352506834173921 0.01719844808761179 
-0.08585297059101286 0.02097802521579387 0.07560084926303942 
-0.08020705336173391 0.01651912020516601 0.07667726647073135 
-0.05869217202951846 -0.03781300434955336 0.1012852722618522 
0.01042429146497994 -0.01844796603501035 -0.006435581743597041 
0.07438328594530905 -0.04391886898843864 -0.03981786504867808 
-0.008700558150938221 0.007104189958419231 -0.004480259067041531 
