solver_type L2R_L2LOSS_SVC_DUAL
nr_class 3
label 1 0 -1
nr_feature 310
bias 1
w
-0.02312738300186079 0.1007007285327748 -0.04093379195048152 
0.01693746636317059 -0.03667862233001155 -0.03052099973918749 
0.01110903161229246 0.0363676029747392 -0.02421131216634271 
-0.03998824372379287 -0.001549175124811294 0.09093136441291902 
0.167067584465896 0.03289668410208011 -0.1808753898573476 
-0.06017125759220426 0.02911216343801398 -0.009491939953002716 
0.07375921460917739 0.1408291643305327 -0.1719164562938413 
0.07067781004270038 0.08457334145706763 -0.1237402655816693 
-0.02332580336024531 0.07491208012605279 -0.003958370013127104 
0.02302486535217784 -0.06571735624195837 0.01562407795267351 
0.04834862104701428 0.008960422285661539 -0.110645297976582 
0.002062693128550666 0.002185268177358263 0.008903145533398471 
0.03179606227199412 0.0127061338220121 -0.03373267561381557 
-0.0237225054743775 0.0891653096085929 -0.07710736228432795 
0.00904244550881822 0.05189046006357326 -0.04061720532037363 
-0.0231530566310582 0.0768021392218676 -0.03481015528642584 
0.03696499562974738 -0.08416209004878661 0.03136152973754466 
0.02094391122786306 0.0600111732965462 -0.01924082584627083 
0.04929721633992275 -0.06942546282803545 -0.004953662506681748 
0.01605983569581152 -0.117960562553407 0.1189126172743861 
0.0340330040742281 0.006500022756841748 0.01107581262477899 
0.009620828643023648 -0.01119746410788726 0.01550723161429644 
-0.01739970521215494 0.04628861738077245 -0.04758500496791988 
0.0188850841597171 -0.009147180478678789 -0.01712270544695848 
0.01859058925306178 -0.008899374386906619 -0.01678888518863242 
0.01502459787963676 -0.05662034615619305 0.07100622981486997 
-0.07038837869252844 -0.05134189654873048 0.09232159309173557 
0.09044114137577057 -0.09595070900707516 -0.04217021486919323 
0.03180313678886106 -0.1586467748004779 0.02708791452250816 
0.04692950431851083 0.02198803782973835 -0.0339564077968614 
0.01947439448700103 0.02898610652665079 -0.05645778680696713 
0.01887283970764442 0.05874501540555898 -0.05931491793592482 
-0.002488169927582921 -0.07633242547932265 0.09230244350365541 
-0.02220872704380395 0.0008324943606394843 0.0621133700915539 
0.1041468858004664 -0.130378760199761 -0.0519957425565325 
-0.07697081936684082 -0.004283292179206605 0.1069753120205687 
0.0668439762231825 -0.00328151569107292 -0.04824837986520798 
0.1146883179499356 -0.05567809577600108 -0.1067889667665524 
0.06024625062202451 -0.1194141897213197 -0.02181092619220737 
0.001162980269646476 0.008567366064294011 0.01046082681316038 
0.01714086862156585 -0.0330393663733498 0.03259208089938486 
0.006014790235635612 -0.0664672687843338 0.03925838995280041 
0.02382936558967136 -0.02883300216820146 0.0483452493244402 
0.02369461231011743 0.009391763870370114 -0.01130394664491619 
-0.07913551442287727 0.04948944201159465 0.03053547219062524 
-0.03961619214703433 0.1100600108585962 0.007508033109964867 
-0.08342983871692605 0.02873272038819339 0.04297602154000704 
-0.004854381691478464 0.04430703070543228 -0.06043489556016909 
-0.01435707374985652 -0.04073932769514872 0.03061965658553713 
0.06203466118851 -0.06627281814140486 0.007173803294880194 
0.05471510086768685 -0.02320408348457378 -0.01569101041371468 
0.0538545340691612 -0.02176913059954373 -0.0155065424298996 
0.006297508489340293 -0.02616007450260038 0.06544917671071405 
-0.04272538881337665 0.01377389663673868 0.03883407526630016 
-0.02884811142041801 -0.009793069739906334 0.03144054453193375 
-0.03430952109310984 0.02731445329353794 0.0591156145255177 
0.04877283792171591 -0.09657342616891398 -0.01089048156457864 
0.08511167100585385 -0.1741228616271533 0.04295521249974419 
0.02209307873724637 -0.01855435243501988 0.03059758696121071 
0.04549912232670236 -0.0431333996410784 0.02976313206284976 
-0.05334920096422945 0.05236701932017498 0.05885357766083096 
0.08231539727029702 -0.08102148440331033 -0.01548890905601512 
0.06367194420224506 -0.03238274843871123 -0.06508121241550854 
0.0810951042304662 -0.03941465792674519 -0.06622527875919205 
0.0520284793152796 -0.01414498863764365 -0.04494455106627426 
0.03674642037031371 -0.02485198126177524 -0.03467423062557579 
0.04732561832981286 0.004963970963340612 -0.06441201959917579 
-0.06814464406103206 0.04728816069575823 -0.04209258512865777 
0.00366374778079051 0.06618041078260704 -0.02800819556578306 
-0.008721802869514442 -0.03502870635326719 0.03441979504153883 
0.02075185531989476 -0.01201454518284637 -0.01675375019551617 
0.01672791410679834 -0.01998038984208225 -0.02186479557443468 
0.02320649100990659 -0.02749446259138861 -0.02256003241681742 
0.007362844394524593 0.004858016968345771 -0.0218188694678845 
-0.06822391031779727 0.06992670087459471 0.0182824421100357 
-0.08399131885548271 0.1058319809594248 0.003699254984810009 
-0.0788170912235512 0.1099208649123686 -0.004988750134499178 
-0.06372509467339015 0.08365896500249051 -0.008894741432165365 
-0.04323870061168737 0.02192540717243403 0.01173291685204052 
-0.009506089554352651 0.004375869328699808 -0.01034947614596999 
-0.01361359058456439 0.02675169985581371 0.002886646729280602 
0.01747896320033851 0.00636801399550966 -0.0274322641396672 
-0.02872583160957513 0.03163790529216297 0.01578435171480324 
-0.06120238497514826 0.06569438789736716 0.01153489184780834 
-0.07561239051793578 0.07728090244142974 0.004709223222734561 
-0.05368082328470942 0.08344302702754383 -0.006668547608023763 
-0.05325802191929466 0.08269010734599827 -0.006227200564741639 
-0.05375508209995363 -0.000256687133703714 0.04106425282624995 
-0.04985957776162465 0.04004726335198843 0.02221774210094473 
-0.03169997084611563 0.02704657212495868 0.006035164890770838 
-0.01553893907360077 0.06332550678429644 -0.02429025121981126 
-0.06045323937391264 0.0859450266500693 -0.0393303294480423 
-0.04373366609090086 0.0290531384127691 -0.005306496516968515 
-0.05625839306556576 0.05040324615893215 -0.005825120468128368 
-0.01653339441982483 0.03884661433066632 -0.02196274774604256 
-0.01614324337588543 0.04183198212363103 -0.01856971536554478 
-0.03144839028286053 0.05555997253606824 -0.01335620600812348 
-0.01304614130973441 0.01272395272322142 -0.001265855320548353 
0.01623524602915186 0.01744217283540391 -0.02777633343657339 
-0.03520601291491923 0.06826463277185521 -0.03033702442415894 
-0.03023634054014176 0.00362409764289772 0.001562056851148716 
-0.03756126320777062 0.02300266964790284 -0.01962867772755747 
-0.04053156514849395 0.02949215524690888 -0.01552325051435891 
-0.008315539925024609 0.03765183143205007 -0.01391013588834066 
0.004862860517944671 0.02535802557254026 -0.01911664415705086 
-0.006868992904792022 0.03415550203055634 -0.012746919236288 
-0.02931142298669126 0.05636357667938493 -0.003040137683695101 
-0.02375895925164253 -0.02843933027463672 0.03030737564823361 
-0.007803137987577279 -0.0877666253025853 0.04687262641720275 
0.005005407819958078 -0.0967214294347999 0.05060305859754057 
-0.01957560544473261 -0.03584180181190955 0.003929585482775754 
-0.02503537345433788 0.00207559598743975 -0.009567817110638871 
-0.0007576154553129434 0.01377699466926453 -0.01088135686672842 
-0.001348006464221887 0.01371515065521769 -0.01070244495069164 
-0.003722285420739904 0.005907104120283887 -0.003376354024793453 
-0.04173900112461375 0.002255573966954303 0.01237103577384604 
-0.01640947025488862 -0.05918889150451991 0.0416375993866749 
-0.01707743497157391 -0.03287367883782288 0.02915926690732048 
-0.01238518913418425 -0.03164322099719533 0.01078202570083561 
-0.002994706218879276 -0.006219909975135544 -0.01115814440966565 
-0.0007224041942793674 0.002587028210561193 -0.01449476514707292 
-0.04027320388714364 0.02722852467157529 -0.007924697644227804 
-0.03628980286069648 0.003528990388059281 0.01539840369206555 
-0.02746677125197815 0.01781211910690328 -0.001122136604684499 
0.05062464218167101 -0.08415017106196902 0.007528572597137294 
0.06055583943896068 -0.08059978841577281 -0.003094988094214109 
0.04859451694291121 -0.05264890979767799 0.001876390458906742 
0.04891694287365236 -0.08192528778331241 0.003346564488107709 
0.03723012471894454 -0.0878637826362153 -0.02070828343475704 
-0.05933457655521537 0.06757078118122148 -0.0285978066537064 
0.01497161302403554 0.003208769514841144 -0.02448742232572423 
-0.02978840378910396 -0.01750749590647133 0.08850181444854342 
0.02644408359758561 -0.03151518723029553 -0.001232254784263456 
0.03447395627387403 -0.05393611716952707 -0.004440982608549511 
-0.005076471175098842 -0.01094759875034076 0.007409757256505898 
0.01273706780472813 -0.04528627369243302 0.0189697389979411 
-0.03325195936278882 0.05097432249555474 0.00839074410975049 
-0.05711943108978023 0.1061239015153868 0.004948534297765256 
-0.04288812593481623 0.03524308466143127 0.01063000032482299 
-0.01813105775150519 0.004699413966180848 0.009839599233357024 
-0.003832575372405254 -0.03011951326691007 0.02528501304196512 
0.007065977586704278 0.007983790753416703 -0.006021308919936839 
0.02010570251601668 -0.01653194045631686 0.03516850418476346 
0.01359215776276514 -0.0587127667749936 0.01612704690456649 
-0.04301110587826919 0.02594214207152465 0.01397418016216866 
-0.05847066757439114 0.08788481486905213 0.01236614001769213 
-0.05824297929395501 0.1137107862671925 -0.007120581226424657 
-0.0298632598955099 0.02806776721255243 0.01062041162726703 
-0.02984898070561233 0.02612370843710161 0.0115656571162854 
-0.01604903922253353 -0.03771077325735966 0.03208732101087796 
-0.03084740835908672 0.02321387169408721 0.02425668367506763 
-0.01491574434563812 0.03721812947456415 -0.01180654629140518 
-0.05322368155964829 0.02335580718555161 0.03359802616333016 
-0.05497336859916713 0.05994295200476848 0.006580461885783896 
-0.0699733268189927 0.09555465313682145 0.01076092577800524 
-0.05348712222764507 0.1150610591228558 -0.0136794194826818 
-0.02292719582554945 -0.03834614287325402 0.05666337018799948 
-0.01924154781462569 0.02013744960117807 0.008609030503796369 
-0.0242061384935846 -0.006640468723009411 0.03059178888514612 
-0.01397360510665877 0.01121206682271333 8.92325270726107e-05 
-0.00439968553396575 -0.004470581905438706 0.02834502485545935 
-0.02083447190726181 0.01599091933626697 0.01450986064669447 
-0.04694942748251093 0.02315084040920181 0.03423156761646459 
-0.02984681829533967 0.03990917318140495 0.008688304081072129 
-0.02493264272676561 0.05793905158105776 -0.0159296673262529 
-0.003645134700424299 -0.001680689761848224 0.006559922938422475 
0.001663886208052487 -0.007603593413478335 -0.005512226604914455 
-0.01231683608572045 0.006595171761949161 -0.003695124807612451 
-0.04000237943292118 0.03420693914880581 0.0008141645243038895 
0.003219567444328016 -0.03125408063007388 0.01712842356278182 
0.009626979992100224 -0.05910990959795316 0.03451512973834757 
0.03777381872407145 -0.1159202567691528 0.05830917243200578 
0.01499797204484944 -0.05303876139368249 0.03020699478043747 
-0.02033089319765635 0.01193657537365933 0.01400305279961967 
0.005337091538441962 -0.01515136660681965 -0.006976191256606744 
0.005625156263863939 -0.01781147375397806 -0.006892939972574435 
-0.005459750764180672 -0.0161899288757195 0.007200550467806067 
-0.02593777878389759 -0.02271023986117769 0.02604955422151734 
0.009223118138161937 -0.06427804332861906 0.03826590008146718 
-0.002019469709598938 -0.04088635175757626 0.02640423413309737 
-0.0003396179235195708 -0.02392306663357672 0.008096432838104168 
-0.01696566498792721 -0.008916947963706564 0.01517872578455196 
-0.01167411527350982 -0.001177792488376401 0.004170331632385463 
-0.03320856678215974 0.007848628735270662 0.01334981253212693 
-0.03125323035813214 -0.003077879738816795 0.01777225616070963 
-0.03219923370452447 0.007056590698652755 0.01666886531813531 
-0.003714149524423318 -0.04879231563328636 0.02308000611926413 
0.0002272067660607803 -0.02382996722803673 -0.001631018922232933 
-0.01319316928818572 -0.006812006689473651 -0.002443075771520541 
-0.004969345315223741 -0.001542169431140431 0.0008521545424391515 
-0.07632411195772468 0.02538358351884424 -0.009341532357416204 
-0.07461610303614198 0.008244494963246134 0.01853202621045685 
-0.01839123622528379 0.01761010720120873 0.04265041424721158 
-0.06368051949067023 -0.008409636118290277 0.01523702245940848 
-0.02859887492495015 0.01349282966029193 0.006934696148139296 
-0.01433833041978841 0.00490387811370688 -0.008552490723302471 
-0.01432344777246312 -0.01960850052317599 0.01485345884382027 
-0.02927655039427057 0.0191051128251686 -0.002191095864673402 
-0.0103403408328834 0.01078060284845949 -0.01044901417834262 
-0.008297424931178439 0.01105463049171195 -0.01349890787191148 
0.003172144450915067 0.01734878149163681 -0.01103695368870206 
0.005506449467567784 0.01083113405249145 -0.00750035286031787 
0.001734164250650004 0.01850623064692366 -0.007977385181996713 
-0.02177425677468013 0.03626449470317409 -0.01072050047029737 
-0.03478261292433326 0.0009718284471430759 0.05211901484534367 
-0.02666842985033852 0.005436193921813062 0.009715506540852939 
-0.03865485259686775 0.04554915656236617 -0.008960815080818481 
-0.008034540483339256 0.04115488677659385 -0.02552241178182624 
0.04109895474062843 0.04204091122936159 -0.07025276445031031 
-0.01336718335574473 0.07141114868506962 0.006991485054172772 
-0.01164758328035225 0.06670806105108136 0.007042683442050798 
-0.01043110016094196 -0.02305402405696389 0.005720513311740734 
-0.03775983419144576 0.04328389789996893 0.003764824892168592 
-0.02945848107276278 0.04115980268545012 0.000736128481674966 
-0.03816428065198457 0.03411613401935604 0.01317743753257793 
-0.04691263362866691 0.05366763874335478 -0.001032034427605696 
0.007304382847803557 0.0434711563553405 -0.04695698342682923 
0.06664227415098284 0.06708247124589342 -0.101970825773813 
-0.1306360170586392 -0.2126012125178662 0.3414618907264295 
0.01301413785293857 0.02528966739794353 -0.03129824366651347 
0.005329030881139686 -0.02118571455336341 0.003797256837953207 
-0.01584588094572486 -0.001903965305072109 0.004469221172278958 
-0.01506592478132056 0.03917717204101467 0.01098732494744545 
-0.03655643370326376 0.05211988895907672 0.003955033351411427 
-0.02073598673577233 0.02567274430447133 -0.0006301217146973925 
0.005370394973842463 0.008390345126005692 -0.0185981396524451 
0.05498960470029408 0.01377860951036149 -0.06872152049309298 
0.0223357108039654 -0.04585716305261014 0.04805777451322815 
0.04334933349070608 -0.01082033138155033 -0.029390299292764 
0.02090947697296266 8.361080833342337e-05 -0.03367873097390136 
-0.01476618637847736 0.04127565859275371 -0.02392946892709652 
-0.005969303613967184 0.04548815804157717 -0.02613597739919848 
-0.001185495236561526 0.05856140090431668 -0.04391574687360829 
0.005361171378841461 0.04620636937663053 -0.02715011049798384 
0.01328861821613057 0.01279294633337619 -0.0215697059463222 
0.04633488612961342 -0.01686017984008002 -0.032318700220284 
0.06612642840048641 -0.04986856324327384 -0.03807002157920656 
0.06480008629556749 -0.04921007214430245 -0.03656947759226206 
0.03416683108317779 -0.01752014640769874 -0.03358945399921795 
-0.003256960947331913 0.06425198651801162 -0.0507559174572025 
0.007547319548483981 0.0321572072536814 -0.02610358815224194 
0.01712484003781105 -0.005885145217564977 -0.01675810716169727 
0.04933161807704618 -0.0544020800978313 -0.02059898032616542 
0.0363690268503649 -0.03969245577118425 -0.01594971338477045 
0.05801403231694421 -0.04153059073188604 -0.04025815644569817 
0.04061639468116403 -0.01734804315224295 -0.03699598050616926 
0.02151467242951442 -0.02668916655047266 -0.009636087498502349 
0.03302470061782186 -0.0625637866333453 -0.00121158413657511 
-0.009241927371992774 -0.04470116203312529 0.06819932872055165 
0.007528378534971897 -0.001394072470934134 0.008375148643049155 
0.01775919234403862 -0.01059709182491204 0.001032285861970952 
-0.007085280441716134 0.02752383520348517 0.005915456313775485 
-0.1580443445676596 0.1116881500979294 0.03988477818326169 
-0.0633208841192683 0.0163669972100241 -0.02681572189543681 
-0.03252251396464612 0.02835573632088864 0.037819280545786 
-0.04278579705407958 -0.04899966646506983 0.06827124461118536 
-0.000284555098546306 0.0240204335693045 0.002328030500676999 
-0.01211405696795491 0.03077900304129749 -0.004439625173283268 
-0.004702629873592688 0.007563324819654544 0.006437194650447782 
0.02893138761914569 0.002044878813023799 -0.0197396228224752 
0.05110085103279305 -0.03434119411899279 -0.03274204744510736 
0.06077063681850479 -0.06164565824991841 -0.03069993413568788 
0.08610166243739666 -0.04176373616929494 -0.03028368185581936 
0.06995788200846088 -0.03883409348978755 -0.01528127973515586 
0.01870552508488134 -0.01061387619816771 0.001019220635046938 
-0.00547787091030592 0.02945709388689378 0.001952153931172586 
-0.05105671656667969 0.02583723703777109 0.06385112585123259 
0.01888469667485875 0.005392296030316236 -0.00219662674757674 
0.04370048557153386 -0.007110395573485979 -0.0340661004871901 
0.1073532317999142 -0.01109873896461861 -0.1023812931035131 
0.1613476618625884 0.03047797981819935 -0.1791880947525633 
0.06963606802700513 -0.00673459453227077 0.02427602417590521 
0.07165639188319975 -0.005196057662138746 0.02073007139491648 
0.02394355880931374 -0.03602405569120267 0.01676439312907504 
-0.02888875531806197 0.05115573720977638 0.01057532731591606 
-0.03004361066986276 0.06124090421178956 0.006579412785662046 
-0.0124661842784381 0.03544221728136988 -0.004598563633113717 
0.01793685446354535 0.002723931658094284 -0.02186660615636872 
0.1311695306838972 1.403622033116763e-06 -0.1385007450562859 
0.1828177442220721 -0.0613960438147373 -0.1447767089607442 
-0.1109663740441787 -0.3978439347776935 0.4719967553330927 
0.009567537841583876 0.01476556576463788 0.008463011696667924 
0.02527919771185957 -0.002411805201361663 -0.01541598996859764 
-0.01655074837727871 0.0379465905430174 0.003369730348074713 
-0.009875651816079849 0.05227773623043988 0.006415737671825111 
-0.01580075349446505 0.06527991835281223 -0.0235122121801603 
0.0221535441144817 0.005714970023001192 -0.02152440063031283 
0.04477666335609416 -0.008204538994464534 -0.0430294747852602 
0.140890733430416 0.006808124769994242 -0.1302757636264861 
-0.007938256489210104 -0.07561293029160768 0.1341260333613982 
0.04142187565422874 -0.02172025118632932 0.01998089815001533 
0.0228160259307169 -0.01644538099837944 -0.008122907497675372 
-0.01367037173542552 0.02573413605475557 0.005061696621233975 
-0.001463173279576907 0.02880577592722484 -0.006508281196695548 
-0.0175849028787195 0.03987882118256345 -0.0218600840997762 
0.002218012272232874 0.01440916953860887 -0.01366160575518598 
0.01473548762621494 0.0006572090477868141 -0.02100152435663159 
0.09053379294051361 -0.03191595170801639 -0.05667459041204773 
0.04172686648477756 -0.08371910347047838 0.04600255661169321 
0.04269198669832022 -0.08760182193232202 0.04707287691494325 
0.006444501047589171 -0.03186340173080405 0.018053411007394 
0.01440888769714161 -0.006729803850205774 -0.01920096215359871 
0.006184941877724555 -0.02340976378329019 -3.166555080194272e-05 
-0.004468731942622673 -0.03465261298286669 0.02196552502635739 
0.01728081281285622 -0.1176156506795893 0.06480907386523455 
-0.02153913684744884 -0.02845748857597861 0.04621982120254013 
0.001155916310028284 -0.06161207181850343 0.05512683432584332 
0.03514220211381382 -0.03821879752165096 -0.02266655683789022 
-0.01088565321280817 -0.07765250359020941 0.048774379407165 
-0.008105498380338106 -0.1109336701423331 0.05622261179514101 
-0.002825031826625907 -0.002142941558520248 -0.001744991178161988 
