solver_type L2R_L2LOSS_SVC_DUAL
nr_class 3
label 1 0 -1
nr_feature 310
bias 1
w
-0.03164934291610847 -0.036569606060343 0.0796264237772252 
-0.05934921038365605 -0.1842198806929904 0.2737733163911559 
0.002885935485638446 0.02969971889536442 -0.03776440037128261 
-0.1105680548043052 -0.08304856331373493 0.1374614210278098 
-0.04625603456134406 0.02094991939058385 -0.02117443637562854 
-0.01279729381235929 0.234888278316332 -0.1820941447176402 
0.03782182277881536 0.1450974616206821 -0.1372143291417503 
-0.03779610614021912 0.01657234675619642 0.04885360293884317 
0.03351572674833998 -0.3145782909864443 0.2981941846153261 
0.004960002220943925 -0.04541065264126249 0.01236110241784628 
-0.08038108675723789 0.1676939388052825 -0.08993866087611325 
-0.07574023907628533 -0.09297537979839191 0.1312404359187884 
0.02059084484104604 0.06277849709743716 -0.07618432137119623 
0.008042507538243964 0.1372608650505885 -0.1318673789418267 
-0.04163903197257484 0.07622681413330017 -0.03279220263124887 
0.01550458396209345 0.01745558056300435 -0.04911485617204522 
-0.0006466173353781049 -0.1942985026273135 0.1619267369156391 
-0.008670887556437766 0.252782860805847 -0.1706636163425851 
-0.04038041521359629 0.229757104802031 -0.1357842459417401 
-0.04374045032200623 0.04217404189259364 -0.009193679787163376 
0.02736043799417609 0.006803658971289813 -0.06149117205586577 
-0.01692829184816022 0.1083345881494318 -0.04705449588556983 
0.1084065491674619 0.2215732474262035 -0.3712793225117122 
-0.02033895436921086 -0.03676309737431351 0.02425422952460683 
0.05118944916549547 0.2305249538653233 -0.2434416117394193 
-0.03810385058502108 0.1001988509118445 -0.006687025400259703 
-0.07076766104576164 -0.1993454312487525 0.1777914114178023 
-0.06156698376572817 -0.344386158061141 0.3608865207358791 
-0.06607912126658746 -0.09365713661116143 0.1107364839670556 
-0.08187909708043367 -0.05322384547932078 0.1615259527357873 
-0.02476306865905012 0.05041620276598995 -0.03419879683757287 
0.1389856501382201 -0.1287233757049769 -0.02977880084983898 
0.02226310229779828 0.1492395041731818 -0.1406809880204604 
0.0729358526687207 -0.02628549708010312 -0.02843028615195978 
-0.03902795990947176 -0.163217268972244 0.1432961867053713 
-0.008710284999612652 0.3796160227342587 -0.3059464668400669 
0.03164781686173667 0.1060033681870166 -0.1056156886058404 
0.06733496985741017 -0.07235282546628014 0.002011498698270402 
0.07261546001201623 0.1794116412110073 -0.2152266410634582 
0.1032603996910999 0.1211676255581101 -0.1441290642278955 
0.03027330006198975 0.1168905504457937 -0.1420086763677697 
0.009843439798645871 -0.3295631721498346 0.2373219297095694 
-0.008396376930270583 -0.09454174618514138 0.1357420791356045 
0.07922672614045025 0.2671339306073516 -0.2564311933314893 
-0.1059079451350852 -0.01393612373032512 0.1271314515827421 
-0.03628472183715338 0.09169403443998941 -0.01708760534030479 
0.0772865401685591 0.05659910048345992 -0.151846886769455 
0.06566682818568535 -0.1727962172996119 0.1410841028465318 
0.0092438244474723 0.06080930680595933 -0.08135108371400439 
-0.064616057542712 0.03453041600433707 0.07410100586023473 
-0.01203135759993945 -0.1517818715606127 0.1658289663000518 
0.0243004507148447 -0.1297512442716112 0.1267133540386423 
-0.04291608210475902 0.01607365568564357 -0.0355723643510529 
-0.03693050660539553 -0.135580561444697 0.07855629290740028 
-0.03074858576943345 -0.2085906008688025 0.1257548131973641 
0.08273554397751511 0.01176603289551024 -0.1020869293799179 
0.09085523668602449 0.005523285927777556 -0.09668550724375541 
0.01474090593390222 -0.3997522490378643 0.4240838632064663 
-0.01020456386032115 -0.1726899760212623 0.1803245242872943 
-0.01844221619234499 -0.02957648817072697 0.05619814439798834 
0.01174867822177887 0.04209391599689806 -0.09997497918251155 
0.01306329939733976 0.04101680713004369 -0.1002415351693703 
-0.02970088260504615 -0.06753110393490261 0.03982086618528714 
-0.03359274631883509 0.0005292785730389664 -0.002165972581871308 
-0.02150440796057967 0.09135680809741538 -0.09010388569776923 
-0.04707426425972902 0.02881290460754295 -0.001890577777340626 
-0.03387831412905629 0.09493383866109657 -0.06031682424095549 
0.02063499194512329 -0.01224923476110759 -0.08044983140466151 
-0.03083873167062514 -0.008285731605020257 0.02527641173934122 
-0.04203739900654953 0.002900185320337368 0.05056799106278379 
-0.03059100700178139 0.03452578829770724 -0.0117379207950354 
-0.02560019006079843 0.09804989388131521 -0.04685092864195149 
-0.02681401514483219 0.06096131372122646 -0.005693100398085201 
-0.01326160357521042 0.1087680100890805 -0.04130579086393287 
0.004431106585604484 0.02209113129876243 -0.004599734251831326 
0.01278621992135143 -0.003463568395824279 0.006421420963674768 
-0.01470493453441253 2.9306737779927e-05 -0.01122983777699036 
-0.0156463048265034 -0.01230630749755985 0.01671126668674686 
-0.02771134816154499 -0.01188436161247213 0.02994515273090839 
-0.01389273130288423 -0.01271442321221244 0.02394594633187837 
-0.01758910842940725 0.1483522378077098 -0.1036361715536701 
-0.006234023558085961 0.07333278577009228 -0.0274341143812596 
-0.004167027502779569 0.06807965229302325 -0.004118071733159424 
-0.007068094946107105 -0.0439028086503786 0.03946846879244896 
0.005167060240009712 -0.07811915196156011 0.06946773980852262 
-0.002619525845225169 -0.02803431221250169 0.02632766982336839 
-0.01463386344073646 0.03139892444335309 -0.01376669347494241 
-0.01822697026748784 0.09207598828010632 -0.04648535957822053 
-0.02582465251528778 -0.01168232778555739 0.01934780252784787 
-0.003444950355892725 -0.02570100567677476 0.02867657063179625 
-0.02370560823720868 -0.02777057610365635 0.07493400805358032 
0.01846745764538217 0.02878519527776095 0.0008652305434705855 
-0.01003543004141579 0.00942068607675337 0.02011201090153282 
0.0005906472834681249 -0.01768989114516469 0.03735848192283602 
-0.006462590576969101 -0.06174610388993398 0.06508704596898929 
-0.002603061621940103 0.01283279943048179 -0.005616543387595018 
-0.0004990886541666981 0.01204153316428835 -0.01978344048332268 
-0.02912245579997434 0.06272417723883748 -0.0186650485919831 
-0.127609359968367 0.161731586166024 -0.01950247415116833 
-0.04483905018705718 0.0008011109548409114 0.069596046235142 
-0.007702805578578622 -0.01315093994247522 0.02704234125852036 
-0.0003418857060707404 -0.008628165516568151 0.02365461863685157 
0.0206201495453841 -0.1068908093758243 0.08033073205535309 
0.003997111819559574 -0.05744447461159022 0.04482986354822065 
0.0006896311691078675 -0.04146312769560536 0.04697868629808755 
-0.01437608546852198 0.01725536514208079 0.01794974739112803 
-0.05297538780788258 0.1316848495907224 -0.08429568772627641 
-0.03738685920452738 0.0553398960033284 -0.02200118899157155 
-0.03644070985252901 0.06312724593091455 -0.006746776458475339 
0.003848133400697638 -0.02185311686684559 0.01597033618760465 
0.02416470485123321 -0.03985818303558426 0.02407007685888593 
0.01589487195570443 -0.08886867663067929 0.07284743106692773 
0.006542676051311245 -0.08284731899127808 0.06299194751640426 
0.007419379535347709 -0.1095913377788885 0.09334686532247849 
0.008003211342338883 -0.07190572360802595 0.05461315603999781 
-0.01363620087387419 -0.02449223785861083 0.05049015554458695 
0.01018914160526553 -0.006452780049464776 0.01719772784231183 
0.0236746105853912 -0.06880676007237894 0.05759226159796116 
0.02439028552008595 -0.07333757590364726 0.06055241719937741 
0.01720426917685098 -0.07931927472927772 0.05752924849821159 
0.01269661407857276 -0.1164684673169741 0.0891333104406157 
0.01772066906973565 -0.03954014429131588 0.03251391400509831 
0.01265137263154707 -0.06243451021649129 0.05822487940751257 
0.01255094830415474 -0.06418167805025299 0.06026106626885052 
0.0001583511798148751 -0.1040167106854409 0.04566389481474666 
-0.006696667461065253 -0.07339510868888416 0.03649279728806059 
-0.02047054574833861 -0.05654779265256698 0.05882880096190272 
-0.01210477670007268 -0.02670947315565712 0.0179568927212972 
-0.01101230920741224 0.005395770992230721 -0.02156664318991594 
0.03896858825117267 -0.08043617991584234 -0.05052488980727162 
-0.02610942455731988 0.03369731810594746 0.003293776943013834 
-0.01178536314248194 -0.005809067857433674 0.008263658457088123 
0.0006142803520359413 -0.007374161545927117 -0.01162497186268937 
-0.002921381076636909 0.05434926304026647 -0.05229308644381822 
-0.02099088283015417 -0.02954025427365917 0.05249630558896999 
0.01552424616472489 0.05307476400267098 -0.1027961580425291 
0.01297837288096045 0.02162812647168603 -0.06900417030608358 
0.03228702699888373 0.05506718644112205 -0.1163135827006789 
0.01580236272968819 -0.01786584396119384 0.02033642897106448 
-0.01482822682063921 0.03377215164203302 0.002812280251818949 
-0.01357777066510093 0.0418069076176325 -0.03047244179955737 
0.004555077900150945 0.09981461662552042 -0.09168324959050404 
0.002154043271543116 0.1216981146355202 -0.1322807785192706 
0.01702441552647026 0.1002843994093023 -0.1357136038720592 
0.009622105790381518 0.06149056878092882 -0.1029101266807719 
0.01703754275872447 0.07952009680718482 -0.1052281437738782 
0.001095002232875674 -0.07905326590468535 0.06315599361628838 
0.01584653794436027 0.008461814842686622 -0.002536504776606445 
-0.003347289678283256 -0.004363890441131326 0.002360678181529938 
-0.02764382541210762 0.21301953282593 -0.1691119013379376 
-0.01812506775679339 0.06144685875193188 -0.04218128128433604 
-0.03946257092026828 -0.1660174720001293 0.1740647663313004 
-0.01416811565145803 -0.01065532264228257 0.02425450189428336 
-0.00484802719782644 0.1085813237276142 -0.104782347835349 
0.01449113354952328 0.02412317748239882 -0.05316866193206424 
0.01974459492289745 0.02950978357109403 -0.05940699273536276 
0.03004996399362096 0.009158786140510876 -0.02723791816312163 
0.007708053319825923 0.05613451382837946 -0.04179762423326424 
-0.0149439849034134 0.1187563789411004 -0.1157441858401564 
-0.03845809916788245 0.1317656789569129 -0.1015853741417046 
-0.114069272562334 0.1781859115133725 -0.0578993158711399 
-0.01021399581002554 0.03860009232381456 -0.01435538497340436 
-0.01196963422787342 0.05586590948936113 -0.03741281123587394 
-0.007955420796184569 0.05077940012046413 -0.03213369706561767 
0.01071867911340727 -0.03264883061404623 0.01406796441727916 
0.03139281338454804 -0.0181860873280946 -0.006107273970207191 
0.01949602993773355 -0.02061596970337987 0.001920798519311696 
0.01759287462643998 -0.01445482339777503 -0.02850517703522797 
-0.04052083627028489 0.1009697581933525 -0.08431075415115373 
-0.004152066687126139 0.081615325498209 -0.09309014915346131 
0.0005312162538176012 0.1088342597046775 -0.1024355261812666 
0.02305360277576376 0.07880808536630873 -0.07973064735475489 
0.01315776654585237 0.0135171899153618 -0.009164761656294047 
0.001771195885799354 -0.06952721126162038 0.05544662516281192 
0.02879393799061791 -0.01136314637912589 -0.01023542840712452 
0.02742571925179065 -0.03390429533051175 0.0141702118416342 
0.01417684013104806 -0.1041701139923554 0.08174773618371578 
0.01892830774796814 -0.005248505843866071 -0.01344957041435793 
0.01096746947976504 0.0404392411929514 -0.02184706774894925 
-0.007474250261749435 -0.0619235445498394 0.08679264747977967 
-0.008672210799581404 -0.0687942255452423 0.09038483256167346 
0.03723169255712142 0.004308554657572122 -0.02093147382747211 
0.02933313082378874 -0.0526568094223416 0.02557513108514506 
0.02276604075633654 -0.03783238893457849 0.03164356609806378 
0.01411030143694173 -0.03364564332430286 0.03821719187645068 
0.01330230462831866 -0.03486316148292565 0.03896623702896047 
-0.05406609888522448 0.03852126576118787 0.04565969096278528 
-0.06237851906476328 -0.1277546737993871 0.183085839709332 
-0.03156670390498636 -0.06666864699814376 0.0780547294809657 
-0.06099986774292189 -0.05787293660833669 0.1132086412758807 
-0.0259032803555423 0.07383205709657906 -0.04948363108039913 
0.04084189784309968 -0.08340162995738037 -0.05249110188956869 
-0.01153177845480881 0.1620508177463555 -0.1459301420572554 
-0.01086594653327563 0.05526548856990467 -0.05168959313299164 
-0.01887888442562832 -0.02299216993253714 0.03279817176015221 
0.0004971325232976004 -0.0216218745069684 0.02463553873439678 
-0.002538569589357546 0.05393734797737079 -0.03857706291585765 
-0.009252350834142435 0.04769986365735383 -0.0455537743138103 
0.06583140063269154 0.07166401775942352 -0.144516161002007 
0.1180182485502471 0.02407536321001914 -0.1551369865590151 
-0.01164246925622237 -0.02820160879573431 0.06320888920889703 
0.02373342844030642 -0.05861208191043117 0.03635488182815363 
-0.002237522014498004 0.01374236541022211 -0.01333577684044281 
0.0005485211571948401 -0.02757920191320907 0.02482026772948929 
-0.002948169162522417 -0.01962293385228885 0.02181619411613689 
0.003230854185936402 -0.01140138435905956 0.006458443313317573 
0.01937771660784011 0.07574812052679575 -0.09728267532386689 
0.05765179011019328 0.05503545049106214 -0.09789827834794856 
0.07810803650577997 -0.07092452399640596 -0.06599386303407463 
0.02838349130321248 -0.07157933171558538 0.05133931061861925 
0.04842901861281822 -0.01464863835923912 -0.03868758638711105 
-0.03191407570637271 0.0725172213268222 -0.01302491184591473 
-0.01541504923628657 -0.001418811462137243 0.02936673621507647 
-0.06409703716260774 -0.2202092328150658 0.2639806557713303 
-0.01663545554535133 -0.03698547957568825 0.0523259244340853 
0.02705120400065153 0.1312106747451342 -0.1434004551024814 
0.03693573206229735 0.1145460492866233 -0.1569256000737993 
0.02521365940953095 0.1443082116253215 -0.2051905424926456 
0.08748715466822507 -0.08883842977873485 -0.0394795671237636 
0.003669203443145538 0.01137585624925417 0.002036971276615842 
-0.01068098348684449 0.1100272452886876 -0.07599177899478236 
-0.0191168627292914 0.03484931730341005 -0.008090840001579221 
-0.1013777243200679 0.09428060809913791 0.0007315392077272413 
-0.02776126257317789 -0.001929893620602222 0.03545421878374991 
-0.004792178975268502 0.04787655858445557 -0.03311053198515355 
-0.007094586396976137 0.06778781915022923 -0.05529979641480436 
-0.008317639436227145 -0.002525353863975815 0.008176868861562962 
0.002929380450526007 0.03577688956071446 -0.03162539483737244 
-0.005693783836524773 0.04909406745095814 -0.02987839937427067 
-0.003520979088376218 0.08411634549994522 -0.0810089226937295 
-0.004799328988437534 0.09957950455622616 -0.1108591324072846 
-0.02528638601324185 -0.001481414737932209 0.01218547562473216 
-0.02354464586670647 0.02078697233228174 -0.002897789668697063 
-0.003741844927280737 0.0493169680492561 -0.02809568044532557 
-0.008419777314125767 0.02709729843503927 -0.01413528561273519 
-0.01179413369400917 -0.03136511157276002 0.03784631624396972 
-0.002115271094927243 0.05290289748021636 -0.0376837026447126 
-0.00359104156096 0.0704789347573621 -0.05252246139126463 
0.009637074639273326 0.03345477879485238 -0.03336181840734746 
-0.005544844008226071 -0.03118008046914331 0.02523115656339216 
-0.01700813699672843 -0.04582267763943058 0.0641127389029597 
-0.05006778431262251 -0.1100083854274609 0.1649704681984685 
-0.05102177937167724 -0.1153088246950243 0.1692559678568075 
-0.01094995366639038 0.03131403892087264 0.002286809756580934 
-0.008984251410668834 0.026234525137928 -0.001415419565780684 
0.005637684726208549 -0.1399734082713687 0.1158309584294127 
-0.0231889255761761 -0.07642975790349542 0.1084442293436448 
-0.02503325476537134 -0.07388414308599608 0.1082250436165518 
-0.08197552555585613 0.004339274823432577 0.1048922863765335 
-0.1248710356384568 -0.2474695370858208 0.3815305902587932 
-0.04180727693325784 0.04210988704029715 0.009392309912503394 
-0.08232915045623042 -0.02264244881449727 0.1369582986781301 
-0.03072908008864282 0.1652985402881478 -0.1296456029051964 
0.06052756748961236 -0.09830091393040234 -0.06813420231817026 
-0.02510079284355109 0.2140315333818079 -0.1642229053627484 
-0.02207654320317482 0.1249667039528043 -0.08382275142546296 
-0.03094666124054891 0.05604627260299187 -0.006895601161648949 
-0.01623201685870681 0.04160569637203571 -0.005680502241056442 
0.009892836135396743 0.09616166438369232 -0.09171979611701768 
0.01183055532139697 0.1166468769454001 -0.1401819544849934 
0.161598097029777 0.1005350372981704 -0.2791567066779154 
0.2059806883126317 -0.02402141659613201 -0.2307954910708296 
0.02973599828057669 -0.1577911798270181 0.1379338910277977 
0.04899070370120834 -0.08488821456048885 0.03742016683141569 
0.004070665694583522 0.04135172917491303 -0.01974918099408037 
-0.006163535466345888 0.04637803063267856 -0.02403624062170438 
-0.001818648858106335 -0.008622693183161931 -0.00312570960208736 
0.009921213951075408 -0.01507135354961927 0.002072144580082445 
0.06994636637897478 0.02960414716821971 -0.1127091101501451 
0.1542102581924251 0.008240757154203577 -0.1649318085268815 
0.1233043918444222 -0.2055133645964774 -0.01032783787393017 
0.1383934150788191 -0.1818860168827476 0.0260612419278921 
0.1141547925178396 -0.1443835943756565 0.01552360577798491 
0.0006567966326083791 0.0539559884768217 0.003348253579791511 
-0.02327746199406216 -0.03684163997936583 0.07904824212468885 
-0.0308669714222433 -0.217964099104943 0.2372523606897242 
-0.01421814496312397 -0.08741844150883872 0.09386143894892394 
0.04784041641836195 -0.03881193823197631 -0.01415681323597025 
0.1033327709239077 -0.05857761761818756 -0.07294815315721181 
0.1036134685616176 0.02073742204282862 -0.2021830840710919 
0.2322762373567878 -0.2366928813196192 -0.08836105726572584 
0.04505685875620428 -0.1283619500503478 0.1027564232071219 
-0.03417774375213796 -0.02778289905119417 0.1161048268517591 
-0.02117314668376793 0.05853252548041871 -0.001117034374876314 
-0.07634292846282861 0.1403140916444079 -0.04058286518068945 
-0.006853623359757753 0.02997877092746524 -0.01450376932306859 
-0.001942627880930994 0.03466790747150917 -0.008167305932135749 
0.009580810210521113 0.04772796097866645 -0.04013799475094397 
0.01981615684150752 0.01770247417359555 -0.03659758798295734 
0.02598874876409488 -0.09938247486878184 0.0571467267910102 
-0.01712985563810833 -0.03175527678231285 0.07945054459954737 
-0.02284557733801083 0.05158650267348659 0.006210716353805758 
0.009433432526387472 0.1035370571401619 -0.1389603879683949 
-0.01602662520363613 0.06921464516416408 -0.03295998526612628 
-0.02678720156254794 0.02426647109127707 0.01280294038531633 
-0.0104634030257974 0.0348616523264561 0.000195939501439096 
-0.01352534719056846 0.0467143442198549 -0.003191417529593015 
-0.007762253378788148 0.01317237738551929 0.002973620095591705 
-0.001057388611772477 -0.0552283733604798 0.04321463680960816 
-0.005898413935281232 -0.03518724060186094 0.0509423972567787 
0.001186131928354961 -0.02772059803465047 0.0336471615650216 
-0.000339421209708983 -0.03084059852280509 0.03880018841012826 
-0.01890021657943052 -0.09518256598818996 0.1248478233598597 
-0.07232287465159563 -0.1176292462297912 0.209554395697503 
-0.07266086355313968 -0.1103542695526512 0.2024638462778288 
-0.01677196050322048 0.09967059140732523 -0.04899716014127332 
0.002834077210944032 -0.04796060880879531 0.04964595750565676 
0.0595534875378272 -0.3165439995412788 0.2125415438443002 
-0.005840141525921548 -0.1027103042648364 0.1139312699384525 
-0.007264596868690967 -0.1080116845143502 0.1174045938303491 
-0.002956501667225936 -0.01542502153747352 0.01677143167634226 
