solver_type L2R_L2LOSS_SVC_DUAL
nr_class 3
label 1 0 -1
nr_feature 310
bias 1
w
-0.04887407879255919 0.05924616104982357 -0.006246186977255327 
-0.07812777132554105 0.03657537324198098 0.04715627145333848 
-0.04049821281488628 0.0691713612063186 -0.004113184721436084 
-0.02868950620646695 -0.09867803296034759 0.1399392728585711 
-0.03912649770468649 -0.0762046348326261 0.09882223090119167 
0.1327480988636943 -0.01048746275086035 -0.04605076027282473 
0.03702361948381543 0.04446149985625673 -0.06047938583087738 
-0.01218613839885453 -0.07814100155639181 0.1179380552452321 
-0.04645961080331536 -0.0808362785958832 0.09752817711280173 
-0.04091752327123721 -0.05887480066175221 0.1020918033984377 
-0.02021156571704111 0.0754253009650947 -0.09017614769995513 
-0.02083321014957972 -0.07302868056790855 0.07970037591326229 
0.006692485003450742 0.08638026143898815 -0.09900343997257176 
0.05984374779951124 0.0629726791481931 -0.1180965231090891 
0.02455000469424453 -0.03370948781884121 0.0355413770686473 
0.01139775831461116 -0.03221360830280347 0.03680523255592659 
0.009112678462992681 0.02095451621722098 -0.01624171198360013 
-0.007629101075821149 -0.09590834625266871 0.08098113443324768 
-0.04867125910892218 0.09116072995974088 -0.05262448828934591 
0.0002723914411382623 0.1527670013001571 -0.1109091439352536 
-0.04061181942846964 0.02294187450679071 -0.0008592891170729935 
-0.0396400556810546 0.0616985602831223 -0.01566348936460166 
-0.000838416010359013 0.01956230319295627 -0.04190977382700474 
0.07863650023525216 0.07131092643947239 -0.1236859902985015 
-0.003703205305986308 -0.1109890504201477 0.1142462629394274 
-0.003929426149784552 -0.1008064758556512 0.1050104477774555 
-0.0005462919115295801 0.1013953993783789 -0.1072404555955773 
-0.002669375341552848 0.01232929702811335 -0.08957172724801346 
-0.03656949145688127 -0.02304675328663245 0.03229621395730856 
0.0070615676871578 -0.06693241874852442 0.04614068972688281 
-0.01435831121035285 0.05519672237290759 -0.08456470191783608 
-0.01389932095615211 -0.006893109333415461 0.03213918729593737 
0.08439669285873189 -0.0176984552349605 -0.02684465816607428 
-0.02073749624105274 -0.1008181473055037 0.1114190113992198 
-0.007805629860610924 0.07273911944813514 -0.08360554039857529 
0.02195485755365713 -0.06797526016930505 0.04267618646639949 
0.01183809577469244 -0.02207528219640739 0.03831927120756266 
0.05397072610424911 0.1205811855967609 -0.1925435290153453 
0.03901502739484164 -0.05829331140763675 0.01500842521042699 
-0.02838881530058742 -0.04330770283762664 0.0662696808182464 
0.01235611333423373 -0.1926139680930833 0.1854641626635063 
0.03395031421652647 -0.08962379642703761 0.03056830308237371 
0.02937909638438746 -0.09010582877319247 0.03349205935297193 
0.01106387796217352 0.0152965656664277 -0.03806746623186393 
-0.01025787753194694 -0.02375408315292092 0.001229813236086614 
-0.08068156513116766 0.02394777508089578 -0.007304127032293048 
-0.01790346652264523 0.03859381242420921 -0.01344248700374537 
-0.007293691509922022 -0.05223074916293269 -0.008765904347327377 
-0.03385872975812976 0.01130151827420644 0.01506281075593725 
0.01960482031753798 0.01522373164665181 -0.0259708641408757 
0.0348622665069195 -0.08778005392800858 0.02845950997083184 
0.03553086709492236 -0.08959707434526271 0.03015842308018765 
0.01037180232864586 -0.03336799275394382 0.01700888250916748 
-0.0133563193095361 0.006907611646071899 0.06094214545702828 
-0.01147472861659822 -0.06089355455465877 0.05381652387201227 
0.04118009809702121 -0.1061036404661891 0.04332087958995835 
0.0406020303851955 -0.1028426312845463 0.04132857041245278 
0.05638353037667095 -0.07062819884683784 0.00971950891327397 
0.04149930249929928 0.03824331876804919 -0.05484490229192318 
0.02088595427526195 -0.1691465890945823 0.1069550877662556 
-0.01033155698302225 -0.06023925069849065 0.05224537154849712 
-0.01067310050404589 -0.06124101708575642 0.05312280594350787 
-0.05464388224058647 0.03882649393440282 -0.03231758094384656 
-0.04385959822638742 0.01855528599067032 -0.002271750968891389 
-0.03331428392132085 0.03008322190091624 -0.01895749584683137 
-0.05194107240611402 0.05091832585974959 -0.001270484394169405 
-0.02280974475070663 0.002213340774771033 0.008577580551780708 
-0.01712284780804721 0.02681124534652951 0.01561798952770863 
-0.04971862833430749 0.139506846147039 -0.06789504950794421 
-0.04235297440784312 0.07367977246869124 -0.01074917479770491 
-0.02990295010347589 0.04295469879758729 0.006320336751395898 
-0.009661889347825577 0.01956162090884516 0.0006580102218669731 
-0.008027751275570819 0.01200942175503765 0.002219526299838952 
-0.01210876796002745 0.004355343382694131 0.01006461676804318 
-0.02942309509151682 0.0339240683270802 -0.003193292617774037 
-0.03506836657737754 0.06349798702712806 -0.0279514382955353 
-0.005145448649976586 0.03051989627375133 0.004200876500135988 
-0.02425218949873753 0.03998238061735919 0.012366060019896 
-0.03081043015544599 0.04521705452161341 0.004687666652485838 
-0.02407249832756967 0.05117614665403419 -0.0137273654332951 
-0.002089652253401293 0.02536847123847876 -0.01280934261160157 
0.002536558074701573 -0.002549672469748526 0.004910811181098173 
-0.01646113357740188 0.0211710855401109 -0.00253579181373933 
-0.01820307026188803 0.05981082988515817 -0.03298795886491993 
-0.01716710070732311 0.04193933240814978 -0.009363720543729779 
-0.001026894882951025 -0.007342776100987857 0.01925539925168298 
0.00801474462827379 0.003574846874726538 0.006958347694326493 
-0.001253357066987416 0.0002159421387901118 0.01064827587712762 
-0.02168225645099868 0.04425772797952703 -0.008421035903921827 
-0.007486164782172015 0.009142105822405834 0.01809821738396281 
0.00536390648940747 -0.02463727465558303 0.04083663382741844 
-0.004242303279261272 0.01711806971678137 0.009225723952458142 
-0.004275777362641355 0.03921928638482816 -0.008081195601529926 
-0.001881826420720733 0.01974844872304789 0.006595497530585274 
0.01146208547346876 -0.03335580897167224 0.02131252772170246 
0.01495041449375088 -0.01197486668929225 0.01243007817581802 
0.01647421660504078 -0.02113344749930304 0.02879806983508291 
0.01730155125111927 -0.04648183270532243 0.05804560311072376 
-0.01597185520206198 -0.03905400828334843 0.08913908086720136 
-0.009450824343229669 0.04976516854049871 -0.04713674272488638 
-0.003657052031132596 0.02645632367256101 -0.01783598855062168 
-0.004484082320973934 0.0187742259296097 0.0008755780093845128 
0.0007353464959634516 -0.0002222745592493423 0.02069481342795933 
0.01947328098166457 -0.04653680377467995 0.02648444474010793 
0.01894899540529462 -0.0484575070783251 0.02921747309915747 
0.02618828581808569 -0.04552204708795188 0.03323703153110698 
0.01130980691291217 0.08055182058411148 -0.09248312766058439 
-0.05387470768557446 0.1818235254829726 -0.1597099931995013 
-0.03088615273710441 0.1494523850432779 -0.123141875440136 
-0.008109040118192948 0.07385794091205138 -0.08628655532813621 
0.006549838586438398 -0.002840181920939678 -0.01261622449556508 
-0.0009891329038402986 -0.04719416189713417 0.05870363154697305 
0.01978843874816896 -0.0461841601984443 0.02499204022633144 
0.01934573813988756 -0.0464238593944275 0.02625843539732661 
0.008010439974901622 0.05249567515953486 -0.07272787878145741 
-0.02997788425430921 0.2060593409432031 -0.195943056137493 
-0.009331965159222659 0.05671387639190294 -0.06433228005013582 
-0.004721240700870824 0.009612829139022042 -0.01649567859416074 
-0.003625444864111428 0.01340259646934165 -0.0205370897404258 
0.009534178473751407 -0.02083875855243388 0.000592770809116631 
0.008139287704948176 0.000608992466034124 -0.02176831369131885 
-0.01381927499111122 0.07955624220211512 -0.09014435895675896 
-0.008045437566504637 0.05520965804092236 -0.06238261813091621 
-0.008200183649737887 0.05823225928827343 -0.06581903924951769 
-0.01023012740050032 -0.02707361431720069 0.02995763396320485 
-0.0135568211028029 -0.01862008456519621 0.02211807389991238 
-0.0144794651565242 0.01643248318905952 -0.01512737578610009 
0.003533923443676387 -0.05018126130809742 0.03538895008310983 
-0.01689764535350288 -0.0006910555481272914 0.01028183681661119 
-0.01914731439625397 0.0672363930996733 -0.003260399999317087 
0.0004787155049808334 0.08351442053314442 -0.06774803852789804 
0.002705214287695375 0.005443617316751331 0.003330889707171154 
0.00160451927964618 0.007900736204044443 -0.006577040503747593 
-0.004547116768589988 -0.01054074268333589 0.008834902893890521 
-0.008407458862726596 0.001181662887063415 -0.003736701819746151 
-0.009730745120239179 -0.01027031308925411 0.01469574032922845 
-0.006899843439866457 -0.001503867065453005 0.003342793486606364 
-0.007494348393587518 0.02155990045852886 -0.0208791766012064 
0.005649094923984217 0.002469145141581662 0.01349773665069765 
-0.01932925771378116 0.0006633163722500922 0.03400938867290602 
-0.02744040117598455 0.0133864422909841 0.03049746214311225 
0.0005098072740729898 0.03776562963435397 -0.01903186447139144 
0.002014197879204145 -0.01689242749341032 0.01651157937639774 
-0.0008352346987896102 -0.03548559680856787 0.02077603163898704 
-0.006399816895815761 -0.03419472126255503 0.01419784488781018 
-0.006156888606438433 -0.01861793675171721 -9.630899700169113e-05 
0.00375125041526061 -0.01188156023091174 -0.00661051416492185 
0.007429729445775967 0.002574402032608126 -0.0006655909140648442 
-0.02320017864396084 0.02472358693515596 0.01101691172874091 
-0.03728526858459542 0.001471993975902536 0.04234606720828671 
-0.03012053150804088 -0.002278048555719993 0.0373204134764213 
-0.00206621451019057 -0.02555394217658164 0.03736560040688042 
-0.003268715377599492 -0.03117525678778834 0.01531267276059623 
-0.04315229231441729 -0.03554378493412471 0.05163415213293417 
-0.02294306025519014 -0.03714452000624665 0.03122406682330424 
0.000987961615714298 -0.007181204886912546 -0.004943803477116475 
0.0001422764236558382 -0.001770817276028089 0.004962008992957749 
0.0003614800552299459 -0.008976948831176657 0.01450977758067653 
-0.02811105201013184 -0.008868624659501383 0.04951628759309994 
-0.02828150133993147 -0.03455571221276804 0.07442214942511943 
-0.008851855939104092 -0.01448513629218757 0.03268411090818205 
-0.04252928959932447 0.0004083336006699977 0.02645300412475526 
-0.04415183090505323 -0.0364647284825084 0.06221384710576483 
-0.02316419535095049 -0.022032413905565 0.0249176056322975 
0.00354651060870622 -0.02529581540090555 0.007423015487770278 
-0.003748925327349782 0.009279400229803026 -0.01059326180434649 
-0.003551046552893821 0.00799566845263271 -0.008319176522973502 
-0.01973246476364807 -0.008881764394298351 0.03170939789660392 
-0.02095437119424394 0.01481028843775929 0.00553079899180063 
-0.0277880590562356 0.08187305144415759 -0.07077545380047903 
-0.01321304668860985 0.02710825959360306 -0.02170275144955859 
-0.01586908493824167 -0.001354596309873013 -0.0003628394869458924 
-0.007557546934570484 -0.02409223970867268 0.02177142357979688 
0.001632755816021235 -0.02258511161532758 0.0207006735816894 
-0.00209631194356665 0.01342621239819278 -0.01706689537471575 
-0.00290680850612753 0.01297339114864775 -0.01492073874936797 
-0.001886028703226505 0.004655896494173146 -0.0125151921440026 
-0.003010369177341459 0.05419829411276974 -0.05194697370997658 
0.006456168960408645 -0.01569489482666934 0.009436184846482459 
0.00186201050662379 -0.01738660055423837 0.02086913737402743 
0.001766698831054707 -0.01434280241050234 0.01821806670102742 
0.001322580199708307 -0.006031864970491454 -0.002510088149549417 
0.002053170042312772 -0.02399409423919697 0.004010810113303052 
0.007117708181189232 -0.009167062346090885 -0.0004398057300530877 
0.007303252817583079 -0.01290427417657375 0.005989584909128433 
0.007278774005074744 -0.01692328475918103 0.01058833569694192 
-0.05197411423458831 -0.01343885243969569 0.06563754275568737 
-0.0420630934241036 -0.0561962128202222 0.1008905138806756 
-0.01513460835671476 0.121194677236301 -0.1075209621799124 
-0.01485693381431091 -0.008781962565718194 0.02463750344592116 
-0.01326354804475391 0.03459815603128261 -0.0231204355922041 
-0.02823647104370302 -0.043768065159042 0.08876086274318964 
0.01087693089930428 0.1345293951049895 -0.1319264246821551 
-0.003376318214143695 0.008728302169838666 -0.0001647083106031791 
-0.002650980037950238 -0.04347883672881714 0.04946903348142997 
-0.002851390154588769 -0.0646652500995519 0.06853224974242707 
-0.005872605400255785 -0.03834660727446057 0.04379004413408693 
-0.002207492474479496 -0.0170639655202876 0.02238713239373938 
0.02557251648596251 0.009387913410933452 -0.03403236285880937 
0.04884896505570355 -0.0009380547298603033 -0.05595817758214764 
0.08853758847436245 -0.1036520414385072 0.02949084820950031 
0.04019474871702126 -0.01085320310358349 -0.007079427582543524 
0.001695017546646178 0.02581075992910315 -0.01358561243464024 
-0.002333401639674435 -0.009792017453998969 0.02364425952694479 
-0.005298999852081685 -0.03566063684333163 0.0510039555777492 
-0.01044045396092857 -0.03443524239054929 0.05281618472530452 
-0.01185415317960276 -0.02017370394470871 0.03998481849642185 
0.007771379791361812 -0.02670444648698417 0.02986821729099599 
0.0322333172478935 -0.07146469445614437 0.03229713353894264 
0.1109155899109091 -0.02431987168222787 -0.09032682580293058 
0.0609718124524475 0.05323119271365897 -0.08656646557013295 
-0.0117540876530471 0.008111230892569493 0.02258206917066601 
-0.0125169166903997 -0.01578262389099519 0.04026001694916822 
-0.007799842498693321 -0.01051088172833332 0.03528965686490815 
-0.01677715561940894 -0.01626264275817809 0.04789567856188008 
-0.01281773701546311 -0.05825515415490114 0.08762176027528146 
0.0006307488615751563 -0.04283964179355242 0.04860173799537472 
0.1037880054116224 -0.1313789813603328 -0.004238860317859049 
-0.004652957685629714 0.02264129508211375 -0.005693216864450302 
0.06090390412454648 0.04517502713583423 -0.08134065252358712 
-0.01409810451314412 0.02158206603462587 0.01420661987560205 
-0.02238736211227895 0.01000656085246485 0.03346380091337582 
-0.01636462415061686 -0.07221018880104264 0.08562316344398478 
-0.02011770980084893 -0.04614879067967128 0.07571900896637555 
-0.008020189274727245 -0.06300511551825817 0.08088689470346166 
-0.0003914374758859294 -0.05815766645511661 0.06595799860471953 
0.03771278083385568 -0.04764160465609998 0.007571464478292354 
0.00257091806925612 0.0657624551779067 -0.06903893174126055 
0.001094018794374998 0.06246653413633529 -0.06453198113129956 
-0.008860652416628031 0.03547836872844201 -0.005228201605750897 
-0.0136740551364186 0.02361990551946205 0.008458166066330495 
-0.02723649503191916 0.04022714770652295 -0.01296177494050426 
-0.01108302002712882 0.03402890154305024 -0.009488031767013795 
-0.008021330318698977 -0.007223172190761289 0.02075502153901305 
-0.002750516338377969 -0.03309385316523931 0.04284889375849952 
-0.004112037001999779 -0.01757035240504804 0.03235323340824136 
0.002767402460872662 0.06878148747382361 -0.0722337735664129 
0.003021615848892313 0.06929770938157016 -0.07213634050926059 
0.003230805111254873 0.0002769703876674356 0.002421549968291546 
-0.01023202428613476 0.007430082634132052 0.01583746966531622 
-0.006043277520888285 -0.09752578936630743 0.1074125110299267 
-0.01044425949205212 -0.05325340314603261 0.07528558694190453 
-0.008991626830317538 -0.05453905302998203 0.07538656526570543 
0.002274246958725359 -0.0421989734267521 0.03530899179371028 
0.02047374943064098 -0.05064251863592699 0.01776165998699899 
0.01469082735595233 -0.09165886210439107 0.07317135169605715 
-0.005219117704985406 -0.09534657031714761 0.1056584232429516 
-0.005718822766841103 -0.09353672025768367 0.1024730548318947 
-0.1010633020612406 0.07681201664872045 0.03003458252550347 
-0.1154042318946532 0.08886800515474745 0.03818405439854847 
-0.03877082134079619 0.3342816853718933 -0.3319887773979061 
-0.04550035524757471 0.1144719199356292 -0.07766086263101264 
-0.03369193201104265 0.2535627917345767 -0.2448934171455877 
-0.02839950111169772 0.04213385532074552 0.01881100510727346 
0.01309067030971823 0.2973815686517501 -0.3215005215338095 
-0.02017280318483233 0.1551331890716701 -0.1431147270742468 
-0.04331578550427443 0.1023507099625306 -0.05721361250673987 
-0.04322307145915429 0.08736672506254591 -0.04525752420466579 
-0.02610851680629109 0.1273933615843041 -0.107881685237103 
0.003929345729299295 0.1610401127730419 -0.1803011536317351 
0.046165672990117 0.1703331358617999 -0.2402707557025169 
0.06547592596597164 0.112496785035416 -0.2118136427935647 
0.1535149583698528 -0.1501772808933665 -0.01138920013383671 
0.1052143315036115 -0.02542553357276536 -0.08063743976704517 
0.04112443876341532 0.07565508142086427 -0.1270403668485967 
-0.01884456154648837 0.06087128247908849 -0.03497962285212926 
-0.02072275599991846 0.04961550778188953 -0.02172730672125136 
-0.01337644601494194 0.05943597485262763 -0.04397305885331026 
0.01434775694648582 0.05506898073769664 -0.06787466339465757 
0.04724844996269911 0.02590456048955366 -0.07703959751844486 
0.08247737485226479 -0.08162379827217567 -0.0202555453730218 
0.173077066573935 -0.1266387497097748 -0.0565117123331839 
0.1471643082999837 0.1170368822363069 -0.2411150776942355 
0.04787246567297554 -0.02430617211272946 -0.005296750918625835 
-0.007539203031800229 0.01601017898244036 -0.00151463042429373 
-0.01246336449551259 -0.02657654885907026 0.04661013812826281 
-0.009746882076985415 -0.006064631842955473 0.02926226989513791 
-0.005831805689434333 -0.02850351326835774 0.04988972908979809 
0.02900438050802269 -0.0178193139307004 -0.002267539958459336 
0.1765974872943614 -0.2000874691115977 -0.03787827970196214 
0.01963257656202552 -0.07645207069386484 0.06511451238849872 
0.1407071030721858 0.01050345432651862 -0.1338034783776329 
0.0126036453666917 -0.04318303267979499 0.03480586248297057 
0.0002512715516398846 -0.04769176218200064 0.04655539840861386 
-0.008766606035404285 -0.1027344066939753 0.11766298130436 
-0.02022600283470287 -0.06777164988045348 0.09256935605291718 
-0.02438221296165973 -0.05587322593874638 0.09916700888857609 
-0.007449050647878533 -0.09833657155265578 0.1204027356701481 
0.07823036544097757 -0.0825484720766864 -0.001773952314948118 
0.02358503593906645 0.07229844609451527 -0.1160309278540296 
0.02172055372955451 0.06423253641803776 -0.1057080130011728 
0.01622459641890342 -0.003641607529582488 -0.01811566742866601 
0.008192347921779707 -0.002304912134159508 -0.009600832936876474 
-0.01912582216431488 -0.002383460207195867 0.01444854309984563 
-0.01675911522174733 -0.02266282478993005 0.05284451753777827 
-0.02642567350267085 -0.03212578533277292 0.07872349204435687 
-0.01556652942362621 -0.06146789910851748 0.0935775578295379 
-0.006424447158202768 -0.084334101232358 0.09787213843136379 
0.02349920387642231 0.07143303131541814 -0.1149063124702046 
0.02328481900656074 0.07390143675847047 -0.1177357354375873 
0.02345024263349914 -0.007290521212096868 -0.03318871042712847 
0.01086787782911898 -0.05121907257458386 0.03452392548061861 
-0.01014957023558797 -0.1246966017668155 0.1433224667071979 
-0.01968286547032087 -0.07260667891433714 0.1048678595840541 
-0.01902569222799239 -0.07198143266037385 0.1027596564037336 
0.01842803525072029 -0.03948671124230698 0.008710145991146948 
0.03763032678238628 -0.04232331641317997 -0.02033590566603606 
0.02992801015833447 -0.1044186881355357 0.05694938562757756 
-0.008561374591118626 -0.1246556592037111 0.1416481651072779 
-0.008020614248865481 -0.1249240469775195 0.1424451235423798 
0.009241846090502119 0.01754879134743129 -0.02269499922051989 
