solver_type L2R_L2LOSS_SVC_DUAL
nr_class 3
label 1 0 -1
nr_feature 310
bias 1
w
-0.09956034159637342 0.008096777581929344 0.01214334463399084 
-0.1761009793253989 0.09106775342775161 -0.0411454896380945 
-0.1488089102358763 0.09149816041487763 0.03977734338577883 
-0.04260228676272452 -0.05505607710427503 0.0869350049794506 
-0.109279262692724 -0.1051790526769382 0.1614414921366667 
-0.2798396898424286 0.1899734713543787 0.1166757524406886 
0.0428311810123298 -0.03870594735872088 0.004854548133214829 
0.01671660553479256 -0.1380056631338241 0.07385470746258088 
-0.05752995904195929 0.009764192785404155 -0.004716212366387421 
0.07466422671821979 -0.08570248729329512 -0.02652032073296236 
-0.0590725934376715 -0.1172198013454877 0.1039505779357651 
-0.1599994474357565 0.02787829482615781 0.1406360959463673 
-0.1145429141156939 0.05798245366233112 0.09744661704323522 
-0.09679242230720297 0.07269729797205932 0.08453211083588806 
-0.0552686285689605 0.07598326126661706 -0.01204421689715327 
-0.06034776858126363 0.05021717056487727 0.0172457574854404 
-0.09378349121510379 0.01274396499865526 0.03610316345390008 
0.04655255997339764 -0.09232870265617087 -0.03379686714036614 
0.006365649213613106 0.08304446654635261 -0.07043263456990886 
-0.1577442961832572 -0.03137101056779057 0.1413234370320242 
-0.2242934788609994 0.180358043965378 0.1492606179827423 
-0.07578932732511039 0.08593049851130288 0.01369300154187028 
-0.08961184738743987 0.1192243217210668 0.001799292437490896 
0.03165186477904851 -0.06678413198004052 0.01127566574371934 
0.05253572419111371 0.01763348528372027 -0.05048401910206847 
0.0268867631599896 -0.04722662052602572 0.05349919219532405 
-0.1372614947231006 0.09214777615677457 0.1258162891458644 
0.007073033282722152 -0.011272782297112 0.03685099162393532 
-0.1303488680479808 0.02330962606259596 -0.008468137748866152 
0.04111435493485327 -0.03155263913699372 -0.02356649138037283 
-0.08901251491053748 0.0759462106408037 0.1168697957039211 
-0.04764271075865992 0.03822371299718257 0.03383023984573036 
0.01185176736696395 0.07032087006765382 -0.1413178858886328 
0.09711501673974705 -0.05155243768666071 -0.07333271884448099 
0.1443630525417026 0.002692062713509585 -0.1419867610740677 
-0.01030188180500498 -0.01427368871771766 -0.1076015712961046 
-0.02851280327050537 0.03013309980326367 -0.006210335461714593 
0.02724068470763871 -0.07766520871045969 -0.06805835417419408 
0.0008986535850191474 -0.01844357576875984 -0.1234575107038709 
0.109527898959655 -0.1124975305980167 0.01006634016824666 
0.06836683439971351 -0.07368636218163943 0.04377747860872801 
0.00878034244266461 0.02615179275731959 -0.1106109429263987 
0.08400230587897761 -0.08935124188864717 -0.07456115756211483 
0.01526424909650401 -0.01229492871310088 -0.01362950487213346 
0.01850247244729994 0.02625854487521453 -0.0381614243319986 
0.1037372210938372 -0.1428716624165383 0.04120449400658068 
-0.04995430983678598 0.09159270511591786 -0.003490771380454735 
0.02403486714911626 -0.06586097120642147 -0.005689503695401165 
0.1009406922361511 -0.1643310740574696 0.01047246229261808 
-0.08486911572318716 0.09244791714011898 -0.01460343933055531 
-0.117769390201453 0.1533751973052439 0.004228233350631353 
-0.11960749022895 0.1562941416284751 0.004016351445778854 
0.04596947111224012 -0.08296668917340394 -0.042423882418889 
0.09278906917687194 -0.1428817246135744 0.1059112736729322 
0.06344760031819761 -0.01915733765657739 -0.01356839438086155 
0.06304447244242575 -0.01891881257095447 -0.01366546228159303 
0.06341177551586523 -0.0201285827135913 -0.01303767654886206 
0.002516574512760426 -0.008261714166665319 -0.001638744959300053 
0.004633436390392856 -0.01173813774743905 0.0007269067681800461 
-0.002995663179272512 -0.09544070021341758 0.1623596383354971 
-0.007669481565284896 0.03749577975137049 0.05270930644216418 
0.04472278038239177 -0.0768588614095104 0.03593077695273036 
-0.002420626829059011 0.09938210482164263 -0.07651690667915448 
0.01362645328569069 0.04992975442773982 -0.04222539845781895 
0.005802700988229139 0.03738994401501675 -0.01715984445782477 
0.02856042090382764 0.05590739698151787 -0.06234515192560333 
0.0467795093754077 -0.002019938486548993 -0.02440034347395045 
-0.1224882601646146 0.06941017752258374 0.07346478726662413 
-0.02462736628326583 0.09988924769689984 -0.01863184538849215 
0.02079171840559791 0.0487126058185676 -0.06567227785124431 
0.03884066289179011 0.02938445417637198 -0.04482503705187843 
0.05726348722615251 -0.01521254693668304 -0.02219588836479508 
0.06821294685096084 -0.04845778092734285 -0.0142359409604927 
0.05023879847649586 -0.0001812010194379076 -0.03314472644243135 
0.02492950280615635 0.05567962122815696 -0.04193115414821619 
-0.005206030966260366 0.1009457982153092 -0.05287404637734332 
-0.005061661081823876 0.1176857391413748 -0.07282713567669108 
-0.01720475916672962 0.1152839420508591 -0.06761776069929046 
-0.02353337020613023 0.1030437612684818 -0.07764048624293393 
-0.005043122001927442 0.05249264707297617 -0.04205925813304044 
0.03735661822506118 -0.0143858396355498 -0.02555499469344965 
0.03863587635283356 -0.05855996667796798 0.005443084960651933 
0.06887959366845678 -0.04112771783973997 -0.01745497075687704 
0.06678795374060549 -0.001234827847838867 -0.03914743653350464 
0.018635678300052 0.06791449365464101 -0.06301916771948618 
0.03459704342011706 0.04060675082734862 -0.0693955536830269 
0.03506189492266933 0.03984379912100439 -0.09412823435185107 
-0.007454702122042455 0.06612708141550647 -0.0597190692306783 
-0.06131809438845084 0.0572305788857307 -0.01524147066309705 
-0.0322012627211408 0.06496163878393267 -0.00535302972889137 
0.06687404345570601 -0.09367982361911124 0.008752614248312906 
0.1143597616267764 -0.08535741854794317 -0.03797022553722211 
0.0920295831782571 -0.04661727707957369 -0.05187684086172206 
0.06633829695510995 0.008162273215795738 -0.08588850441217054 
0.07814990515967311 -0.01184958811035148 -0.07788028753043801 
0.06328952831951762 -0.02040843528757658 -0.06141135605750762 
0.05820859195776886 -0.0250420366411516 -0.05840188725410832 
0.09017577599139973 -0.02881546433734085 -0.06382930499066541 
-0.05710835762159858 0.09618773717945502 -0.005329201723406415 
0.08784968293581628 -0.07747146072777367 -0.02931562083311494 
0.1011115067665213 -0.08231753176651026 -0.05429241744179578 
0.1002706490864254 -0.07876802122942539 -0.07021980936380785 
0.08917916867103415 -0.03305145344317082 -0.08902476704722864 
0.08519417138925067 -0.0434387187878954 -0.05368149673459115 
0.06585594913257885 -0.05456514258818645 -0.02841328784391516 
0.06221997315225083 -0.05252120944590448 -0.005208065825226845 
0.04887004572886534 -0.05137936223315998 0.02178352485615879 
0.0416695478341484 -0.05403391886118708 0.04634232819248087 
0.04599028323701058 -0.05982151605159756 0.02644477322879499 
0.05974438465690463 -0.05517133609313995 -0.01565926272484834 
0.06033449305163417 -0.05564417775294359 -0.04442808193817656 
0.0575852853833827 -0.02941620855224325 -0.06469729103506006 
0.05568549959704255 -0.04535720516761556 -0.007806395898203433 
0.0564424502944648 -0.04559288584294438 -0.007902515081455761 
0.02509610472341134 -0.01483641651782661 0.03676026171439525 
-0.02009192143476417 0.0376343342125314 0.02849488193069971 
0.03118894305398645 -0.02142212740986788 -0.01691471348164942 
0.03281511807184302 -0.02055653911226206 -0.0202539000642959 
0.0312286484141461 -0.02019548475863689 -0.01835621968919035 
0.05671141118272403 -0.009797843151393947 -0.05314451719476326 
0.05361691361053688 -0.007206459861120712 -0.05032301135128266 
0.006056690651723783 0.03938083564664733 -0.03114748838077594 
0.001018655762429565 0.03575250244860949 -0.02065216407480772 
0.03767015386922741 0.008709096085038885 -0.0651461503433575 
-0.030486164530069 0.04661035450761027 0.01157340015538691 
-0.01490557954772872 0.009972996035566539 0.02653122341186586 
-0.005958050023525729 -0.008568515534000431 0.04577797445812028 
-0.01945973638659475 0.0246238361603477 0.01599011853287838 
0.005296780018102808 -0.02347013634849566 0.03095860448852182 
0.07524740661089513 -0.1475605478203255 0.04443824334356992 
-0.0351729992826303 -0.004370537521397692 0.07971747301402438 
-0.02499168175677991 0.03213518844068981 0.01399988911710153 
-0.006505839056602567 0.009739044529825666 0.006516168049752816 
-0.01415614632230795 0.002168714572272926 0.01734910919736763 
0.005305732733714901 -0.02150741826156496 0.00651268242208688 
0.008019054412522856 -0.02468505776385487 0.02614811333228241 
-0.007902880207836362 -0.01924367401280895 0.07236767709812329 
-0.03528156473430116 0.04059712307213517 0.03858037021954426 
-0.009280814336883075 0.03207800786461966 0.0121161780294045 
-0.02371218170483157 0.04639482514102442 0.004080917609005158 
-0.03538147174604012 0.05874658771462148 0.0001083506362362421 
-0.05999071332031169 0.05137039125735312 0.02930040985025055 
-0.05277912439064057 0.04247447829405077 0.007898227968281058 
-0.04743466191128797 0.04590457705897021 0.006003342835472094 
-0.05573384402217783 0.06251214665295617 0.01185521144355889 
-0.05086898999030114 0.0273345033320159 0.06091089017861184 
-0.06687183635372269 0.03523236353555879 0.06400171700136663 
0.04510963478398684 -0.04421200110620946 0.009806103300195941 
-0.01804870075373678 0.004232076028281488 0.008146362935258399 
-0.03614486982366742 0.07311595435037664 -0.01817542578268797 
-0.07873141435517185 0.1054210129454668 0.003667913767920399 
-0.03254204486679545 0.03727173371153167 0.04214660861594024 
-0.08231176875155136 0.1238143411333433 -0.03068195069128685 
-0.08292143796264896 0.1239426724950465 -0.03584423738672086 
-0.0760987914203258 0.1225034713841594 -0.01145791712223083 
0.01381688420607428 0.01064588711162498 -0.008670801496396452 
0.01718000075218416 -0.003006297080742437 -0.01290328037772257 
-0.01364917952105895 0.0213660032173611 -0.0229244253234794 
-0.03087037526620462 0.04077337805131296 -0.00186064321245978 
-0.05961032440302329 0.07486725388658062 0.01861575634473773 
-0.06515916709018794 0.07039188180863247 0.03952438165029299 
-0.07215022194280464 0.09097694752417246 0.02259496486416807 
-0.06471432202429966 0.106586514450691 -0.0149253658647484 
-0.05639022443988181 0.09482976976525706 -0.002727719604537772 
-0.03536810968592545 0.06903281338209728 -0.006236210618282148 
-0.0151669160902383 0.01867187731098415 0.003370838098431795 
-0.01919594317969453 0.02951497822032207 -0.007157137191996662 
-0.05165257278971806 0.05292168901275546 0.01733765684994533 
-0.04311864068043448 0.04212152018481305 0.02722789739215805 
-0.01772641752011792 -0.001012395476176718 0.04076035532903822 
-0.07405714797585314 0.05072233706199243 0.056857321241516 
-0.08825303280649265 0.08579060139281981 0.05391709629059219 
-0.07783679152056555 0.1014882036727293 0.04191419450676204 
-0.03865186458313595 0.0578486963661558 0.02555350998909409 
-0.05138817287314128 0.06200394645033025 -0.004160638335420039 
-0.04998136460536506 0.05871652373109538 -0.002879865361736186 
-0.0924055185204314 0.1123707014720342 0.0202507206352933 
-0.07474904107943103 0.09260102040248837 0.02433213949662261 
-0.07469173683792045 0.07191764468081613 0.05746201880467656 
-0.07283349115139526 0.07036543135450128 0.05690204860289173 
-0.07327364616264433 0.0716241541729165 0.05478138245591523 
-0.03193170532935841 0.06326122906642541 -0.0168113965047354 
-0.03447804945984079 0.06447960213455702 -0.0135431548880616 
-0.04953302429136643 0.08630607586897612 -0.01691100179681301 
-0.05075034058480522 0.0755852803584514 -0.002538424859340218 
0.009558632931024864 0.02889413570326598 -0.02935421484098187 
0.01061733857363624 0.006048760750321573 0.02216123639839537 
-0.005569777965079855 0.02327706569212334 0.009734831247538185 
-0.0155319019617713 0.02693606882588694 0.03844357144041207 
0.0480278496883421 -0.0319523235265174 -0.0001518876545000825 
0.02853645298816037 -0.004337043522817827 -0.004116240609543661 
0.0969003505896489 -0.1594803544078415 0.05275173996571274 
0.0310365931123278 -0.1948660488723276 0.131056541447938 
0.06904976793478718 -0.07038419144070177 -0.000736122586934747 
0.05065698642379471 -0.03010510693288519 -0.01198414111977673 
0.02701208773951411 0.007988565491156483 -0.01988134345296943 
0.02786177259639563 -0.002310003163735395 -0.005138560818810441 
0.03319071748474658 -0.02879523440724601 0.01514337097359882 
0.002764611638772539 -0.07035087614079967 0.1201952389691258 
-0.03133604151517737 -0.0339196298305274 0.1058578129549002 
0.03577922564450636 -0.004414757299901153 -0.04289928300855271 
0.01013053344244475 0.01523647257888017 -0.0472188709251881 
0.03976808269433695 -0.02557181946535008 -0.03353126849460342 
0.03659075781789803 -0.007898847086423025 -0.02117971923668478 
0.003695350706988624 0.04111682619398638 -0.02808315687753817 
0.001817599517418409 0.01917986609903236 -0.009156628542733282 
0.006838888447695709 -0.007515392668482251 -0.007520206400865489 
0.03159652814927732 -0.09068885672274395 -0.009292952704224243 
0.04627744096314306 -0.0911273489203038 -0.06338996068584825 
0.07508675039430003 -0.05535065768152191 -0.02795193395725635 
0.008542453402499801 -0.006624182628678424 -0.09431838284604298 
0.01853931054590745 0.005519975997751986 -0.04925773202924476 
0.00824661405100157 0.01999867315971102 -0.03151340079421387 
-0.09587117449267218 0.08179901025178488 0.05720293305575453 
-0.02290264167035273 0.05053109451817421 -0.04199651290864956 
0.01195375928942648 0.01878128143033849 -0.04604768321587651 
0.02406316902802192 0.05196732649077943 -0.07237847988212431 
0.2064633850703643 -0.1290653325634672 -0.069068896924684 
0.08869812899928629 -0.08303346038180033 -0.04332674760985741 
0.02208156619555652 -0.01546841888871909 -0.06991284751654603 
0.03174306596405436 -0.01675021770715913 -0.0532310663544302 
-0.008443706210714483 0.05720730702873114 -0.03649739403790354 
-0.06658000121897889 0.07087196422615877 0.04677651478415525 
0.03727773804492471 0.01177469741352459 -0.04876756497786373 
0.03207783803176397 0.02321521749842038 -0.06725883082154736 
0.02421170993808844 0.02253408328371665 -0.06385409209637496 
0.04612910462289218 -0.03064377889797797 -0.03392439845797322 
-0.008793367195130235 -0.01377950445987297 0.004303820620056698 
0.01304004493334269 0.01967172979945141 -0.07178000258271855 
0.01101854977263115 0.01237075065056663 -0.06082482931610515 
0.026700678263335 -0.003306033083797537 -0.05680347910782658 
0.0362586671580864 0.001246139316940517 -0.04931024703596675 
0.009659634022790466 0.04583804235989777 -0.05267573202066174 
0.01991316586187246 0.02598446319618887 -0.05231510661835032 
0.01931300513833521 0.02766603521231642 -0.06597582119107019 
0.01726883953876239 0.0003283803898549965 -0.04440710843289773 
-0.006731126335228137 0.03102349824268124 -0.07653122951761698 
-0.00889640258348783 0.03101815117109814 -0.074286565517765 
-0.01046125660397451 0.04908801456599306 -0.07037557894126914 
-0.01377052661659154 0.06314293127048043 -0.05627189736084317 
0.00711498633880186 0.02506090964337209 -0.07280884958158028 
0.006729194279510359 0.02590067325225824 -0.07330626880190737 
0.008632732578308131 0.02439127708428049 -0.07470245291981671 
0.006392311225474714 0.01405527331305408 -0.05443030510393985 
0.005552319358083385 0.01584729987644558 -0.05548035169055909 
0.02070775810504085 0.00902130977087136 -0.0646110935625842 
0.04015120801067153 0.0004686155678264082 -0.09822918194854316 
0.06481343890836373 -0.02844306518755902 -0.09599446528331823 
-0.070382137553962 0.02994962828957758 0.1169155387495367 
-0.07453370899622065 0.05767767353578248 0.07612092480735129 
-0.07991275486653568 0.0521726348354087 0.1229547695081849 
-0.02134705479042753 -0.02658559882460001 0.08076563164934245 
-0.05185980359860198 0.01582153125642746 0.09692547995113143 
0.1021275563508413 -0.1588984068074266 0.03996279706545811 
-0.01704169813745387 -0.2460892793124508 0.2443740282893413 
0.01191123971431827 -0.08307514104281676 0.063248441253866 
-0.01766319381703706 -0.01256180592237763 0.0540465301258719 
-0.03182274753344789 0.01150914981300718 0.0544499968989309 
-0.04267099520985344 -0.003760810412926708 0.08797156881299853 
-0.05439050078846736 -0.03373543024650474 0.1330953638934751 
-0.06892207012629047 -0.07192468079256653 0.2179646997840273 
-0.1720669633567654 0.04585741080553631 0.245860377201047 
0.002873546141095299 0.08908850998002733 -0.04656388440031135 
-0.08572034631590877 0.1398372753158113 -0.007540000052307197 
-0.01403152961222748 -0.01594862543369762 0.01518999712041944 
-0.02390912720708346 -0.0106440160014283 0.03606306641680487 
-0.03476361804273358 0.02378471767001128 0.04691996241653726 
-0.06245171894833945 -0.001442942348628088 0.08225949384994211 
-0.05971068116494243 -0.01988418507754508 0.05860141505054892 
0.005583094247490943 -0.1150781405344386 0.01457562991323275 
0.06701169236754941 -0.1435963906697181 -0.06232761341649856 
0.1118955345531656 -0.1078175267259035 -0.02195092322047716 
-0.08071185077210642 0.08629876034841942 -0.09201394152719854 
-0.07959713028511653 0.06587741830489 -0.02368196105631414 
-0.08468088340021575 0.07208832343140101 0.001645260410784979 
-0.108855596107317 0.09867238811254556 0.0437963444975953 
-0.09649967835939949 0.07779578852732831 0.03361518024036948 
-0.07516550354080594 0.0564448310237032 0.01419666232258039 
-0.01307181440490488 0.07324854021657531 -0.03062377112769887 
0.2747838760364809 -0.2004029697301458 -0.0422019297266415 
0.178722144807106 -0.2326538484497919 0.05911470427485245 
0.001971450025108963 -0.09618694360791655 -0.02238144806205414 
-0.02375947290465338 -0.0240919661970303 -0.02568632514764647 
-0.04335686431814836 0.0458291940172269 0.006575806414435124 
-0.1083690494396176 0.1039457057640937 0.05347990898155973 
-0.04692571317831783 0.0358904725936928 0.02582389861238641 
-0.06084404259145234 0.05431977199489146 0.02188690480567715 
-0.07368648745115038 0.05786292519075139 0.05883374793371181 
0.01388929478869058 -0.1017213129956859 0.1374186599259295 
-0.009544477364129981 -0.1436616723371623 0.2247646203499227 
0.05773456085759696 -0.1027759231212919 0.0007429169738729539 
0.03327406341076561 -0.07087397666364119 -0.006226370297130733 
0.01242421490826481 -0.03523402661553202 0.004721779867417295 
0.03564223833863566 -0.04876580316444988 -0.009827360086594962 
0.04557231711691645 -0.05888450364592652 0.0004051171744771091 
0.02771265845200603 -0.04092733050882701 0.00777869946042702 
0.005318855084087705 -0.03147241496611489 0.02548456593349015 
-0.001726341460439616 -0.1099629392056777 0.1513835274775147 
0.05358269736429194 -0.1148962656959343 0.01340227407928031 
0.05355273215358421 -0.1164849219582644 0.01489503716880169 
0.07755706953051283 -0.1108364776908636 -0.006493862490887799 
0.07261797503120308 -0.08305426908413309 -0.0218629680924791 
0.08664139611289644 -0.120081459485474 -0.02911995474033122 
0.08717005705545514 -0.1207555763326581 -0.0299697681712182 
0.0854446432036509 -0.1225438368726943 -0.03056015422366413 
0.0532215578307246 -0.1064017202885896 0.02523431389097582 
0.05511779059560831 -0.1082515077297964 0.02425642754186167 
0.113365922350339 -0.1553161853545522 -0.02835464542483729 
0.1811313612624144 -0.2079421316920256 -0.1006075618003449 
0.1855160267388617 -0.2189411974892141 -0.07278232956191701 
-0.002961022101948583 -0.002173359614389023 0.01124812702525677 
