solver_type L2R_L2LOSS_SVC_DUAL
nr_class 3
label 1 0 -1
nr_feature 310
bias 1
w
-0.04959050367716553 0.06837715863927386 -0.04439603639713822 
-0.006951672430923003 0.04715960147618575 -0.05656004405286999 
-0.05775282839977004 0.02267143050212713 0.01548836377985645 
-0.09522583673187021 -0.006792193935275019 0.09520833910268121 
-0.04799071925495312 0.02300524567594461 -0.006777411015767414 
-0.0001529611374431002 0.02133692188041899 -0.06865986609388618 
0.03301818189999183 -0.0202777847781037 -0.05644650182271653 
-0.03285860128759029 0.02325456340068267 -0.002966333256217828 
-0.0009244375345654257 -0.03729368883287124 0.01613642713268079 
-0.07493153996424544 -0.01624120278197089 0.08552901765948 
0.00855856237149457 -0.03550377420553621 0.05539905879270511 
-0.01244291728426713 -0.05385903147796908 0.1154601094874233 
0.05388312314744469 -0.04808269518404747 -0.04850438376791927 
-0.0003112232536306846 0.03255755394340781 -0.08140893972381344 
-0.003457207452858331 0.01222319740723378 -0.05045411474338171 
0.03069760025307921 -0.008815630903305895 -0.03536999541341971 
0.07808157783283484 0.01517052310904534 -0.1466376130615671 
0.09973777760934374 -0.00226442715346724 -0.05593314930528095 
-0.0824545682946949 -0.02168665673237925 0.04091760947225134 
0.02695784674628692 -0.05895695594752376 0.0805680823649994 
0.03126369324231874 -0.03598715059504425 0.01701152768328742 
0.02711286000687822 -0.02174408508037987 0.02612413709923265 
-0.001756177636758676 0.009028366616727884 -0.01747517799819752 
0.1426591352661956 -0.03196007384496587 -0.1350573682005714 
0.02341063108253306 -0.008861934029722926 -0.05974921504682966 
-0.1259904897396699 0.0528981836500133 -0.01217324552261517 
0.01047381949328618 0.01329643154794998 -0.04499388112034309 
0.1344146579843349 -0.006942777078574267 -0.09963355061312268 
0.03273299179152055 -0.02675086398495685 0.04655197390330001 
0.07333166250666454 -0.008651602932618926 -0.009635536688594097 
0.01151169157207785 -0.03664222211881236 0.079189301787607 
0.05802310746843963 0.003492020728797343 -0.1180496388112455 
0.1593689564998468 -0.02073202089623056 -0.1890758796579948 
0.06540831234136819 0.002177948564889351 -0.02522629979650047 
0.02389794406746759 0.02728906910693833 -0.06905784200144938 
-0.005606560925076031 0.07459824838595097 -0.04220849430753994 
0.09840434716082741 0.07903947781494208 -0.2238952498442714 
-0.08422836612988473 -0.02109967207015813 0.1493610522609546 
-0.04498988976892499 0.01924471671362058 0.001234359330015793 
-0.0553422509379363 0.010210284746849 0.06948241619979635 
0.01123112775489439 -0.06334126689286614 0.1241458752202575 
-0.004224117483989649 -0.07095606713706 0.08629198489051097 
-0.06454259805069411 -0.008464737529783582 0.1000431057772314 
-0.009266642907380423 -0.0451169339197996 0.01708648018358886 
-0.007960565891606061 -0.01925841916663093 0.008159839371130061 
0.0002424599250311407 -0.09924202852761119 0.09739632255224563 
-0.01125747687731666 -0.008931761426437833 0.111573339826078 
0.02975720241602437 0.03899759277741695 -0.0901352133889628 
-0.051553250744035 0.002216285052753842 0.07028036496794896 
-0.03133965304693617 -0.05156484415956911 0.05983714139188057 
-0.04942177647608861 -0.05005019185968927 0.1022430841393544 
-5.117984691498288e-05 -0.1045965498834431 0.1579978706000727 
-0.02545670653330611 0.002372862528217962 0.01918381545989771 
-0.0673857689918929 -0.04878587842074134 0.137266283697102 
-0.01002196763041103 -0.04759320730522647 0.09612813572210036 
-0.004585770379521753 0.01315491083802685 -0.02485056809923416 
0.04962411418995091 -0.04839596602584488 0.003878793775127081 
0.02147627763103952 0.005896752750291464 -0.01806150470062247 
0.02662641890789935 0.0488996035082169 -0.04308283962862627 
-0.07718908483994485 0.008126313588678128 0.0979138941951866 
-0.09025993976700039 -0.04553895179896766 0.1278190367863832 
0.146595298402887 -0.02427241160089715 -0.1362946757471884 
-0.01392515330907046 0.1298342740432917 -0.1466931234198353 
-0.01462548305968238 0.1133415109062681 -0.1062566275421453 
-0.02266320766583815 0.1024210656875617 -0.08771219012684421 
-0.01894582219072773 0.09944142266632304 -0.1142326002703015 
-0.003854103346766112 0.08089975666844802 -0.08305555808311563 
-0.03727086841752957 0.09311142638090199 -0.06302776028277327 
-0.02248283147138804 0.09806847604997974 -0.08779166826355497 
-0.00830388756576092 0.07790432811436766 -0.08024081608098015 
-0.01716194932361538 0.06603933156439684 -0.06497529274576559 
-0.007541392617615642 0.06241443331548566 -0.06514819997089877 
0.02046103180547439 0.04551814553234536 -0.04936829371199887 
0.0008667878051183205 0.053229388109416 -0.03324444787447631 
-0.001369274045979774 0.05222213861743394 -0.04173012840829977 
-0.0001041664171613505 0.05730957139621356 -0.05222879507475271 
-0.0023818547606412 0.05276899517405834 -0.04070742866112961 
-0.00522087694784 0.06282625595497715 -0.04815498096548561 
-0.003240373730619828 0.05385573937228523 -0.04842674776323202 
-0.005080992452213548 0.03908155060702546 -0.03407340654920775 
0.005389769214399254 0.04624530947442863 -0.06515739240180589 
-0.007996453077937359 0.02452210131086491 0.004304423931095975 
0.02602040898236853 0.03113564111600989 -0.03327557874832289 
-0.000689400800494651 0.02071589481291692 -0.0004994281979507943 
-0.0002858194958240391 0.009010749601107515 -0.002132074560403859 
0.04021197568061587 0.001640255549346699 -0.03813680175801343 
0.03291791926807432 0.01661351865723616 -0.03664984100504458 
0.01785997098213716 0.0194189517364727 -0.02112492780314124 
0.01149157506037964 0.0266237066360054 -0.02416575876973669 
0.02660548405153281 0.008008553957956152 -0.02244997391495591 
0.01408905078526695 0.0303113385510755 -0.04100639758825292 
0.0111822240928932 0.01054661061060122 -0.01224023970060007 
0.001257106135387889 0.0005418679477487376 0.01420942254223736 
0.01163638649288157 -0.01326215369220215 0.01811126218805749 
0.06955493901580649 0.005140331168947349 -0.08313151256789768 
0.07502489996923298 -0.008517381440121576 -0.06235488106087164 
0.07069642532367749 -0.00600597998053971 -0.06086733963925138 
0.1386483087355197 -0.03855032305427254 -0.122190431496956 
0.08643858209722491 0.04549505345953651 -0.1026157188620138 
0.006862691048509207 -0.02932455512663721 0.05907922411190378 
0.02318452184018701 -0.01777910773014659 0.01436848895147246 
0.02088998819512292 -0.01218583497737535 0.01107480197272531 
0.01675775744761241 -0.01217349287028965 0.006510068271598601 
0.03766357564631276 0.001488545173697754 -0.05290118061771903 
0.06042042052286616 -0.005673694392073377 -0.06145224342249401 
0.07377603175047912 -0.006229021397176144 -0.06983205951503507 
0.04738946739478795 -0.008612915224365511 -0.02877901159546147 
0.04421606893466029 0.005223943873970456 -0.04045661742269392 
0.04238496583823059 -0.01567040806007552 -0.02458706241906754 
0.009211936730713648 -0.01540567415005726 0.04633961978174141 
0.01206638000686492 -0.01923669875595903 0.02734217104618874 
0.02335209625066213 -0.01628957603115388 0.003800581046501897 
0.02730482697677934 -0.00342477586235688 -0.03496694185820456 
0.03094804132172517 0.002178827859977011 -0.04085842255754693 
0.003193487264523295 -0.004729991895773802 -0.008937845547059895 
0.01644099065559477 -0.003071604452360852 -0.01492901311681142 
-0.01944292956809667 -0.0171134519587124 0.05097635717292924 
0.02011894971907797 -0.02250931653813807 0.01689595661875532 
0.03567758158703855 -0.02018419274732992 -0.01869033886597834 
0.02451649204773922 0.003536274992242513 -0.04354201322035587 
0.01365728544883717 -0.002529223521563871 -0.03095520566507228 
-0.001966704494070947 0.008522832782498333 -0.01581342251598911 
0.003041227520464112 -0.005438011621346246 -0.001684948612686156 
0.01805722788124535 -0.0004469845855092722 -0.02450185529747702 
-0.04128265084594782 0.03986437036335131 0.005983237208691945 
-0.04386946604420505 0.03397782812836461 0.02000880066917493 
-0.04105020975656585 0.01583574003213397 0.03651198521451401 
-0.04795088715312305 0.02144514953731481 0.02694298542765952 
-0.0322693065694803 0.0159703618933765 0.03191713534776323 
-0.03104800686350398 0.03355911383527293 -0.01824119585036998 
-0.01886063081970462 0.031346066959924 -0.01832690916831977 
-0.0001502233474225059 0.02228964147074364 -0.03297218464250696 
-0.03436653744413103 0.01015146794611081 0.02148799214906587 
-0.02812712809099208 0.007143726221470806 0.0307275042632672 
-0.01978173740395679 -0.002545409255689251 0.03854609445405748 
-0.01113438245883145 0.004688684466911203 0.03117160472253509 
-0.02850748220349554 0.02651244611857235 0.009267480106919856 
-0.05662645153268978 0.004639030470070903 0.0518100081990796 
-0.01778325667190923 0.02055060076098877 -0.01839798695185568 
-0.01825144280179961 0.01589199787140968 0.007103611560902908 
-0.004184416830778417 0.01302674662439336 -0.01186613899684368 
0.003307230432056745 0.001345006192273005 -0.01004471330206945 
-0.02507688361097171 0.003492135214487969 0.02631834460760939 
-0.01190224112439543 -0.0171009722044188 0.03486757344803049 
-0.04057018544198226 -0.006923883863837963 0.05804661994173513 
-0.05304471397025669 0.001536103591931836 0.0606617292217657 
-0.04596367831038066 -0.006126078638512724 0.05787693557983189 
0.02462154606901221 -0.01306080448610135 -0.01147528261027398 
-0.02425929701995938 -0.003881150017538736 0.03502919263175976 
-0.02053654273824256 -0.0008910372473265383 0.02394625184982163 
0.02207369938974231 -0.005190028195790259 -0.02129050863000381 
-0.0004186994499071461 -0.01262712793716476 0.04181498383335814 
-0.04536853831551804 -0.01363144860001663 0.07444668818795618 
-0.0398385655708377 -0.004335705525158125 0.06240556894984643 
-0.05460253051624344 -0.003534278667882784 0.06612507591609294 
-0.04736818083511934 -0.002520367834194196 0.06223407687493297 
-0.001046505952250728 -0.003214234077069586 0.03232547593599577 
-0.01473956763534608 0.009039210284351642 -0.009645458848026773 
-0.005065472982539117 0.001203420982174176 0.006557655419103826 
0.01876037466494081 -0.01920844352588734 -0.0161709544016439 
0.063825841024891 0.04713895747237341 -0.08514466212279692 
-0.05215725290403097 0.002836287944778189 0.07353836368743968 
-0.05559537850896727 -0.0005358010035141116 0.07442952228013179 
-0.04225015681640602 -0.00939320762714253 0.0608977994430707 
-0.04453132205910758 -0.003703438443098714 0.04370548335967006 
0.008365988329706923 -0.01022131143112334 -0.01065471669117497 
-0.001343583230819179 -0.003287988851499137 -0.001680071057507879 
-0.01022494389316587 -0.006754734785146917 0.02166029477824215 
-0.01408972013341792 -0.02642964402808079 0.06507289702368328 
0.01863745716429513 -0.01489189994026447 0.01083094982177531 
-0.00793636864817724 -0.00811600193657596 0.02415269623559923 
-0.05570700623607192 -0.01277001557351717 0.07880203134553 
-0.06239861728195992 -0.008437743907334974 0.08032536136169659 
-0.04222749425105372 -0.006597179923880324 0.0402305106628152 
0.01226702839622317 -0.02040315033266726 0.01259825017816762 
-0.004972856705128731 -0.0186675038542253 0.02830293199951732 
0.001718463047545385 -0.0232069928479602 0.02747881286565296 
-0.005943307512814443 -0.006732347918448076 0.002017457006384812 
-0.05095165279277648 -0.0192087813309577 0.08579405565967653 
-0.05272395887821141 -0.0097766099437579 0.06920278099909279 
-0.03289921959429046 -0.01400680746386808 0.04655784694306514 
0.002093950704012216 -0.0243431905358679 0.01589760732670428 
0.02352962188929022 -0.02490996035389037 -0.001926123886190458 
-0.005816979309220106 -0.009978294003166351 0.006932974595646984 
-0.01907856030402796 -0.007413988056137201 0.01422804928498893 
-0.004436754123657437 -0.01329911530058558 0.006159882335030931 
-0.1729723111409956 -0.01034428848133814 0.207916964492784 
-0.1591253153740843 7.959501293665679e-05 0.1678512190236812 
-0.08912517082024229 0.03576297797999559 0.05222494727154563 
-0.06462785317808478 -0.00725598106407239 0.07214006217182196 
-0.04538454340254371 0.02044306343699515 0.01236958916287426 
-0.005197880941089903 0.03072638817494439 -0.02029550493162847 
-0.01158270985707003 0.0434199600197361 -0.01289680012177102 
-0.009135993186863589 0.03931096404501147 -0.03195590198235446 
-0.05990411894362693 0.01200932359334858 0.04416428753486612 
-0.04229434007437718 0.0002076971413576545 0.04734192862297098 
-0.009217819181354283 -0.01344722634044475 0.02491075216727063 
0.002002337018389808 -0.005344383688342569 -0.01202200604941066 
-0.005516322242403928 0.02057784638335731 -0.04105344796318539 
-0.04721924440816951 -0.02652707229498511 0.04731078008671797 
-0.02442911982256042 0.01922654739324654 0.004516164938142316 
-0.04526674062179901 0.01965534800802334 0.05161806022649307 
-0.04461434091511917 0.0389298759329984 0.009368574120488384 
-0.04047892529182994 0.02110807634109872 0.02831107519760407 
-0.03894613499990048 0.01175811020325664 0.02814183917217375 
-0.002085159941720882 -0.01433893381412916 0.022613089064571 
-0.0195297203421878 -0.03685144727503091 0.03123176037937943 
-0.005797611002485998 -0.04118630016028211 0.01239304716922331 
0.08818547531098588 -0.01950901816420032 -0.08925129560281167 
0.2251494717360455 -0.09173223428299203 -0.1452961247810596 
0.07633458518233513 -0.03402088456325972 -0.04841801887039678 
-0.03297020100928898 0.003481232279064798 0.05148885788329665 
-0.02954368932286148 0.01606867988632361 0.04120239301258177 
0.02116713570509235 0.01256698324721337 -0.02002511728025657 
-0.009297384586672413 -0.002352544027988215 0.01836949841470458 
0.003874511645754854 -0.01915442402555923 0.008020766933793234 
0.03742008176403611 -0.03987106521047648 -0.01818637730407281 
0.1404907394133634 -0.05133190911513051 -0.08780885965646561 
0.1563433429488789 -0.01625726199695512 -0.1568785747324936 
-0.02706065903199275 0.02002119798594761 0.0145011795621402 
-0.05364721121182795 0.01570545207290575 0.0570867732797014 
0.0262119447691119 0.008543391013596831 -0.07982611708641069 
0.05407574390419522 0.06818140613685005 -0.07384503020265498 
-0.01557628243424923 0.004330503331120268 0.03094193567721058 
0.001413379150255314 -0.008148500424599062 0.005795411693844082 
-0.003660313233541973 -0.04607209498153127 0.003493189266619727 
0.03396859562191906 -0.04130984925964971 -0.01715358940081285 
0.08248783605262018 -0.01302764880594974 -0.09067996800744346 
0.02121772076614001 -0.02296580648673522 0.0255095802375179 
-0.02330557115342483 0.01695496222898164 0.0143186220898473 
-0.002786849660799359 0.008786710866579514 -0.01198940242510355 
0.0009136216100296035 0.01104502065236151 -0.01236061441674506 
0.000132641139718044 0.00488337525841766 -0.015296199664465 
-0.01149311521738574 -0.006350513080571195 0.01754180913659511 
-0.002367694916350865 -0.02239990509097914 0.006671140612227656 
0.05145503924076731 -0.02197232501278618 -0.0530387508355454 
-0.05252425177907563 -0.03235445888551788 0.08592722441886567 
-0.02411463788158595 -0.001072577495397606 0.02341237203504008 
0.005596126610595688 0.003825540939650348 -0.01002365554678063 
0.01210177138449813 0.006020314021096511 -0.01985356160933999 
-0.02741588386579104 -0.0125391982272414 0.03981284667920489 
0.006511701898520518 0.001342969917564748 -0.01433137693663606 
0.04796477248380321 -0.006886281070521909 -0.05451943577294972 
0.03859635949940869 -0.01283738468397036 -0.02779283736232124 
0.0412313046949898 0.001486620342323475 -0.0417539669713333 
0.03073248742225641 0.006446007713995721 -0.04296780363189181 
0.01920156090077033 0.007547770602463865 -0.04230199429779694 
0.03319277914169034 -0.0007395554156732348 -0.04078216823597283 
-0.2342479820756487 -0.03164121616150433 0.3133823644247763 
-0.2520341763386647 -0.007475109969907724 0.2691829625168872 
-0.07696269803593382 0.05372158039306376 0.009025172704091141 
-0.08244100770635088 2.527609954641725e-05 0.08590081955948693 
-0.05633676183929671 0.04166271344004486 -0.007136456221114731 
0.05093282055309931 0.05838128399493241 -0.1189772394334151 
0.03180919260915377 0.06912312382032627 -0.08288536617218939 
-0.001293679334290043 0.04960229189270209 -0.03551395164002945 
-0.06599516646537143 0.02248714267618146 0.05325646847797462 
-0.05134318269212641 0.006844226418351063 0.05022535063959828 
-0.02172842965918442 -0.01610675189123888 0.02735535592849578 
-0.05023989755863314 -0.02328765033102319 0.03222127641218811 
-0.07089804088944608 -0.004476573884499498 0.02454684337265607 
-0.09319844983740207 -0.04033203140002065 0.08435827178633407 
-0.02099995975521137 0.01912642502177001 -0.01646995429385647 
-0.07533985095534047 0.04079096890588246 0.03800217372009249 
-0.04331584813869668 0.08526883337996585 -0.0729166385219297 
-0.0286131158127801 0.02860361899574602 0.03060832486356866 
-0.008480033961617745 0.03131406583671432 -0.01110610850601938 
0.0120958814327293 -0.01403348265374061 -0.02417465255830761 
-0.04065524741924316 -0.07691204350474359 0.05525073248987174 
0.01159410463550645 -0.0960663543576759 0.03329674790348166 
0.1553398971719796 -0.03932085835395264 -0.1516940805909503 
0.2965898309831553 -0.1113412339580987 -0.1876678473645901 
0.08433719670608879 -0.03339101880048179 -0.06742707127137262 
-0.04826290167900367 0.02480031345897172 0.01763359128541075 
-0.03220192929906691 0.02654553441231214 0.02915846413343028 
0.04009003615047871 0.03690317762542645 -0.07502018261701225 
0.004716877825891385 -0.003669568768158189 -0.007128374335897352 
0.01068367470386053 -0.05786478301814949 0.01857218995080812 
0.08388547956881384 -0.08778603690002407 -0.0311474660518046 
0.2104054773973646 -0.07513606829468981 -0.1398801832757269 
0.1992808863216262 -0.01907325536061531 -0.1791138045893289 
-0.05384622609796198 0.007013206703417754 0.06721067540299602 
-0.08122428081355212 0.006577988950149101 0.08644195535028644 
0.01000027573659058 0.01779131402000384 -0.0709929541170083 
0.06463752704797673 0.08030846184321563 -0.08652577468129094 
-0.0001701921336986674 0.0121966569213007 -0.007102048510388455 
-0.01604177521625792 -0.03714652561512618 0.03688153281835393 
0.03237827017194556 -0.0857156961227134 -0.02317910174053457 
0.07139167898794652 -0.08668889500497345 -0.01916108123657658 
0.1149325939857731 -0.0457086695530111 -0.07777495329379348 
0.02171960520393199 -0.08746712189964111 0.1339388196897462 
-0.06093661164050669 -0.01759417955919209 0.1253924260483347 
-0.006857210747699467 0.03262904581308548 -0.01611080409470005 
-0.000257175401135133 0.03603955174984663 -0.002721209455087459 
-0.002993245088958517 0.02044196112588214 -0.03088281923406565 
-0.006850284255365986 -0.008268548642776909 -0.009794263226045359 
-0.008941368304991731 -0.05646976919497015 0.03327250572521526 
0.07658537296135132 -0.06890048840158927 -0.02277630904716537 
-0.1466057341520929 -0.09128703844923707 0.2648739976356313 
-0.07842321709796952 -0.04580159376288687 0.1423602212151394 
0.0030498733014423 0.01261569803468036 -0.007413164637877854 
0.007652597123409089 0.02315207848159286 -0.01416729385505772 
-0.06341224505296937 0.004253876384632716 0.07453583839382404 
0.02102081895527832 -0.004032388849977242 -0.001406324500004396 
0.102150134637153 -0.01951004987208919 -0.09515512397353486 
0.01223669436927169 -0.04301380795772362 0.03449489271295463 
0.04105868878593168 -0.004831934135579826 -0.03601752253899563 
0.003704162100571253 0.00836811265426163 0.01117508338168147 
0.02772517282983795 0.01092787624614719 -0.02165537572831392 
0.07255746852764422 -0.009309268424069476 -0.06568146734055427 
-0.01550209789704733 -0.003434532135068591 0.01017604561153304 
