solver_type L2R_L2LOSS_SVC_DUAL
nr_class 3
label 1 0 -1
nr_feature 310
bias 1
w
0.01914029791223711 0.08642782223589557 -0.09354660397117477 
0.03635443058467727 -0.07143273379014056 -0.04198680385592442 
0.0511449859685463 0.09726086834575573 -0.1565427146273781 
0.04459413491204995 0.1202864714903986 -0.161084355234061 
-0.01370600248213165 -0.02785009389158621 0.1289951447430888 
0.007936368399872776 -0.07181583112778855 0.002615958630303681 
0.013887687626557 0.04395300113286202 -0.07694355261490626 
0.03109377188676743 0.1663133600169872 -0.2108605494706471 
-0.008509431059672704 0.1109506026510554 -0.09171910328059864 
-0.01469412848943863 -0.06747775438404902 0.09621814935061071 
0.03265212851344762 -0.03353192936262002 -0.05333632980948444 
-0.01724052662083538 0.09636944352145965 -0.03323944041081266 
-0.02114756180440526 0.06276711179704972 -0.02283303890115903 
-0.01786698130097879 0.1614723837901928 -0.1238979788608091 
0.02060058299360865 0.01286832256838825 0.008664272228020933 
0.02413198398410787 0.1007830003224497 -0.1174686505464483 
0.04133594051838539 0.1879365757845338 -0.239593221647224 
-0.01739636629174986 -0.05106473775622005 0.0326419777877513 
-0.02578182219512942 0.06232288700494629 0.03490150532735126 
-0.03967825371819859 -0.02227677095452928 0.1205624455006406 
-0.01893451180251463 0.08656322156015961 -0.05285529211353703 
-0.01978644405426513 0.08290770295994744 -0.05401110382040853 
-0.01161432878014911 0.1479234093292356 -0.1730382196007465 
-0.033712503405675 0.1363048190178484 -0.08060612137684066 
-0.02508577514069168 0.1895167152879063 -0.1225221962055967 
-0.006076803841101935 0.07431280167054501 -0.1509528012107193 
0.02046898151142425 -0.007201598425236159 0.00300829951925037 
-0.02948168890983141 -0.004568885492568836 0.01129763499164507 
-0.05756164640048589 0.03217517121649305 0.03394568453660601 
-0.06614061279985398 0.2993820183247882 -0.2419614661828706 
-0.01347420742908872 0.1896439468475592 -0.152991091831144 
-0.02013604071162919 0.04430008924442894 -0.136028551646789 
-0.006445665699231922 -0.06626469770600892 0.04746768276721205 
-0.01269023879596056 -0.04527644761673683 0.006390002330917812 
-0.06792433827892483 -0.07084115648787115 0.1774686024749251 
-0.02094699235019029 -0.00391368566731553 -0.01152546148692704 
-0.03014166064770313 -0.106291842597048 0.2201417289455178 
0.08331978589269452 0.008161405053701668 -0.1722151169683749 
-0.008728450648971727 -0.02636724894946364 0.03067140464859236 
-0.07751635475933386 -0.06041624353273024 0.1925039753631516 
0.008379240701699327 -0.1430995012122297 0.03157434793563531 
-0.03954804176095948 0.02174155253532468 0.03221406589931593 
0.001673286514767215 -0.1569032186252668 0.07576438935055843 
-0.03392578572602267 -0.0654783196426819 0.03548093244030951 
-0.00218969051502887 -0.243751662002056 0.09629187315631908 
0.004631566571023462 -0.0678193080846508 0.0443901971283112 
-0.01247202064778998 -0.0912517449569482 0.215198048754795 
-0.02984824698881356 0.0228519849609548 0.07961766919317534 
-0.01456289302648132 -0.1329427243058464 0.1028873950186141 
0.009295880713295021 -0.1718591572928694 0.1076762326017236 
0.002463791251679422 -0.1538247057612103 0.0729385473472019 
-0.08390367632028509 -0.1473287270889441 0.2662785423531439 
-0.04290326843998637 -0.1789261085821623 0.1685363080884631 
-0.01717572436123351 -0.1330028103315698 0.1902184187264579 
-0.01951082347156309 0.001265037346374253 0.0003187239997064345 
-0.03650465739087298 -0.04278142063238544 0.128961691934468 
-0.04921669570698843 0.07541946076807825 0.05754647876742348 
-0.027819801158127 -0.04094703530078069 0.08777426200570984 
-0.03066172805305164 0.02710076750517232 0.0312604263612408 
-0.0205838605786131 0.01699855788636086 -0.01991576628323082 
0.0161567849139749 -0.05344037979303771 0.1080497160659692 
-0.05308891150953621 0.04808818418408102 0.02900588161936825 
0.03694177239339078 0.0417762636985208 -0.03895127663989452 
0.04392251846958623 0.02565753042665252 -0.0348955221331561 
0.04491520098351596 0.04101672555948811 -0.06730307390831299 
0.03112294391554472 0.03004144830440161 0.008927939118988211 
0.003222210556991469 -0.03261186121212378 0.07949423617025451 
-0.01275223449863408 -0.02455804783143061 0.06996341866082549 
0.02758466249910232 -0.1011421966134064 0.03836591758413289 
0.03047218788621788 0.05981094255975269 -0.01476835186023672 
0.0109491452755533 0.07405454209870149 -0.03777205230482896 
0.01732860548977612 0.04176044304379381 -0.02690505603192117 
0.01077579516705232 0.09694436074792552 -0.07637282458645382 
0.02026424668969695 0.08220835650128247 -0.02167405795843632 
0.02036092753984827 0.06543199781143497 -0.01028227206771764 
0.02163128749900034 0.04448921013055315 -0.009439624795494208 
0.0266256964670162 -0.07120990751972528 0.06038662965408152 
0.01759089016843098 -0.01940459033497329 0.04690221295321961 
0.008216381487736943 0.05177000533510066 -0.00865468566075765 
-0.002698477257966885 0.06088507376220061 -0.006886769366018957 
0.00416018662177048 0.08870742037115324 -0.09340581301604525 
0.008007653968174308 0.0944222875643588 -0.03983068709166637 
0.005768088643504803 0.04576003794374364 0.00247253585674393 
0.005089336006522578 0.04562512499213457 0.003080698206294011 
0.0113111467297242 -0.00643825825215979 0.02773877964418651 
0.02667038251989767 -0.1048720334510141 0.06549757784988214 
0.02658876627266749 -0.07921184726893446 0.06988447895337054 
0.01341355444553911 -0.05480054982058503 0.07299374270568085 
0.002531519256365659 -0.0007044920739344213 0.05355185513732219 
-0.02729010473627429 0.007778010843411901 0.08811563204900873 
0.002622301582125914 0.06293559438781737 -0.01250737954203783 
0.01100841127434033 0.04641322132672532 -0.01059145733754792 
0.004370449101236756 -0.04246313289617439 0.06883799820614231 
0.005930910904363374 0.002205742389107361 0.0275997436193713 
0.02750633825951697 -0.1227328741931215 0.07651924396055051 
0.03360516782331498 -0.1052720423902525 0.05903993000192676 
0.02819411006174232 -0.09500200089324157 0.05667651820320606 
0.004610010203223491 -0.06692823505040081 0.0680341032676241 
-0.003155445682297763 0.04991639939420895 0.02782987177517016 
0.007607693531641608 -0.05966713299522895 0.0600281680948289 
0.01497761604219923 -0.09961438639771168 0.1299802028503765 
0.0215338624386025 -0.06558198537351555 0.05732922955898206 
0.02622954499671917 -0.1567909318065427 0.1200039315979878 
0.03084861693833475 -0.1463871897553013 0.08134595771988802 
0.03768317127419739 -0.1473373237265359 0.07623188082586603 
0.03716073672690853 -0.116745300863545 0.05256219997202571 
0.02187454874720175 -0.05737021889955717 0.01138474978218092 
0.01672241953894694 -0.01149368511828691 -0.006138158328076528 
0.01405472296968622 -0.0837411738860928 0.04064304474139024 
0.007062299115436952 -0.091924940231404 0.1192407249524501 
0.006426176055189142 -0.06272112172093075 0.06331659877374494 
0.03333054115977239 -0.1791107760685948 0.1292899311136487 
0.03783758988130825 -0.145408727209076 0.07475889327664888 
0.0440262571422356 -0.1323181266459623 0.07717496649886027 
0.04427587638738426 -0.09559377864368214 0.03355840576594543 
0.01683777713591976 -0.06434506774995996 0.035872555278458 
0.02294481418130052 -0.06953649426999958 0.04075656044730155 
0.02824004789866999 -0.101587688289262 0.06471678948588638 
0.02912963422781746 -0.1334579460337584 0.08445643153381678 
0.03462875674494609 -0.1503610986830693 0.09952921676853906 
0.04525669769496053 -0.1388509852411049 0.07487969067594952 
0.0333540519338626 -0.1084248255500232 0.0830253433623018 
0.01872176978880166 -0.06350274113003848 0.07322123564020572 
0.03069645344747348 -0.139436636942864 0.1035162902146684 
0.003563216506367206 0.06946056084743021 -0.07682247517236487 
0.007697293095422587 0.05222666199180433 -0.05252055801085333 
-0.001618257571281231 0.02112759496501791 -0.004976082338635886 
-0.00796365012761577 0.08494106218176893 -0.038029970070233 
-0.004142058151543756 -0.04103224222647087 0.02531476468848977 
0.004800234604799981 -0.07514901379998802 -0.01630694271489457 
-0.01661234883525271 0.1096799619682762 -0.1523022369596476 
-0.02872705208706334 0.05214362424954032 -0.0196452731418086 
-0.02236548521824232 0.01738637719528326 -0.005875048760485945 
-0.01646363755501198 -0.01610613795151011 0.03689525460498308 
-0.0001222134663290198 0.0407620492957173 -0.005416121185345174 
0.01225631920065628 0.0625187807101111 -0.04410756792111258 
0.01254846743306162 0.06584912666701741 -0.0521936567681528 
0.007660072871312324 0.08985048324170664 -0.07988657351634529 
-0.01664797899011532 0.1828263163983097 -0.1764310634432971 
-0.03289686772895088 0.1825415821150221 -0.1482135297898521 
-0.03876492188139764 0.1364533103562657 -0.09506362818298093 
-0.02798321572731206 0.03223401560117072 -0.01332859952067672 
-0.02011730905863357 -0.03782937645027128 0.04383149642855991 
-0.009858409291215191 0.07035579410934877 0.01585692654366211 
0.003258593338586824 0.1557136532483685 -0.117704866772872 
0.003337121915408936 0.1509561785532758 -0.1151334325861613 
0.007130967937889726 0.04944966464564969 -0.06110429536753986 
-0.02933782507846926 0.1422765171904926 -0.141138092119937 
-0.07180084870225138 0.0662897590283557 -0.03948238946487646 
-0.1067108441703428 -0.03079330622188302 0.07757934005092119 
-0.0669523025447836 0.01684340469892494 0.06511220771901328 
-0.04875730483638164 -0.04616833676901565 0.1350058168407502 
-0.01253031510533156 0.1108448669692087 -0.05976258243601516 
0.006348978691267626 0.06729407405759284 -0.05448302366873947 
0.006897044580577787 0.02452903970698283 -0.03370416053155458 
-0.0008482247514770469 0.003679814624573088 -0.008043190433447778 
-0.03462411482578157 0.06510847618246558 -0.07193305768133387 
-0.06961890920031795 -0.01616778546885002 0.03437978337862766 
-0.1131259844432786 -0.1159928234176689 0.1547091186754841 
-0.1032127456741489 -0.01647987514432187 0.09401139132219094 
-0.05092974177220556 0.07415307244711362 0.0630947873803903 
-0.01065832951482725 0.01937862295338906 -0.01293948661630615 
0.003282015850773028 -0.05406534765792637 0.05008398693383867 
0.0194707089944971 -0.08291738707221352 0.03789790966529769 
0.02037692586203968 -0.06405264025355319 0.01037521856938959 
-0.02531431251057022 0.01463811960058809 -0.02403801653975788 
-0.02324695391861391 -0.01818657280585289 -0.000321279062541865 
-0.06300739467123474 -0.07422719895220807 0.08609363899813308 
-0.05642826844653962 -0.07507030765287617 0.08560965772730933 
-0.03508864600580709 0.02246460775402218 0.01938256499738145 
-0.009628297063167587 -0.03186147679122937 0.02065790912426589 
-0.0001169883508266196 0.004068478623310913 -0.01002525202945772 
0.01273090868160839 -0.02983440360821805 0.02100932954738485 
0.0193353066846874 -0.09878136889717658 0.04942639624382068 
-0.02251624170905527 -0.02099521158464391 0.0005108565822172349 
-0.01030140606454349 -0.03877300253510118 0.02328999895152137 
-0.007277606388854687 -0.034986054584676 0.009199039017446755 
-0.01536050157567673 0.0377926495307063 -0.02643569017259993 
0.0008475790663979438 0.0269046974581135 -0.03500129076815396 
0.006826991251123273 -0.0004079420197361536 -0.01731009820569536 
0.0128631956295057 -0.03927411526411217 0.005395763418941654 
-0.00460647579575346 0.05459531507671564 -0.08219102672617901 
0.002442199408038094 0.03621590392229237 -0.07133830102632217 
0.001416779203444881 0.07144627251873606 -0.08910213373686506 
0.00263547935001747 0.04346734060468306 -0.04706793865374069 
0.001525830637851568 0.03726873877265634 -0.05258891625170535 
0.02351867684530698 -0.02431506744142014 -0.01689054120464301 
-0.02483008737927742 -0.0351275216940201 0.07441568988434138 
-0.07930183018035057 -0.02646746139989762 0.1044835315702333 
-0.01173496793394051 0.05476450049324241 0.007833385900601585 
-0.04135621130253041 -0.05612165094101606 0.1099233850950006 
-0.007401968782965892 0.07070845961384478 -0.06469830080839654 
0.0406200843440841 -0.06480454667053415 -0.1139303918304498 
-0.007865725050653184 0.05320631055095575 -0.03440037775570762 
-0.02044373570613362 0.006761142054094664 0.01622713286497979 
-0.01836848135407667 0.05052339702581076 0.01860303041782817 
-0.02879459369500448 0.05602291155742609 0.01760901229714264 
0.002518882779539611 0.09557959484904248 -0.07415526097464335 
0.007492102470661672 0.08729084786806537 -0.08068266291189957 
0.05479658524164503 0.01762855178885292 -0.1239681584447652 
0.05700788302783256 0.01568269144008698 -0.123391743102678 
0.01623870685125625 0.02533960464535443 -0.05819385041190273 
-0.01619929740992916 -0.028183960114755 0.01147976278075589 
-0.02649964677918339 0.01063013864836728 0.006139984564968399 
-0.03080654941750017 0.03903371829444387 0.006237392122448071 
-0.02134638301352724 0.06312586982268067 0.02807397690029509 
-0.002389314725102605 0.05248376107932361 -0.0450848216057461 
-0.002239089444474619 0.04957837044148831 -0.04151332377418118 
0.05012254122020975 0.03823064486593021 -0.1222235915294196 
0.1936913282129166 -0.183015540520305 -0.1200406023857116 
0.03956754963781903 -0.03234369752636695 -0.05289982257900041 
-0.04246726513824476 -0.0414142083632134 0.03654992503186911 
-0.0418941634321069 0.02976206563515884 0.02999438055401712 
-0.0245231796636521 -0.06912139666074209 0.09839695359754341 
-0.02713918780245214 0.05927144174354922 -0.004027085867608938 
-0.01463199391348041 0.04500922420373434 -0.0422616345343635 
0.02686263817554289 -0.008564844400247096 -0.04742024547153607 
0.1112350570063173 -0.09235810230081438 -0.09051624459085844 
0.01904122006047591 -0.0350217036819087 -0.002514721371238621 
0.003962935164137722 -0.007604722701734897 0.00501823753883626 
-0.05197109195131764 0.01736510480977609 0.02301065321377506 
-0.04713234335133017 0.02690682707602268 0.03944369378022497 
-0.05258188086613583 0.05940986093840266 0.08127844049976758 
-0.02735813896907589 0.05755712721088414 0.02643962663008085 
-0.02093438461311814 0.006517482760488419 0.05832901687832521 
0.004868260486201405 -0.0196173641005657 -0.02606160401242319 
0.02920317613974873 -0.007937849970545696 -0.04638123256232696 
0.0207425677812395 -0.0471623567528557 0.02698524391403178 
-0.004849480521302393 0.01332979416064393 0.01912006479657799 
-0.03460934121231813 0.04548018027587918 0.007202860984142518 
-0.03932237479644898 -0.005746445585933212 0.06291596257662982 
-0.03182064975037891 0.05783280060861759 0.009611652199337474 
-0.01894110877328194 0.03007548778187755 0.01628381135005897 
-0.01213033670998337 0.03250650615175473 0.02197422080768399 
-0.007048624804218042 0.01103528709768097 0.02498421378177092 
0.00989139745629663 0.001540932126692251 -0.01565102403093271 
-0.004522082246133212 0.01320235214717096 0.02040095034592518 
-0.002533046287240511 0.02082932461923796 0.02247516794650268 
-0.01220527230324195 0.02838926189525859 0.01172767809895319 
-0.01902621218383715 0.06238919752308746 0.005669983531062562 
-0.009668975602548065 0.03972037800511679 -0.01425221922515423 
-0.001985842912765743 0.03665958548435932 -0.02338644677062842 
0.004321321366830388 0.01901981789612904 -0.01899423395459227 
0.008914757026260205 -0.0262340835176365 0.03162936055704962 
0.001740246860526601 0.01087707585826793 0.01531108744908188 
-0.008411117479015521 0.07244702809558044 -0.03487220908249559 
-0.006612292706054324 0.03701405510507324 -0.004294346067835913 
0.004513551560994398 -0.03412443997590446 0.04324005152307342 
0.01370540554360527 0.04680412732058628 -0.0963722735296669 
-0.06457328332686435 0.02679927226979329 0.06983635242930968 
-0.09643367206112613 0.0564758169580996 0.03821012306416767 
-0.02073084686946231 0.09159469361978291 -0.024193640947957 
-0.06355699525249725 0.01921737724031126 0.04246748942457864 
-0.008075204296629347 0.005321132531869312 0.04873595733953911 
0.0917904428748158 0.08597107528025844 -0.351628126639108 
-0.002368430748020551 0.09223797867360722 -0.09437449824612758 
-0.03667655872385141 0.08452175871731818 -0.03905412858486945 
-0.04726589882519648 0.05899238500355262 0.03402403752479376 
-0.05570258489350769 0.1017740576875637 -0.00536428408200878 
-0.002778289677887141 0.149855729076485 -0.1753351082181743 
0.007265908611303161 0.1407114951077695 -0.1902786047750389 
0.1029838751596567 0.03135521537946058 -0.2590889283823667 
0.104753422916059 -0.01917843377866118 -0.1895090102343137 
0.05523586314390724 -0.003653695060140146 -0.08685775206795315 
0.01193177700703295 0.04580637711437373 -0.07492050679740217 
-0.02539261411822832 0.0532463105649034 -0.03407533457490344 
-0.04097676069474508 0.0578174671951969 0.008900947325881177 
-0.02071059606024861 0.05582776356654167 0.02014029162892456 
0.008327126969924001 0.06844065650898545 -0.1131063621838663 
0.008471473555820983 0.06266585324561806 -0.1077800154063368 
0.07912505684139227 -0.03854148579494794 -0.08482347872481337 
0.3784576303076199 -0.4719412122478402 -0.0891935895058803 
0.1597244891524026 -0.1817058246457003 -0.08403052124275277 
0.02313023761659198 -0.08543973501713099 0.001977018849424907 
-0.02387916558657933 0.04942041355974087 0.008758963190706516 
-0.03820020847036547 -0.1440223995025189 0.1403975538220578 
-0.01254694736864057 0.01722020555498202 0.01413925102681758 
0.01933056135396922 -0.006175175998596407 -0.0314721368925943 
0.09286388846858362 -0.09006749900279723 -0.03159887586098033 
0.1755938750957045 -0.08338350151703214 -0.1705208780862748 
0.05585832273348788 -0.01660040599880077 -0.1220773141842511 
0.08128475058574416 -0.1147432102436372 -0.0313751776556023 
-0.007955106087608287 -0.09850108520231871 0.05589314906128879 
-0.03166797116481378 0.03476477760877412 0.03858751433614538 
-0.03574845431546853 0.01978029308091891 0.08376946523857706 
-0.02172708609090825 -0.0104604506471518 0.07939930115530686 
-0.008796168669252322 0.006554856597928489 0.03875340949399502 
0.04816558892388904 -0.07569959986650407 0.01177154963967706 
0.06584704358263357 -0.04401019644599539 -0.06887718245425006 
0.06373549972700127 -0.07213100217697194 -0.05984860592141125 
-0.008737438552620385 0.0123233018973318 -0.01172729569799253 
-0.02193616114271133 0.03294776409313333 0.02608404296492268 
-0.03577521901645715 0.02520231925869732 0.04272612749694912 
-0.02695617398271377 0.02900144155558747 0.02859391057463559 
-0.01672733309127518 0.01079900507337396 0.04933949782094584 
-0.02341784218346983 0.04655979509022372 0.043154115072904 
-0.008691872937708818 0.05450674983773914 0.02219301470855698 
0.01876704223099402 -0.05868640457890131 -0.005794007945045664 
-0.007644954825311907 0.01704240948981608 -0.01562041018080631 
-0.003346537359356983 0.0008615046965865902 0.02071399760602647 
-0.01651784696637518 0.02109527754674779 0.02375055009430946 
-0.01888880622080518 0.03178657497386117 0.0276924361678349 
-0.01711228933036765 0.02021129543838018 0.02303678885276099 
-0.01440665180991034 -0.0185855311821485 0.03953499392724803 
0.001678483835487709 -0.04094663031948419 0.02091657317887699 
0.007513165995958868 -0.04385069401724874 0.003242794742288183 
-0.001845418096894297 -0.01357219734210569 0.003901569643335157 
-0.01006907412758008 -0.00746949890171022 0.02585304638048826 
-0.006742546960662344 -0.009580223064905613 0.01452481808095079 
-0.002708051148285853 -0.1639734298893801 0.1286491771560705 
0.001327339100904337 0.01213728772886744 -0.01078631625165741 
