solver_type L2R_L2LOSS_SVC_DUAL
nr_class 3
label 1 0 -1
nr_feature 310
bias 1
w
0.02515168290286791 0.08463236624800008 -0.1300143074437709 
-0.2784474265461082 0.2775594372597847 -0.1265881909080381 
0.0578333754257376 0.07695997880775726 -0.1872289059035187 
-0.08824469697891239 0.1132975361595658 -0.1041038705468555 
0.01101354760758202 0.08946542565074854 -0.1028107054952929 
0.04307169068843907 -0.004879972402217783 -0.07605201454502529 
-0.1727196744290785 0.1242813280184855 0.02137731541984482 
0.1042985127867838 -0.06075372449803283 -0.1070069237243641 
0.007890583445099124 0.01368190302141228 -0.05056296155838005 
0.06285080466639993 -0.02960718875205408 0.009942078827951034 
0.09629036687200061 -0.04321496174555624 -0.01191640718774054 
-0.07852023235197039 0.1585168594949255 -0.1303765051429233 
0.06071395826112457 -0.007283566942001081 -0.05909610065553326 
0.07531192950668568 0.06555410106965213 -0.2031677517578666 
-0.0485906324524128 0.02876664944490527 -0.005024768909296336 
0.08235363076705771 -0.08005310268707894 0.02127205224949367 
0.01447104676742774 0.05611933650800465 -0.07497781321211845 
-0.1120326748033231 0.01784143688282391 0.08479516328105967 
0.001447356445584546 0.0419539319745449 0.01441614207897217 
0.01788486532395381 -0.0004684937535845001 0.0203278803732079 
0.0841268233120973 -0.001757098367086832 -0.08608536692145011 
0.05149984892871302 -0.03982667615157417 -0.03139325478420085 
0.1999913933045135 -0.05627061332736053 -0.1724526628018812 
0.1148118493154017 0.07156449881878361 -0.2060487978362819 
0.008823341932671621 0.0165785565910098 -0.06990208162495726 
-0.2570962091649392 0.05081600432600174 0.1608921830954177 
0.06415289353290818 -0.07976432257769064 0.0658868236859862 
-0.103151259100551 -0.02062385282403881 0.1839940405251105 
-0.05200137113814059 -0.02620094765229295 0.1490250599509518 
0.07850652799623206 0.04362613744008883 -0.2097127070392572 
-0.03008688313454976 -0.02738842199562339 0.0996882100134832 
0.1321527453551413 0.01375907457404449 -0.1507281525292797 
0.03987739883890049 0.02482103634176865 -0.09286118564618104 
0.07768274740373352 -0.01144101569355341 -0.06543515558994224 
0.04384723839159504 -0.07420975235263487 0.0817194521813611 
0.1217289289772877 -0.03153911306476944 -0.1027611932719165 
-0.08022385434233151 0.06401475659357969 0.02856851343217083 
-0.03289507151697085 -0.07241366286833287 0.02312814155599772 
-0.08206720715006857 -0.004588851854181838 -0.003657022974580486 
0.02148303893589691 -0.01535073483700542 0.03267540348424262 
0.1267896671777395 -0.06775214819564235 -0.07827360663904739 
0.06282886699056504 -0.04628417784209452 0.01720948309638345 
0.1640538970924305 -0.1209590018268084 0.02623827772824318 
-0.01790110678498063 -0.08596899029530229 0.1409071822230036 
-0.02198440672501073 0.1162120816093846 -0.04862869196654809 
-0.01542810918166822 0.006810047831666809 -0.01372195524141332 
-0.01104514843385335 -0.09848233239157662 0.1481604157250074 
-0.02320694510984651 -0.07927417560665038 0.1314621838553751 
-0.1046528279665004 0.02758569636912694 0.07630451729824263 
0.1830067886961969 -0.07637346162605173 -0.1480259959386427 
-0.02158654206074624 -0.00726100641402517 0.02734916217983635 
-0.01979744904895359 -0.08130652986502783 0.1141804668301449 
-0.01851855956786832 -0.08382170416032569 0.1155654376990127 
-0.004968307665789176 -0.04339133911039352 0.01714465752281365 
-0.02824748761140336 -0.08210863450489489 0.1070129989602722 
0.03827171366006449 -0.08359514873639919 0.04656804891525593 
0.08364961663991019 -0.1097030687342773 0.06692080545368752 
-0.02145375616755483 0.02661061099685921 -0.04014018282619097 
-0.03372424309174891 -0.03663407073590172 0.04872516809882022 
-0.06334947699989617 -0.04643033367234153 0.1097689488788461 
-0.01497064946954723 -0.01943293294511038 0.04850464632800607 
-0.006149516271910525 -0.01340132830824872 0.008027135088661329 
-0.1408807055106276 0.1481610085378779 -0.05402122468745045 
-0.1361716964002034 0.1564523375824942 -0.07698538489096704 
-0.1006569818395143 0.1466012234999265 -0.1105848971181504 
-0.1097581788870673 0.122811849166818 -0.06126627151097164 
-0.04092591456337426 0.02592025105170757 0.01582676316493675 
-0.03328996664399942 -0.012711457531523 0.02949491984337733 
-0.1966804471158926 0.09908537143250805 0.03995709281378233 
0.03988567582096287 0.01411299567899616 -0.1211496589665436 
-0.06398233435661162 0.06706516990882473 -0.0343069052733677 
-0.02595621811379516 0.05458316094954944 -0.05891982874010325 
-0.03420527460490907 0.08021886401724151 -0.09807682745770524 
-0.03968790626420366 0.1049116907835871 -0.1321642772668541 
-0.03409256257254863 0.1022340978052444 -0.1142708053778853 
-0.02916146083110502 0.08170813186366037 -0.07762719039855694 
0.03978376623012548 0.01400303578955697 -0.03663885689609318 
0.01389372443266149 0.03026843265721947 -0.03593831483831067 
-0.07254057818812636 0.08065087522638655 -0.02955654950267421 
-0.06529725172302826 0.07358681143379878 -0.05188068527342645 
0.005530319954440526 0.01083569103703576 -0.01792222098967691 
-0.01050329667635419 0.06024039405887823 -0.09394032067445023 
-0.01647332442225206 0.07886793859743556 -0.09490066021494237 
-0.04731323626913807 0.09480468869456044 -0.09368078517652154 
-0.04124860381485099 0.0468345769450508 0.0009383414985916406 
0.04608205625191902 -0.01737428753193666 -0.00383067876342028 
-0.03548468514361081 0.01403333515345447 0.0403566805041411 
-0.0274155500266689 0.01260089838074328 0.02066897204764286 
-0.04144502602240832 0.04025138785376398 -0.01328575293054685 
-0.04019135291402639 0.0312804660209698 -0.01533441688386954 
-0.08740101537863811 0.07693052823732149 -0.01786422970590647 
-0.02209094087487019 0.04805922487971669 -0.05674945987754711 
-0.04474164011210369 0.05188302484315576 -0.01968186325545099 
-0.03709116354808664 0.02043556217209725 0.02525387794852811 
-0.03336861342832554 0.01332961035622246 0.05284162930139222 
-0.05817641876146989 0.02738399451678653 0.04301719317029162 
-0.06357060989926443 0.04454609435825001 0.01523120692563402 
-0.01204272946803039 0.02242665103298415 -0.01366333275692601 
0.03903709184851807 0.006504619375469835 -0.02555983619429003 
-0.01097588665751598 0.01076751581590187 -0.005063006554853741 
-0.01520385073183663 0.009823275911778923 -0.008450856239433421 
-0.02733608833928906 0.007150800679752959 0.03535690620907026 
-0.04989921074837645 0.03312039526966942 0.02452619936074832 
-0.02168971504022043 0.03316383343720045 -0.01354019964823585 
-0.01520721216015374 0.02939512622011572 -0.01108806091228607 
0.02312952864252187 0.008299940167898062 -0.01115923950925154 
0.07281774859639953 0.04483787053482548 -0.04820849448063368 
0.0721140883325395 -0.0498882657010076 0.01993544326367921 
0.05977883460082389 -0.05049371556074311 0.02498280704707322 
0.01058750589795863 -0.01106924211339407 0.00610059018609369 
9.990647789794271e-05 -0.002647000777353524 -0.003304189293407501 
-0.04383053893141938 0.02585005907233991 0.02279281785741223 
-0.041172402097409 0.02238811750610332 0.03496291072350247 
0.01615050145080435 0.0002861833081011185 0.00566637813607022 
0.01831647185495716 -0.001263442541180752 0.006859711790486713 
0.01175173078107675 -0.03394878177381734 0.06737912699364662 
0.007176707929121002 -0.02758951492926034 0.04688816881440128 
-0.02747205466028735 0.02513545297899236 -0.002563910190699798 
-0.04539406475455997 0.02887443742107693 0.0197546654697539 
-0.05992874357677933 0.03903320997055131 0.03175907536962549 
-0.02884416082960097 0.01486360438601123 0.03474148262005733 
-0.04143714247379751 0.02611086058497684 0.01743242691812419 
-0.06918837483714338 0.03506462813893096 0.04080526090316668 
-0.07865238315807647 0.05373859707234563 0.02703234992403431 
-0.06998634544561805 0.04823948743429174 0.02158289903709958 
-0.06833426819801069 0.05644467292530676 0.002101632943674661 
-0.04564484733826676 0.0448558324602529 -0.01206969875183219 
-0.05626620517738218 0.04152585146941399 0.0036690947722984 
0.04645142007105139 -0.02608625175131364 0.02545463656884361 
-0.01962590124256957 -0.06803099995963692 0.04789876063731685 
-0.07634369001578797 -0.02420961058627896 0.06849236949131206 
0.02264260297437583 0.01206334229639402 -0.09471733393230888 
-0.02704315951153809 0.02003692462617252 0.008729522339222837 
-0.03304425853190174 0.03165543582004782 -0.004785898855261303 
-0.03741815602203689 0.04445355740555101 -0.03061412800641163 
-0.03282719089689859 0.03058336456172191 -0.01369955148611483 
-0.01307038482722801 0.008669476480498961 -0.008710185723843421 
-0.002057389166378496 -0.01281631031910463 0.008320034321292044 
0.006951203906670345 -0.02822392038418627 0.02976376669664254 
-0.001904617538010043 -0.0128551111191007 0.0272548110865076 
-0.04257006310965345 0.008130173173395965 0.02853150395683005 
-0.02019238057819131 0.01320139340533643 -0.0138298906839177 
-0.03374917446888777 -0.004739806222954565 0.057879873365317 
-0.04669079196514432 0.01732688047005875 0.01931523637623485 
-0.04401382248067522 0.007961739811887903 0.0342784457350534 
-0.01233316889716189 -0.02614215401445317 0.05001809899148101 
-0.01093048869505283 -0.03998508968339239 0.05216754651597771 
0.04442750057571285 -0.07217700840610823 0.02760112507826541 
-0.03009576458428261 -0.02574758090798782 0.07134134445074079 
-0.03716401365530016 -0.01651865047593633 0.0530854036910753 
-0.05114809259231048 0.001124938855214264 0.04396148284224474 
-0.008392113037845431 -0.01910847452711112 0.0371931594507881 
-0.04493416447996124 0.01602794041709694 0.03455734422626878 
-0.0391423050925469 -0.004043323899508338 0.03686956419670522 
-0.08444171399107157 0.005390523865073211 0.08133796377890472 
-0.02638113470174535 -0.1261976948400595 0.2053044496068823 
-0.02318487198923578 -0.02479270161469629 0.0615690807739742 
-0.01122188816953173 -0.008410925189646777 0.04161845032882928 
-0.01895028647388158 0.02041198187906203 -0.01195303803804824 
0.02093770552469395 -0.01469946413810914 -0.003553880033474938 
0.1847845545332074 -0.04409797237657517 -0.1529598064712961 
0.063013301078733 -0.03934403341391964 -0.02104578384817094 
-0.00438934196057858 -0.01218636501623538 0.009321519211837888 
0.01768278564846819 -0.02800906677222312 0.01272437735807246 
-0.009709137545723723 -0.006202165927738653 -0.001905639214060972 
0.04382194621078232 -0.006149480903762334 -0.04216969697818405 
-0.003030057623088473 -0.02482850137261737 0.05762072857060181 
0.01014553182431426 -0.02342253146789678 0.04233944398931605 
0.07016430470440244 0.02666765606355896 -0.01877798239067699 
0.04436438194629046 -0.06578008549689693 0.06926172084119663 
0.09853634153623964 -0.0698213087701488 0.008270901133022372 
0.07726160695644965 -0.0388464781034929 -0.02186464364282452 
0.06233078591247815 -0.02277614006896356 -0.04503930011613923 
-0.002800869518553462 -0.01501850601487042 0.0124917528725057 
-0.02833418814384115 -0.01628912468209667 0.06709778348525471 
0.008979664617010056 -0.0200910644194508 0.03303294457404177 
0.009283790484539645 -0.02070022642793654 0.03224948288544761 
0.03211994264838362 -0.05052053937674782 0.06241072796138945 
0.03814426553765016 -0.04551701065616229 0.0421442074732645 
0.01795289153702976 -0.01863296160354502 0.01747225095439039 
0.008111714890162072 -0.01895542376704971 0.01026067036836314 
-0.04521200854889529 -0.001298658784213895 0.06996569056707458 
-0.01615939962145764 -0.01701935582285173 0.05649153518319618 
-0.09097663714069834 0.03165547336718959 0.0689898260475095 
-0.004108577520453936 -0.01318842901467586 0.03763259574875404 
-0.034414058758038 -0.002804503334323795 0.05024775122372708 
0.0249009340165226 -0.05932385536600777 0.072155217661967 
0.004295282601763612 -0.04288745206166988 0.06778055866335542 
0.007133581241278479 -0.06068110436733194 0.09489488663754334 
-0.009604098450062598 -0.04117215801511871 0.07395947064359255 
-0.007856946321750503 -0.031808195412742 0.03508354876971631 
-0.005694535442282689 -0.1020231086759508 0.09655730524091062 
-0.03071036435908035 -0.01124550968898285 0.02665270032791337 
0.113284445898844 -0.04759019228023691 -0.05785659799719797 
-0.02345887532339412 -0.02308355342430926 0.05398687789932562 
-0.02930912053186427 -0.02036803044557494 0.05586273027604705 
-0.04457487351025961 -0.02010920329086529 0.07586650161842041 
-0.01984981982100592 -0.03316527517262911 0.06495299555980487 
-0.0009173379647296303 -0.04383464135706935 0.05846517551610109 
0.04209864309079316 -0.05859228314660889 0.03046330793129011 
-0.009311596042220286 0.009994701722620123 -0.06707930819957084 
-0.0101201648088837 0.01859860601986151 -0.0540421753187962 
-0.04755291455986589 0.02401561772369368 0.003025972202776905 
-0.01246635811808304 0.001989703758772637 -0.004062146178071512 
0.005917586756968592 -0.02828112890880713 0.02195614199675995 
-0.01080274189000417 -0.01627301230164322 0.02723435252975443 
-0.04805825422369902 -0.02845417633759935 0.08959779440232826 
-0.006166786357644382 -0.05341631914156782 0.05965178899873007 
0.0119237978655502 -0.1141486653279378 0.1044773936547606 
0.1579380764192631 -0.04818531381760797 -0.2151543974203153 
-0.01641211149793398 0.007850251568016128 -0.008022915308197308 
-0.06712382300149487 0.02947827173728209 0.006658889902544212 
0.01536320984673499 -0.009469951596497833 -0.01000708764725971 
0.06762154863751584 -0.02235603015492463 -0.05693218401196625 
0.01520156021693443 -0.008345868252218662 -0.02027651255764721 
0.002978448414365348 -0.02635389017254778 0.02293489765090219 
-0.0199050694621191 -0.02743523041676499 0.05375195830475592 
0.07440804305835803 -0.2646922991081699 0.2616222962895297 
0.04299736138639214 0.02821525505960452 -0.1039277592083276 
-0.002109562323039931 0.02727453883370143 -0.05096842152595813 
-0.01364237047944602 0.01349495989611711 -0.01928971500204467 
0.02853696661689572 0.00323145536521954 -0.04740536830335465 
0.2484311956828673 -0.04471388122289877 -0.2199523368978887 
0.0987162584781892 -0.005856649154605548 -0.1254018771666523 
0.0007590637011920305 -0.008343045066379789 -0.0009927371405967288 
0.03072114857863166 -0.02155763534236145 -0.008097709267143115 
0.06552117559011714 -9.548312284929982e-05 -0.07679177722587975 
0.2099473286177816 0.01085503177070486 -0.2463213298700348 
0.02418490473336742 0.02758885208826426 -0.07456360355648677 
0.03804059208235379 0.004413479246203092 -0.05409766799148017 
0.03944215526812944 0.02724263302225601 0.00865843119219731 
0.08060785758737184 -0.01274638907938139 -0.06574151404881373 
0.0712611720779289 -0.01173013519187104 -0.07297089924328561 
0.01644690764680371 0.01555596856178279 -0.05515775283041605 
0.05386588007618585 0.00976209407958151 -0.0879334778629159 
0.0616328891087151 0.006626037034063002 -0.07960782602368668 
0.03273096483013746 0.01602220805274241 -0.04925976717882265 
0.08294373050801641 0.007718990898747328 -0.09707668907095196 
0.07292213715720217 0.008710716192074808 -0.08655880726241565 
0.05651776966097328 -0.0144039010604014 -0.02764167656834763 
0.05888841893842623 -0.007567870911633206 -0.04435428655674102 
0.05069924949913991 0.007820350068103204 -0.06370909104667936 
0.006590336126253945 0.01854437195137901 -0.02647411720510111 
0.03007018544464293 -0.002010339435311602 -0.0168269698632505 
0.03165733768047311 0.008781652105082235 -0.03226870902717544 
-0.1245456555105389 0.05353598100087466 0.06193421818358497 
0.005909564094869898 0.002259443293532694 0.005870517511162663 
-0.08116019856944919 0.02157875792158422 0.08571073732431303 
0.01957466701983619 -0.09569179174925527 0.1583410495679426 
-0.0198902859589069 -0.06453316365333454 0.1474902805561411 
0.01183967529718754 -0.07303414774867231 0.1352560310203872 
-0.04505583300337047 -0.03433290829340668 0.1282522609080934 
0.01785392859999402 -0.0230136041372743 -0.01627867684528495 
-0.01943542415548721 -0.1252653115971798 0.1333369769489097 
-0.04129666006080342 -0.03728898207569793 0.0717264156678398 
0.08642161202780803 -0.09736170665152032 0.09425939439838836 
-0.04416273792300361 0.003338724603894524 0.06088134709909684 
-0.0514687390581794 -0.003724078553591656 0.09002280199555408 
-0.05175995802392403 0.005816999018222028 0.06224664388857043 
-0.01521819374672425 -0.01188883407049903 0.05259636836522775 
0.01092811801554946 -0.0365274752937382 0.04484533578643687 
0.02246347366343254 -0.06799356485968872 0.08950956578809342 
-0.03812090415777551 0.01335301932234816 -0.01879997339442668 
-0.01053829112807952 0.02678820739325576 -0.05533097953701456 
-0.03363378353250826 0.04297638559983448 -0.03391354909139582 
-0.03883211953268795 0.02430246451701836 0.01714798391609408 
-0.05059409710720841 -0.001480364230429 0.08734400892787712 
-0.03394745131247481 0.009097568004852683 0.03530285198222819 
-0.02104029978250424 -0.005298941719845862 0.03390842147419371 
-0.04275409245349827 -0.04509327043963642 0.1058942375223668 
-0.03033587023129447 -0.1235442979276077 0.1699276198014257 
0.1471357940557012 -0.03071596152331485 -0.2284996625250088 
0.04976086373834548 0.02521584722208942 -0.1022160543781595 
-0.005802194637165569 0.02019436266614689 -0.02047495346974243 
-0.04672331042839067 0.02261475292256607 0.02811924597702626 
-0.04649282422862053 0.01837593828562088 0.0491825816983478 
-0.06419078343988122 0.03866224188066109 0.03239932478847739 
-0.03168818072627803 0.01543049054759311 0.03273592956733856 
-0.03195424019747845 -0.018231197314078 0.08606537453894175 
0.04550912366991903 -0.2744486246489601 0.316215109876518 
0.09111246159133696 0.03215541717622419 -0.1516244543662158 
0.03407637521946267 0.01947933883223042 -0.06405507795349742 
-0.04510046369995236 0.04481942485363113 -0.002881379682132678 
-0.06436806290856692 0.01961048637628719 0.06848916612747991 
-0.01271707888036405 0.0191194004174529 0.01722789185281909 
-0.03155477524250217 0.04077052700511498 -0.009847944023165679 
-0.06800226454773814 0.02875409229704732 0.04386032001877168 
-0.01029193443673182 0.005122038729903051 0.02221508249550861 
0.04186759574317241 -0.01161154143777516 -0.02017537887069512 
0.3067096544200875 0.008274353732895978 -0.361016922719704 
0.07724954824151911 0.026664730651115 -0.1196123121705418 
0.007102571103003542 0.003229932518893437 0.004200659514233217 
0.09058193322533171 0.004499111232339414 -0.02025612843438554 
-0.004018564604695857 -0.002057241246421001 0.02557507173530029 
-0.01905589179990585 0.01042606875593632 0.01678559853367381 
-0.05227104230136823 0.03564078174729925 0.01174437997241605 
0.008850711660331899 0.02507321121048267 -0.03735649664557292 
0.03114387779995887 0.02504055921777032 -0.05749417288417604 
0.08816765070607885 0.0006736848614230541 -0.0933432096029832 
0.1224186543504502 -0.005833581063253152 -0.1056554557237876 
0.1167113386092149 -0.005428646576265537 -0.1002073788796886 
0.01884182185055198 -0.006474831767474399 0.007764641705150091 
0.005738614440062882 0.01301735523939361 -0.00956958629357531 
0.0211422137169855 0.01306802800701526 -0.02442348143548671 
-0.02832810744794446 0.01431174842219629 0.03186134811954299 
0.06283494882434525 -0.00406863620101218 -0.05088075296764356 
0.0325622377289338 0.002869492233454732 -0.01584485708028166 
-0.06676820900393141 0.07350034964318124 -0.04470703436037497 
-0.01733940029268887 0.01702917573520712 0.01482427113492913 
-0.06833793827149456 0.02089208097212016 0.05535520945268593 
-0.01510606405682732 0.01258259450766141 0.01143768951750874 
