solver_type L2R_L2LOSS_SVC_DUAL
nr_class 3
label 1 0 -1
nr_feature 310
bias 1
w
-0.0562949424556555 0.118431613286736 -0.01653923758345905 
-0.03142463043210029 0.07095773827030764 -0.02830446795010805 
-0.01077503159196725 0.01650207135058984 -0.01765316917229465 
-0.04080160509936927 0.07171857185345132 0.00328747205079613 
-0.011313895775204 0.02309614707024974 -0.02523508714472815 
-0.02137740981057592 0.08288752452467144 -0.07860247558442544 
-0.01013234698387289 0.09946617208600451 -0.06976641053760363 
-0.01304748735003042 0.04152135701960041 -0.00859171766335117 
-0.04192396094633524 0.04353692102730274 0.01653618869289456 
-0.01370991177190077 -0.01500298057371926 -0.00885818614287613 
-0.02194728209181033 -0.02599013835447803 0.01690378846574208 
-0.01904721268517779 0.003710539064478205 -0.005912917360442404 
-0.01371499410722186 0.05903393721508432 -0.07279686011976165 
-0.01288953386917503 0.06076460288541023 -0.07452937879441866 
0.02720841196154455 0.03310344638111291 -0.09021282981293274 
-0.01347434473285118 0.07823343472248159 -0.06007078724707364 
-0.01861398135261544 0.09596369215094443 -0.06139350242145478 
-0.06926944407056279 0.03910507441470237 0.02456011096656566 
-0.02159716427004371 -0.02403003718978774 0.03250388222790535 
-0.02399348812509909 -0.02180823429088666 0.01291666787363343 
-0.04069252640525123 -0.03425231520527511 0.0118025555067283 
-0.0132532953143162 0.05897779670710037 -0.0733435243457763 
0.0008801418371811314 0.09418307911387092 -0.09752526303546678 
-0.01112077515403701 0.06242243684357488 -0.007804725115000325 
0.02578420045750404 -0.0177052259708201 0.009765200271481178 
-0.02534925777189373 -0.0002403406771108846 0.06073171197393452 
-0.004288241275752898 0.006736858548728596 0.01665247006524687 
-0.09334616310738399 -0.01177423337013557 0.045378862982682 
-0.08082430564896396 0.05298705241599499 0.02615238609052934 
-0.03637154554281917 -0.02775208713079399 0.01911637319114214 
-0.05351890148058377 -0.01245465006376209 0.03184580876726147 
0.01431460370638788 0.02629659715592294 -0.04022471394019585 
-0.02672705878784208 0.002559254491776609 0.0329891584358083 
0.02581804396137009 -0.114568116976065 0.0526018823834123 
-0.01599066009434443 -0.09644154850025038 0.06919087691831563 
-0.01601436851386052 -0.09532879548532239 0.06943037660401281 
-0.04043558487809751 -0.006513662696788543 0.02868124596904564 
-0.05518129711292485 0.01774785472022503 0.01658448872108641 
0.002916156302358817 0.0005498396879486837 0.006271055707146452 
-0.02616135489400794 -0.04473771088146746 0.02409572578555546 
0.009326602887925636 -0.01363978777300323 0.001965591253464951 
-0.008321965765313463 -0.06004885229414383 0.04338653547688722 
0.01088196803809988 -0.0433270229715951 0.05577031055040083 
-0.05092145119063229 0.0003002263697840132 0.04467756952649772 
-0.05131117875150774 -8.470261331473494e-05 0.04438351492365963 
-0.05180070814287512 0.01075406749675113 0.02348115997482756 
-0.05095696958109587 0.01367829325141397 0.02212149543542144 
-0.02008620662858524 -0.01998852245054821 0.01770555459880607 
-0.01551569550847562 -0.06437158771654064 0.04896259772813966 
0.01803991746876348 0.0006428143175524759 -0.009486864347567505 
0.009210270445515886 -0.07763517640675774 0.07157579387452466 
0.00971498141769906 -0.07812966152029348 0.07074885131389108 
0.01127647743085118 -0.06432566619421974 0.06905761816486224 
-0.006929087827454386 -0.08742410541594116 0.1213744780414161 
-0.02207819836571057 -0.02429700095090944 0.04690685752636416 
-0.01934787108784264 -0.02136336819024786 0.04296664358972768 
-0.002962266124628172 -0.02385554734271766 0.03944178148468957 
0.00979483865270825 -0.06404754244550442 0.06011816747408587 
0.01056092434151206 -0.06333827953376168 0.06794368922386043 
0.007462951551247207 -0.05876180104777068 0.06376917195615422 
0.01250052265013684 -0.06149347827220485 0.06312643765564036 
0.02038608617868888 -0.05056885522116678 0.05001753528949248 
-0.03708010354950986 0.06511416950547125 -0.01761722413459806 
-0.02837665205317413 0.05318578142474312 -0.01192467619069935 
-0.01508149733316693 0.04953136631867525 -0.0208292957217195 
-0.0271603030637698 0.04479877027006463 -0.01246158339284732 
-0.005522010606409756 0.01553056640687133 -0.00909597456294162 
-0.005769116326916054 0.08299196118621381 -0.07403337023553995 
-0.001011393275544413 0.05822217383412852 -0.05598146417636529 
-0.007848158124598801 0.03427335730141263 -0.02784871183021183 
-0.01558974327029013 0.02177769803259784 -0.008670682904036038 
-0.00971214625127473 0.004752196961147079 0.001948962821200767 
-0.009072966761233541 0.003090182508772937 0.00756274618609423 
-0.002239183030190645 0.008372750390291788 -0.008300641408196011 
0.006338016305674831 0.02938040085353969 -0.02214097772305891 
0.004645405906137198 0.03182535913078996 -0.0228541383330451 
0.008598059737204683 0.04358967749950103 -0.06333475074140692 
0.004396560959946477 0.04557694279939118 -0.05147873859073444 
0.000258243523926034 0.0411525437899724 -0.03699934851943221 
-0.009442301205636345 0.03306705199079584 -0.01641493361426868 
0.004759178060949915 0.0117155803616257 -0.002276014794163503 
-0.003177765534810441 0.008076692017035675 0.003868399568513636 
-0.0029211535217608 0.01222917362726532 -0.007473836102061769 
0.005450660963242714 0.03101620111464136 -0.02291320298662271 
0.01399921973443938 0.02257435419275536 -0.01953023912254807 
0.0190487586798155 0.02369882716967984 -0.04025736142063524 
0.01463896543211331 0.02328350752455553 -0.03427871213924039 
0.001022754627221994 0.03267797170707842 -0.02511020963901702 
-0.01102737475392072 0.04192715366366016 -0.01597473325431365 
-0.007462693428428875 0.01281420753697692 0.0162977922291209 
0.007577923113482963 0.007717252257885931 -0.0005725221015564459 
0.01344528912215007 7.456126270290205e-05 0.001202707636148231 
0.01112736237918004 -0.01229577624728484 0.008726663760187192 
0.01712188409785681 -0.01030574166957638 0.000727647876284689 
0.01194331078365437 -0.0008239769527148626 -0.01289465048033424 
0.01412353822404438 0.0003538348811682516 -0.01145612312262122 
0.0002431642677607126 -0.007656922481880638 -0.006088192644383732 
-4.705485112340122e-05 -0.008955794587764711 -0.005975684997520096 
0.01421671663977995 -0.009149503837572853 0.008066544619164503 
0.01850339067898218 -0.001874459923867983 0.00177776659172975 
0.02193075361778325 -0.01620597522054356 0.0009637576027476688 
0.005175251863198509 0.03111072878664737 -0.01087013050496597 
0.02228135587715262 -0.01655996691444014 -0.002956598034982022 
0.01129141223925482 -0.01649307194150294 -0.003424311261022264 
0.01593134815133251 -0.02144818322777111 -0.01006035506916225 
0.01207669348948801 -0.01049116583005226 -0.01113831128463044 
0.01213228428311139 -0.009816885671515374 -0.01163198825298793 
0.01919063722618383 -0.002008777470847358 0.003736396321252078 
0.02028896346475496 -0.001406056605760106 0.0006782773000307523 
0.02426157460257671 -0.00393159628282013 -0.007502930753385623 
0.0251003903440264 0.0006767571172339802 -0.009253465525416523 
0.02277457721676338 -0.009885457829809959 -0.004736333084396772 
0.009577828078134037 -0.01796041772896841 -0.01173400571892865 
0.009314599073493652 -0.01791588680220286 -0.01123645559138371 
0.01149295946378651 -0.01922432042661048 -0.009836975759912983 
0.01331700850453631 -0.01361243912398506 -0.00331344232334469 
0.02584650843313836 -0.01415205699408653 -0.003027076209295117 
0.02688948968178185 -0.01512334299999834 -0.003774682625258308 
0.02996434947569002 -0.01885066790829788 -0.007405532664155311 
0.01132218111025164 -0.01690143984463999 -0.01067345546438127 
0.01072610481808341 -0.01771740076728929 -0.009600106324429709 
0.01157592549155847 -0.01727117653862307 -0.0103378576190655 
0.01332979617456315 -0.01438726848087519 -0.01121908605951465 
0.01649428744145457 -0.01438115822412195 -0.009734167808612845 
-0.0168349019257202 0.002836419446969459 0.01665586501684884 
-0.009503372066440832 -0.00872265607777109 0.02042505772511839 
-0.0004021548693436289 -0.008389650257047295 0.02056813376010339 
-0.009923688951929325 -0.01097201424911339 0.01923036425594059 
-0.004587765142701402 -0.03086691458313468 0.02850997498625877 
-0.002815576426575968 0.002456015162703942 -0.002338941283130628 
0.002888477063314877 -0.02054966406401542 0.005590893505275651 
0.00395997203130805 -0.02191988169088149 0.01199349693806481 
-0.006156221166292693 -0.02395894690596993 0.01773827050866903 
-0.0149266848537475 -0.03195074962882467 0.02557511415012239 
-0.007201307982154879 -0.03831664245211214 0.02766162741783219 
-0.002813128621068791 -0.03329867622498951 0.02376062192771565 
0.004460055282985053 -0.006830238355755631 -0.004571792531152097 
0.004622918271510759 -0.006643298341908783 -0.005620143709485262 
0.006503454133226434 -0.0190782202765009 0.0006120790371485303 
0.01056490152947269 -0.01807021720624936 0.003589854247290788 
0.007832887871578615 -0.01064888230260454 0.001862474284432206 
0.001690175649130298 -0.01443632040256815 0.006849356640042482 
0.0004279484470518259 -0.02072618795726852 0.006448238686995125 
0.001530311197280226 -0.02769664655122821 0.01087857069385534 
0.002530243012445776 -0.03062509379764421 0.01320304464530897 
0.004317636388462996 -0.007884852153738351 -0.004598309850776985 
0.008319247633029105 0.004734101622399282 -0.01965271986147529 
0.03999061661615301 -0.02449373394845655 -0.03136797207463261 
0.008922800598294815 -0.01614462654511389 0.001647027315087437 
0.01256997109876548 -0.008553126096227706 -0.008928333762455467 
-0.005134494505417348 -0.005427105380708865 0.006086586546115411 
-0.00352763965862063 -0.009868973860623617 0.009051793913600715 
-0.0009596088888533521 -0.009467089675980497 0.009748316060823436 
2.468740961874641e-05 -0.02064008002802024 0.01182033488718797 
0.007622195849859275 -0.00577608519660703 -0.001511153607627525 
0.01295178019121731 -0.009233343509324216 -0.01192875570938067 
0.006306732342595022 -0.004317537329535742 -0.005421430813612448 
0.008335815765670952 -0.00546841082401047 -0.001110990068850313 
-0.005196797448108731 -0.006286687198857069 0.006195019438993549 
-0.006994687266468284 -0.004595733679477275 0.008256388740785102 
-0.00568367228622359 -0.01270764621785893 0.01729414680862072 
-0.003889502635954948 -0.005632278805539897 0.01380897973502499 
-0.002422524479280055 -0.01714872421727999 0.01935749315688069 
-0.006744690814278372 0.0118027766779711 0.0009188566731172964 
0.01342451334656842 -0.005598713929561007 -0.002330766887835815 
0.01211927764302523 -0.01299630035284933 0.009250332917096338 
0.0108092233083489 -0.01115503085432711 0.003423995214246365 
0.006205015541134288 -0.001684748017833199 0.005837470110802653 
0.006056456758634704 -0.001783651370786966 0.00599571516974606 
0.0002553963436009616 -0.004834248149606611 0.01133441697194217 
-0.002088673716180861 -0.00839751682946172 0.01434532062332838 
-0.003784093453132218 -0.001485470750548203 0.01463503115225412 
0.003092371910795402 -0.004374481583920484 0.004427472465632042 
0.001184947830127766 0.003170357059030881 0.005505846096486146 
0.008848633370969673 -0.005571188388319098 0.01556573765729649 
0.008698323799222635 -0.004530483550660223 0.01545588183301503 
0.007532044591508994 -0.004738433857357318 0.01773315501756523 
-0.001455170425362374 -0.02084288605588766 0.03589541785269043 
-0.01641476347297465 0.01118791879185498 0.01116911602497067 
-0.01683785851238383 0.01288008369980855 0.009201618552669422 
-0.01067307493694895 0.01300117570008546 0.006643616977011401 
0.009587618732314526 -0.00442179000952105 0.01529150182352434 
0.00700341249678888 -0.00510076675029904 0.01820202541507209 
0.006301751360129374 -0.004252189136606916 0.01839816675450083 
0.003728963952288562 -0.004618128457634813 0.02063487751071784 
0.003822468058628272 -0.001597282258829026 0.01952129303459419 
-0.01485268224493981 0.0265738479895828 0.00358345981344562 
0.004656271958140353 0.0002628453835952181 0.001900175670166642 
-0.00503422201663314 0.0005182335578931691 0.004787861836190203 
0.004215833551833065 -0.007023219993014609 0.007232423835630923 
0.006281087682290163 -0.0204859816658611 0.007893629679704441 
0.03403651837860955 -0.08380376536851876 0.01047160895953107 
0.02877718395669657 -0.07470677473790599 0.01989105582759891 
0.01952403081035394 -0.04656209879908422 0.01626843292726205 
0.01050481297611204 -0.03089057038574306 0.01721951310441672 
0.002560984768794533 -0.02029517656785688 0.01993027149289988 
0.003069331831463248 -0.0168952530642688 0.01754056969929874 
0.005675537559480011 -0.01718810151959393 0.007603448725485042 
0.006654549350918765 0.0005317494270973442 -0.0149010669097752 
0.005651251775519377 0.001561668699174595 -0.01557610964762882 
0.06666177725308259 -0.08902128170465473 0.01294750350775286 
0.06798671500263094 -0.08792946928044711 0.001897220648236182 
0.0414918860174033 -0.05332821022209471 0.006184115495243113 
0.0121147512961648 -0.03657341660540562 0.02018477945896863 
-0.006809454229722793 -0.007736497409629633 0.02275273066754605 
-0.007977428165703182 -0.002952452226204735 0.02178952315181038 
0.006095055259538715 -0.00771759881371941 0.002250466205342846 
0.005962135133937529 0.0005784438415299047 -0.01537520031214041 
0.03452855747448006 -0.004577308264520821 -0.04664465091193076 
0.2268397094031841 -0.03189294419653437 -0.2073687035800412 
0.04852846870573634 -0.04174756097149635 -0.02155193603485845 
0.04338729829458444 -0.0251303513561705 -0.01250086569385812 
0.0177266514716193 -0.03599002103847015 0.01706594911479943 
-0.02067042905055954 -0.007819545418892343 0.0280765728407115 
-0.004463508602799703 -0.001849231384828679 0.01464715277558854 
0.006278304107088965 -0.008509764223149089 0.004028467230590762 
0.01250157061672219 -0.01124444038590279 -0.002416694617910182 
0.06291680859852877 -0.03517613884470765 -0.03839363352254204 
-0.04649768544373816 0.01464646533280398 0.05471668933515333 
0.03105430569423691 -0.01892748987633087 -0.01521785520661183 
0.01118227158360713 -0.01888903356262373 0.007128503832917954 
0.009042696800463232 -0.01682691599090899 0.009359565979057984 
-0.01157578017100419 0.007885390639947795 0.01907990011940205 
-0.007010329017395106 0.01129007964156572 0.01345812636071354 
0.001508490367320858 -0.005751102695896302 0.007213634727679581 
0.003984099075229236 0.004148723791387938 -0.01039163314836684 
0.01935474883804124 -0.01361000828104693 -0.002627470791876562 
0.03540420341110111 -0.04128331085704638 -0.0008529288588552145 
0.02214616795996508 -0.01386420910467303 -0.01019118378062117 
0.002498435232282708 0.007818983952562978 -0.001277574705879907 
0.001562323113121579 0.00759885822114026 0.0001053690122247154 
-0.008029622002207812 0.0144878695938724 0.01205301436387609 
-0.004079357818728087 0.01145496498029529 0.01116879289015178 
-0.004056233755596063 0.00571416071274069 0.006465909208972276 
0.002040888245634918 0.0132218959514749 -0.01422318801773524 
0.01159625459541321 0.0123917203376458 -0.02090549378281593 
0.02584402141696572 -0.008716466063164946 -0.008527058429058139 
0.025608232115759 -0.009656175102815761 -0.008372541752628748 
0.02664505992957995 -0.008105544050614351 -0.007603537256911591 
0.008658900804859879 -0.008150632257656113 0.008001873364550246 
-0.0005165749431519983 0.05200500453367242 -0.04635258500758323 
-0.0007066207373314502 0.05133976267476306 -0.04699208565545793 
0.0004332921024833329 0.05609603041921035 -0.0483784012131122 
0.03270906803575836 -0.01389816809217262 -0.008232213887027764 
0.02681506262603022 -0.008477365981371443 -0.007875803406764846 
0.02836482985194883 -0.009535266718880523 -0.007284781216578142 
0.02882105468453459 -0.005423306307099533 -0.009605694573433221 
0.03103435910434917 -0.006545984615802193 -0.01256092396931657 
-0.07513433804724265 0.102499458398106 0.01629306415756553 
-0.03288034198538491 0.05938364974867424 -0.009823137808077989 
-0.04059861080340053 0.04378463728000419 0.004730646794275325 
-0.03096710663436839 0.04317161838246451 0.003986658805763041 
-0.02750765497389094 0.0234886883088646 0.004700134202859612 
0.01955822696607208 -0.07570733688612946 -0.002214680623074904 
0.01926996501892686 -0.04783730079741291 0.009620976351922996 
0.01493740636105069 -0.04788159413310534 0.01842994947888281 
-0.005263531354538496 -0.01457822045003326 0.01275771580761696 
-0.02457615268696616 0.009698646065255691 0.01630381249578617 
-0.02951872634042009 0.02416894727487333 0.01165496162715068 
-0.02934237504907427 0.03108922108537795 -0.00253452270986297 
-0.01082132486034435 0.05404820250692566 -0.05612821640708802 
-0.009801423976064498 0.05468649909922331 -0.05558329662320373 
0.08933334483581744 -0.05381645196526234 -0.009854494787514829 
0.08042962473517495 -0.04977034656324829 -0.007037032743194489 
0.04290142621488768 -0.002942869222679315 -0.01388378219879197 
0.009803167427814842 -0.03456690281701221 0.01904712083842688 
-0.02755833769248903 0.01360349859984188 0.01951232140176352 
-0.03003435100488948 0.02099293728653789 0.01604101051684442 
-0.02555889221246649 0.03423553901983582 -0.009846870914867609 
-0.01043575735763244 0.05563996062008858 -0.05647372638405742 
0.05799512297477578 0.02389352491365765 -0.1031766601655519 
0.2852008786805248 0.03445472022574732 -0.2917213469422737 
0.08339564643758478 -0.03504385439697053 -0.05380641404631277 
0.04532785454909093 0.02768796439290647 -0.03086413339895045 
0.007626629762567141 -0.01106996454807366 0.01653514124439058 
-0.03046676140150695 0.01324635990334344 0.02662867954790403 
-0.02868054133873427 0.02178329646770188 0.01864913200654002 
-0.02212599172269083 0.005345116487329073 0.006276128900103508 
-0.007953484389205063 -0.0185565083165876 0.009843201810853682 
0.1183487790145329 -0.170867650218947 0.02558128523251282 
-0.09854638027012777 0.07007657497691654 0.07237451032654676 
0.01084543416668213 -0.01713085557173336 0.002399543973878826 
-0.01079611267044008 -0.01131349761682217 0.02695858702284072 
-0.01033637376688446 -0.01348448755281071 0.02524091810974785 
-0.02294842447417656 0.01553784678022948 0.01569109237293899 
-0.02653311274482976 0.01702739316764524 0.01560288427686938 
-0.02657108887659408 -0.002873113462859814 0.01792707417789639 
-0.01945698931350856 -0.01172464802552356 0.02240200273819589 
0.005864033569473429 -0.09895951206447827 0.08440507332161858 
0.009772044761560749 -0.04447386235469745 0.007765314982700624 
-0.0103929292308227 -0.01042684446460372 0.02040619839499002 
-0.03616469768305429 0.01522676284028684 0.02549524393780076 
-0.03600058563023339 0.01844629452057532 0.02293982360161617 
-0.02643065681155091 0.01456817811425198 0.01841529966389547 
-0.02485379150378249 0.01854220300988794 0.01294476975443074 
-0.03059863219703521 0.02268169034495767 0.0008449130966196104 
-0.03372100427742951 0.03507261968611452 -0.01538803053822924 
-0.02474451379055254 0.01516680132181829 -0.01169739452066101 
-0.0218372045765837 0.01764230721844015 0.01503891610374382 
-0.02141761214126336 0.0185956749313857 0.01408379174116526 
-0.02087980764832034 0.01727417526200597 0.01393468485463197 
-0.05109473410933931 0.01555809461184134 0.04834278689704544 
-0.07408563815688066 0.1889154093842667 -0.1357833725448865 
-0.0744529548027557 0.1901580895716978 -0.1369688950945714 
-0.06768475067242781 0.1918313992535443 -0.1301420842165965 
-0.008613800701407768 0.002440558675551067 0.006684396355009411 
-0.02053210625570549 0.01780134950619357 0.01184139297210613 
-0.01677564121929679 0.01493113300617079 0.007632335997354208 
-0.02100503638033891 0.02766593399949107 -0.005731744062581636 
-0.008060978514502338 0.01886485403356794 -0.01237476193799469 
0.00100405366461791 0.005877565204384078 -0.01038399100162682 
