solver_type L2R_L2LOSS_SVC_DUAL
nr_class 3
label 1 0 -1
nr_feature 310
bias 1
w
9.450181723264453e-05 0.05832139497029819 -0.05321025097072814 
0.01186529604128425 0.0931150199701876 -0.1170860469230989 
-0.01221095505730009 0.09111169727356803 -0.1330095189537567 
-0.01139704948669135 0.04056879522940302 -0.002333778673497125 
0.003366106958434002 0.04634254628427679 -0.07099925730314152 
-0.02702923482026381 -0.01800362431315059 -0.01684529883528972 
0.006871882434472776 0.1677654277094553 -0.1583995161202808 
-0.02741120141925919 -0.02532051212695619 0.0956700808546692 
-0.002750267521990131 0.1336395207087745 -0.1236157628029386 
-0.03576780547355111 0.08499713670048059 -0.05258448107426088 
-0.006372215647014345 0.03739146769310911 -0.01674341157813294 
-0.03488435563841095 0.01224557464446443 -0.01575783289085561 
-0.01993121521033933 0.02984298262834501 -0.06011394044649971 
-0.01758041205969194 0.05492239188575058 -0.05722614798370374 
-0.006983675948271502 0.03027763705131152 -0.03107111789192052 
-0.02104743882963484 -0.0004323472694588608 0.04027751138179205 
0.01051226832913632 0.04489816936471896 -0.03299815386432071 
0.009723635369695732 0.1415094908785235 -0.08148638733605951 
-0.001305645175246747 -0.006755339577502304 0.0634924728780481 
-0.02307432687918283 0.07483882840606843 -0.06258933130411803 
-0.02370445271039395 -0.05522348140213184 0.07960974365493155 
-0.01297006363978959 -0.02075830689034235 0.029185303619321 
-0.02095014432832992 0.0128282823211691 -0.004614829202381781 
0.05812628640281835 0.01795541719281994 -0.04817795734435767 
-0.008492693971409749 -0.07557285774682726 0.08293667708244369 
0.05796155031181062 0.1898794614367851 -0.3229204589330359 
0.007563710821561338 0.005155762853856493 -0.01515159870604102 
-0.03533329830676634 0.001249807509097508 0.02670622594209236 
-0.02746094754618822 -0.009090158626967158 0.04130005778940678 
-0.01903378283675774 -0.009172215891977019 0.04305741350267587 
0.001073769936844483 0.07152619908184231 -0.08760040712335829 
0.07472434497581237 -0.02010052661009947 0.04370574651684347 
0.06341786212990114 -0.007464351542185724 -0.03363981423699504 
-0.0105252357506976 -0.01701306699311777 -0.00145597832175675 
0.01840771990508831 0.110066967565136 -0.1501420039297419 
-0.04762662619327542 0.01701310307362554 0.06360004471528853 
-0.0127154252911346 -0.07202443265147204 0.1335492548158932 
-0.03873216178252848 0.09256554437833915 -0.03173063693616086 
-0.006241660956633504 0.06521591795314934 -0.02803176363889795 
0.01813113790950876 -0.01888840134888773 0.04994810316618409 
0.008075407642333412 -0.02912561387353329 0.05423880718410471 
-0.004169407338696565 -0.08426863321086683 0.07870005441311147 
-0.008912340943277756 -0.09286636361285361 0.08827960764356425 
-0.01778258726610406 -0.0221264210169779 0.008906559197018328 
-0.002739034308018081 -0.04108756006631158 0.02208408993907255 
0.002006091492585431 -0.02589542415073048 0.03054059827430069 
-0.008833187888008848 -0.1333589425784941 0.1551972613680723 
0.02366545629159056 0.0543689681091891 -0.0956117153946746 
0.01875937141643945 -0.01480091444937942 0.01316509272762941 
0.001972158672127239 -0.00535129044470304 -0.03101258227284063 
0.005796369137909766 -0.08474016698969711 0.07364089653939958 
-0.001005835440020597 -0.08061329344496818 0.07566904430060988 
-0.007333144572618368 -0.0327185686147017 0.04067559134442499 
-0.003996100586829871 0.07695956433251917 -0.06816883719658728 
-0.00557624367413584 0.08354179890357381 -0.1009691807743158 
0.01646935712855908 0.06223239166196244 -0.052909094111591 
0.008170596706780678 -0.0578787993629669 0.04286318121486229 
-0.004063462612593324 -0.1104046730636455 0.1205449135918761 
-0.003643032514919851 -0.1089423742477452 0.115983112174174 
0.01666678164256232 -0.007055606388761442 -0.03419395098405463 
0.01145694677388378 0.006783967332606427 0.00390555311342014 
0.006503544200438248 -0.001753695239206184 -0.01888372578136094 
0.01044104856224766 0.03716194507947607 -0.03141333305801506 
0.01126055041050448 0.02043236286417514 -0.01837527717799624 
0.0151868785152071 0.03390540779515835 -0.03158097219574633 
-0.001093046293140696 -0.004738059606508502 0.01185719231152529 
0.006251848379673981 0.002373667065707768 -0.006233455954623822 
-0.02516530148194195 -0.0888610369056521 0.0597809046211432 
0.01933007227773665 0.1362636081013435 -0.1037193199539419 
-0.006361036294443062 -0.04043351795018552 0.0459470049762274 
-0.008849798535694616 -0.04862397113448217 0.06262734481641294 
-0.007858732455899159 -0.06059025799994518 0.0782949798432471 
-0.00451299433225166 -0.04819452196200298 0.06908764582325413 
-0.005300834232709393 -0.02333305549672617 0.03867943701004569 
-0.0068654518071656 -0.003473559471348149 0.01249387535120186 
-0.003069034809475418 0.01136403996191488 -0.02094784786868426 
0.003255426129561937 -0.007244261165938831 0.004695023250949555 
-0.0020262427905911 -0.009466270038006423 0.01030173423625629 
-0.009221596366095618 -0.04293005391801052 0.06505183013157437 
-0.008634855577089024 -0.06099041687586588 0.07729141755922138 
-0.01077614296535327 -0.07612452160211798 0.1008265758002867 
-0.006460342194229623 -0.06779500556244333 0.1052149331850312 
-0.006661376220301407 -0.02111295965718362 0.0395747303186262 
-0.01088105029238612 0.007472296124249067 0.003078154726943742 
-0.01011155503142516 -0.006817622672376919 0.008012185697338428 
-0.005023125297970045 -0.05012270118653444 0.04915186560828066 
-0.005207351356753768 -0.03686966266186434 0.03926562978485133 
-0.01134370355587705 -0.04086797338837311 0.05709413009657417 
-0.006547905303160185 -0.06529001882417919 0.08551825205126894 
-0.005441670505570762 -0.06799226075713218 0.1083641638445928 
-0.00874084213405695 -0.06133884302748418 0.08873233023168023 
-0.01478639963146284 -0.033910849993299 0.04587498626539249 
-0.01170956303993405 -0.003678470276713248 0.005635096046807854 
-0.004286907426016513 0.006782387382457666 -0.01365120175831005 
-0.009607118468910608 -0.07247730219583162 0.0645940939173419 
-0.007636021165088715 -0.06463980065067886 0.05526622074198691 
-0.006019522862317444 -0.04832893116811163 0.05741922121635153 
0.001563212191132483 -0.04272429871991452 0.05212999698830316 
0.004840766765390801 -0.1083707797383457 0.1402762858308512 
-0.008569305948917675 -0.1088295308891465 0.1309642678131018 
-0.008911268339592245 -0.09275608791929486 0.1106811584589129 
-0.00372311557505294 -0.06154438265561478 0.06979209989610378 
-0.003441433676908958 -0.04417295725796263 0.03175854331990674 
-0.002387720697456782 -0.06299829315614079 0.04865656183784071 
-0.0006145770788837889 -0.05564202569380569 0.03881628723115341 
0.006739759116197316 -0.03327985295702669 0.0295570044548632 
0.01354235617864591 -0.06261459411395091 0.07669531650091051 
0.01237730371747231 -0.09486157375015018 0.1168380578675894 
0.007140178424709376 -0.1300517996787695 0.1511404374186139 
0.007276506046824086 -0.1346309156643204 0.1518222117585266 
0.004981651661455688 -0.07815680692331088 0.08236503780845797 
0.002062622859031425 -0.06188420746032112 0.05105241431841782 
0.005893868932477843 -0.04996111454474344 0.03999773250364461 
0.00489256117736837 -0.05333801022921742 0.04396185411352317 
0.01066234242151023 -0.03971224348947941 0.02663796593397614 
0.01333925195205442 -0.07122093014072144 0.07479815528700609 
0.008133114997728806 -0.08917365515178197 0.09209234933624465 
0.007800777840825333 -0.08810072604287589 0.08029822790975727 
0.003869802736186334 -0.08128151036279027 0.0693997494941157 
0.003799419437580939 -0.0578303316784513 0.04819871396048113 
0.003849986354642871 -0.05819531975483707 0.04878788981880293 
0.007803975298395543 -0.06327951786558887 0.05375603944849915 
0.005743483050524733 -0.07107973646542855 0.06327591773810817 
-0.0003812293645824469 -0.06309534607623833 0.05429026260889924 
-0.004572189901623374 0.0005451483100825011 0.005981928158599979 
-0.002984378657899007 0.005375966512432958 -0.003502338136309199 
-0.00467708105074994 -0.01268121540960718 0.03048728048183812 
-0.009578617767516446 0.0587767032338079 -0.05906428373680644 
-0.002860750850133883 0.03208307645348769 -0.07171455363690102 
-0.03099581219271446 -0.02952443048399537 0.04140234597793214 
0.007560871440208985 0.1674786951410065 -0.1173429644070777 
-0.0111803373348831 0.05320278375353939 -0.05345591556496299 
-0.01275367712662241 0.05243856265671758 -0.04859599815285213 
-0.01155686345141666 0.05886762352627239 -0.05718074853551309 
-0.01144542722456804 0.04785456052684855 -0.04353883869755102 
-0.01032349286258124 0.02353718953304016 -0.01190348774730295 
-0.01280465270647564 -0.04728096262895287 0.07419951230598315 
-0.01339260591191774 -0.06044618755181231 0.07826686779204761 
-0.003490904921374866 0.02268582476518117 -0.001483754950665655 
-0.006644758397053876 0.02298627489335171 -0.01649666983014831 
-0.01145242360073126 0.04480776847425232 -0.04477996491252445 
-0.01373446581010596 0.05444196140346927 -0.046899226553494 
-0.0135765893978149 0.05158989545519382 -0.04694657798491477 
-0.00556138867328812 0.05151897914916602 -0.06731782472707229 
0.001127950510607446 0.1333331257930806 -0.1477965585175279 
-0.005853675488182081 0.05192433112409743 -0.04639374339944698 
-0.008502444612873984 -0.0403781288701502 0.038978881760617 
-0.00248981074013415 -0.003246931647085163 0.01124309900370035 
-0.01211049550066874 0.01837224920417508 0.001884144833038694 
-0.01256488022800388 0.06047482330737371 -0.06240027529200997 
-0.01003721651985956 0.05578340944639679 -0.0511603258173809 
-0.005862838539180368 0.04735502041703391 -0.04436756034588016 
0.002898620415404665 0.1682060141910548 -0.1940840010844858 
0.003897952471183444 0.190602606025073 -0.2032878792581654 
-0.004215173695601112 0.08465905034662875 -0.09078277166581201 
0.00910302082669197 -0.008557515840190637 -0.01689289405396995 
-0.003174359343123961 -0.001630088682863427 0.008140145173653336 
-0.01326633675359588 0.00714623754665039 0.001269206036834788 
-0.0122959673528395 0.02845297987200429 -0.02622257367142287 
-0.001787641619058518 0.03174006386859613 -0.0485114185460999 
-0.001424587868963483 0.03845524972083653 -0.04683679127132078 
0.003877819913589649 0.1017536340364427 -0.1123280754567906 
0.005171567448671317 0.0973120797859849 -0.1151742318721168 
0.003733943282420038 0.0560342950595689 -0.07580909559733508 
0.00157210852305016 0.02823803334284476 -0.05124801801715737 
0.003757492750573048 0.009845700973591758 -0.03698860375526692 
-0.005683119831365069 0.020057485234296 -0.02826807677980033 
0.002232436834856326 0.03792417695678706 -0.05846917192524578 
0.008734956287941062 0.04294642530091549 -0.06715217825388244 
0.005286995458452222 0.0365084640109883 -0.05986101831154492 
0.004003140507658341 0.04738513135382554 -0.07393869824388172 
0.00909592417094842 0.02491491563450909 -0.05250042330850103 
0.01106595307593127 0.01404590458254334 -0.03871958630315917 
0.008894536132750042 0.01933505520679136 -0.04742391263110676 
0.009500080980131614 0.04619555461882278 -0.07251771440643884 
0.009846734918565355 0.0463962906029541 -0.07280997012586865 
0.01053202021646204 0.04780709320438756 -0.08034456059380812 
0.007415019653050059 0.0546630709694764 -0.08772281029890049 
0.006930768436246735 0.03059667989279063 -0.05971098246503343 
0.01353699724530556 0.01774958514457863 -0.0487416291227462 
0.01264287430302686 0.02298512399567155 -0.05205016715347959 
0.001184722836675736 0.009589616548261006 -0.01558758476038507 
0.001217716700217392 0.01011482553807352 -0.01702403721453027 
0.003133301185628005 0.02147478188632317 -0.04290950155430613 
0.002230658842607792 0.02094529488003186 -0.04033562945511979 
-0.003236989045933031 0.006289957819672749 -0.01320491070625772 
-0.04509770361713378 -0.03733471093949478 0.09452682891949653 
-0.03326685799315787 -0.01489026386886091 0.06589284708282413 
-0.03435633437370319 -0.05553510526708218 0.1291045336308158 
-0.02907733684048559 0.01359930701835217 0.01717876637335037 
-0.01239571851641717 0.05418927820202825 -0.08829234360473712 
-0.03648615926370415 -0.06992462224399129 0.09119646829283888 
-0.02590365056014309 0.1867560018950915 -0.1191944700500557 
-0.02192136151494264 0.03082589769056866 -0.01219405282799654 
-0.0214889810521185 0.04543507052812183 -0.02937342250896174 
-0.01887922803469638 0.06718863612467466 -0.05765316552518532 
-0.01719560659653104 0.06554398083350314 -0.05267022077215377 
-0.01910883411367091 0.04243772209033232 -0.01820914854640688 
-0.0215899992825609 0.03550237638310327 -0.01720812260151685 
-0.02066282601942725 0.02087535124255365 0.01291991173839393 
-0.001734035057292394 -0.05869779293795705 0.04068367824999328 
0.0130145821795353 -0.02910172149457955 -0.02270019843873481 
-0.009662639455553037 -0.01249523045473864 0.01832967741929434 
-0.01891497027981575 0.04512946440769637 -0.02988180069909674 
-0.01878128687584286 0.06855375781389128 -0.05903786103641973 
-0.01173307408446798 0.06281534614664139 -0.05932015735384643 
-0.004753282341190477 0.05902980820357109 -0.0569265256153041 
0.01107728034442878 -0.01834480097925863 0.01325701293431033 
0.001471846368475316 -0.03092710967510583 0.04123515204242906 
0.03148240857474033 -0.02461898243732573 -0.04192305066362455 
0.01359711594635797 -0.05583879854654648 0.003974410411532617 
-0.004416119847256122 -0.0241966738248683 0.02298858119680114 
-0.01116407587648588 0.01295076008320066 0.00969648430797081 
-0.01594545716004635 0.05115012592557841 -0.03137603738893296 
-0.007075493049622099 0.04550255737921046 -0.03565176611650901 
-0.005612266971370573 0.04318196096380369 -0.02528706831149929 
0.00939900838253978 -0.01007939232703708 0.006424323656437742 
0.05643426174629895 -0.08417470013629037 -0.03606277576070687 
0.02149402438527858 -0.04123912194089967 -0.0192972755698705 
0.009275229211120147 0.009876900266767864 -0.03133562250584452 
-0.006167291609938047 0.008362192972347646 0.002982058558477572 
-0.01073205587408984 -0.001991281381553262 0.0186465384236566 
-0.01253923938433824 0.01521439789886787 0.0008655116654935654 
-0.007927542571904271 0.03395891280404826 -0.005094803216684312 
-0.008213944010172367 0.04273784929563691 -0.0197170982384944 
-0.005740077489236961 0.02705669651649844 -0.007027031659410838 
-0.004072039785713275 -0.07568612437202211 0.07155517327261443 
0.03914335446365748 -0.01469798826466177 -0.0633421441867926 
0.005789311582435114 -0.009661754470405869 -0.002997112354993877 
-0.002877800661905736 0.0197954994067917 -0.01997129987315871 
-0.005381787636566157 0.04071540184903454 -0.04274032549614106 
-0.006214452919104895 0.03670553897783089 -0.03690164710718612 
-0.005408695615190094 0.03346432245646413 -0.03107881808584883 
0.0004407113992552535 0.04389793083901688 -0.04934369106260748 
0.009365346989931482 0.05482190773099844 -0.06672714986323547 
0.02199350552565621 0.04489105999097064 -0.08131789343439635 
0.02926644143598069 0.009879550566072964 -0.0491797445415833 
0.02854696488043413 0.01064780173344182 -0.04897276451391941 
0.0034068913904415 0.02888024009022178 -0.03782432570872384 
-8.49386091754241e-05 0.03287274401027731 -0.04308883502395466 
0.009061986144896514 0.02887147595681998 -0.04565851280321475 
0.03487904163762392 0.0480314935194669 -0.09729414288901531 
0.03715605742823186 0.0728500411977212 -0.1213246832652185 
-0.000935216415557404 -0.0003175336020420266 0.00569832898002215 
-0.000902658834601114 -0.002337559405725105 0.008352895317810801 
0.002459311633547488 0.008276297589455127 -0.01492226188485593 
-8.457699449871347e-05 0.01983231901811819 -0.02021882961786507 
-0.010345334527152 0.01103002110577387 -0.0007885449983553878 
-0.0695176092846094 -0.1235181654949689 0.2090204401260072 
-0.04639070529347854 -0.09984220178302329 0.1819662195778388 
-0.05716052486505342 -0.1948006527450595 0.3251841867079502 
-0.03792917743685577 -0.0511561485765725 0.1193680155383643 
-0.02293439147776995 -0.01926253451834765 0.0002652312502750989 
-0.03115054672515211 -0.02030691344181641 0.03016353425554462 
-0.03414648559662388 0.1435105951947148 -0.05690434075359537 
-0.01742429278189854 -0.03182020903679374 0.07380247527389569 
-0.01930679458874883 0.00131716159986074 0.03598175854470792 
-0.02102031199342048 0.01368887016909531 0.01588288179849725 
-0.02604513538483769 0.01122820958416462 0.0289933691388702 
-0.02489086697907732 0.01495302254357788 0.01489320050093317 
-0.02576259826290384 0.04616607718234519 -0.05386975624643969 
-0.02277083465928189 -0.003459297375699306 0.02017665093242506 
0.01625525882203816 -0.1353633492672802 0.1168430690643664 
0.03741855518487448 0.002364766376962031 -0.0669172899331678 
0.005323471941985157 -0.04157898843909227 0.03274141495043364 
-0.01365849276283531 -0.02028854122609632 0.04668281623284659 
-0.0247662164466297 0.00232618793089999 0.02139738430507897 
-0.01445545478252445 0.0293469207796465 -0.005840386854633393 
-0.00250774231592347 0.03210399199873535 -0.03618792571078892 
0.01698770875053769 -0.01113981937828044 -0.009680170220359883 
0.01211324435164063 -0.05965308661863906 0.06348742102601224 
0.06689233101098982 -0.04202911999473734 -0.02795644047600634 
0.04335718445333643 -0.1136621907000745 0.05365735174541736 
0.01980441558847857 -0.003450582487572003 -0.03378822458510198 
-0.004444748645845441 -0.02490696696858217 0.04093077076769149 
-0.02263142796348582 0.02352384592428126 0.00414864271606917 
-0.007040335323707382 0.01546935022359652 0.005108203792434772 
0.005608234967566602 0.003897697931748514 0.00446775215487224 
0.03555491790400832 -0.02053042170940982 -0.02279364563463709 
0.07597834031104574 -0.2310631140619467 0.1020323607220614 
0.06045587284046643 -0.102554495220511 0.02090561638077085 
0.0425336354717219 -0.001383965401963872 -0.05479253189190768 
0.01242919130149212 0.09140287274832434 -0.1078642136768565 
-0.008675037789278323 0.005518827772178655 0.01885355250258553 
-0.017261779717696 -0.03128632426064399 0.05837832911431053 
-0.0139346017140801 -0.01480663962595575 0.05901370405507831 
-0.001907136847913816 -0.02119528766731294 0.05517664202722307 
0.01789242621976108 -0.04661334372592368 0.05386063741973528 
0.007463448692550933 -0.2582871663911842 0.2553003022051272 
0.08494385490670939 -0.08416643591949761 -0.04774128958936674 
0.03794457797549509 -0.08357876877734095 0.03836532066746631 
0.01197065753465612 -0.01122047565011037 0.006844284980855213 
-0.008632705869911165 -0.0294849615965554 0.05176328105936011 
-0.01304876870616031 -0.02503278335347769 0.0476406555968691 
-0.01184461565391181 -0.01235239602306189 0.04133446415006682 
-0.00129437086932975 -0.006590202087031549 0.02571125144601834 
0.03547155958789879 -0.004876578782113135 -0.02831385222834843 
0.0558733026346101 -0.004380946046667026 -0.05520462719595516 
0.0655825327720997 -0.07241937790085588 0.00490803162252704 
0.06454878706118679 -0.0642216933286988 -0.001851321093697387 
0.01787736264177281 -0.01018736859346428 0.007729154341344417 
0.001174799273035033 0.01213191452319323 0.002373396563696472 
0.02608200358161319 0.05637680304185132 -0.05948587028485582 
0.07273641037748999 0.09382106093190649 -0.1606920511529799 
0.07364585055279552 0.1530233901051638 -0.2005452830929272 
0.01888450961169397 0.004679424596546702 0.01143166246910246 
0.01909825613262811 0.003313658038856213 0.01267702692885336 
0.01446961064993752 0.03156745052495463 -0.02174221942505271 
0.01075204002050049 0.09640809741990507 -0.06371665152972192 
0.001825320139063124 0.08997816556049301 -0.04000801280085238 
-0.000963144852879471 0.001656771471920063 -0.007777710127292657 
