solver_type L2R_L2LOSS_SVC_DUAL
nr_class 3
label 1 0 -1
nr_feature 310
bias 1
w
-0.05447617349253695 0.006810893889863476 0.001063437173818068 
-0.05389755522421354 0.00661230480872789 -6.980900502875613e-05 
-0.05538065065300759 0.01618118019041365 0.09317292999543172 
0.01026756712139738 0.01605041463828247 -0.04470611322634517 
-0.05628906195428914 0.06454008744925782 -0.004755184857737578 
-0.09942366168287957 0.04189581456250174 -0.1618770811963268 
-0.03727181865285054 0.05462274054766415 -0.06669672104634805 
0.02447987265203552 -0.05735828779242196 0.06449426705192897 
-0.006920046250400444 0.03463342752690854 -0.04516254719795396 
0.1274156353202207 -0.1241473773013146 0.0560099129417242 
0.04163746522054272 -0.00537105798208224 -0.05395863296056223 
0.02692128195833695 -0.01972138736789849 -0.04342507922206707 
-0.050334406978024 0.06101417543635763 0.0366646869224896 
-0.0004796162103673743 0.01741277608830392 -0.02081326711410001 
-0.09252309714769187 0.05035336741189847 -0.04094724035386486 
0.08777762032761716 -0.06037328044908412 -0.04697898932196098 
-0.02337225960068149 -0.03985101360756512 0.018822072046259 
-0.0283653389666094 -0.0135543764460106 0.02173493455517897 
0.1470353269071966 -0.1545415659389127 0.02599315530608412 
-0.07789631113049068 0.04059697783239293 0.001751827098496943 
0.06509879696261983 -0.01942782755836656 -0.09340693889160234 
0.05832278076308849 -0.01758062893344151 -0.0237149812844626 
0.06420496171188711 -0.04671760244106716 -0.05457824866202802 
-0.02299595331848395 0.02584969826615532 -0.06181385276112527 
-0.0629746081313677 0.01499414019503059 -0.03045528960240332 
0.06259865287104975 -0.06167640855010619 -0.0338012261663517 
0.007305530836731967 -0.01906779250514848 0.06851167541031662 
0.03563696041153974 0.04654926881598145 -0.04601894508694666 
-0.02867804837034694 0.02409790840230368 -0.08790098316489894 
0.05016550609155221 -0.003980579183765939 -0.09532595777680089 
-0.005799457031701787 -0.09609202717944679 0.1815804357227943 
0.07712245960730151 -0.04528350786942028 -0.07366106580855518 
-0.03666326713309862 -0.03856533303158575 -0.02606652768673505 
0.004301075202689505 -0.02605550164130776 -0.02276701871639722 
0.02777250672196699 -0.04968217657602537 0.01118691143400753 
0.05621413344608168 -0.04906412189066395 -0.004902266720597655 
0.05010713141736832 -0.02268868483428391 -0.08133720553913799 
0.03785995857104476 -0.0410092580773598 -0.02106988855358304 
0.1703255907240165 -0.111801857640793 -0.1223937778413495 
0.04204949199063329 -0.0253030430905959 -0.0357540403272293 
0.1489335589321663 -0.1280270173398835 -0.03222739417312837 
0.06581524779298803 -0.03110578528191971 -0.0504843457918118 
-0.1234240632829318 -0.005717143984709037 0.1091753591549889 
0.07214700562049335 -0.05773493241130812 -0.02877965221634016 
0.006782243353102548 -0.009068501419051019 0.04184385213720276 
-0.1036805685249651 -0.004976085475362112 0.1158705131504064 
0.009585423690206214 -0.04994736907132472 0.0473831459263215 
0.002937930417319966 -0.002766443725088213 0.04118986058723943 
-0.09002697516480981 -0.00799924550110305 0.09700202379138452 
0.05979434199767985 -0.05222619100371546 -0.005316831576156601 
-0.09170668397631655 0.01129128289819067 0.1150375515339854 
-0.09918233521324543 -0.009319313364753844 0.09120350289799239 
0.004329659359672474 -0.03072291036910352 -0.05708010531539927 
0.03549215250000069 -0.007859159015196118 0.003342098518096874 
0.005375526249646333 -0.01153862932361586 0.007610131572877901 
0.02817426417623221 -0.009392815973753263 0.0080265074631721 
0.03043725806278188 -0.007953612360152629 -0.003122842380297155 
0.008921862063096348 -0.01259205832072104 0.005338652419422638 
0.01305425255425506 -0.03174454798311547 0.02231330507902953 
-0.03181119898968958 -0.007333559826795063 0.07764894284244456 
-0.005268065582825481 0.02864458604686201 0.002711678762046967 
0.1038977235197262 -0.05003217849481387 -0.03565189839444795 
-0.04903739574349921 0.1066934685186423 -0.06405935405233981 
-0.05061069761784737 0.1070789795279813 -0.06416391248277889 
-0.02493902802980117 0.100044536759803 -0.06447114155168965 
-0.03406316305606798 0.1062955419994969 -0.0702947706392294 
-0.03224945026708097 0.1127777511462766 -0.07481867765486544 
-0.1346089437677938 0.1055116963372924 -0.05965032012794111 
-0.05506381448789653 0.07935940974420425 -0.04840885554846352 
-0.03659156342371733 0.08276085222741042 -0.05366446711802574 
-0.0416503403359268 0.09996214689723984 -0.06065993483310375 
-0.03116958679514372 0.1080012694513838 -0.06114627980776793 
-0.01739206802658467 0.1031134492468953 -0.08731519221631129 
-0.01424512603839029 0.0772109122885782 -0.0437608764827417 
-0.05481456093085468 0.07775854345974798 -0.02441679288139314 
-0.03673755239354722 0.05597373758743839 -0.0149537155442589 
-0.02404850575480221 0.03706284294566067 -0.04020054588703427 
-0.01931416058496117 0.04590725028767211 -0.03559526118095006 
-0.01839393825984915 0.0480153389158711 -0.036137245597163 
-0.00651935296753145 0.06031528360771778 -0.04802620722120283 
-0.02431883683463856 0.09113226253106936 -0.06265672990193213 
0.03168680152233706 0.04940183446347486 -0.08259772402768188 
0.005320298073373891 0.04511028808330702 -0.04105837289670174 
-0.02342015295763296 0.02754087684236555 -0.006280183735516786 
-0.01471799969215721 0.008524976807615763 0.004989373680214531 
-0.01445948107484763 0.01811054741664163 -0.03485620341380676 
-0.01937506856736914 0.01512687205489479 -0.01082711909071381 
0.009806486263038141 0.007271622585725502 -0.03792204984399199 
0.009318221465717846 0.0335475013843218 -0.03008931107261814 
-0.07219367782099953 0.09420576306235091 -0.008953664773820228 
0.008844608782525772 0.03431330187251023 -0.06647978759389139 
0.001265417872763465 -0.006721650066853418 0.0007643846255029529 
-0.003722209079390935 -0.007133051297992598 0.02574807551853953 
-0.009015783071704765 0.005096806702117014 0.01232628668847942 
-0.009701306277826092 0.01354067377456877 -0.007469883459029983 
-0.007264008152622602 0.01340070145718917 -0.007632736311753842 
0.01138747058946904 -0.002231895417427619 -0.002683630005114454 
0.006415109720957055 0.02682747146315092 -0.01779521056631007 
-0.01140514771699742 0.06519298463201133 -0.02912378622306289 
0.002502014710473999 0.02978112492011366 -0.02116378235257466 
0.004093442160869275 0.02147190991198748 -0.02444068649234219 
0.01555841300428396 0.009978541950563316 -0.01637903245783745 
0.001941829159426051 0.01058824564423908 0.007851481548868285 
-0.01543344247909511 0.01765522424304091 0.001951976956336951 
0.000460886175694837 0.01428965550642512 -0.01305735966217045 
0.001726336492659654 0.005140835917768352 0.00976788571017987 
0.002333779330339572 0.01490036078210833 0.003630725873054253 
0.01185492441704656 0.01828591334948492 -0.01243708822925618 
0.01924843590100021 0.009892533814640284 0.0007980505791098479 
0.03613290177020952 0.002114077867531277 -0.02756353897821283 
0.03825940166673329 -0.001607785051074127 -0.02417664597984404 
0.004629927408464665 0.006597556315590532 0.004299588686727147 
-0.01876759948185253 0.00675705710620542 0.026408549929889 
-0.01103488830049561 0.00457699327445067 0.01190380677063334 
-0.001130861842707699 -0.002253744176021898 0.01134320887015036 
0.01654225231872132 -0.005524745548619265 0.009323483894150102 
0.03791014248286418 -0.01678713706430283 -0.002558625599802976 
0.0202570675699317 -0.009214357426562351 0.004516029753806232 
0.01660558970581685 -0.006692961326037324 0.004523705646847779 
-0.01416686378879405 0.00853800119467335 0.002525443109893987 
-0.007271400317229943 -0.00555048082371746 0.02613560804142211 
-0.003188113427733551 0.000427513528692854 0.006827048337065144 
0.01795022323461856 -0.01402861271285229 0.007530577353459481 
0.00633102378465946 -0.006822680494286919 0.001434270906579657 
0.01041078914968001 0.02957921975782423 -0.03490074511724546 
0.009729168633147735 0.03050963931025861 -0.03576087590306527 
0.01846080152036668 0.03542566839166393 -0.02767316578979562 
-0.002669107528122965 0.04847614776916522 -0.0300249243005892 
0.01081923262826597 0.0189410943742049 -0.001698093571548013 
-0.1222879910869521 0.1026809960701403 -0.03290758011988151 
-0.03068174687424224 0.01761685589846502 0.01953733030277621 
0.0005911949601353537 0.01579102266234264 0.009020958755455688 
-0.008592568393401648 0.04243606594832747 -0.005128200725045638 
-0.0005802545912729979 0.03856294842932192 -0.005313334557710258 
0.01085990595548171 0.0205086868491755 -0.004106419513511541 
0.01065991102648125 0.009194231272981515 0.008696869890815967 
0.01391192563688317 -0.0042559683524769 0.0121001189895729 
0.0398102776643687 -0.02390759320559233 0.01503408011030042 
-0.02474476051004271 -0.0223622559062713 0.05481177392893235 
0.009633100133820127 -0.02835639262517471 0.01065081674847522 
0.02729015743541477 -0.01436082006173989 0.00353413085638282 
0.04632697693847214 -0.003557829586808874 -0.00411938814257589 
0.04154551223104166 0.01572376620779225 -0.02038584161849164 
0.0892297734685172 -0.02905730666601822 -0.02908310080599707 
0.05088330216248673 -0.02444998877985497 -0.00578457933391249 
0.03286394091172444 -0.01122207466887591 -0.01225330876492834 
0.003599762191090673 -0.002573659113146319 0.01011539273853138 
-0.003032120051890283 -0.03853415727781394 0.03692332079664922 
-0.003136489251444598 -0.03216104681353957 0.03180695026775907 
0.02541198357769686 -0.01381737745538356 -0.04984882619779348 
0.05440379565373196 0.008195403992290439 -0.05732871363070649 
-0.03323548258168397 0.08926165600278745 -0.04824815341023835 
0.07165944413823588 -0.01095125517374133 -0.04982291376268533 
0.05548275560159592 -0.01349084491905753 -0.02149643860529872 
0.03418061448948501 -0.0155562888495808 -0.00529971829035642 
0.01381277857277033 -0.001822615809611088 -0.01132245269874948 
0.002098107360414532 -0.03195334123034994 0.06160735561916165 
0.001435396850272187 -0.01849116357877022 0.04197097732657003 
0.01390870073731484 -0.006362839307600412 -0.01393053830297532 
0.02159095348049251 0.0245672578834537 -0.04523636648376184 
0.03380770429987602 0.01716118116456646 -0.01989022411958569 
0.03475708141481754 0.005369229472936631 -0.0118725081591282 
0.02707869826182243 -0.002286963552204441 -0.0118707684717765 
0.03110332276458606 -0.006708397868182892 -0.004056288137894291 
0.02895632199798692 -0.01353229090711544 0.005361000480631735 
0.007289975305729218 -0.02633331392277515 0.05220473874656293 
0.0005182408409188431 -0.01044704557237353 0.03807087508468908 
0.01474532267733207 -0.001339294383320042 0.003704938584087713 
0.02108695666025935 0.01564803822621088 -0.01937867552167492 
0.0358699928023264 0.002898319561438683 -0.005036262945173183 
0.0511068585509515 -0.01119901172554828 -0.005459984969647839 
0.05574694550204071 -0.02336661637793544 -0.0111586282133999 
0.04529942474298575 -0.0196546695783771 0.002076742443074915 
0.03905509999795655 -0.02721100971260379 0.02082477760350898 
0.02073905667871652 -0.03311936245069034 0.05093174971793096 
0.02394639406556184 -0.03156559525981956 0.04317851963547559 
0.03320776437253152 -0.02484149224620509 0.02060635787675781 
0.04625984423457478 -0.01595603367773902 0.0005462861030403262 
0.05280087384610242 -0.02990299624930472 0.0166832350737733 
0.05013476973620814 -0.04017084053183554 0.02948998012607862 
0.04674464120846167 -0.03845602246894558 0.03058960418824269 
0.04873683819668758 -0.05562728574179372 0.05101423565971016 
0.03752667498808505 -0.040873375432368 0.04062518260225729 
0.03900530784315526 -0.02560994417421495 0.01972195499944636 
0.05633136512534247 -0.03881082608391893 0.02676042055174774 
0.04207819630955423 -0.04468836264070443 0.03831581932550086 
-0.1505073599916412 -0.004591102450696879 0.2167859448447844 
-0.1499782689770951 -0.004439345181809214 0.2159330572943814 
-0.1599567491874584 0.09174498244501786 0.1103322328588496 
0.0240485289517811 -0.02909568828744129 0.003142741272475343 
-0.046674040620859 0.1017963026122449 -0.01846869680329492 
-0.08571668758545287 0.1062356568782981 -0.03331373386758336 
-0.007973095668986638 -0.05040358677950178 0.04860904150979769 
-0.02714508780973895 -0.01632277246012441 0.01878582769104137 
-0.04616271099178414 -0.008167904690819437 0.05681262036126911 
-0.04851715424879037 0.01405065096681589 0.05423389771118713 
-0.02820601363495831 0.02109804579840043 0.0277188272042932 
-0.02245726345800866 0.04406811201378279 5.203468867643387e-05 
0.04512327934787344 0.002379586900869802 -0.03301097473147685 
0.05119378512723281 -0.03639092197773352 -0.02634791815133298 
0.03391227721785049 -0.05516697320154323 0.04775762685223676 
0.03018849482426155 -0.06959636643604161 0.03937728223275819 
0.02024749291842286 -0.07478556866321731 0.07095803668034957 
0.004779675586069762 -0.03797067038974545 0.0240713317521405 
-0.01212684908616508 0.01324196545182519 0.002426498179490158 
0.02618139479410478 -0.002815127885295202 -0.0314071780353592 
0.006676965618730598 0.002504518100702914 -0.02548891105613713 
0.06367928981934513 -0.007255288553170966 -0.047271702007218 
-0.006588538484114101 0.003078693760905141 0.004510996067193515 
0.1475283953597188 -0.07106390184660774 -0.1187022998808694 
-0.01157056893382312 0.03147991065376522 -0.07788368430032389 
0.003136016191774893 0.01993742455660077 -0.1003799370971817 
-0.0146406253630916 0.01350183860415008 -0.07056174651251464 
-0.006312504958431262 0.0810436980984713 -0.06453696726936363 
-0.001120026335881825 0.01206068515484456 -0.039748515555594 
-0.03712026955659472 0.02628113317713551 -0.0467594100674547 
-0.006067953428356433 -0.01378591318713964 -0.009963397831340233 
0.07048703340895299 -0.01636565795722321 -0.09303072969907925 
-0.002209739042119106 -0.04170918339395876 0.0328323139618291 
-0.05085757651449017 0.008569533238426187 0.02414375157984446 
-0.0940823285607524 0.03244216162456163 -0.04171729591335163 
-0.07824610338102359 0.05986648846295428 -0.06776643431302871 
-0.01593823009020968 0.04027149825248118 -0.01510194309633059 
-0.02354787019868 0.01854529055535528 -0.005985741068132423 
-0.02575804104901338 0.007280893472121657 -0.001897787945024942 
-0.004126634936161903 -0.01712608506234421 0.005149207570099616 
-0.000771714099425142 -0.01823787393573615 0.01276831462031312 
-0.03266942437687694 0.009237888913851121 0.0206380962442201 
-0.06647840392550347 0.03056267790124544 0.0258379713130763 
-0.07621215879205322 0.03250898437244865 0.004643049834214126 
-0.04930409790616935 0.04013564579145421 -0.009367641106940468 
-0.02570889193831079 0.03045851361023921 0.01312596538352179 
-0.01474077214555532 0.02253089578760982 0.007002110222760848 
-0.02963494329337775 0.01556914381527231 0.01290225079080744 
-0.00827934540783457 -0.00389324679923233 0.003202088461759356 
-0.004963133335129917 -0.0008584314038615075 -0.001189456307300719 
-0.06984835003862618 0.0300335949009933 0.05095182755365612 
-0.03849679882166469 0.02049357241758103 0.02742660889281413 
-0.02585268461115758 0.0203265909437654 0.02387805738005256 
-0.01404304019683343 0.01533034359038015 0.02628490265862783 
-0.008793214917012963 0.01063255843074032 0.02082192530927261 
-0.01374231087553325 0.008111028302503478 0.01986181277473263 
-0.01582443291130283 0.01028719867545859 0.01794349151431161 
-0.04148746869923697 -0.005646123212033853 0.07153448528644836 
-0.008277630859080608 0.0007092769117897434 0.03330420240351738 
-0.0007565226903766334 -0.0001070412593317019 0.03138027102850587 
-0.006534756186279578 -0.00143721502265559 0.03269362109297224 
-0.006516481976474645 -0.0137607105961709 0.04321301256359053 
-0.2120053299355201 -0.000534992238189769 0.2660675356938072 
-0.2116130104795501 -0.0003974117059519352 0.2657420208112669 
-0.2110908324932583 0.11968259950562 0.1128775921451895 
0.03009633546247255 -0.06660792920672215 0.01724744139913193 
-0.06958026857925854 0.1282659823861096 -0.03635258755268743 
-0.09294977603486318 0.09997249367196628 -0.0458668421730748 
-0.06169968699813446 -0.06093168890335496 0.1257625927040069 
-0.02070165348180179 -0.04885001756563959 0.03516672565869146 
-0.07498704276532521 -0.01805143870578426 0.07281006935931368 
-0.0890710763306883 0.02722696275130893 0.05027568813999089 
-0.07025586182551483 0.05397921407106879 -0.007949107141642842 
-0.01309948650808872 0.0612273040114078 -0.04546573173448234 
0.1217909778098895 -0.02868465959433341 -0.1139677065194638 
0.08931086565940784 -0.07507759873503379 -0.05077068589203949 
0.04317616983584189 -0.06693997598965443 0.07971873960734308 
-0.009386168383609752 -0.08620140516192043 0.1368069852858563 
0.01092590207306002 -0.1096604709706466 0.1588102735611039 
0.004739996782637731 -0.07219424557130177 0.07859837618120791 
-0.0211172093900229 0.01872932749897413 -0.004097325678394216 
0.02880979125725158 -0.004026805598934245 -0.04174072321136769 
-0.01401490557108001 0.005045426624721874 -0.01208515399046938 
0.0749597708942919 0.01462974976007281 -0.07344563283741243 
-0.0125664067204634 0.00473134706002466 0.004844594836339109 
0.2188304371418516 -0.1075736900588303 -0.1476399042331584 
0.03569140904470357 -0.01470898705122756 -0.03924712911602186 
0.01202105898740144 0.0041703031000371 -0.0384409273990491 
0.03034846029810075 -0.03023575418542684 -0.01997748248183808 
-0.009878925574216046 0.08482362704368375 -0.07439702949079634 
0.02027573563459692 0.001159308960424484 -0.04559693327259139 
-0.0852210988877333 0.06000527291324185 -0.0369077024250571 
-0.02937425715290175 -0.003499704650452482 -0.01299010934959388 
0.08725647163821047 -0.009180528198329563 -0.1133968207293892 
0.08990134524540279 -0.1309386668494795 0.04197809271417482 
0.06222209718904492 -0.101131897264514 0.06514390183895585 
0.03896850980873896 -0.1023729506607091 0.05023795919905293 
0.01235676500601024 -0.01114590634294931 -0.04027020368354317 
-0.002406198819302547 0.01938065222467929 -0.0257259436471901 
0.001597214719371377 -0.002443143726139549 -0.01237480184802912 
0.0148910100602779 -0.02927977192677723 0.008947787573647611 
0.0612722912624115 -0.07106204929994067 -0.00697067429900853 
0.07947773859996331 -0.08709706702385626 0.002288488716794181 
-0.008246760233603767 -0.02773642079876285 0.01667851305383112 
0.01195012905549109 -0.06464641446791052 0.0786692149094488 
0.03515401312576304 -0.107785613480978 0.08368449908231854 
0.009147185451091867 -0.0296144427761977 0.01986388369850029 
0.009341159130783741 0.004548804717950948 -0.01313298573117704 
0.01470415056852376 -0.01004332390645328 -0.009455494360143648 
0.02235088765499536 -0.03016463542657811 0.001958134020903759 
0.07155862643938868 -0.08321268878811718 0.002046652453329461 
0.06769468083920141 -0.09056450762038576 0.02078989479899871 
-0.1597339838502761 0.059372413830029 0.07584087509390469 
-0.04372638104825632 0.005266170310670891 0.02495125687388245 
0.007672392142854789 -0.0188772177903037 0.01518845467894704 
0.01317318212575856 -0.0002594762080333981 -0.01414903820810339 
0.008067728737377934 -0.01276050864617887 -0.005593417308970412 
0.02450616459271068 -0.03955947130894036 0.0105439040264348 
0.0214704069149171 -0.03594885735738683 0.01293631823191546 
-0.1298256386895517 0.03133107774911732 0.06155262273111441 
0.03010801236721453 -0.02713821622638641 -0.01267433518328657 
0.002413205515899879 -0.008364197012094364 -0.001538283487329072 
0.002718561266920751 -0.01650914364490711 0.02168113393688534 
0.003575494998656044 -0.03234307624037276 0.03893150145384389 
-0.004414482469265988 -0.007820143707115885 0.007450598559152255 
