solver_type L2R_L2LOSS_SVC_DUAL
nr_class 3
label 1 0 -1
nr_feature 310
bias 1
w
-0.04497804673435561 -0.09061303955038635 0.07935512328943894 
-0.05130940974620112 -0.04025399685838563 0.1498670387107465 
-0.0589878215725424 -0.07906193047521139 0.1013782807819505 
-0.04261823769785426 -0.06366925091136737 0.01390062251485433 
-0.07472345109806947 0.02364400586809835 0.06057757259002528 
0.04760224755480275 -0.07394347926734106 -0.04047468135561722 
0.06435167443435282 -0.02356062638406036 -0.08358749703883044 
-0.03765567741761663 -0.06710583791331895 0.07000911654531339 
0.1721266008115535 -0.2230817499740224 0.00156232884849182 
-0.004283479867862853 -0.01064612558000064 -0.08058790498851795 
0.02656493723565995 0.1945270284237696 -0.3309449924887715 
-0.03345707964063682 0.1801587025940136 -0.1823178272473446 
-0.0262003409325544 -0.06339433687665701 0.1279614929095364 
0.03184565615860787 0.08202060049538729 -0.1423143721219884 
0.007953428049471835 -0.0630275262450697 0.003503780706576028 
0.08557868196749316 -0.1541972539252908 0.1149749382641877 
-0.06695554397226708 -0.04642274017150689 0.05005803914079351 
0.02157431311188706 0.1380611747415468 -0.3217346476518709 
-0.1666094538666677 -0.06669928377753721 0.1973484947652819 
-0.01747872312099975 0.009780318656564195 0.03343912593995405 
-0.06885136174823138 0.04611450965273348 0.05332296535088973 
0.01135588479939921 0.1707757627340653 -0.279993790613096 
-0.03099847757711369 0.0358270925350383 -0.003896218923564361 
-0.07304662599159356 -0.09690870244263153 0.2244403840508067 
-0.02632287782153809 -0.1496530282487596 0.2693038390546458 
-0.0822367216935582 -0.02441499998098268 0.1007273307359359 
0.06212723048986999 0.2769685845156195 -0.3754008472616596 
0.1533385015366966 -0.4331879428268279 0.2219122558378777 
0.05419137347757492 0.01821030129058044 0.02636678078876365 
-0.01392505485032857 0.01841315845563761 0.008777907191722202 
0.008454586328016284 0.04907912244281593 -0.02831940056436809 
-0.0510243413151779 0.002040473912075173 0.04707405826696367 
0.02666172432865115 -0.08127631918991603 0.07097247455219859 
-0.08007429520196639 0.04845200879306336 0.0600739454505956 
-0.03988921992480344 -0.1698189588162508 0.2595057952416899 
0.05777692996636074 0.04404320253028071 -0.1026647027740961 
-0.07754597355109769 -0.02064479009289077 0.05566429713485656 
-0.1235893767860753 0.1044781318113776 -0.06010225814482822 
-0.06831057207008555 0.04182241650775829 -0.02676345302223965 
-0.1598335315525163 -0.09281603496332558 0.2166518995995764 
-0.03074934245671974 0.05624843133148764 -0.02645068519475383 
-0.1077165909380196 0.03792698054260207 0.1132723351335497 
0.07436164758583977 -0.00767768672869923 -0.06367998846765016 
0.04123234822968108 -0.008975721091883273 -0.05952407744070169 
0.1371693001377927 -0.003487073735170423 -0.07452505975627467 
-0.01133979234886421 -0.01184022701891986 0.02284158866926152 
-0.0749035368744725 -0.003025897021195675 -0.003858726124513864 
-0.126335892100004 0.09780184638874098 0.060911790525792 
-0.0941122872191794 0.1121773751836313 0.01843965986002817 
-0.07036560565888153 0.06995537375890327 0.02725628660917415 
-0.08782696414355123 0.04245411135838338 -0.01228558442417978 
-0.08820299348044953 0.04244705631219367 -0.01221037393091398 
-0.08698240686636975 0.04188573858863728 -0.01214018709366564 
-0.006331669241876396 -0.07924750287332702 0.02345681296363058 
-0.0244808031760746 0.01612994673063665 -0.002046544236627597 
-0.02392856814499821 0.01510477951058072 -0.0006166082562249615 
0.06246579072606859 -0.1153630981842363 0.05595577298647439 
-0.07091609190178969 0.007208725305139215 0.06444868313002154 
-0.0698038414194555 0.007609506403523566 0.06216153156883925 
-0.04491577390806226 0.03931600065399818 0.03989722950581087 
-0.02601209857539245 0.0214484745126818 -0.007435209505786722 
-0.0830306792743503 -0.0447061425157835 0.1323671589498094 
0.06198114254586064 -0.003986087262465377 -0.03353084095788549 
0.04693436438750238 0.01433797161032761 -0.04206065614322977 
0.03385536973304025 0.04196712811887121 -0.06093605584122953 
0.02243342483616913 0.01593234641563622 -0.006799468843667834 
0.003256617226685437 0.03437105530449325 -0.02261038625687308 
0.04671361550991971 -0.01739781962822487 0.009631732820112792 
0.03539507806024515 -0.007646701490813378 0.01971887812652902 
0.03296040034377168 0.009996958760339856 -0.0165230131901369 
0.01276588507736713 0.03444370810661209 -0.02658560213293292 
0.00145674604077833 0.03219850155697164 -0.02228068794025791 
0.008555532949240051 0.04007665422269307 -0.04414562047381131 
-0.01487852817965093 0.02083861578689224 0.0008130526394978099 
-0.008455019665240988 -0.01479102093644018 0.03416394501263542 
0.04678431451018147 -0.01350392853141311 -0.02882809946462461 
0.03648631161681466 -0.06333100474341165 0.04963572610400994 
0.05335376085415149 -0.004219818492287311 -0.03973598416394451 
0.02233852292948242 0.04845430639418118 -0.05844110937507224 
0.002012479658348596 0.04003432988648753 -0.0294648718005943 
0.01048346386949179 0.06653610363762788 -0.09546046642490186 
-0.01258486277701632 0.06739281579904279 -0.06608076022246327 
-0.0304394234985045 0.01388141398546393 0.01529448841872688 
-0.01570571242053957 -0.04098050495855866 0.06788057431847647 
0.02875447237403241 -0.03111642699604763 -0.009393852445137657 
0.03578144150420434 -0.08172308193618644 0.0529960113247503 
0.03357555405573357 0.002585432727250226 -0.04568302249528353 
0.04020384036737908 -0.00870775797668155 0.02010271379044722 
0.01110408180783637 0.03438987189617042 -0.03920877350140468 
-0.02006915270257575 0.007115045549708192 0.02299347118908984 
-0.01893806480843369 0.1159544088920332 -0.09507192820715288 
-0.02898179520933397 -0.006619771178956855 0.03676633261661648 
-0.01481685088644058 -0.01459689306394122 0.02700909833898805 
0.0286707573937506 -0.08177922595722088 0.04532493794126468 
0.04519283632247448 -0.1336795746022004 0.1099810825554885 
0.0407614738193796 -0.08769026112373285 0.05644219381496247 
-0.02723298812165753 0.02031649349239872 0.01961547547942629 
-0.00556942261323727 0.0141647858701412 -0.004842992940178605 
-0.02120906949442039 0.0005018838543272096 -0.0166896482867622 
-0.01331844224904001 0.09012873963013078 -0.04489893540972881 
0.01341256590203938 0.02871884485821379 -0.03914642773552544 
0.01743979018479617 -0.07460760263745495 0.06460403468331713 
0.02826547759508638 -0.08360755718190828 0.05678974618078267 
0.0643543958984233 -0.06466387597356066 0.002306009762154676 
0.02613315948390349 -0.03399305842729163 0.03109810239684693 
0.03207981076371569 -0.003430360767224291 0.009814668721133197 
0.00105980947195549 0.07020730511895654 -0.05018740082063205 
0.01746123931113537 0.009363267482595019 0.002771432964423195 
0.03593331260026741 0.06720478888583184 -0.09128094105010029 
0.03208220082878651 -0.01944155884336559 0.02531638288800801 
0.0382042198528837 -0.05006455215087074 0.02723205621090786 
0.04447946177139333 -0.06147626305004318 0.01492521196323832 
0.07666479700507622 -0.03436104049435728 -0.02956532015143249 
0.07711209054896684 -0.03405107557282155 -0.03104364386539979 
0.07701601078522972 -0.03386886235230055 -0.03106065403711908 
0.01694639914819383 0.008760482493023183 -0.004339852694169734 
0.08342185018288341 -0.0858559634736052 0.02770266881585256 
0.08342649648453215 -0.08654155601025938 0.0274394747670943 
0.09529957225001752 -0.1055354066380274 0.03019004797583354 
0.06894002076383277 -0.07709207803741042 0.02910898705890689 
0.06816412481993551 -0.07561435184680126 0.02745710909311713 
0.06890801718999991 -0.07302178214684478 0.04028234343277718 
0.08280567931921907 -0.08936074851203063 0.03355332929687974 
0.06397928601899802 -0.07255906096750733 0.01939515940412282 
0.04556190231766979 -0.06455341802745802 0.02267304897092461 
0.0313757542367718 -0.0805825951256349 0.05727760496447437 
0.04444450590156522 -0.04450724927287993 0.003495699827343938 
0.05315948427031453 -0.04907334785845518 -0.006737454123535784 
0.0313863326963514 0.0001696245296067881 -0.04246093097096002 
-0.03279669764338249 0.01260954271684283 0.01810263687876937 
-0.03085849706084162 -0.04408859977133375 0.08353447574575056 
0.0006113060541473034 -0.02717606788137863 0.007345047603207418 
0.02100757304228288 -0.02612331863571293 -0.006163199260428932 
0.009568925154188139 0.00730468944455261 -0.02592077987774155 
0.01571653070546668 0.0451273753521958 -0.08254651051472295 
0.008105019701048301 0.04165828504289104 -0.06579386589486831 
0.01488680283130097 0.007053907775445295 -0.02274638882678506 
0.03513422524931083 -0.03284851622269143 0.02272676193069533 
-0.005057996726308103 -0.03832170937871249 0.03911573602347371 
-0.0232595991798766 -0.00707571944163796 0.01555445159684835 
-0.0287656135454184 0.01013014520734192 -0.004635017717071949 
-0.02878727885782108 -0.002691588455092534 0.01226682095818885 
-0.02352698101072496 -0.001154562186535448 0.03298206466266874 
-0.03654518178223751 0.04628863939852647 -0.01708960050380951 
-0.03246634874010753 0.05306964045396729 -0.04516766147015605 
-0.03282368182080506 -0.0054465824402056 0.06385475747652339 
-0.009388664802109368 -0.00301098014116505 0.02384771399705041 
-0.01599158202971383 0.01137486188095809 -0.007270630697993208 
-0.01712006987765484 0.03796026528471129 -0.04038980966520662 
-0.01887479079493303 0.05400914815084461 -0.02044063148257457 
-0.02082011216378316 0.06117371703476411 -0.06211944301996864 
-0.04412043440062009 -0.009462423839430658 0.07038973347301979 
-0.03738952052224997 0.04562103754424504 -0.01704804360367687 
-0.02944079226936411 0.1186835845135763 -0.1102561426903101 
-0.03338365599637283 0.1221228027102717 -0.1006705271999546 
0.02124709262093713 -0.03361831547335257 0.01872061417568113 
-0.002662648145049755 0.03266577350911832 -0.02855411195924203 
-0.01237670723600124 0.03548480277790469 -0.0198571722855561 
-0.02722116758466164 0.1036883125543277 -0.08368341998686182 
-0.02663645879882694 0.08767529013147637 -0.04615315502412901 
-0.0317525143261346 -0.05277021962027888 0.04478293215624748 
-0.0007324192158958847 0.0947329045001738 -0.07525016435872715 
-0.02317237994896526 0.1464307790066919 -0.1186749482054598 
-0.0008389656750757326 0.099275526066158 -0.113311116604044 
0.01114135090641654 0.02992264871165231 -0.05543678662087544 
0.04128878205044089 0.05772650872881176 -0.1031441652359572 
0.01692733069989099 0.04998292628631934 -0.08044631664605655 
-0.02610610749595215 0.07941667289698792 -0.063994242139595 
-0.02026899084956042 0.08252935945576534 -0.08086660664032981 
0.02972237310969971 0.0400941204870021 -0.05971300728778181 
0.01352476597803747 0.09421006260297531 -0.1356886560599354 
0.02703615744081571 0.1379520323009841 -0.1841185140378075 
0.01245219012278931 0.09870716602896701 -0.124441232707959 
0.03940375955534432 0.04549105041861497 -0.1061597580718379 
0.05547281391734576 0.04957969606967883 -0.09839625995122418 
0.05664051418882396 0.05142546083068286 -0.1024911926108108 
0.05682615763326861 0.05022018921608783 -0.09987184830379503 
0.02814796038909559 0.0185373713998738 -0.06349084212253833 
0.05173095832894045 0.01423503217165208 -0.07713947916613124 
0.05330920954782572 0.015279922627585 -0.0796643014278078 
0.06039920601572631 0.005863427394678603 -0.07734135921300032 
0.05319429165348943 -0.004704846361797262 -0.04205979709455804 
0.05338147059645509 -0.005557169057655375 -0.039965278656056 
0.05436297506667071 -0.02352862367565889 -0.03635882861029784 
0.05228998597153934 0.0130692522184794 -0.0758498061192536 
0.03964999748010987 -0.04053567351247947 -0.01885245389897864 
0.04883431511639365 0.01330595242201667 -0.03589214507589696 
-0.03404082589259816 -0.009651384930555441 0.1064301315989234 
-0.03964123389824749 -0.02599388147184451 0.0956224649888396 
0.05841235223066124 0.02033226963433219 -0.05400508196510302 
-0.01814480143269179 0.01086753797773466 0.02667908462381938 
-0.04117260586473222 0.0870699242094715 -0.01027542008348613 
-0.07144929857532954 -0.0113654584978286 0.1346511209604258 
-0.007042744231546912 0.008776365372885824 0.01627617847214804 
0.001481731217671152 0.000194196719827088 0.01044143227810028 
-0.01645596207315585 0.01395156606532113 0.007135254431661386 
-0.01348450273288776 0.0269333499563098 -0.01236523545157887 
-0.002119740838656805 0.03332618144940761 -0.02393055409535241 
0.03498398685276723 0.0557693823281205 -0.07267696604771792 
-0.0006159203806629621 0.07236083658333919 -0.01980769766560538 
0.1117210147076418 -0.005668413324936387 -0.1397131230356339 
-0.009346598380021366 0.0899032706828871 -0.06280343611620622 
-0.03809044457764843 0.05300740030424683 -0.001833648106515077 
-0.02714931789548017 0.01025660782860847 0.0254312385695023 
-0.01053402669432592 0.008717731611329551 0.005070906249753144 
-0.02375002351872638 0.02669129426990373 -0.01472131278172337 
-0.01605688011001179 0.03725840190976622 -0.0176680488772827 
-0.0175648139701892 0.02040007225970427 0.02273282271925536 
0.002457828228185879 0.01183630954680966 -0.01290620937726653 
0.07175507842974313 0.02351929775383807 -0.1342542821436807 
-0.01036356483421934 0.06086318518456955 -0.05565042647907838 
-0.03664548133085933 0.05182992552774435 -0.00236164122853495 
-0.06810364801362292 0.05258162248786957 0.03740304744145954 
-0.04622827662784349 -0.003445915222608434 0.07135415491588187 
-0.0451682518515564 0.01885847376430431 0.0293870221444083 
-0.02651524727989093 0.03475921758626604 -0.01492045637574612 
0.04227677692112295 0.03378855307200115 -0.105449491853301 
0.08816901869743778 -0.2295967151538647 0.1671116941512834 
-0.03445462748401074 0.07490508045276414 -0.04477581376828101 
-0.02661008373493635 0.1010357879926934 -0.07416151391917036 
-0.0538193560339477 0.06525077382458633 0.005733560341367266 
-0.01112857873005024 0.05771151853253739 -0.05455081435549006 
-0.0001223127573265951 -0.05180238505826243 0.01861067754331014 
-0.01815179862754603 0.0518776072804582 -0.006838211165982823 
-0.03857040086398265 0.09806309487576544 -0.02957372769526748 
-0.01419666551666635 0.06071375085646996 -0.05988353775784968 
0.08254979030993836 -0.1055179709967833 -0.01950789083508865 
-0.0339957927822026 0.08281280706018056 -0.04956261456360998 
-0.03368412584975743 0.09305046520538243 -0.04418679928014239 
-0.03636488551611396 0.09513837810974696 -0.04228621925788419 
-0.02672223507718975 0.06385168965296688 -0.04005314642283455 
-0.02239479306721762 0.03537910095262437 -0.03449555201620137 
-0.03296921617244603 0.07074292908158025 -0.04168829055203425 
-0.02788110814392961 0.09262388353046377 -0.07805254629861128 
-0.03287043816239761 0.06237477551041896 -0.03090553345518995 
-0.03382170352658248 0.04791680804630537 0.0008831515695325818 
-0.02577181990898871 0.07715230183608662 -0.04105320069399435 
-0.02671107526898193 0.0764186030778079 -0.03963796442483258 
-0.02657333049332581 0.07456325894267828 -0.03653994256193718 
-0.02093195970748218 0.02203883696840244 0.006573238046911884 
-0.009834470927147754 -0.01054905726571166 0.03553274447911625 
-0.01078154433773646 -0.006289222540313283 0.02979043933006151 
-0.002367325268991817 -0.0103503088622181 0.02833492453624296 
-0.007744730261704899 0.0183398618765386 0.004962982454708593 
-0.006814854517155854 0.01754277716621936 0.003661764915757488 
-0.00754796805308196 -0.0681176887899044 0.09797666821029036 
-0.01019189441863906 -0.0127148178783088 0.0369253461045081 
-0.01393383017824433 -0.09472364141122216 0.1147082462177102 
0.05465178085535221 -0.0008940386864050847 -0.02222716405149221 
-0.04143815598541004 -0.06508570057229023 0.1871170718415119 
-0.0617225138294222 -0.1124582846251458 0.2262664558714192 
0.020975197019217 0.06805150650702463 -0.04943217265982971 
-0.08505780229509971 -0.04257739048853618 0.1505786001449016 
0.0218975443807356 0.09129145680079431 -0.08872713102430634 
-0.0176670143665693 -0.005542646504903932 0.03680697683869126 
0.0004846490168703339 0.007015395268703499 -0.01167179714052108 
-0.0271667852437626 -0.009033886869679295 0.04839135313177781 
-0.06031225298896679 -0.02719661303191727 0.1028447665366184 
-0.07310920791230462 -0.02191932717194957 0.1037973779227936 
-0.04806353979752137 0.009807689355861914 0.05549354325385784 
0.01250585713750681 0.07203872522544062 -0.05444569351665141 
0.007182212264742911 0.1022629425713116 -0.09475964299097418 
0.3442819767505207 -0.07148987391415991 -0.3637019864306948 
0.0699931941811045 0.09811967713545856 -0.1764493506115196 
0.001535581748275248 0.02095751604743485 -0.03879294390622768 
-0.04537512075038317 -0.0253067502634641 0.06197496411713475 
-0.03817573413541901 -0.05358623861995467 0.09348164383275537 
-0.06338002896671265 -0.03819635904307288 0.1066679314178561 
-0.0572553364970451 0.004261226058044841 0.06344369624497515 
-0.06473970772374991 0.06883717960427566 0.02141690506766476 
0.04683133472342322 0.02567785508004106 -0.1003615547878866 
0.2425563251965447 -0.1000976761511424 -0.2357171645087401 
0.09502525575357647 -0.01362278027545522 -0.1091549828568573 
-0.02498795952050507 0.01299188552203237 0.01146784973535511 
-0.05861166256402843 -0.04284158306244606 0.1040837964832041 
-0.05215004633811962 -0.1112515332589386 0.1951690658015293 
-0.06617681273394919 -0.1024476806979864 0.1859001805204023 
-0.04108304756727871 -0.02363410996978712 0.06249923924896594 
0.1116963523938257 -0.06381799887245598 -0.106110123967505 
0.1558753564918844 -0.39341459018387 0.284401933557878 
-0.009571011249431986 -0.002923829920883314 -0.01870083606638552 
-0.02665160539532131 -0.0477928405933037 0.06206410689327495 
-0.04041438301578727 -0.02777230123813781 0.07165402561479484 
-0.009585604122748073 -0.03222296343839472 0.03774647681164362 
0.02115563880052084 -0.09770429196260316 0.02714106458278195 
-0.03620840401955678 0.02450391966199003 0.02752958119829989 
-0.03846137795631988 -0.02768755853926773 0.07825099311450437 
0.05555278406220652 -0.09798507006163454 0.00071902480890389 
0.24749040818626 -0.338401159651849 -0.004505169603391946 
-0.006497909313249669 -0.01117171709822803 -0.003271004114102808 
-0.02306668833182407 0.02177423966275571 -0.007263023074868375 
-0.03207870499883852 0.0221678417381438 0.006919695555351972 
-0.04710799356851159 0.006338201556039437 0.05103707217740434 
-0.02173554002855813 -0.03301051719440139 0.03591692237396656 
-0.03429115280056466 -0.03647231138341216 0.07581453590741938 
-0.03065895326235121 -0.008405451819535815 0.04382864637737065 
0.007304951113769113 -0.07531030580951184 0.04983112401250371 
-0.01179748815569888 -0.05674744085197139 0.0748044640367336 
-0.01622409046316846 0.03469745901561377 -0.03298795378229506 
-0.0146540691665418 0.02734257124555676 -0.02775071162057429 
-0.01778616914478482 0.0354936937446556 -0.03441993782347494 
-0.03371117433595994 -0.02196390930187246 0.04977545371276414 
-0.01145928983220377 -0.09934183542377772 0.1115123194532845 
-0.01446972712715526 -0.09807758750144012 0.1135875706899016 
-0.01919864996444663 -0.0994407844069049 0.1177566492082775 
-0.01729884580727613 0.02693486709889877 0.003810443918392664 
-0.01680591952097202 0.02978732286995245 0.001803133599143641 
0.003701098900853325 -0.1757339194777588 0.1914574529984384 
-0.01329851184420461 -0.10249446170858 0.1148447317238666 
-0.01418227638666348 -0.140242302388425 0.1438484980422348 
-0.003690002982778205 0.009673654746309567 -0.002430237608612528 
