solver_type L2R_L2LOSS_SVC_DUAL
nr_class 3
label 1 0 -1
nr_feature 310
bias 1
w
-0.02527498799380187 0.208750993849721 -0.1801505935916939 
-0.07323588221408354 0.08895960243778427 -0.02115522312083523 
-0.08391113154377056 0.1805073908652862 -0.1286918749177077 
-0.07880049096193981 0.077452998065958 -0.0358057773779358 
-0.06968238270471638 0.03521473234772036 0.04066282538663465 
0.01739915133313682 0.2514854131153471 -0.2411142546099991 
0.001252882019795927 -0.01850771786939833 0.04357443562001318 
-0.01367374637320437 -0.1061415409596254 0.1081291402125067 
0.01281005268855681 -0.2506703690672 0.2276127535288243 
0.008535415896834994 0.006932567764567461 -0.07546023743677975 
-0.005204703402049462 0.1279006738999469 -0.1485747819777309 
-0.09575345775514116 0.1555010128831446 -0.1080147693055546 
-0.01620575190882561 0.09882856413702933 -0.08463940487255352 
0.01994027042167409 0.2090189332198466 -0.2698665640769838 
-0.04162824687317272 0.2506375938400773 -0.224125440281676 
0.0243782718945211 0.04140844978957604 -0.0533415909197609 
-0.008845844354727987 -0.111833102085243 0.1099458313225423 
0.03052963790813655 -0.0540906758433388 -0.01052406431648308 
-0.05528305331689645 -0.02122339394401336 0.0772431692823293 
-0.02655180387782875 -0.04818456464651406 0.05172563246757479 
-0.06008681941123049 0.03997401175464207 0.03425754353500234 
-0.09483012447305683 0.1203566418632119 -0.0536974821566094 
-0.04210143297279042 0.114068561546534 -0.09505869215689818 
-0.03063631395848774 0.01278586224080881 -0.0004835880725125449 
-0.09787532439978268 -0.0275197080539214 0.1891862205983554 
0.002444429634254632 0.06100787130029117 -0.04915242230723765 
0.04291623770755063 -0.1208547994142395 0.05232149353275057 
0.02834991197139659 -0.03989608961436824 0.02259417190458117 
0.009476000971196245 -0.1031059206287238 0.1181461932338567 
-0.02700908808619125 -0.09802977915532961 0.1213645093398442 
-0.06779475768122119 -0.08413736718310763 0.1238197492785954 
0.05748189775043141 -0.1186513021266457 -0.01527494856740574 
0.008666464196098398 -0.0808415350695298 0.05279649501594259 
0.01203079183088899 0.0763111059326519 -0.03748733336526534 
0.01408273246494292 -0.1436900378348769 0.1267923594916891 
-0.03373830270369375 0.006689425944079077 0.06340412617716301 
0.03289912603170325 -0.00521370052713961 -0.03309179041082014 
-0.02584493847943015 0.01480975415109528 0.07396936697306473 
-0.03908331402012899 -0.03614701746970186 0.0556015700396988 
0.02836901749860809 0.07337170259104143 -0.1224243295725099 
-0.008394029587453354 -0.005508494089144867 -0.009662005239258791 
-0.04886221846923857 -0.04863180907361783 0.08363159498399036 
-0.04428552519892614 0.05704932588745579 0.02057723321510777 
-0.02238627268737199 0.1109921779723825 -0.05093223809437019 
0.06683286374060284 -0.1420499731696389 0.08503016977139027 
-0.02979148694737592 -0.2285657118699158 0.3213680428055333 
-0.009780141853278171 -0.06605597288221274 0.1211101172539467 
-0.06524652829424664 0.01554387403587548 0.08372778413176632 
-0.06340028401661342 0.1246341389574146 -0.04016355359842978 
0.05511143446605931 -0.1405530357092746 0.06173520292974199 
0.01520226666439588 -0.2654405245217533 0.2441753443823879 
0.05563400975680936 0.05042888134863973 -0.1309171964148713 
0.07222741435161265 0.06782879742531717 -0.1450051238122309 
0.04252280774941144 0.04098634039994561 -0.08271965797208591 
-0.004439839136145291 -0.2225641920755192 0.2462510246708027 
-0.000777793986669757 -0.03653655675095131 0.0468912843368083 
0.0286893387069246 0.1254122009943254 -0.1400528958278197 
0.03315019565784087 -0.05156826897279023 0.01822782500766947 
0.04591193188699075 -0.1074904385629502 0.06708547119243283 
-0.04285348326296027 -0.1167232317269961 0.1806365060624334 
0.04696019511668457 -0.01208607047549939 -0.05438210794027845 
0.04881706363646668 0.02458005495522303 -0.1016782465078596 
-0.01110234139600524 -0.01638849037628218 0.03487198511162294 
-0.003671955070844926 0.006342034687034366 0.001954730521643742 
-0.00768150344723544 0.04222995884191754 -0.02123279040948345 
-0.01284207548140363 -0.02772273507450454 0.04255053567733233 
-0.02559987137945472 -0.03288394579606693 0.03635022322638872 
0.005398393291133476 0.1454964244457558 -0.1294237339446795 
0.002368628302194129 -0.01061692219786132 0.02215182760653414 
-0.01027425262932057 -0.062108349935459 0.0582539000758809 
-0.002106510421119001 -0.03220226222966603 0.03636615564876444 
0.0008821427584818116 -0.02090090095695989 0.02840753496291468 
0.003529726238133984 0.001949376254130543 -0.001337335298673903 
0.000181115762715411 0.02001168855111623 -0.008151776642713691 
0.008953144432251656 0.0494664561752458 -0.04431456712542551 
0.0238083832761777 0.03392708910969681 -0.04119818610883513 
0.006251783701102286 -0.02823937138064486 0.01791121746158386 
0.006458937756231345 -0.02925563494919877 0.01205111953490162 
-0.01121909471384396 -0.01565478166362093 0.01358082985338777 
0.01411684501825578 -0.0394729922979208 0.01649025961292599 
0.002650352778002012 0.01647052818366941 -0.01551082279860642 
-0.008607375576804986 0.05699407384466109 -0.03382891022625187 
0.01045870377506907 0.0568013462147243 -0.05699430068142093 
0.007778118711222613 0.01960287609385406 -0.01936066775141778 
0.02046096146974371 -0.01570505419064786 0.004013156190945482 
0.01089907307559366 -0.03242577499457583 0.02453250717721962 
-0.009191698141327771 0.02480130422717976 -0.01439806855653658 
0.007803029725648038 -0.008955227957673655 -0.002976073326795654 
-0.0314575984715872 0.01034121555086498 0.02987599489903492 
-0.01198298778370161 0.02408875150430795 0.02135619288184376 
0.02634806982178729 -0.05024510075175734 0.05006315321161126 
0.002527398750580721 -0.0293918550765678 0.03513365262704173 
0.009518186073191054 -0.0413859215816895 0.03775868545963804 
0.01032919898724243 -0.05464522499700205 0.03974026662058383 
0.0005875008039489882 -0.01083163653734104 0.00622291140663716 
-0.007104393255333227 0.03075401210817181 -0.02823204012032443 
-0.004079735794604657 0.02936654833670142 -0.02625963006140877 
-0.01260793263781753 -0.002666729676299942 0.02681357360180101 
-0.01904139768774635 0.05765552546376258 -0.001785344735361302 
0.003311368015443992 0.01692504919176134 -0.02710881394577908 
-1.85789814226608e-05 0.002759719869754942 -0.002844102609513226 
-0.002466287333664849 -0.01080336376243906 0.01382835394242218 
0.004418708096915623 -0.06625187014196508 0.06834289318107364 
0.01186482609161148 0.01770378990583324 -0.03351352510575365 
0.005245427332866924 0.06599868472821983 -0.08677667519200473 
0.005501565430228297 0.04004518013268835 -0.05308483931440323 
0.1536337855072972 0.094661622265832 -0.3167402578211289 
-0.02222532847356844 0.01837024343002897 0.01244027432492728 
0.01338727889109754 -0.05717641514172093 0.04215382970183915 
0.01102921702511469 -0.01706127108170115 0.004666774011625306 
0.007851359223723438 -0.02725514069807959 0.01877191892831359 
0.004237464826592125 -0.04367039069909234 0.03715744604650231 
0.01685174124177208 0.01152117549159518 -0.02904381352648919 
0.02252508336206506 0.02717886831417995 -0.05861698767732664 
0.01846079670809153 0.01207466383934339 -0.03110436499385721 
-0.009770546779056763 0.002400585195479566 0.02003971932634914 
-0.01236100430298784 -0.01057577959168488 0.03615490533347093 
-0.01011354478415076 -0.03310488919324531 0.05001992666422934 
0.001937184859254239 -0.0419412238530647 0.04608215521915419 
-0.005534893979202411 -0.02732798760728876 0.04044090251208876 
0.01337239880520189 -0.005801129402446432 -0.006031773805512429 
-0.01624704862109849 -0.01217821973109133 0.03875295925099702 
-0.01178815126858667 -0.03841884753705648 0.06089072027036669 
-0.00736760031690846 -0.04643260447470384 0.06203560467014256 
0.008681293651525247 -0.04383094603867492 0.04249960314988744 
0.02428387217778149 -0.05881959059109151 0.0459836089717344 
0.03355764144310647 -0.04846890670486648 0.03298724465595976 
-0.005797740901681268 -0.02358950572394586 0.03971951210179023 
-0.008995323687866029 -0.06301093018768027 0.0429505460012602 
0.08720266940902537 0.1428297675467617 -0.1815939524651046 
0.002064755561234908 0.0007411550163783187 0.02636295348188694 
-0.01202659542752797 0.01455241388954542 -0.007202151533142885 
-0.009119154010740453 0.01171172309896617 0.006714715914539746 
-0.007886494573610573 0.02379954534888428 -0.00900850858446702 
0.005679311832289121 -0.0436706040089708 0.05217626380561567 
0.01074401430104299 -0.02866767432793226 0.0393962091556698 
0.002677028022107713 0.01888420984167602 0.001108966650887426 
0.01062408980047309 0.03911252968011292 -0.02999517586152946 
0.01905500088054125 0.01472476885490623 -0.02357991589824119 
-0.007848822665577985 0.03876135713319099 -0.03544211949279012 
-0.007947024340845633 0.02187841074923931 -0.01715125311296246 
-0.02897190735186772 0.02833475172114235 0.009179602826627491 
-0.03252175577212835 0.04963656519297859 -0.006720093921459011 
-0.02188848858449755 0.04567177580374795 -0.006436230963535931 
0.002842434967882155 -0.04570783816435058 0.04890885770795006 
-0.007400240939291652 0.04664091300438188 -0.02965415729271235 
0.00572983497585642 0.03680169529282235 -0.02880656915338667 
-0.01220437950148324 0.0354968429457515 -0.01536587364025205 
-0.01737302251128406 0.02476615732574447 -0.01883390341147308 
-0.003326788883984098 -0.001829405282871384 -0.0146535199717999 
-0.03315950565508618 0.01092741036178664 0.01818369304374266 
-0.01190478566114043 -0.009113305528374457 0.03927674323534006 
-0.001137132501847942 -0.1016955112416684 0.1118582814080768 
-0.01094795613310582 -0.01275040920045412 0.01217694479234111 
-0.01315513093332113 0.05338413808881975 -0.04949195399969136 
0.01151681077877774 0.04979330269941491 -0.05285335513515001 
-0.01128053134252843 0.02097257974753318 -0.009625123538883671 
-0.00935215763635615 0.002114931359213791 -0.006725628317217716 
-0.001907657514229905 -0.006168399923804756 -0.01385901462680826 
0.003403340494385974 -0.01522094931457989 -0.0007932544299754691 
-0.00635913723033819 0.008278055674756094 0.02008207321923334 
-0.01063694935076212 0.08696742922026358 -0.07999418116139391 
-0.02290093601373682 0.06665529132947677 -0.05400327833499228 
-0.01444387323037277 0.07257847288817346 -0.07002226133592722 
0.003089696967168197 0.03294113077771891 -0.03382051811641902 
-0.001456679530294283 0.004690889941545486 -0.003932258715398303 
0.001243822530175662 -0.01518466611886148 6.742836713257826e-05 
0.01280917944438131 -0.03803673274597103 0.009991942949781576 
0.06799467482811374 0.1433596787816948 -0.2338698597433347 
-0.003959490772947195 0.05901668304466345 -0.04985914359508537 
0.02333817958501234 0.05200357423308847 -0.07760303777493621 
0.0009190499492728232 0.0645137458690704 -0.07442495102980985 
-0.008215099667652022 0.05364081709587493 -0.05926001815580995 
-0.0009929115266078372 0.06043370378275432 -0.06135277037688221 
0.001891724939004991 0.01097767002106858 -0.01308938849363808 
0.01138497602215598 -0.02660714354333819 0.003257071244212384 
0.01013096893693512 -0.05120046440092017 0.02826834729094173 
-0.003230950930970421 -0.008905244856575623 0.01159064299487515 
-0.0101604947374833 0.01065121307141786 -0.0009995587322676892 
-0.006530213608442277 0.0315806853120222 -0.0255393144436754 
0.003265745242846758 0.03972513659581867 -0.04133753239824401 
-0.001188506777040165 -0.01117160558150121 0.02566810829568841 
0.003723296365766392 -0.02316559199930051 0.015893105041328 
-0.0003919526157038664 -0.02528198203817634 0.03122064357508545 
-0.003888580491068587 -0.007310331013385432 0.02233660909965731 
-0.003556909230267308 -0.02149609682314215 0.0338770043603345 
-0.04238852072871091 -0.1001544118136285 0.1460088110824616 
-0.01502567735013923 -0.06510469780362066 0.0933075368312378 
-0.04664685120961384 -0.04978676887104478 0.0946947276650261 
-0.007991595691847365 -0.05108684899771728 0.0611310366569058 
-0.05449211216350283 -0.03623527537369359 0.01341309848020825 
0.09736102478580898 0.003836406455163575 -0.05922771362065626 
-0.02298246306803297 -0.1247426888012905 0.14149625071974 
0.00276685574350397 -0.03796903716171107 0.006905628963555817 
0.007061170529909221 -8.567722322374008e-05 -0.005633963507529028 
0.004496027560257242 0.01335360475449078 -0.02199819741293272 
0.004414995382568768 -0.01260873944471099 0.002306229977228304 
-0.008078811507349334 0.004036884008837631 -0.006055819388122933 
0.003786616248041763 -0.03901052794390292 0.02446320939975047 
0.03384705743002051 -0.07509865948865677 0.03798438435653335 
0.132364937199595 -0.2138847667826394 0.07558155473452065 
0.01669369712766686 -0.009269538465526235 -0.01073132367313328 
0.01277555369123465 0.004115630279421763 -0.02010314352571021 
0.008390540344300056 0.02010135990242434 -0.02648462121104413 
0.000115164315981224 0.04875483949485226 -0.0486810746508303 
0.01343394594613386 0.007251564611993709 -0.0252713628793143 
0.02581403986542706 -0.02842888456250231 -0.00853463748027361 
0.06307181642168712 -0.02298970433787584 -0.05937605767223942 
0.07386885749440902 0.01265828075365641 -0.09679053163994085 
0.0663969689093251 -0.02351918489675726 -0.05661019059278027 
0.005548231176667737 0.03438464638485507 -0.03886561384117827 
0.008540983150022148 0.01945221068204213 -0.03447598843570823 
-0.005920826842358617 -0.002171680422616285 0.01507132809930096 
-0.01484852749970628 0.04006032268476809 -0.002461030609146004 
-0.001222760702606294 0.01619916197789936 -0.00618071458950957 
0.01391009793953302 0.003158996659410726 -0.02918607237121777 
0.06051449231460599 -0.02646897372361455 -0.05488525055287968 
0.1279784834557305 -0.07022676313183279 -0.09098666175438891 
0.009074467613789916 0.05466666142533584 -0.05916161757651663 
-0.008164181294192498 0.08066563013402255 -0.06607501756473304 
-0.004121859753554814 0.06467841467017879 -0.05583576090902836 
0.004412959358491744 0.02565840182123327 -0.01847979304661194 
-0.004405886177795181 0.03195663729022127 -0.00676439779694296 
-0.01967875959172792 0.09260744075597305 -0.06812391061736256 
-0.03646559773697759 0.1104490431912488 -0.06637243292641466 
-0.03754645597422 0.08870372235039395 -0.04690298068169931 
-0.0394516951053074 -0.00156249061295893 0.04464138148834912 
-0.008626295774188117 0.09524430144688283 -0.0781332715946039 
-0.01900324198354805 0.1125054945905705 -0.08568959799333846 
-0.005097768237012684 0.08011079056833563 -0.06936725912402901 
0.05729442673127617 0.05742475655118705 -0.1253247812837184 
-0.005922786712271277 0.04849738299513368 -0.03783288761109498 
-0.01057273870453418 0.1027614383025081 -0.08597680088971169 
-0.02752071669778573 0.1426423140174926 -0.1093407625005499 
-0.02630821370835586 0.1215451544400576 -0.08766385625410424 
-0.02361400763916816 0.1452579849349142 -0.1142394238181065 
0.001651252647284918 0.05768304851075353 -0.05831879769137027 
-0.02514535239830294 0.1156481123668206 -0.0860444834742245 
-0.01647113221289584 0.08812189258685373 -0.07087972462055678 
-0.01457067448112957 0.05024728089630941 -0.03921038026636868 
-0.03159607404981232 0.08811289840893582 -0.06019398969822719 
-0.009854861143279405 0.09350214888387283 -0.08326142347173564 
0.00202907510247845 0.1327581888941083 -0.1377461312465992 
-0.004814581693334403 0.02304587859270898 -0.01614012954624934 
-0.01993635624526987 0.03398791965471358 -0.01387422869920133 
-0.03370888809311541 -0.008215958526552098 0.0432062985209663 
-0.0146211354805138 0.05656387863961022 -0.04745800973936075 
-0.01018374767998408 0.007777798472660967 -0.003754389980748024 
-0.06866876910167438 -0.1131220728356413 0.1694566275808514 
-0.09393348743473336 -0.03203612024308612 0.1368403525743828 
-0.1085679103238998 0.03260083512042813 0.06265295974738745 
-0.02985590916755407 -0.03506929139309931 0.05771027559575856 
-0.1080325385352383 0.02086611525257935 0.0072689774195804 
0.1288009819015929 -0.03885342978823529 -0.0378731582385874 
-0.01752571694746604 -0.1059989339984766 0.1143149733491979 
-0.01397353934946968 -0.0341709474904078 0.01480047270307818 
-0.03028546896455132 0.02114770714849983 0.0146340069330782 
-0.04263781035310216 0.0189172701550533 0.0323912947216275 
-0.05017106311883721 0.04057366262679643 0.006588481329699468 
-0.04520286279384603 0.05193408024531721 -0.01263263719312134 
0.01466177654171363 -0.05828208839244239 0.03198416609286395 
0.06857453413639666 -0.1414471213968787 0.07150149371694099 
0.2734053779845491 -0.4479864708715886 0.1601135963461424 
0.04401200211217658 -0.0392529707558348 -0.008384793556270323 
-0.008143213440729057 -0.006455609078388928 0.01528169781269868 
-0.03253455242677065 0.02112954742031464 0.02080253788228424 
-0.05997897822871935 0.05373018582347399 0.007362923962283438 
-0.02389550774343475 0.02420480882342636 -0.001023597658321805 
0.04491126794435574 0.001692211826664723 -0.06136242821100766 
0.1276363252475314 -0.005719355998545882 -0.1360047935474419 
0.1546969449804196 -0.01230436295427881 -0.1610581674476519 
0.1708057391244109 -0.1622735937435899 -0.04138818035342151 
0.04781834570718009 -0.03690092613038685 -0.01617194351888813 
-0.01262973488042137 0.03695140262233359 -0.02045180949302992 
-0.04652378310254416 0.02350635081261412 0.0303868377906267 
-0.03673013990792347 0.03836510189349098 0.02353422544302304 
-0.009586830239382409 -0.001107304859022534 0.01844045669242719 
0.04797529605727009 -0.01108995217501491 -0.05314844653242382 
0.1073210391150614 -0.1040555943886628 -0.02171532690502618 
0.1781029955446751 -0.1416003631758113 -0.06306830474819729 
0.04731476347884996 -0.07881446224525808 0.03136293235480046 
0.0002845099143111569 0.007051708418722251 -0.005588655991354143 
-0.02459467539239193 0.03531020694199293 -0.005741580548386993 
-0.02716137345506138 0.05447467721693666 -0.02503917747457616 
-0.02137241511943477 0.02128728597489242 0.01976607672707294 
-0.02586370720572159 0.05105580821735844 -0.007319483252636198 
-0.0245000004588607 0.003569654293647596 0.02941719731404824 
-0.01702133398254854 -0.04141649075525229 0.07084805920871652 
-0.04432732707131289 -0.06512204610480055 0.1107429635993937 
0.02448542154429287 -0.05953818475014618 0.03886904032496116 
-0.02404755178114162 -0.005747856442952126 0.02770547368117567 
-0.02860991501967864 0.04660660903789976 -0.01553237813534982 
0.1133305461852749 -0.4059927246246125 0.2703087326755241 
-0.02202570009565587 -0.006262858325229596 0.03135269937902602 
-0.02493720767774334 0.002182130488643768 0.02854854253058494 
-0.01536102364195758 0.006781545766150595 0.008461133599454102 
0.006435741885638686 -0.03315083296341379 0.03568700061442213 
0.001397285949575795 0.0506313076899161 -0.03300360224601797 
0.03360403265887024 -0.1366332307725523 0.1070966305105616 
-0.02203000728692951 -0.01591067300176398 0.03401900914007065 
-0.02557939319690379 -0.01405812817732989 0.03707932185222336 
-0.0339956056242217 -0.07106251220200965 0.09938318006960835 
-0.04628618325261762 -0.07724997353941085 0.1140190283870884 
0.01124211265455007 -0.04254705984761963 0.03666630759293266 
0.02601891547094457 0.04545708459252246 -0.06304639238345197 
-0.0168986079419509 -0.04557540115360142 0.06544112255822496 
-0.03339889981072448 -0.06363855341782537 0.09691216985416508 
-0.0727597168164681 -0.07419842024988445 0.1588391633310439 
-0.02562196694052852 -0.0118279724249308 0.03785966714211599 
-0.02979274456852236 -0.0569254409442712 0.08045449092992651 
-0.003317815189301714 0.01545826662430792 -0.0179736185512533 
