solver_type L2R_L2LOSS_SVC_DUAL
nr_class 3
label 1 0 -1
nr_feature 310
bias 1
w
-0.005963773559911597 0.01564613414220298 -0.04227093535135224 
-0.01754717349708329 -0.04877445896576958 0.02075754300696308 
0.0107236485944026 -0.07590322314114531 0.06128475928408712 
-0.02923199216144355 0.05160738637947666 0.007765134604808864 
-0.01895016628122768 -0.02697848031213841 0.03162084628343902 
-0.0493182556372498 -0.07879624004272041 0.03401227744363614 
-0.03367378920378608 -0.05579121630155686 0.07860503377445732 
-0.02284320220339359 -0.007366914745379381 -0.00693272698802655 
-0.02050802299522788 0.06399011085530236 -0.08548807851653603 
0.008912264073511665 -0.02053601568580746 0.01718326847308 
0.04044923825621969 -0.1354890328002811 0.05842911560517846 
0.004047978310516326 -0.01611816796607707 -0.01533235618867979 
0.01967388584697237 0.02614532962880204 -0.0491892567211932 
0.02723305175397164 -0.01081138773001708 -0.007977464199139132 
0.02045097193491425 0.08432334166433168 -0.1046939411774243 
0.01060203146180661 0.1075025091855687 -0.1111697199248513 
-0.008723794164475133 0.09044492071548839 -0.1089820412485617 
-0.04811946663633308 0.1820171040743092 -0.07319534174024601 
-0.01097963911262078 0.05940475821592835 -0.06459896649696947 
-0.02623979559664431 0.07289791360962521 -0.034100213394653 
0.01871760345562429 0.009225856802530659 -0.05548244049687723 
0.005200233849993837 -0.04510634542101938 0.06769890237502149 
0.0114299329049177 -0.005481440874406935 0.0355380593794185 
0.03427893695771764 0.006180524504940406 -0.06437330849317878 
0.00321119372409975 0.07255907605716945 -0.07725932059249761 
-0.009748868912221726 0.1129743893057216 -0.09848011640323788 
-0.0571057351367978 -0.1019022342930575 0.04718994432225132 
-0.04890747402423677 0.1098192901389991 -0.05347188705104 
-0.05098094253890314 0.05224564547193465 -0.01941873099372773 
-0.03849386832343171 0.04649941452094909 0.00970717705648938 
-0.006554853132092043 -0.06950201666326079 0.05657647245706244 
-0.01795975174082739 -0.1283607137974153 0.1477743590778608 
0.00097620346164614 0.005755411359325634 -0.007950827542720969 
-0.008579854167807993 -0.03122345511550878 0.03999353597415568 
-0.02009880216467293 0.00415872936218137 -0.01155911713842026 
0.004592627004992587 -0.004138603690090826 0.02455718456904106 
0.001919312150596814 -0.146652037107572 0.1311719462659568 
-0.02714469328224355 0.03797851911246421 -0.0001536723793838507 
-0.00411990155920402 0.01623737805311409 -0.01623994651989553 
0.02031221736752041 -0.0568630212208316 0.07351058179751123 
0.01659587381302175 -0.06188439527352168 0.07430780837831072 
0.0344421273040446 -0.02891397422547926 -0.002474063954122183 
0.01047511157712845 -0.09087551445175686 0.06591809034503808 
-0.02930054818804266 0.08499422829989146 -0.01626783752676461 
0.01801543269132404 -0.0220110187109244 0.001990826012296625 
-0.03080570754936987 0.05352919861502434 0.03866009965203419 
-0.0174289375853971 -0.118120882695058 0.05489760272111497 
0.0008039377296378561 0.09934161404307514 -0.09407768505903377 
0.02146482925208539 0.03734174045992091 -0.06276195754512089 
0.01632995580797563 -0.05610345113120632 0.04773187870374114 
0.01626894545038178 -0.090187100267905 0.06447479726823463 
0.01590582483116005 -0.08886181411584165 0.06308388641866676 
0.01597826003484617 -0.08957525843537398 0.06360532867260608 
-0.004440899483036574 -0.08664747227784672 0.1153802276886106 
-0.003884466768658089 0.08491840742757177 -0.1186070310143816 
-0.001608376039542 0.02781206220535621 -0.04879454403550626 
-0.001592062644778026 0.02831881229817753 -0.04975839796967631 
0.01581716150266926 -0.09535855740109107 0.06724282289671964 
0.01665593397554279 -0.09141892852128579 0.06464975991718568 
-0.004637269714309794 -0.0270588926480101 -0.000754140612635384 
-0.02039322836428404 -0.03876906889903672 0.06594778146638661 
-0.0213267051729188 -0.04078896866235003 0.07114790957363176 
-0.03149258662232703 0.03983785131090247 0.00310614959094863 
-0.02639595144734148 0.03247607990977446 0.001862077193006117 
-0.02083433492967281 0.0180084995864835 0.0125497774096113 
-0.0233451655025491 0.06764445122647754 -0.02318349459131899 
-0.01120149564157157 0.0220384188274241 0.006768399918363252 
-0.03062848932633445 0.0001191417392190631 0.04709981621328783 
-0.06423712572444749 0.05155547040529668 0.01096302757916572 
-0.02976597926184153 -0.006432155605882972 0.03607720727875591 
-0.01412100136416941 0.0484215831472198 -0.004076912513117561 
-0.007350608434211319 0.015073040367337 0.01373863412438214 
-0.009425968634308841 0.04247592164273974 -0.01313063202926891 
-0.01379705927082743 0.04407366136484529 -0.01400478238719404 
-0.01007237113910638 0.04796941619887336 -0.02606662901111497 
0.0008970917269466533 0.03371344101872454 -0.03981672154815708 
-0.01154062256238635 0.07900768290334491 -0.0538695122528041 
-0.01981077820701762 0.09553171531259801 -0.0534835094653098 
-0.022703993301802 0.06634365764434252 -0.02287607255621408 
-0.01719666856884126 0.03747516140632919 0.005195417986829303 
-0.01623743536817709 0.01968699357579275 0.0148994727222229 
-0.01511023960144067 0.04114648102005625 -0.002661334794736164 
-0.01021330386003125 0.0103838657033414 0.009847017851943137 
0.0006188395638178466 0.01728960019675783 -0.01860502072207872 
0.00137216112248849 0.000381252815264262 -0.001265231977718636 
0.0007820182734717691 0.04915945501927969 -0.03641340118150062 
-0.01139868236124369 0.07090997700681138 -0.04485862770309895 
-0.02299723263970052 0.06168949094528182 -0.0272979522010107 
-0.03301268895298078 0.03869768318920484 0.01053025864382058 
-0.03346622579326303 0.0682844222430241 -0.02331762289671287 
-0.01760810417635006 0.01166590319091458 -0.002057846566954048 
-0.007616116746005902 -0.009717061835056566 0.01725881845902677 
0.0004186134264903793 0.006455743912660875 -0.004670266519420626 
0.01218349100809005 -0.01624479535396128 -0.008598015156523765 
0.004264050242780185 0.02368866585818204 -0.02003159371623298 
0.002137162837344375 0.02367587889704642 -0.02492412268234302 
-0.005803594964860517 0.02182233065477918 -0.02653592554979099 
-0.01598034826801174 0.03019297223638502 -0.03114938694329789 
-0.01814797479019621 0.06087586945616628 -0.06182816109433149 
-0.01370838394001108 0.05518625678196505 -0.05505065812418371 
0.00186690007557145 -0.01883950894286749 0.0009925105652491939 
0.003809333224645184 -0.02436571992882208 0.01499614336358493 
0.01397159868864662 -0.01807054109032466 0.002553201469990759 
0.005024758438570281 0.008390258961008059 -0.01664852719997176 
0.004868600362764883 0.007410363530919191 -0.01909777736589331 
0.006052846042835709 -0.008331859252349029 -0.02124107301513828 
0.0002625329737220976 0.001795130011691559 -0.02133040346921523 
-0.01207723055753629 0.03696441284487455 -0.02826998514643337 
-0.01000757536273941 0.04624789290724357 -0.05807187629934861 
-0.001136683367790369 0.02199125160208942 -0.03417085081409014 
0.009752655282395611 0.01820869973775542 -0.03056284207358394 
0.01702607768650426 -0.01464439199423072 -0.00139566989251777 
0.008076170778019764 -0.01066066857103888 -0.0003980690265422485 
0.007997232337128861 -0.01124976936084761 -0.0005126121241955427 
0.008223193406622024 -0.01049409999596024 -0.002063599531021793 
0.01092621138130444 -0.0320572357102717 -0.02070791061419746 
-0.01072176764867877 0.08432039924594677 -0.07016899314908982 
-0.0008078776112467868 0.06227070494495226 -0.05220412091652747 
-0.0006614809496530387 0.06177932032852886 -0.05135331212052718 
0.007637655969627219 -0.01039528439906248 -0.0001373548756558576 
0.008244082156962443 -0.01164016502250372 0.000146899183571483 
-0.01452358647959654 0.08591446332464985 -0.06683270591311001 
-0.003328379723298202 0.05314222652338938 -0.03928180500494779 
-0.002528188903433761 0.05554842454481532 -0.04121057191219213 
0.01053646321761327 -0.08866346836356068 0.07053127091801553 
0.01328632177855218 -0.08586235560866094 0.06113369430404152 
0.02224549845914974 -0.1000784975060013 0.06811866274723875 
0.01496114779553309 -0.06261076765618839 0.0408892415499774 
0.02512635544922421 -0.06216152392914749 0.02212730650229098 
-0.003720224847045398 -0.01018429576017281 0.02429365750725082 
-0.0490927478284744 -0.03312145187913671 0.05702670443775865 
0.008127285391206015 -0.140683405408761 0.1036895587371755 
0.02325042600311238 -0.08171403328036311 0.05409280460471191 
0.02415004338134229 -0.07851654240326914 0.04867747904525316 
0.02366620423484779 -0.05651077613653167 0.03186664145505374 
0.01683970958021657 -0.01258032567370938 0.0002844347717299923 
0.01077030692658822 0.007349306753950747 -0.01524935900653351 
0.003309090561547334 0.0003474791684112972 -0.01108285932026815 
0.007387972976300556 -0.03807116718533781 0.007898292369881842 
0.002295230015172771 -0.05830274140514602 0.03814132655285525 
0.01116435563108528 -0.08728766709161551 0.06296546768474909 
0.01778372269995993 -0.07628928727055487 0.0551691507937134 
0.01922637493108412 -0.06316349992780987 0.04037264467215737 
0.01877116482236352 -0.04598091050800718 0.02271310855318967 
0.006422542039788596 -0.0447426334562091 0.03026802863753702 
-0.005631763605622246 -0.02756873460434538 0.02260647956724625 
-0.00190322145254678 -0.004710897514193923 -0.001368251530776125 
-0.00391716029928545 -0.00835934346264741 -0.006193154743385739 
-0.002370851540171198 -0.03179837211776136 0.02018737061514943 
0.01474820386645013 -0.06887506772470295 0.05388041894872412 
-0.004981681514054258 -0.02660296582161021 0.02654385513263646 
0.001295125939266032 -0.03214259138671616 0.02798409039737874 
-0.01433891683212596 -0.06484770358008363 0.05926400154905377 
-0.01509118146066943 -0.08827345761987533 0.09543398847576029 
-0.006555832666983304 -0.05013748680228997 0.05298455071707341 
0.0001926043054906171 -0.04111734273335231 0.02801471708748588 
-0.0004060290742926759 0.001788501571216312 -0.007443815640483339 
0.0005754244423110639 -0.008406300629993285 0.006903032335718994 
0.01041613089175557 -0.02880772064129626 0.03223886446494445 
-0.000158521814979187 -0.007408331276820752 0.02369137856532752 
-0.01188292334209435 0.03828312636420532 -0.002851847867348087 
-0.02533445228127297 -0.002203896844150104 0.03622440606121322 
-0.0170017362492275 -0.02176390118067864 0.04970878948075006 
-0.008941528205955127 -0.02732499536909815 0.0463144756465953 
-0.003713266767195716 -0.01334176689375241 0.02559314124659446 
-0.005853561133628464 0.03692364293000253 -0.03430083050180029 
-0.002023960692604053 0.01888319819184054 -0.01086547884572369 
0.001242216115707222 0.02276036035283205 -0.006413837742691109 
-0.0002908849147674146 0.03548267806449221 -0.01050500817234779 
-0.004035428752670643 0.04803099366635569 -0.01576205973435863 
-0.01097920036903561 0.04160959482151182 -0.01291490867574694 
-0.01241321537629297 0.02688656210214748 0.002610731981717059 
-0.008548535807477126 0.00424421375979248 0.01879934506637479 
-0.005743827070745111 0.003484400440747745 0.01712118596562125 
-0.007836493762746864 0.04309424805030761 -0.01684902406295134 
-0.007424482241840193 0.04196735167252373 -0.01680981737417398 
-0.007476891308589245 0.04215296180449242 -0.01633885803295476 
0.01428631171140884 0.005909886860125678 -0.06012971574237096 
-0.01043763258998266 0.05427345905975896 -0.0218610365112464 
-0.01091103729250974 0.02923603045200883 0.0004701618210703945 
-0.01050310562906249 0.029176720046173 -0.0007457007150552398 
-0.007182207478683464 0.04172855984373802 -0.01709651202559364 
-0.007266105992343319 0.04114989708646009 -0.01641200871248978 
-0.007170453681001734 0.05772034922581211 -0.02298401515675931 
-0.002294532307318039 0.008868044630699484 -0.001821820647369241 
-0.0009423987536203479 0.009400261047799377 -0.001906186377775681 
-0.0279803530682566 0.009008481178952156 0.04183820254736555 
-0.005597036474658661 0.01247924850727824 0.01036387495070391 
0.01847716644406738 0.0337900383324172 -0.02827013450791455 
-0.03166484377179244 -0.03127830446795416 0.06142984820581897 
0.02460818994777084 0.0161482201626985 -0.02533892398539717 
-0.008507561084866737 -0.007120664715437143 0.01212344784614949 
-0.03761386269130883 0.1305673855098606 -0.1081293992351743 
-0.01301704372511159 0.006763498164769938 0.003366632530508352 
-0.006347735734072997 -0.03806030218221817 0.04697558073074495 
-0.005056603174352229 -0.04355372414742689 0.05174491849714955 
-0.001090712439062388 -0.01860681040756598 0.02933029282134811 
0.01736325108620737 0.03112493260420212 -0.02741533272085926 
0.04549371650790406 0.03751225768865511 -0.0652801428891026 
0.02284942866557895 0.04374408561335982 -0.04499317744367048 
0.05038013247160206 -0.02237065087080937 -0.0429705283227712 
0.040269687789673 0.01711389332682121 -0.05285568025075967 
0.01358636921532239 0.001478109648238049 -0.007587983712069055 
0.001040131278187144 -0.02836741965916457 0.03743473571842872 
0.001554142223897484 -0.05463162701444945 0.05969173816467154 
-0.0008110554458155817 -0.01672447608703123 0.03023759747748058 
0.01462249053802046 -0.01708918580243707 0.01113188251362295 
0.03682278563670982 -0.04041188176949464 0.006300752579467247 
0.05118996188211065 -0.0763618264022862 0.01246906259399269 
0.09501353267766985 -0.1379605903074164 -0.009813014805585879 
0.06296362828636939 -0.09287070616406438 0.003806883224256583 
0.01671409006479898 -0.0473003731959393 0.03599451869102107 
-0.01053156164839891 -0.001153717149703475 0.0230128172668747 
-0.01058138723266557 -0.0288162801951265 0.04944334772227549 
-0.01081067960637864 -0.04478641977322583 0.06169107486299189 
0.00208703043331184 -0.07389375410483794 0.0823447531500705 
0.02605024214952979 -0.04427975893618999 0.02034643945549606 
0.05667420414815084 0.01976276650132754 -0.08340269515721804 
0.07796669501428563 -0.08648441456533758 -0.01540810347579196 
0.02223215457662023 -0.002658347808550217 -0.01539625970091139 
-0.008969920348204522 -0.038478209190438 0.06449501037975777 
-0.01653083451482691 -0.03808232158163185 0.07287213123628321 
-0.0132641946252244 0.000161716864261358 0.04159428383773515 
-0.01426440801451888 -0.02875539216850483 0.06446806085705588 
-0.00914065280008286 -0.03839590987820815 0.0650323735435904 
-0.006524670465683474 -0.02796924872844074 0.04851959085806995 
0.01818185429708336 -0.05752291032553258 0.032560744400662 
0.01160045310496675 -0.01243713273415419 -0.00542212155396354 
0.003093573049962721 -0.01569457828483796 0.01250090306806502 
-0.009014644578019664 -0.01294044150920584 0.03547569766404961 
-0.005171925416096679 -0.01980054814745628 0.04156704214703606 
-0.003214311848854832 -0.00397917316071936 0.03353783716293671 
-0.003408696990408408 -0.005967738568152477 0.02821852010941856 
-0.009509099306177313 -0.00690103746096545 0.03912739533027167 
-0.007764695856639491 -0.02664694732912827 0.0440023420954367 
-0.007919707730211542 -0.009507914610002322 0.02353092999371505 
-0.003113084244871256 -0.02856286596129227 0.02940074749186587 
-0.003007125825498106 -0.02997302306695483 0.030467876714388 
-0.003010251259364526 -0.02936347913306319 0.03022053784531719 
0.01180221217052078 0.01659614566592207 -0.09649963468477557 
-0.003470875873529496 -0.004738509101810501 0.01731066217137786 
-0.001564763029307284 -0.024168310236249 0.03341210476414179 
-0.002057128817619423 -0.02318307643216791 0.03252939114473188 
-0.002855757984305373 -0.03180264918278787 0.03241341225881699 
-0.002947905675942905 -0.03022921320464658 0.03051004124937825 
-0.002686615536534876 -0.03770352254197479 0.03660771398543769 
0.006498598056109412 -0.0313745059349223 0.00996043485940137 
0.006986744820762616 -0.02782871411654083 0.006647263150246695 
-0.04257067145299524 0.05843083529282336 0.01574412592384901 
-0.03287244136001033 0.103668577340583 -0.03702170110056444 
0.006151583993594638 0.09511939113643644 -0.06747794306530812 
-0.08291802983627575 0.015597544667973 0.09041149674500254 
0.009803444664327103 0.08577507900372919 -0.0658412483251246 
-0.008791923981299713 -0.01192633996357719 0.01871177198338088 
-0.03347517336469764 0.2055712680368529 -0.1735003736300713 
-0.04281784858720542 0.0940119827775016 -0.03146408253184758 
-0.05976135589669136 0.0416758036455563 0.04006148567198811 
-0.06320021103040768 0.06971909899817232 0.01544396934446048 
-0.03676576163649773 0.1110251086045515 -0.03819538445733497 
0.006397730083565143 0.1649118377205268 -0.1222191735737541 
0.03779923816831041 0.1600852611273935 -0.1615627098161952 
0.02511025805445698 0.08809480739415131 -0.1025391959044505 
0.08117530166571284 -0.02218600845120605 -0.07510134222011075 
0.04837831105764297 0.08049711244903583 -0.1126900371268924 
0.004334078467486021 0.06097434205350119 -0.04589437762582898 
-0.03577942812191122 0.04290407872327565 0.009393492708107078 
-0.043826922237524 0.0567437269317004 0.005602944789343131 
-0.02424702397087878 0.1041046062559715 -0.05850961650881225 
0.01961732337080841 0.09998990121909229 -0.100212806150454 
0.05488641974108134 -0.007713374328803279 -0.06251540645420994 
0.08797130365739017 -0.1483573954495992 0.006870088519533728 
0.1560158428193395 -0.2011958645755229 -0.03597164980599657 
0.09932379065430072 -0.07254177881810191 -0.06218129186596315 
0.03315590331283656 0.01564128371073424 -0.04891159075957472 
-0.02055559833501857 0.02300155202793023 0.00300233757643321 
-0.03967568314662179 0.04128641493176191 0.002739824218826484 
-0.01632557863041764 0.02993126097437016 -0.01664256393176537 
0.005502959758011573 -0.01289729670965377 -0.003568786233325521 
0.05380926205799989 -0.05872921433457133 -0.02655744799628171 
0.07751248424639852 0.05246860361836542 -0.1458780322186572 
0.1107783723344497 -0.06171071001720684 -0.07580645982121911 
0.05205669954199117 0.08166187836666194 -0.1376453936381058 
-0.007234787699095487 0.0306412706188444 -0.02009385750127433 
-0.022340823076099 0.02324538040284158 0.0001998874431151079 
-0.03300257381736438 0.01344477559237275 0.0179099858584034 
-0.03235829635268617 -0.00645978512912915 0.03139015197392428 
-0.0180298596653763 -0.03167959240593275 0.04180852949834973 
-0.002578162179679559 -0.05471310173021393 0.04415040259134506 
0.04870574716720664 -0.09607485160247985 0.004097792982613541 
0.04021903641396167 0.008854240183541353 -0.06077479785979165 
0.023812997319754 0.01195193677336401 -0.04105959963148828 
-0.01001423209576475 -0.00357172342704199 0.0141321285158046 
-0.0160953993919812 0.01094546019895211 0.007520529609011601 
-0.02122208119536211 -1.875940813046285e-05 0.01829973772224186 
-0.01706419646164172 0.01479315365588074 -0.006098193378843928 
-0.02041090654719711 0.01291148178776346 0.003941203077284801 
-0.006570536525415996 -0.03953464314060429 0.02933391738253611 
0.001389217492393561 -0.03412972833301543 0.02208713388898394 
0.003873683423081324 -0.03434461848658037 0.03535785014979652 
0.003900667843282221 -0.0344503162982548 0.03554340930902972 
0.004156358596483485 -0.03532991358685718 0.03596854650762013 
-0.009010573046186994 0.1914229484409774 -0.2572002458150172 
-0.007781024892706754 -0.01474844360675407 0.01266922716423217 
-0.00163662884436607 -0.02040721566304479 0.01599989995773406 
-0.001670987380311886 -0.01729268916885842 0.01461934077452049 
0.004186469873942533 -0.03509349852784026 0.03681286768012221 
0.004311372819304491 -0.03703416865744751 0.03748321905448747 
-0.003458598196297247 -0.07830327987451705 0.05772697149345309 
0.01228284601107722 -0.03586571209790195 0.009639099383326745 
0.01297093387828992 -0.03008758471466263 0.006505039100690102 
0.002057305920197343 -0.01373914890776399 0.002150813416928229 
