solver_type L2R_L2LOSS_SVC_DUAL
nr_class 3
label 1 0 -1
nr_feature 310
bias 1
w
-0.03331862621305692 0.07940365882702527 -0.06214933688933386 
-0.03794022313328665 0.08563838027856256 -0.06222762266518955 
-0.08041268972292588 0.0735838687984165 0.01342930459615498 
-0.03416569016367252 0.06884265391796943 -0.05182763435361417 
-0.06314910273451285 0.09673317138217573 -0.02196879916598253 
-0.02542020340553244 -0.01103735907073642 0.03982442055036597 
-0.03524723000958713 -0.0004711746941176639 0.03321644600492434 
-0.08108968979024563 -0.06026615433259204 0.1411324217285309 
-0.05777385815285888 0.005753818294970457 0.05577108749449046 
0.1019423437758387 -0.03043568519178249 -0.09013327100898597 
-0.04438376157426933 0.07749472375743523 -0.004532478849345258 
-0.05655769597032222 0.022412322218506 0.05813985478630648 
-0.003402496498104294 -0.01139155793946083 0.01676470233601131 
0.02487854070322586 -0.002175697708097436 -0.02575795309770242 
0.04737026803242961 -0.03924929872606802 -0.01384416279047392 
0.05210535054239428 -0.02665768418505556 -0.0171557191775716 
0.05748527103560455 0.0179623340442372 -0.07738272629433371 
-0.0360346205935491 0.2023044572122993 -0.182276287423051 
0.1657817647691421 -0.06914658006109423 -0.07720468149664769 
0.002774658522461907 0.1094088068251617 -0.1373871189748124 
0.05257172031204368 0.01897204568713663 -0.07301554233860275 
0.05134819901039324 -0.02094892722976968 -0.01888239800019714 
0.05080780960689275 0.009049012395307204 -0.04967091070481753 
-0.05474572628027637 0.09524991741031412 -0.01146530202822008 
0.004238741291071257 0.05425095370285339 -0.04159221488532262 
0.05303707196758738 -0.01796503366238422 -0.04585224289231264 
-0.09141380214936488 -0.03281503364285741 0.07254620777389881 
-0.03302143306302812 0.1148923110373848 -0.06788297979601741 
0.06050288758462833 -0.2124122121014503 0.1066648668942481 
0.0241449828975969 0.06496556392038205 -0.0687384284332119 
-0.0634848380284349 -0.09710579846900728 0.1540030092423859 
0.05950829030423126 -0.1032898178507854 0.02638894364966149 
-0.0373959275679625 0.0852324753179448 -0.04923050209025516 
0.0006678888359271724 0.01336973425935969 -0.03148019502734126 
-0.03437017872712388 -0.1421140162149981 0.160323293194535 
0.06476478376315839 -0.02404882375265206 -0.04075270451914102 
0.002358812990732943 0.0490287528089916 -0.06150304513815749 
-0.01493588637078525 0.07123365366797303 -0.1109436950943854 
0.04929171482717309 0.09360483513968564 -0.09352995442664506 
-0.04989473875912399 0.06999921955947805 0.0008682338937157128 
-0.0232289772171154 0.02503982771549842 -0.0004157751522312712 
-0.149701428971508 -0.00843765618482078 0.1648533418106687 
-0.06154162705471903 -0.07401291882138501 0.1584858511868761 
-0.08965867660912401 0.02239979062943717 0.03365335898505802 
-0.03062741183303292 -0.005588903477629689 -0.003842943841132268 
-0.01231731305136436 -0.2626442213810449 0.2682577246387921 
0.006358982997961901 0.05789387578917625 -0.07119023184023771 
0.0196956062317055 -0.04942402291889938 0.0679482887626732 
-0.05494392664378211 0.03106883740698882 0.03475318382689321 
-0.009034328427880331 0.06997731396703978 -0.08119103890709875 
-0.09565240185058535 -0.02568373527724441 0.09303221575205717 
-0.09576735284433729 -0.02292567451314464 0.0904869766098291 
-0.1009206362591424 -0.03519325779264565 0.1017865042233755 
-0.0375866618283849 -0.07561998539939621 0.112780727787428 
0.0879749123076895 0.02807144346657085 -0.07456940188967948 
0.08645132374879431 0.01739376250924068 -0.05997236741317243 
0.08801406409520819 0.01729022101997982 -0.0613403982501871 
-0.09290258156278483 -0.03536682739468829 0.09108679580203702 
-0.100227688248532 -0.03954182189342551 0.1051474199718214 
0.01365733244365961 0.02194982528313495 -0.03023760715043381 
0.0885077471340162 0.03195299761839529 -0.07911588190248733 
0.07505616876439862 -0.1706076022979528 0.06886668074042536 
-0.006034077050708825 -0.03532550821829383 0.02555278286677551 
-0.005759494765101371 -0.033789336667542 0.02259899353294131 
-0.04501238297236274 -0.03539436064234828 0.06241258184293588 
-0.006454084771290286 -0.02917992094594591 0.01935227980361287 
-0.04312854328718619 -0.01565727352409949 0.04940185500117016 
0.0295511026169908 0.04451205536709325 -0.06151987889219178 
0.02699892089768185 0.04144123130925192 -0.05727937585297242 
0.0165605248524025 0.04998080596442284 -0.06114197155133737 
0.005231832249480892 0.02909974249473821 -0.0344850878657118 
-0.01655462300993118 -0.02144313628878923 0.03512314752801436 
-0.03526019039046421 -0.04436240325492881 0.07062176055190683 
-0.0247380293324111 -0.0538204526001119 0.07003742332241053 
0.01235926387596867 -0.0810347884060284 0.06650887423366136 
0.02247323352513925 -0.07744975209159552 0.05450107599186616 
0.007680370052494326 0.02389979150482675 -0.02083353022906604 
0.01461246946153238 0.02135356509901177 -0.02895871588668687 
0.01477150338532144 0.02967228421408513 -0.03884532677639318 
0.01563637685179987 0.03967342284334183 -0.05277725537342253 
-0.007713656506933749 -0.03994938955761304 0.03890964035587241 
-0.01969972590700185 -0.07691825212569298 0.08966345579098552 
0.01726873380985441 -0.08998879049932824 0.07469370452898855 
0.03271300342609425 -0.07259086954589168 0.04536344480000055 
0.03764331255469285 -0.04710709204381752 0.01050426604592237 
-0.008550607382520737 0.005923197737581145 0.0107077145147015 
0.0004346537768486103 0.006593963398275602 -0.004465441590633171 
0.01444983887404535 -0.005732895012562006 -0.01425723353377866 
-0.0007864796462233925 0.02827985820339824 -0.03014844790251333 
0.01688813569345233 0.009393566030394807 -0.007759773832920725 
-0.00515405474325826 -0.09610040126715386 0.08735557067866123 
0.04497569747166879 -0.05544498654550496 0.00346858377281037 
0.04293463507773328 -0.06142031714242778 0.01656584499009651 
0.04912224400095579 -0.04633877068834388 -0.006352669838966971 
-0.01592563372446566 0.01944253165630678 0.008396910796639642 
-0.004079023797290088 0.02286208592200636 -0.01349222133250639 
0.0187110417439719 0.01851233011275333 -0.03403850143862154 
0.03164573386267183 -0.0372247586243859 0.01379573240698995 
0.03537340010176791 -0.1048467085741035 0.08558390859096528 
0.04233076303058975 -0.03567767953162064 -0.01447799226088663 
0.05193580434713285 -0.01562063449448722 -0.03779175395401593 
0.06723723140998586 -0.009842916917658545 -0.06207363976622851 
0.05028112595142992 -0.02286645415514218 -0.02711141137197671 
-0.01436991249670527 0.04469396212633303 -0.01423990430139207 
-0.004517802622097018 0.04518648745577362 -0.0290563673003915 
0.03842690572086969 0.0281176905985537 -0.05574985346800409 
0.04768583149097579 -0.02407699233016749 -0.00736933417826101 
0.02381547091291911 -0.04423090595463328 0.03944435856760242 
0.03089929515236651 -0.04037848711924384 0.01220805974442414 
0.06586383742493057 -0.03612693518342955 -0.03657441281919263 
0.06588242808988894 -0.01185541243825997 -0.05726854363496886 
0.03620683073952199 0.01182277158158783 -0.04465947365114696 
-0.005288890086592488 0.04065890438574624 -0.02305178512246397 
-0.007002377738075566 0.0407773151337143 -0.02154582939947483 
-0.005853090563095104 0.04197021312051503 -0.02367643002640189 
0.01926900186728956 -0.009992188423470386 -0.001520606289383939 
0.04015826598934404 0.003147107418798136 -0.0335222918135304 
0.04075055908189151 0.003446187668086303 -0.03482339666662908 
0.0385761812582221 0.004185341018203894 -0.03334565504417087 
-0.007880040606075188 0.02245843699034087 -0.005013339462018417 
-0.004959273711048974 0.04229838784417343 -0.02438114822502534 
0.00545854603374816 0.024706455079567 -0.01987190957668943 
0.04039462052822112 0.005241436821276721 -0.03580113168712738 
0.0071305877127376 -0.001138547826934361 0.00397275715712394 
0.006242998337714148 -0.03465306812830438 0.02349624012061022 
0.006527591022777317 -0.03535847428598426 0.02379538276461065 
0.001519829116926456 0.01766978167118356 -0.01519190652731157 
0.002976436763063503 -0.0339190549599782 0.02449422929327795 
0.0001052395305072963 0.0391868674142438 -0.03401586469038724 
0.006062381322264394 -0.008629151379220932 -0.008532265725415706 
0.007279275994504596 -0.009327858392903073 -0.007994302487709553 
0.00582453859817243 -0.01256308525371372 0.00280352982665773 
-0.008631359125383873 -0.01588630980895663 0.02246110588611169 
-0.02562041782868745 -0.01835840932501579 0.04359912860370221 
-0.009774054051515864 0.02547924366339278 -0.009518974734475289 
-9.223788988079464e-05 0.04545559866837558 -0.03564308642414955 
0.01068448864541942 0.05251586684972571 -0.04266072213432925 
0.0206106430718162 0.02934810083058057 -0.03199123806610479 
-0.002390179210226666 -0.01793245522293714 0.004355826765991644 
-0.002583716892488644 -0.01830802062842825 0.009487788102687047 
0.007439430822484389 -0.04085833923699289 0.02387301441670294 
0.004026383622956649 -0.04990261611448428 0.04001159993263637 
-0.006538585022463677 -0.05777490361998547 0.05678165487667657 
0.01850114743637752 -0.02699823924086697 0.01705740896734944 
0.01316462412151405 0.02824067730223258 -0.02704266541258893 
0.01433137557635984 0.03688254880677899 -0.03516185260888619 
0.03121896183956396 0.03513967969764089 -0.05342850285312074 
0.01032858134137306 -0.002114427385331841 -0.02533619309879349 
-0.007838582134183758 -0.01891776787478378 0.01455106017933754 
0.003218022987695883 -0.02165199443455062 0.01354433374732081 
0.008474443249848678 -0.04123549555065426 0.02029007843769232 
-0.01266304550212784 -0.03450008537097576 0.06338426903030132 
0.03281050038262195 -0.03518944699783791 0.004307435146815281 
0.02502405916548318 0.02176512384058041 -0.03765739808517863 
0.01675820279476127 0.02650606090542712 -0.03587216555871552 
0.03396623245870335 0.06013009732756396 -0.07952404552215754 
-0.02864678479709805 0.00447465110282496 0.0134311048830971 
-0.03024575591303115 -0.02873192999763846 0.03647736432312662 
-0.01514766296711964 -0.0314099361272664 0.03682277148845838 
-0.001892492092466588 -0.03388835342258745 0.03346105843627752 
0.02982337524663752 -0.088350023228755 0.05671975024249956 
0.007316533221318002 -0.07854101617992557 0.05976849473088958 
0.004951946084218578 0.003357826718346971 -0.01262179411922902 
0.01017101087851044 0.03144657430103944 -0.04023929903388387 
0.01025591578566469 0.03293213337025803 -0.04427553451510522 
-0.03016306319721752 -0.01090139265761057 0.02195255162362572 
-0.02809740221695412 -0.04007858839660211 0.04382027676335194 
1.909289900063713e-05 -0.06960695341012058 0.05036776982361695 
0.006661725898976728 -0.1029970444450369 0.0808697190977274 
0.01937728059524246 -0.08198516983302377 0.06126545322046816 
0.01679988165218654 -0.09342491085041187 0.07069103159403621 
0.0001052321226859063 -0.01783693842938386 0.01915851964940693 
0.01059064556138052 0.0194451639107081 -0.02994174766751882 
-0.004160435988709601 0.03404157928150622 -0.03684598933859359 
-0.03606355686225379 -0.05768855720271195 0.07014739406521708 
-0.03341960074419793 -0.05623781082018497 0.06506531375247278 
-0.03456080770872819 -0.05436515346543885 0.06550799378863924 
-0.01154283255779855 -0.04252811663552541 0.04023523895123954 
-0.0003606526071248558 0.007981726045686635 -0.02258177100906848 
-0.003397467702631057 0.00915093906768551 -0.02139580792875221 
-0.005048652544480872 0.009407323327079 -0.01974733681285052 
-0.0330432547607188 -0.03232688507900282 0.04065332583040475 
-0.03498794365787986 -0.05555977551604213 0.0662280736456083 
-0.01613618188097123 -0.009827076401688572 0.002383440438032876 
-0.0007811228539648583 0.00642124155146438 -0.02046808327353658 
-0.01027315746399169 0.02192797318263809 -0.03073534681348192 
-0.03590598716083837 0.0916278947218486 -0.05633280708321876 
-0.03712606585408115 0.09644504198160594 -0.0584075441330958 
-0.03428019658177509 0.1351592163782675 -0.09109232626370324 
-0.0351149615520145 0.09434928237455067 -0.05960313835261574 
-0.03540527570759669 0.1348319886915557 -0.08542416134970986 
-0.0372801969797437 0.08016136924500925 -0.04184362488911184 
-0.04006718236985882 0.0898800906000066 -0.04818187207738198 
-0.03333928601859612 0.1202230186339893 -0.08532098531876522 
-0.03470186810495596 0.1257873211927929 -0.09198274307300833 
-0.04217572686390834 0.1306485367276071 -0.08891800068018668 
-0.03937881244819098 0.1010171369280774 -0.05531577077558764 
-0.02967880236258939 0.08680971114288016 -0.04877716729200211 
-0.0001806249749507504 0.04293997549974177 -0.04009067362741434 
0.02932210886791014 0.001216554845444445 -0.03250880405906119 
0.0664934798397261 -0.0805438680702658 -0.004863608821201428 
-0.00116309456104116 0.04288980940063127 -0.04659258707782421 
-0.03025792959375774 0.01212562193914418 0.01062637518986799 
-0.02465541441567577 0.0701247899739204 -0.04978585490118315 
-0.03658273268750032 0.09691039054125264 -0.06566740022614294 
-0.03734582593785179 0.05373761082396922 -0.02345370058692373 
-0.009181649318398268 0.02135383176435191 -0.02501615297147979 
0.03349674131431131 0.0991277272907985 -0.1346958416360922 
0.1367326849391586 0.02806097866892298 -0.1783094836300859 
0.1123219029764004 -0.0578024194648468 -0.06666987038527093 
0.0310843422500312 -0.009451819208258213 -0.02922333267128697 
-0.02015316512831407 -0.0227745138082689 0.03171941773834483 
-0.02562276239842551 -6.760582210384522e-06 0.009497860695940727 
-0.01672848223309048 0.006324602333113963 0.01617322542635755 
-0.0165220347127596 0.000317932081220883 -0.0004254267974991332 
0.004412069022054083 0.0263164887339014 -0.04294300909837919 
0.04832580521453259 0.03393561834493772 -0.09032687940118797 
0.1364088744365047 -0.07845815470862924 -0.06552477424120963 
0.02797906515041934 -0.007555558137448994 -0.02293342620719661 
-0.005672512477701569 0.02043554825200183 -0.01876204179695855 
-0.03093523472999723 0.02479747392297219 -0.001788263709134451 
-0.03629475433280788 0.01205350812376806 0.01379869317014307 
-0.003536338406608682 0.0185481219736106 -0.009611862875611159 
-0.0410161639218493 0.07310638547191993 -0.03152002911664663 
-0.02651760802135975 0.08961177873499808 -0.06426220614132917 
0.0005818087729803822 0.08781763375189422 -0.07892337758766467 
0.03869918086760935 0.007567002361228356 -0.04946815661482341 
-0.01951776355705316 0.01818924596444614 0.006506443283476842 
-0.02520982544067027 0.003734993955400346 0.01927016148917571 
-0.03896626673480874 0.03959954754103081 -0.001898080691254834 
-0.03284764589537142 0.03446234894324004 -0.0001928918992926768 
-0.02689622978610754 0.04197148632946873 -0.0107658309146473 
-0.02990019784909282 0.06360835516670196 -0.03213152862583873 
-0.01898931269428769 0.08970708157278713 -0.06496271638509535 
0.0007398303660283557 0.08923458451727774 -0.07950511139785331 
0.008553744741872494 0.06760518645106088 -0.06687358784433357 
-0.04339450191457053 -0.07599831754625951 0.1162182387569324 
-0.04439391821606949 -0.07618259900768863 0.1174195670834591 
-0.04405272798524122 -0.07495164731446731 0.1155937956575029 
-0.02195493290573446 0.01425089581294186 0.01285209224684565 
0.01820592559258358 0.07913403667860344 -0.07975885203608303 
0.0183799346599337 0.08564790439846934 -0.08644960415200775 
0.01979705707036606 0.08174321496130842 -0.08369281157080234 
-0.03941580554539747 -0.05059376272356788 0.08921573340796496 
-0.04648476714523912 -0.07478047082940686 0.1182308617791794 
-0.01466733018553237 0.02323120387458849 -0.0003310554037907332 
0.01801555909371871 0.0798461333596618 -0.08072809983910004 
-0.0008980166783858007 0.03840275914370325 -0.02840251007078146 
-0.0467968737173211 0.08083127743290715 -0.02905983190912951 
-0.04601602527776444 0.07672197278947687 -0.02626123689579431 
-0.05913961993740516 0.197306368144041 -0.1265954869718622 
-0.04424891225975312 0.07686258346915886 -0.02832601377167699 
-0.07026312297033289 0.1783567594398224 -0.08386048515177934 
-0.0603946189397423 0.1067051330142671 -0.03101560784793069 
-0.062601793803808 0.1177370211316543 -0.03612004390252348 
-0.05241228564656208 0.1301705294878046 -0.05922025128460251 
-0.04427901604899727 0.1128723071559974 -0.05574836921631206 
-0.03545544136758864 0.09581049973015866 -0.04682849763876536 
-0.05978692739036688 0.1083056677955936 -0.03321503574236867 
-0.05199257139435536 0.08874222201945935 -0.02349560771610804 
-0.01964605345860398 0.03153577848720501 -0.01218342424654722 
0.04269556331960584 -0.09533517336997072 0.04019435106484093 
0.0970641402682024 -0.1876841438455478 0.06379137785003149 
0.007856173913109128 0.0847620127917465 -0.08831058079208001 
-0.05194684758629652 0.01004150437040066 0.05512671853422207 
-0.02076177333833846 0.04324011611111191 -0.01197133169577688 
0.01195303233421355 0.009458562235233677 -0.01187875656026565 
-0.01773650920023156 0.01544236183683577 0.006079258415926375 
-0.003652275479368524 0.01035186532626462 -0.01868013396663398 
0.03262133855261237 0.2012138000180744 -0.2330333430695103 
0.1878048251490374 0.00652061484411562 -0.2034137204028831 
0.1524298880281336 -0.1649943673821664 -0.0131998135675516 
0.0973192440324321 -0.112210140387147 -0.0008809125410274548 
-0.02858117119981068 -0.07643873084407303 0.1057212707544823 
-0.008800417041910532 -0.01285175338414539 0.03290894524302949 
0.001883976641436635 0.01751693171342608 -0.0009774661838328415 
-0.01217264703160729 -0.004008920938735987 0.02121480152281429 
0.01994865815365798 -0.02768785845282456 0.0005181647997705252 
0.06797582738729703 0.0296827616801512 -0.1019635328517374 
0.2243147849190948 -0.2789105685753008 0.04830911381630503 
0.06797429087309291 -0.1308858099255593 0.0484852625355262 
0.03058689136761837 -0.07986488001081207 0.05018430072490157 
0.005378704528808379 -0.05493365513446345 0.05975589606115985 
-0.006908080238628532 -0.0477629055151515 0.0614278882099225 
-0.006937356785276767 -0.02660340637469226 0.03168517979223905 
-0.02403303109932884 -0.0212351125490678 0.05124204220298318 
-0.03937619731704554 -0.0160329689739727 0.06104039548712284 
0.009135191750633499 -0.05376258103732918 0.04907339291802264 
0.09369073326819125 -0.1944804417418858 0.0894388308957174 
-0.03455223002838669 -0.02341342622405437 0.07117945432898183 
-0.0307176457370223 -0.08219615206837849 0.1187070497783514 
-0.01727934923590204 -0.0834271637681909 0.1059845749109361 
-0.02181419452704752 -0.05060017954502288 0.07739136111032094 
-0.006419288035428053 -0.04414304561398454 0.05273902379088007 
-0.0149364380093136 0.005531846061616311 0.02037440644738381 
-0.00200050347985802 0.002563235970744234 0.01148408213601144 
0.01753597638033902 -0.0489036787922267 0.03740482458642384 
0.04518878748064743 -0.09621122379969209 0.05112423244252878 
-0.063787626234065 -0.170998166835432 0.2385862537142659 
-0.0622914028956737 -0.171704467935062 0.2385091778042153 
-0.06379321395040909 -0.1715714986536831 0.2394719857221322 
-0.003936779176673828 -0.05326534320892484 0.06359596296524589 
0.05496224671452946 0.01898170581921195 -0.04891764201100088 
0.05514899013578315 0.01845177871611225 -0.04871235244426098 
0.05709483420475438 0.0195718264492812 -0.05094181998098637 
-0.05866319699946381 -0.08434772261877369 0.1551630289059798 
-0.06123185055629711 -0.1727759619522824 0.2383919901940437 
0.001999755516238807 -0.05660874985996393 0.06317510078845825 
0.05709305364521659 0.0210304001660425 -0.05247870816722971 
0.006854047091112658 -0.02881116327923845 0.0286391946105434 
-0.003278479560350324 0.0103948720474274 -0.01137600882661812 
