solver_type L2R_L2LOSS_SVC_DUAL
nr_class 3
label 1 0 -1
nr_feature 310
bias 1
w
-0.006005946317404 0.06400348827190995 -0.01053265252329461 
-0.004762846610748917 0.1212116204383721 -0.08964316662960292 
-0.01406782080121749 0.1073333953327118 -0.04178918547501346 
-0.01840879701546525 0.1422657052004916 -0.07996875810390851 
-0.01668514147816955 0.01509610210244526 -0.001272224024993193 
-0.01903082580402487 0.09044157598161728 -0.09167408438914346 
-0.01275522696899175 0.08508108954435041 -0.03415702873359555 
-0.01082339500496074 0.03015566956131872 0.02943747465462737 
-0.01618443708762812 0.02699767003982165 0.01119136619316136 
-0.02245410839336215 -0.0009512833486034842 0.04473242117864212 
-0.01022042824466324 0.130487045851595 -0.07601569884459262 
-0.01606105517010717 0.05585007738643931 -0.04671883160538041 
-0.006953572162411248 0.02193385796340042 -0.03802001826912894 
0.0118788324464019 -0.02164437496958572 0.00300891198515958 
0.003846251987478322 0.1168714117479368 -0.1148064471198548 
0.0005198637184986209 -0.02206161652099199 0.0501535193612372 
-0.01089741956537794 0.04844492856955838 -0.0386881021369087 
-0.01355618271157884 -0.1112003339356352 0.08355475588819021 
-0.02063304641532887 0.007578490661161462 -0.01842000675119635 
-0.03020199567987534 0.07794676031133382 -0.09146454240536016 
-0.006818556323586918 -0.08317428745142125 0.1099238726202236 
-0.01177824062511841 -0.03127907306395551 0.01525775635965774 
0.02645499750611131 -0.01165324841058282 -0.03839759756524252 
0.002289654976595056 0.04679021381882245 -0.07804794279375919 
0.005393810489053366 0.02101146277895306 -0.0107884265971008 
0.01126419386675753 0.04047502401203642 -0.01551404053499818 
0.02612184364512693 -0.1134866056698213 0.101459017142483 
-0.06004365085480185 -0.07641690717029981 0.1482042280501336 
-0.03254348969307158 0.02255245228395592 -0.01950995359292473 
-0.02196609142100837 -0.2435576500889977 0.2347463328827768 
0.01065777145857463 -0.01469212030152294 -0.05585795106329478 
0.0205541039413513 -0.1098045532690027 0.05695881346549094 
0.04100956044976642 -0.02402969604202936 -0.01203509191674692 
-0.005204163497906118 -0.01854714094572588 0.0417839886523572 
-0.02545823352481344 -0.03297989643752793 0.05319606050868398 
-0.04067364179466384 -0.04735871419006028 -0.009152482473123454 
-0.005030933555834407 -0.0002220911252653096 0.03077177624214057 
-0.02203069281428789 -0.1551127817254619 0.1959622194721209 
-0.02965859525592369 0.07991008026591112 -0.07400728847259057 
0.003350707195146102 -0.07776426613000376 0.05920068798686824 
0.02746908854021334 -0.08079742863500812 0.04099289215419066 
0.02501408485057896 0.01720884267542266 -0.01608658827016682 
-0.01666808546121196 -0.04737613257591401 0.07512248679246419 
-0.0302951868353106 -0.07589361760642623 0.09248479498403597 
-0.03606421181384086 0.0139611286438887 0.01703645870291114 
-0.02564638476422163 0.05613436026418784 -0.07311431998529684 
-0.01343974391022695 0.03089988985467954 -0.03882384632975943 
-0.01655695249661349 0.007763672242344079 0.004767839774604869 
0.01036373731870767 -0.1152463937437613 0.07234467847094497 
-0.00122827179591946 -0.07200569252610729 0.07812845702986702 
-0.001344183834818853 -0.1137923441057266 0.1228094238675498 
-0.01067402842694764 -0.04485458389048129 0.0568508162397801 
-0.01899998882635456 0.005384232951197363 -0.006969219507708427 
-0.02137554802281176 0.05204291667720026 -0.03350644895307275 
-0.02526321092402834 0.0464172112150465 -0.01861430449233293 
0.008627051322244261 0.02815304795686858 -0.04296658073259688 
0.01452610725673302 -0.03874150035566985 -0.004713714711977696 
0.01113538860335825 -0.05669047795456703 0.06575282924903227 
0.001458042346556205 -0.008658481258154549 0.02304639416953516 
-0.0004495594782822606 0.1071413441930472 -0.09217674178315827 
0.003287326668779227 0.08818388225699936 -0.09286835611745282 
0.006965965234848156 -0.04639284233035881 0.04353772353868155 
0.002646801790635383 0.07543053854689495 -0.02588828021430842 
0.001448022955320091 0.07002612763701647 -0.02182311386790424 
0.0003014171141809229 0.06109063197195084 -0.01851343546898523 
-0.001712696919738315 0.03874385656238654 -0.001955983909305117 
-0.002857437002950514 -0.03922723188568357 0.05805074400244683 
0.007431764939315502 -0.05288697291844785 0.01747295587622745 
-0.02216849118797642 0.1537623482392425 -0.1592164175699672 
-0.002897536767556188 0.01396584033274212 -0.002570162588833097 
-0.003423321078033936 -0.01540110284924917 0.04045789027624825 
-0.002851422276129749 -0.01119776573222759 0.03244742288853095 
-0.00571110306764696 0.007226741447074942 0.01031602323760075 
-0.006730734840227183 0.02013830950280356 -0.00688068938377861 
-0.004303880779632288 -0.002544193767754232 0.01122324521770658 
-0.001025583109330758 0.02359729665173443 -0.01027051969298814 
0.001426897194149359 0.05695750478041667 -0.03590140076327652 
-0.001237455136105384 0.0328495928883374 -0.006715983213505276 
-0.003250015326879173 -0.0008422844503876105 0.02853016043893825 
-0.002193689148787015 -0.0268584253546006 0.04456568593390767 
-0.002973775337255923 -0.02364520658280447 0.04335651663110696 
-0.007314249702801205 0.0002693447170675762 0.01406908645930413 
-0.007271183224751041 0.01430625125215444 -0.01661606749491397 
-0.007835868229383867 0.005205498869098797 0.006830449484726115 
-0.004507444527540119 -0.02657380065049586 0.03766800972828575 
0.003839509284881327 0.006068282072367728 -0.01340302579921777 
-0.0002893792481024271 -0.00373608265514051 0.004453129007804443 
-0.005476802148629096 -0.003656860739117353 0.01028080978799819 
-0.004026522520310113 -0.01216754620535771 0.03962863526306341 
-0.005423201299486419 0.002708656349197021 0.03161024345424227 
-0.008037681142397161 0.02164809545644289 -0.01825808388314457 
-0.01149854610553241 -0.01661430183285859 0.01574970999271729 
-0.007539739650546972 -0.01619295537829147 0.02356319659918587 
-0.00285131371151741 -0.0551499082746657 0.05741151484214647 
-0.004932437104715821 -0.01239730617587512 0.00748007520019467 
-0.005247052165312548 -0.01780769708839361 0.01051872147942337 
-0.009670463940804248 -0.02656971222597846 0.03147989452895476 
-0.021082351693405 0.006860355179851963 0.003952340525279326 
-0.02148740306719996 -0.01281771615156594 0.04927056549761575 
-0.006863317361171344 -0.01831026297312527 0.02731270585767933 
-0.0008094563987904601 -0.06671698899041403 0.05613284433703453 
0.001784254992615617 -0.08221975711490589 0.0667767166027923 
-0.0005238366734313009 -0.06530496944578934 0.05878471509317049 
-0.001920674180042119 -0.02049356424464904 0.01283671936813677 
-0.002938687239434398 -0.03592387079821065 0.02900790161643351 
-0.002616022330674557 -0.03392594004106366 0.02529672596620724 
0.006180232021137391 -0.04839974018158665 0.03436767106762834 
0.007055058510116137 -0.05758199000690066 0.0690284772446778 
0.005573157511530195 -0.07229568401011813 0.08951043296731483 
0.01150524288472335 -0.09080269608596225 0.08293406349520503 
0.007304095830940401 -0.09349546899014288 0.08232581304365104 
0.004219646587768111 -0.08251877442468993 0.06520812198701423 
0.00253891065106247 -0.02275535699087082 0.005312029409242492 
0.002129343546358261 -0.03001145383798887 0.01048968480928765 
0.007110703753650034 -0.03076832798021945 0.01191897139497841 
0.01270689495730893 -0.0506042063295208 0.04365103285930089 
0.01212573654879622 -0.06767358047792675 0.06336393816514241 
0.01116158229453199 -0.0699463164562614 0.05224964034159779 
0.00668809025888505 -0.07144950966148401 0.05546467279843676 
0.004491864092401729 -0.03240002928692821 0.0137069594826098 
0.005561697430029908 -0.02985933597164381 0.01168968470499139 
0.007369903850387174 -0.04914288637497255 0.03623255909980234 
0.007292686435898061 -0.04494038728518978 0.03192580448911288 
0.002750700130231246 -0.02293685090198594 0.01370126275761224 
-0.002990455864000156 0.0233595299040618 -0.02301633172427206 
-0.003373364856079172 0.03317328908083548 -0.0373518757478201 
-0.005043623788599501 0.02439530241714058 -0.025682985298519 
-0.004917971685292855 0.01644391201419199 -0.02229673378022987 
-0.002008438816937588 -0.08181769399046578 0.05412886790005085 
-0.004299080246441294 -0.0740535930011751 0.06284697138654401 
-0.02811871162656372 0.1422065188582135 -0.1648723770520951 
-0.01011369157028247 0.03512456207938837 -0.05596260429353881 
-0.004581145633645842 0.01920324018607779 -0.02932467652344365 
-0.003942911046299138 0.0279957559011641 -0.04331375065755307 
-0.005603227840281612 0.02746543935468153 -0.04569658258325108 
-0.003819829766846263 0.01794885162134653 -0.03073089126461817 
-0.004124366320680094 -0.04261354309074207 0.04743220758746795 
-0.002056159848741156 -0.00464870629248944 0.0103819871211382 
-0.004091676107342755 0.04672303714032244 -0.03917087293261562 
-0.006859068579522247 0.0264316002421387 -0.02182500677992082 
-0.005361520819326831 0.01588535968518965 -0.01969900805838262 
-0.003357369996723697 0.01341839254034947 -0.02382373832402647 
-0.001638000148534219 0.0243283420948841 -0.02988090865952529 
-0.002948376558665894 0.05532064415671923 -0.04647098835542553 
-0.006795268621439056 0.09636968230444017 -0.1061117136575202 
0.0001781464668343848 0.0383160600303024 -0.03708677092041747 
0.00235924594663618 0.02830007874739602 -0.02200032304465561 
0.006742927668519136 0.02795073349241414 -0.04922446220791724 
-0.004891140502037023 0.01747069797401567 -0.0221159857617471 
-0.007379756734354834 0.01257253147330574 -0.01997392795137068 
-0.00593282863335217 0.02086222992957488 -0.02168967353566814 
-0.006152625011729883 0.02308374949867833 -0.002692842781008121 
-0.006309350361231688 0.1075876794192652 -0.1042146656470781 
-0.01043900787783836 0.1053725830258363 -0.1243041427316429 
-0.003206716682595571 0.04048089401525165 -0.05338544695853113 
0.01488787170755299 0.005172935418508189 -0.03844130827556802 
0.0007449956320933229 0.00687514282333467 -0.0159688067281167 
-0.007658391971231085 0.01890959918346057 -0.01783069618321506 
-0.01252678533954824 0.04591375798972158 -0.04497694825502396 
-0.02454390242423517 0.04267895557948359 -0.03007505228827886 
-0.01408539421706622 0.005128102768051254 0.0205972318202345 
-0.01399242668300579 0.05279483697327679 -0.06254573738964327 
-0.0006966058526483443 0.03762222251051512 -0.07792630372173505 
0.007967951410540885 0.02632005691308711 -0.0553967403043485 
0.00789091312031906 0.02291453185004144 -0.04037237897424756 
-0.001515721352231524 0.02125682816761287 -0.02017023794375246 
-0.005227340727791315 0.05513004369186715 -0.05006599737436548 
-0.007522894966404806 0.05372818411925229 -0.04908205801868388 
-0.001386822366535706 0.04830931399976977 -0.03610420609437431 
0.001206718870548782 0.0432101342993999 -0.01273583339611541 
-0.0008517649096916688 0.03422307870025142 -0.0223412105464331 
0.005500225189276185 0.01314951565757566 -0.02709325814528538 
0.01258334254550696 0.006855949938443983 -0.03279793905818605 
0.01386504759744923 0.02184603711179947 -0.04507145248674801 
0.002221244871964055 0.03909070879455453 -0.04532501938606148 
-0.00307344738118778 0.04486384105966115 -0.03567273566794104 
-0.0009497599440170767 0.04284618519670903 -0.02212140104060284 
0.005158439227064471 0.03535113860935916 -0.005742053608634274 
0.006489185691572304 0.02854385082409702 -0.009730332882247276 
0.01204139552380621 0.01664045258099187 -0.01055287011914927 
0.01183656467385306 0.02342196982379249 -0.02443932061157611 
0.003019224225964576 0.03761735756291568 -0.02890522818755707 
0.002778811828897231 0.03959958033670474 -0.03199551287452245 
0.004386049295589053 0.03106817711055097 -0.01552410749174818 
0.007487379540186568 0.02563006288103806 -0.01291256647849598 
0.005148555290784713 0.02738695969603496 -0.02626493772154964 
-0.01878159558179386 -0.04404394413586684 0.07628253389930426 
-0.01573698516490928 0.007781134841474696 0.01683837691731255 
-0.02290388589646184 -0.05376351467452185 0.09089409014901423 
-0.01360753968830876 0.02615968482950828 -0.00897796221327724 
-0.005958117896637113 -0.1579993603365557 0.1521893119862007 
-0.01622707327850074 -0.07434684861143551 0.06619452652808368 
-0.03173494271316821 0.06676752840202754 -0.083562185258337 
-0.01602986615387081 -0.02769167026292937 0.0101772880750589 
-0.01028051292444181 0.05216060926707691 -0.04448586351797239 
-0.01064471576819667 0.04874687416192129 -0.04097880978365451 
-0.01188069550385288 0.0153559754750815 -0.003605041184370339 
-0.009962391877761228 -0.02071770003086986 0.03991089128848364 
0.0002211171687765456 -0.03714044749963027 0.04621601353666535 
-0.005052738929763709 -0.009448763947867568 0.03188449292704069 
-0.004649932287953226 0.03651989553490694 -0.003440428154591951 
0.00422117492549044 0.02282879171508202 -0.01029400003080869 
-0.01009172461969217 0.04570255347732349 -0.03060665266475774 
-0.01004897588719247 0.04825574904805132 -0.04078100347419901 
-0.009248409856146221 0.04617485619686704 -0.04262784359188303 
-0.009079206781924021 0.02353406019805502 -0.01608883665927352 
0.005144261775129848 0.01063945371841248 -0.01897110552075675 
0.04674136632013731 0.06290894502077056 -0.1208776153404976 
0.02514523690429519 0.06080908690325 -0.06786029017367022 
0.07634309251142812 0.02538969701980733 -0.123944634878314 
0.03168926521220407 -0.04353313871199081 -0.005196247106050254 
-0.005092861137944299 0.01443197095398072 -0.01354040785931584 
-0.01245306324074171 0.05364409386295928 -0.03751944726789681 
-0.0132302224171985 0.04890436187090217 -0.03021507918504227 
-0.007301388731807461 0.01631816347783808 -0.00557755226748549 
0.002865914028567334 0.02685032927382202 -0.02711086042698234 
0.02202802272684318 0.03048774343789426 -0.05769176456526792 
0.09989431227860274 -0.01433970993426463 -0.1347922646640878 
0.05822108106814883 0.008317501025552301 -0.1069854882945578 
-0.002682790064615098 0.004403165120927413 -0.01174033060028253 
-0.01144497100085782 0.01234620740191568 -0.008857720180531686 
-0.02429800327692679 0.02084317189553605 0.004271678477270897 
-0.01932476091198849 0.01312784126607087 0.02880714389601541 
-0.01780529597890742 0.01799395085190764 0.00135420391790526 
-0.008945636618900745 0.01911979713850455 -0.007237035866053911 
-0.0004974442789644258 0.05446484083598526 -0.04503375964759558 
0.01192567959715678 -0.001653566924459926 -0.002940124837869624 
0.01266103977825731 0.003024700585878796 -0.04518290053939628 
-0.0001240967412549098 0.02359230492777707 -0.04235576375435376 
-0.008219222185919009 0.0354864135444096 -0.03034944731588753 
-0.007484953728240318 0.04520776861208894 -0.02560094252638138 
-0.006843687677271881 0.05943197056345811 -0.03373539148448831 
-0.00794783967097955 0.05444850265201219 -0.02700937875804651 
-0.006451731793643523 0.03886941390985561 -0.01995108694552852 
0.001712140959164345 0.04988260680347752 -0.04869200993728272 
0.02572370763662218 0.03149711711049089 -0.08422532927174806 
0.01810016389489413 0.008166668770464435 -0.07657566710879586 
-0.000198158058159207 0.04338530757339133 -0.05986809475409435 
-0.002427010140175672 0.05001924585211082 -0.04921977411585561 
-0.002362700699632872 0.03864631015481011 -0.02244789324244199 
-0.001234371636099724 0.02936437152216714 -0.01405010157125695 
0.01524068432833583 0.01795745614601481 -0.0459080419337233 
0.01179584546553721 0.03584296499536182 -0.04628769939871892 
0.0006938702934573957 0.03331931580018853 -0.04299504501727379 
0.001867287817353734 0.03523569297742969 -0.04872575070168237 
0.001092443155154904 0.02064650332516461 -0.02221396097497493 
-0.001217252542436371 0.01431239483451786 -0.0002742592736578615 
-0.001416280729748063 0.01682198085480907 -0.004880073550137853 
-0.02934034286815198 -0.2370831144036122 0.2981446955491128 
-0.02150093817930226 -0.1451018095296673 0.1945982698810464 
-0.0310013478982128 -0.2230994239658493 0.2819549568902195 
-0.02389172722658796 -0.05800565479787472 0.1021402023281032 
-0.00298564031958956 -0.2938843464361899 0.2937133300426759 
-0.01424406611653262 -0.05915703977526085 0.04969503126544176 
-0.0356994570811053 0.0796915735265394 -0.07699006616087826 
-0.01316647931196934 -0.04921215209600149 -0.007209166861104205 
-0.0171388117934702 -0.005210663786269274 0.02895210769469377 
-0.01431804621952512 -0.04709278041223074 0.0634510811695591 
-0.01105072281966802 -0.08446379248775282 0.1107365644664203 
-0.005356419114992348 -0.07159313236641306 0.1067819956803517 
0.00884143493674535 -0.06036633969719848 0.06728177548243704 
0.0004451101116820921 -0.05871391957130532 0.08440766716306138 
0.003128748933704902 -0.007104509633911147 0.07412656927867432 
0.01876934965713606 -0.02366426604115106 0.05300099739598402 
-0.001337035580255206 -0.002012133010939988 0.02943577352089115 
-0.01390088232395848 0.002788473096223057 0.01996827680857937 
-0.01434727103592702 -0.02862134098061695 0.03854948185202262 
-0.001297908013941778 -0.04072036228571743 0.0523895349380767 
0.02108864173379851 0.005527936965647158 -0.01633967950300276 
0.06054908793606984 0.06161209225462846 -0.1392063860477918 
0.0437308856974656 0.07209532124547391 -0.08170314397062699 
0.09848367910507441 -0.02644423930354173 -0.04684156949980203 
0.05283156316508747 -0.1685757675205366 0.1425886839149791 
0.008784156677648765 -0.0338409508923142 0.03975489253641333 
-0.01202924781791684 0.004130435415097094 0.01929942827476203 
-0.01932490911741677 -0.01409776370980514 0.03248726283278795 
0.001162935174023494 -0.01127863098018028 0.02214786405256578 
0.02119489475443042 0.01585614159672085 -0.02461578170736929 
0.04426094351319017 0.01959203531816027 -0.0654514114832814 
0.1336942480727039 -0.105385432151988 -0.08413485264488145 
0.09906372522786427 -0.02891769414707554 -0.07586579601990255 
0.00984592310199006 -0.05423099025167905 0.06002392088390026 
-0.01008890334336688 0.0101511921969235 0.02524470398160185 
-0.02770674575889154 0.01750737669505551 0.02701660637382556 
-0.02062606006696957 0.01636492297752663 0.02462953018867341 
-0.02255532595100646 0.02545746282042653 0.01592475609538959 
-0.007784212990763264 0.02070445330424615 0.01121924167342431 
0.009556161994275277 0.05881626927080794 -0.04196319416354967 
0.02990294799268916 -0.1945894377337514 0.1839254329260107 
0.04291260328370469 -0.09716766735147749 0.0192179637843302 
0.01935739234495827 -0.05853505672487486 0.02280511760537448 
-0.002582633923940236 0.001171893317615959 0.001022827087563458 
-0.004678770868514451 -0.01222072642325471 0.01646660477513939 
-0.008216022524352121 -0.004115630673424616 0.01447528445990506 
-0.01122088197505769 0.03428873074120751 -0.01089739468199922 
-0.006726445008913923 0.04292490410589694 -0.02664884192638886 
0.01800551455761699 0.02597333948240041 -0.05446065650562622 
0.05504696444737515 -0.08125175315863729 -0.004488550066028402 
0.0494857949346344 -0.06425363439669615 -0.05407550901384492 
0.01788640242232882 -0.03073919992799496 -0.01112891377930324 
0.005219867965752367 0.003726065881511571 -0.01765817970176856 
0.0002854869645478873 -0.002628888176864209 -0.002616374118680182 
0.008286410050260583 0.01459778463515016 -0.009940063350859637 
0.03866796590456843 -0.01853076729895003 -0.0310879819903784 
0.02565430479505307 0.01140402283936832 -0.0100848972234975 
0.008363499050325386 0.06219332179284174 -0.08597200457041994 
0.01054823348199889 0.0540532004866059 -0.08718135275076962 
0.007677459282078933 0.02543648308685524 -0.05045798175889162 
0.004510859595121719 0.001611560053058401 0.02035715231024242 
0.001944179605246721 0.0005761973902819154 0.02316748662593063 
0.001189253324386113 0.00545221430972492 -0.01135406644295961 
