solver_type L2R_L2LOSS_SVC_DUAL
nr_class 3
label 1 0 -1
nr_feature 310
bias 1
w
0.01891781586773601 -0.03888826380741358 -0.01872331207973531 
-0.03954223918692414 -0.05185389904850593 0.01675464887033261 
-0.03456248492950557 -0.0148940853139249 -0.00791247881027372 
0.007995808965484465 -0.02197862916114229 -0.03102510432899944 
-0.0321696790753404 0.04080485607149607 -0.05777186795884384 
-0.03489408340170071 0.103517235029345 -0.03823928288296212 
-0.0238723954103886 0.0933997035956862 -0.06951903145190283 
-0.03388334815001707 0.08479880210997062 -0.06021808527305208 
-0.02115855435911635 -0.04019064545261084 0.008647327167836389 
0.002625147803124935 -0.0890956924697457 0.09023118432272771 
-0.02255746708385179 0.03031600469282723 -0.06344793997776059 
-0.005909548044529462 0.01451688533975243 -0.01657592177660622 
-0.06983981276454984 0.04550919712932196 -0.05235290814482627 
-0.02896276586725528 0.05540022273028591 -0.05175911799117597 
0.002182958395569163 0.09328632913307261 -0.03179138354222294 
0.01205857226107037 0.1222442368821897 -0.08388224428708665 
-0.02479848115442955 0.1338002982803343 -0.07998560528636652 
-0.04765288676720389 0.05219033123719936 -0.04339715477497971 
0.1086478368391885 -0.05292864158056317 -0.007002922447400066 
0.07679569811716361 -0.05372984046177538 0.03160487405649665 
0.0004283695673860644 -0.01430390963411435 0.004183459254286383 
-0.03408976291051392 0.08191610946606905 -0.05117804985133369 
0.03205859080109202 0.03156331867883698 -0.06917418418669004 
0.01688940647577261 0.03483084942571246 -0.04993021590551174 
0.01375044636602376 0.02052576706233337 -0.02237203487848312 
0.01559105956810063 -0.05123258530154257 0.01144679061324246 
-0.1173216431231989 -0.1257758612850768 0.1711385280159107 
-0.00342164938998303 -0.04156332353042708 0.03974275044273773 
0.1507536621196761 -0.1516057499667849 0.118430435758681 
0.08101475921228178 -0.188119739304333 0.06577579955903604 
-0.02600573540676998 -0.02395643224372664 0.02688137079114825 
0.03337472204247638 0.02707521644581399 -0.0653333452621417 
0.1388894817943191 -0.02921098570579942 -0.150432514940114 
0.02534465443399118 0.01840377559844431 -0.02160825968982156 
-0.05211633272829726 -0.04228440559237722 0.08243120914022427 
-0.05175522186511815 -0.05338596959323019 0.0936518996124696 
-0.01126722660386816 0.0294137473691772 -0.03205581685572158 
0.04233545617344931 -0.1046800735120677 0.01041955776045011 
0.0882951956517955 -0.169749983980764 0.238689873128181 
0.02549095692224604 0.04090183898289885 -0.06830425890854813 
0.0268260635841568 0.03211691885544667 -0.03672819036450715 
-0.04948368075951892 -0.02131466197617148 0.07174763765995942 
-0.004802325462500806 0.0188908230430738 -0.02208412475885847 
0.005919108168503405 0.05003625266247389 -0.05138706845663814 
-0.06793769999587185 0.06226039411086366 -0.04505426166572075 
-0.05962608445042532 0.01716311559115468 0.01183116032693825 
0.005280375838835395 0.04251053071590637 -0.0292103040267723 
-0.03149440914415276 -0.01347239402307472 0.04396815854980134 
-0.01533187355205349 0.002136653762706617 0.06016746089062092 
-0.02356454727774787 -0.0876628983455856 0.08149717993575092 
-0.05069600660687085 -0.02365858042816938 0.07492609488310958 
0.01735341766770044 0.002820579895926119 0.00221993496483082 
-0.01411383377505324 0.006308975976362122 -0.06158728112366247 
-0.01470324153224324 0.02761444339871233 0.001237056025295632 
-0.05228894207524519 0.06197313966170961 0.02438182170145947 
0.03433110044343003 -0.02871850381011083 0.05796133101272501 
-0.0450365195514414 -0.01768069176541819 0.06944106265605571 
-0.005610735856340319 -0.04984001968273997 0.04161023997808615 
0.01795397400437512 0.00380847505559544 -0.0252455179257105 
-0.01963445537404206 0.02081346320997161 0.001302677076320394 
0.01470341251271143 0.07200957011657726 -0.09741109517992431 
-0.004789431550106376 -0.01999696912048769 0.02981191211989377 
-0.02857414988445784 0.009749284888942972 0.01634541761664712 
-0.03123561201798125 0.003158517044485067 0.01686391773506864 
-0.0450629403220669 0.009046411050079698 0.02511257149678661 
-0.007414543397678462 0.007727391008813264 -0.01147310179155378 
-0.03253127904435225 -0.004810960962435449 0.0319037412534201 
-0.002246262449877691 0.04062878058822372 -0.02121856439544984 
-0.004421585585367003 0.01734670284985295 -0.01077802696138463 
-0.00440344933030904 0.01429384701817309 -0.008995592971270434 
0.01537551370616612 -0.02716943759682312 0.00630906205410782 
0.02811311462657233 -0.0545784644761272 0.01747685920813901 
0.01491184722203818 -0.02168879686025969 0.002519160384311229 
-0.01387005825834111 0.005305189910382841 0.006645285903699454 
-0.02197873442134142 0.007531688287795159 0.02425722555196322 
-0.01349341401198394 0.003745077744495654 0.0245535150773978 
0.02255150372275011 0.04185848160392194 -0.03191462408445219 
0.01521542881501349 0.03494154745592756 -0.02747026987575966 
0.01381640034931668 -0.005487197984679086 -0.005894587651171737 
0.02238714380529325 -0.02182971633905757 -0.01104496146441213 
0.04314664732454044 -0.06179742414177319 0.01435193151076372 
0.01444290793635896 -0.01241208455035715 -0.0004836001053627171 
-0.01948180905568277 0.003531879248752924 0.02628551491050978 
-0.02463301190893518 -0.0007968697200256834 0.03467012983945074 
-0.008979367683756078 -0.01186931441755043 0.03994281839773888 
0.02390008182508394 0.002354628032964243 -0.00622233038473542 
0.02252642305301095 0.01818084116145858 -0.01128223970640751 
0.01426058273969088 0.02467218441696548 -0.02641018031568966 
0.01055704456708613 0.00538876903473974 -0.007758350019428292 
0.001022412300951493 -0.004658461887016924 0.009003613138510003 
-0.02843074207320937 0.00279067477630471 0.02516700153015574 
-0.02646918699824152 0.01121257563233326 0.01173359390177676 
-0.01938126264675369 -0.002406483368235797 0.0272023496786663 
-0.006569641089691194 -0.01358306926342954 0.03950254399319109 
-0.02403167407114203 -0.01212615680636448 0.04209292710679048 
-0.01302980966202639 -0.006859463883372265 0.02043461776006712 
0.001434164091480219 -0.002272570119854305 0.0122758110354652 
0.002110054013300694 -0.002097587956885072 0.01341681591548302 
0.01411942826889503 -0.02323932064360253 0.002568364181127448 
0.0001417897579986772 -0.02074212368255133 0.008771937360720577 
-0.002645879469807733 0.02977655159191057 -0.02469821851455892 
-0.01046654370607105 0.01002318151714719 0.009421387386863055 
-0.01060693455757001 -0.003147230019188079 0.02390864692374653 
-0.04513736419236476 -0.03234522360741277 0.06938659514810061 
-0.03059895769441068 -0.03529201178703185 0.06643458893481019 
-0.002610439332751337 -0.04401727870158793 0.05157160712349191 
0.007586915071684397 -0.02980868854597852 0.01146163971628054 
0.003948949063195547 -0.04326074865812993 0.02502693592675811 
-0.002436809227372224 -0.05013901744620955 0.04180778944092665 
0.01056512322971697 -0.02342179582372233 0.00856796140122036 
0.01192497390227455 -0.01580019712443361 -0.002251112975927452 
-0.001875996451879632 -0.01475027810073581 0.02450147701599664 
-0.04711328341781088 -0.03287158162770974 0.07166741683339195 
-0.02886396713796424 -0.05029315243931069 0.0702155759648382 
-0.01538734812855404 -0.04161246736852094 0.04690062088637607 
-0.02199151549977889 -0.03419306348502295 0.04761246270958003 
-0.01235903576407343 -0.02330829174449409 0.03327259251019137 
0.002001407495806906 -0.02276930535354487 0.01988770303211808 
-0.003892649488442104 -0.02728939011610647 0.03755032750380645 
-0.03012119040360661 -0.03196824196730218 0.05048659063825375 
-0.03027250253903361 -0.02314673140927494 0.05068936838216819 
-0.02387943739702056 -0.01985418632046019 0.03786119190580799 
-0.001008671136473054 -0.005507140114803724 0.00853243515341476 
-0.01194930079727555 -0.02127764870299883 0.03070512888309684 
-0.03082502701972863 0.02282509879329711 -0.004888718619533599 
-0.03425604636436191 -0.001709647283053372 0.02109148041678286 
-0.02854446459503721 -0.003836835158527849 0.02590912945265249 
-0.02444942052257807 0.03422215242732356 -0.02009164752782858 
-0.01700250468264268 0.008872854101056206 0.0204371200900043 
-0.01246885716045651 0.06521052806796426 -0.05123800819250576 
-0.02453440139109635 0.06355166965485712 -0.0396148204805875 
-0.02550204843560094 0.05975241244150822 -0.03670294549398371 
-0.01541624676119549 0.03492604074212004 -0.01657607972332781 
-0.004090167319496045 0.005129404106441645 -0.006912371157057545 
-1.293025497938693e-05 0.00826642089491411 -0.005027925811847993 
-0.003546818141961762 0.0174460470543555 0.002432029357953653 
0.001037341997830235 0.01350170445992823 0.01595849461478843 
0.01337619688171248 0.01112863846386875 0.007705150876411021 
-0.008896838984161777 0.04590560362727124 -0.02984901196611696 
-0.01110121084639704 0.0599937373380675 -0.04704959539950762 
-0.008595067274541098 0.0497436291189136 -0.04526357218853953 
-0.009344571446750903 0.04289442637494129 -0.03107587941713889 
0.001251970696509488 0.005720083809189451 -0.01723725158335931 
0.01164003897192808 0.01692230118768451 -0.0316360186576287 
0.006011518016523552 0.02267905096467945 -0.0151948389477073 
0.009155549410299495 0.0252444207664537 -0.0130893910776113 
0.0448339010627653 0.005681527864759187 -0.02319580502162796 
0.07512623847114637 -0.06294091875612019 -0.05767132175195486 
-0.006474596240683878 0.01111581196903226 0.01784840077051349 
-0.01075948864414863 0.01659855629003273 0.005213869022227761 
-0.02157525215897388 0.04187501661527609 -0.0113157959742366 
0.01230891093368076 -0.001204244718760304 -0.02533847041136952 
-0.01202101799426097 0.01388980359561399 -0.002169186019104756 
-0.002959915148388718 0.03755671422890037 -0.0142800735425337 
0.02587233228749756 -0.002115712528159584 0.00326343371500155 
0.04545583477105831 0.003127497038859272 -0.02032077176577781 
-0.006092167121469476 -0.009176786062571824 0.02574382482452403 
6.95816336928264e-05 -0.006428309590072646 -0.0008149449937930463 
0.007487829603801718 0.01549871534420672 -0.01961397425296122 
0.01170715907848912 0.01735225585853198 -0.02394229296976922 
-0.009188000902813192 -0.00474884691241706 0.0040306533261953 
-0.02396165119983513 0.01557517168063265 -0.002854643983704494 
0.002150298531056592 0.03693255871787007 -0.02963838952845201 
0.02335768235538532 0.001359233074669562 -0.01955571420782364 
0.02461633375029842 0.0147891365209783 -0.03649654502194687 
-0.007159398825746628 -0.02523503784264654 0.02874748503891195 
0.005841580025751122 -0.01551608050637776 -0.0005991312890603302 
0.02978188986624938 0.01034172644259651 -0.04210414782141517 
0.0325468763154556 0.06222114622516819 -0.09793167249724327 
-0.004281983896625307 0.04177409461028607 -0.03835205680324492 
-0.02032898820647501 0.02364592230549101 -0.01193279776469443 
0.01034295187157422 0.04124030143666019 -0.05447907891360753 
0.04652673028237703 0.02195885419940874 -0.07663529825858681 
0.02793536324368288 -0.001995076940651386 -0.03333094789877163 
-0.005546816818454376 -0.02304182780261979 0.02546385460213498 
0.02435235207435543 -0.01852534065738629 -0.01383417767484268 
0.04142985059197005 0.0064007079889364 -0.06757984677206272 
0.01516347449736558 0.04487831859301079 -0.05902424991190666 
0.01127595622376497 0.02434400904498163 -0.03315173320607927 
0.03155209076127248 0.001004445356637587 -0.03514834947607335 
0.02866965951365566 -0.01491051874465008 -0.02343458110242826 
0.02099896581311633 -0.01165553714580646 0.004264781261421899 
0.03991667921100216 -0.001378303777842321 -0.03646700300367294 
0.03389209703868005 0.0003320941421524385 -0.02465671297283377 
0.05453551715786126 0.01166906477188266 -0.06582765477898669 
0.03573811955035913 -0.003472805949595942 -0.02572630281822487 
-0.06602156409507991 -0.06261595134584716 0.1140131231139481 
-0.04765901987042025 -0.06500753894249849 0.1008501860725904 
-0.0763557447326943 -0.1231238805569056 0.222292947669361 
-0.02915558751871093 -0.02453525336747398 0.05609077547332907 
-0.02351060727453327 -0.02660325496738108 0.07764083147664122 
-0.06257206043736578 -0.0232771806259046 0.1129383626925842 
-0.04805529623875859 -0.009080714328712295 0.07079000614526253 
-0.03266816198849078 -0.01013033464833489 0.05410930595138624 
-0.005798284285410685 0.005326526286507428 0.01683031646826836 
0.005019498190128072 0.01498438402450715 -0.004025722038711558 
0.00637528318872922 0.02904873809472125 -0.01293131651962912 
0.002765234513354771 0.03979139719099439 -0.02625497165466876 
-0.001685447545385038 0.0002367667406413494 0.002884141440375184 
0.06733318566354551 -0.04258743177590236 -0.05009265664557736 
-0.01261963778185089 0.06297648627258562 -0.07514324983799732 
0.01400280215947545 -0.02464790751062069 -0.001072469288935902 
0.02868023622248669 -0.03078157969750328 -0.03583513118447297 
-0.01155730399764592 -0.003826924246628073 0.01689659085747465 
-0.005228052710067748 0.02285456229081872 -0.008879487373249092 
-0.01258883667397399 0.03594454036922804 -0.01520270014367068 
0.01879849990900412 0.02829945998519818 -0.04313180039862231 
0.03139598467344671 -0.01029382929971803 -0.04126713235049624 
0.06866025808765441 -0.005111759897908248 -0.06876557812640223 
0.1365020712550396 -0.1699441196794068 -0.03304796419415761 
-0.0264638354434554 -0.02636449834719776 -0.002848805007418297 
-0.03437207637871344 -0.01542046698938392 0.01595043330662217 
-0.04008806312311527 -0.00568550288004199 0.0377383013540999 
-0.02129150126465898 -0.01099129956348846 0.02963819237892787 
-0.0243949676203332 0.01754006055497036 0.01245303293509013 
-0.02832062802735595 0.03204699590249125 0.003019758361930806 
-0.02676327503368891 0.02269045365214968 0.006446806473208661 
0.07343607533441607 -0.005252457926993768 -0.07016379295888583 
0.03031950652419891 -0.02376548938909626 -0.0325396130404373 
5.543280656863068e-05 -0.02199636630725369 -0.02506951517444968 
-0.02584829902132252 0.02488810469329004 0.005012080450527408 
-0.02468063458268023 0.0296704259681535 -0.001354356966265341 
-0.01659985278456023 -0.02069073710018374 0.03780818309928233 
-0.02305442442613296 0.01365656494461733 0.02062259908965291 
-0.03086043078689579 0.02406466083806397 0.02178882046738781 
-0.01452565895765576 0.0285282939080287 -0.01343914122630724 
-0.04462735086517612 -0.03084631279935199 0.07752076322221399 
-0.07241556117233273 0.1046278731921813 -0.0290605347052094 
-0.02297982934296388 0.05582609647509502 -0.05683526636007508 
-0.01373820772951278 0.0449464528565472 -0.0422657041107394 
-0.005904290508798214 0.05095401897390165 -0.02829087950786047 
-0.0181451015429439 0.04173563859978954 -0.002993595953540454 
-0.01492353541386534 0.03714012033983068 0.0006181881527295793 
-0.03592534168356021 0.0260991392744248 0.02990585530343471 
0.006526291866761596 0.03327650574089135 -0.03341234297785506 
-0.01065783590332153 -0.02153761883380984 0.02805845810109725 
-0.07238655350238279 0.1042224929331876 -0.02823014650910817 
-0.01312447023228034 0.02088883246297591 -0.03289942125293905 
-0.004466787229531009 0.04665793585153266 -0.04443562503532539 
-0.00978028792208676 0.04836018656105912 -0.0194572087969875 
-0.05093295790578932 0.01840128559272181 0.05776473573193477 
-0.03483990620487165 -0.01246342319701062 0.05889638762061959 
0.02872475169818043 0.03952427236802061 -0.06023910059793836 
-0.00812501139452884 0.04230857674169477 -0.01100496262658404 
0.03240185511201006 0.04373161944996606 -0.06876517668246844 
0.004739998673298906 0.04205375721344515 -0.02969857989279168 
0.04115957227501139 0.04687839936782367 -0.07089111732800717 
0.0139631832710913 0.07790652440046225 -0.0610808738899753 
-0.08188248873135719 -0.05558029320723258 0.1309649070869416 
-0.06010661493141782 -0.1511725400428847 0.2033572351109755 
-0.09394407783040866 -0.2247052657521586 0.3390341925615215 
-0.05769975409164308 -0.05469867356069717 0.1078250050028808 
-0.06243983892041019 -0.08010562909510326 0.1598663216356563 
-0.105199969192916 -0.02677889249876842 0.182163479503419 
-0.0682693049786956 0.0007628536311312412 0.08346159533873099 
-0.05034914288888266 -0.002034136677864213 0.05962445667115612 
-0.02300041354620719 -0.01462965468743702 0.04960337751264349 
-0.005704990578870936 0.003628027583851887 0.01004738298057851 
-0.007717770458365538 0.01289639401469976 0.009229689904813952 
-0.003023852551976395 0.05697276816412725 -0.03671630903528998 
-0.001675662156811051 0.03360261080272359 -0.01780454904804174 
0.09520712048573435 -0.07100688471659741 -0.04698048701084977 
-0.003419588697097914 0.1238540007804805 -0.1370893635389588 
0.05892399266117972 -0.01099198614287213 -0.02228038712867707 
0.08240544053121555 -0.06756416935215617 -0.06986785896818085 
-0.006306846143323074 -0.03046754791326857 0.03303021759855657 
-0.01190877592221537 -0.01601055636576993 0.03081477950122532 
-0.01522124704423577 0.00802687924909138 0.008045291242337781 
0.06774089802581199 -0.009392884869885017 -0.05541645187219936 
0.09306096016858101 -0.05081414689752339 -0.03673689219276322 
0.1160699365218945 -0.004779113164605673 -0.08137588960038174 
0.2038201966228828 -0.1861202019266143 -0.06989837931621053 
-0.00177774771427612 -0.01075524104009086 -0.02227255297767245 
0.02298667296200368 -0.03976372932927816 -0.02560305765989028 
-0.0006043991456041405 -0.01844902361648842 0.008016407661982489 
-0.01143203075321248 -0.003763184008820912 0.005459225851209707 
-0.01372263993595928 -0.007826299809845732 0.02970827969357133 
-0.007090153218189918 0.01402707229135046 0.007848578982094827 
-0.01117635223813337 -0.01730076859683186 0.06348671043366295 
0.1201822010844582 -0.001721165446149923 -0.08111586520949238 
0.06253927483097664 0.001600198208503578 -0.07489158180349592 
0.06010474924572703 -0.02578429957093442 -0.09969717758032688 
-0.01422728815970978 0.01153794768951399 -0.003172622232943828 
-0.008171576168450514 0.01247932431481267 -0.004422534559233702 
0.001717169711418526 -0.02168821033217271 0.008470311482683601 
-0.004678745163155464 -0.01614070745762099 0.02087693060143917 
-0.0106295144330963 -0.04160384288463727 0.05301308437313629 
0.01056958614796101 -0.04748164774965489 0.0329013749629968 
-0.04833174536889923 -0.05256676782841593 0.1053057627781279 
-0.06073447684329762 0.1671583179495937 -0.0861164804017478 
0.006461330329927462 0.07962284503302912 -0.1176769419886387 
0.02040871438595384 0.01836487446471538 -0.06956949416387499 
0.01011379889094679 0.0002284189352284323 -0.0112654232196638 
0.006978997183157041 -0.001886566079795444 -0.007543833790718732 
0.03138713216227949 -0.0001654235909839794 -0.03345389610265308 
-0.0488126573157923 -0.07054420483443538 0.1227954820948127 
0.02790792391009325 -0.06009847247144257 0.03022931986088626 
-0.01439640590653498 -0.1020753009250022 0.11292967268125 
-0.06039206841160871 0.1645320177035599 -0.08394599218849713 
0.03861399801313542 -0.005818091704628442 -0.0975630987816947 
0.04129334445054433 0.02228685477245003 -0.08545080757851123 
0.04336899039670173 -0.007912849374788679 -0.02802552177480496 
-0.03144791393622443 -0.05677304398835405 0.121698783758091 
-0.008029865342568943 -0.06129833245743586 0.09161151151642233 
0.08785022565006168 0.01029698338394729 -0.09188101748099975 
0.04316796001805886 0.003574857601851218 -0.05560874180935922 
0.1350101006071586 0.0265749019901064 -0.1659231789946304 
0.05427323000615109 0.015587099277043 -0.06043276341142833 
0.1166308367155209 0.05895066560025175 -0.1538712143707414 
0.08504427955299862 0.1031207877461613 -0.1633537643857825 
0.0001317720945571774 0.003939287086076819 -0.006654215368689832 
