solver_type L2R_L2LOSS_SVC_DUAL
nr_class 3
label 1 0 -1
nr_feature 310
bias 1
w
-0.05910339465445467 0.1252727620076811 -0.1007261037092599 
-0.05369457511536615 0.1058112869887666 -0.100773709072039 
-0.07644006080111015 0.1592003074756434 -0.07252069210552761 
-0.06938763593256855 0.08652227180522247 -0.03001762360341861 
-0.05820650337221834 0.08640107024697516 -0.01896252320441694 
0.004388270451155279 0.09405395373609193 -0.1368970132080296 
-0.01124543508050323 0.09328523865432388 -0.07855481072131797 
-0.07889559075766614 0.01007601698116448 0.08971671001077669 
-0.08825205329982351 0.008415946447650889 0.09674125341741867 
-0.04169196866943954 0.004316154757368483 -0.008269396934416856 
-0.06092776523373056 0.1183705620941644 -0.120189141425123 
-0.02200884656495209 0.04403622183584872 -0.06918767566571681 
0.02552540640658202 0.004435633609180005 -0.04703320002610239 
-0.007875481822355269 0.02870747750105083 -0.05871530589363812 
0.02569561164849582 0.02869704122693429 0.0005943075863446138 
0.01545221532450985 0.02102948937340486 -0.04781737110550671 
-0.03620646454922877 -0.04632696051129905 0.02415128274431845 
-0.09129857797363441 -0.05248279672380076 0.1183726076116735 
-0.04327291393445612 -0.02311489522232648 0.05861219173632976 
0.001111565689140925 -0.0166739351903985 -0.07565817773323705 
-0.02442348747695404 -0.003612116808711413 -0.004399003367307456 
0.01329094674981156 -0.02580859646811386 -0.01720463294729591 
-0.01029037025659892 0.009580233961391599 0.02074205893172315 
-0.006611836377391789 -0.01655828681492807 0.01400908752062326 
-0.01603835281122433 0.01987937272660909 0.01592571575554485 
-0.0236587109493482 0.0005777554346075217 0.03847188339267815 
-0.05652297005897924 0.07629799917476646 -0.04014846019913261 
-0.1138612976044183 -0.09865520373109052 0.1605944069535385 
0.09158666730465 -0.03878501926441064 -0.1215137972109545 
0.06563391576753703 -0.00480554412993092 0.01007094892506748 
0.02926157072691082 -0.03453664310339305 0.06713740947408314 
-0.03145457874671618 0.09628332469634703 -0.05998072849806582 
-0.02231076086092881 -0.007551658365735055 0.04409986205449375 
0.0488572238189887 -0.07694181252195527 0.09084766567007639 
0.01326398343729786 -0.1157068078143372 0.03103995595050889 
-0.0164542248310079 0.04530396292866596 0.0003121836370465852 
0.0176117797523624 -0.05814284149883088 0.04348249882906565 
0.05646625810761224 -0.2750009420731255 0.2412297275956604 
0.06274025070886934 -0.136998706996414 0.09486942784793224 
-0.004291957233280961 -0.1727286766525529 0.1612810510542397 
0.03885035313967455 0.1065067299070618 -0.1545297627373161 
0.02581623496822909 -0.08383484302420094 0.046820944008229 
0.01228564593779341 -0.08006236996550802 0.06550459600161029 
0.01059020812611671 -0.03209978467099363 0.05154891307619109 
0.008668059429475024 -0.09415319918878784 0.01871638020348358 
0.04028931694567559 -0.1036394946542663 0.0008275988723085806 
0.06628331415223619 0.0110678624345835 0.006326585116492651 
0.0435106230402189 -0.04829339705415112 0.06076735102826326 
0.05936547011206869 -0.08207820421582455 0.07100894199566012 
0.01835910927955014 0.1328106825429122 -0.07887969921116075 
-0.03638931430666503 -0.03275365229203778 0.1097928768598984 
-0.03617589276806513 -0.03055098969027765 0.1079940645323753 
-0.01653366761966859 -0.01765954003139504 0.0937476080455427 
0.145556328098314 -0.1988073306761885 0.1312329275329132 
0.04120609631640244 0.06189883220002688 -0.09966373203094901 
0.03281747874509348 -0.02483637541542708 -0.03184260835981208 
0.03262119517318498 -0.02326578256060476 -0.03318769259023866 
-0.003867738561246631 -0.0112397067572259 -0.01675455563129716 
-0.07279638876112528 0.03186122820336526 0.04823425839276541 
0.03869796081746862 -0.07202857189338195 -0.08156665376420809 
0.03574837869133374 0.01527767068164316 -0.07284655419600249 
0.07403886869869436 0.07424193427175307 -0.1111201682554146 
-0.05355854555190463 0.1196901329091287 -0.04648947810550276 
-0.0498367511863356 0.1119297651650043 -0.0427435966884857 
-0.05614494256637878 0.1133542712167532 -0.05414788678040296 
-0.0449620548100098 0.1136855811336664 -0.05708069045011935 
-0.04352066616303886 0.0979360692113579 -0.0561551271449392 
-0.05798687065849745 0.08792476178425433 -0.03781449873215273 
-0.06119781563881394 0.09171547474346355 -0.04475274428895572 
-0.04760821629292925 0.09445641913716597 -0.04795513853474967 
-0.04699787619463555 0.08935302589431206 -0.04354540838186256 
-0.03306014280500644 0.04590828828370332 -0.002922198827364107 
-0.02676359665468216 0.04714198150284443 -0.01632313375086211 
-0.02208491928228693 0.04066182293852476 -0.04228708958922639 
-0.006513315443191439 0.03706628239522289 -0.0745528720588035 
0.002942734641531135 0.04552853415714084 -0.07561673488290022 
-0.04369363428656475 0.03013087496645781 0.01199646921882303 
-0.05427178412764506 0.04954551296047276 -0.004941988397872493 
-0.05585940256491188 0.05612148063575467 -0.02416168064770862 
-0.03948747327355094 0.03488099587819082 -0.01208923871495321 
-0.02061689920378839 -0.01424516146357322 0.02763043897624478 
-0.01341926412488444 -0.009687503923929565 0.0165090518516373 
-0.005295689991093233 0.003195065403062432 -0.03086244561863731 
0.01166486464667717 0.01722567097677899 -0.06280413331108946 
0.03563685881173882 0.003701529257791512 -0.06764082899934198 
-0.02752337922716079 -0.005010769645447918 0.04759650221099148 
-0.03324063539595213 -0.001759191909912665 0.02905598056262877 
-0.05083390600865709 0.02548904901154501 0.0115331298693933 
-0.0436086794101806 0.02332447651480048 -0.003331021554177332 
-0.006513766268293171 -0.07307228781463762 0.05156344725368101 
0.002120273259027786 -0.05838349952760686 0.03113614402224048 
0.01146105822489896 -0.03409981227813414 0.01125754376604694 
0.03295927611892654 -0.009548038871516579 -0.03783041334107601 
0.02666582632520558 0.01544014558193194 -0.05081190737474248 
0.01303328025859806 -0.08011576634525669 0.08743222846198169 
-0.007055981514261215 -0.05147100902325493 0.06659044564268921 
-0.03094707889018639 -0.009780270100789697 0.04072478352612861 
-0.07070799834059853 0.03689862258403524 0.006025892203375373 
-0.05346854181881847 0.06869391036587705 0.01157210222852539 
-0.0126686370884461 -0.01228932190875623 0.03912905147283968 
0.01781437058001568 -0.01828409461262885 0.009622730358152021 
0.01656146866676629 0.008674172611928089 -0.008574521969563677 
0.02167259903660692 0.02228108781738167 -0.03497846644095492 
0.01565652456682009 -0.07645383175174471 0.05911240792097022 
0.02797878594688589 -0.08446587094319678 0.05608177417492106 
0.04727936315693146 -0.0880063426244496 0.01731884013538406 
0.0484615227435788 -0.006703092546045886 -0.06637014767564774 
0.02339404195363981 0.002487216811870721 -0.04474178512371389 
-0.01095760132962456 -0.04955711536224162 0.04454435710548788 
0.01126502060024523 -0.02704099831681345 0.02715903102378779 
0.0106279961762277 -0.01337602547264475 0.01680795056448291 
0.007642829121696894 0.009295350433340021 -0.003382992057395942 
0.02359762091058905 -0.06482704399057729 0.03702426430683753 
0.02289525368406701 -0.06404183696399275 0.03917166848022068 
0.03679569394768682 -0.03599699403107356 0.005848290276691013 
0.009675059982366065 -0.0240970074019203 0.02034087066108313 
0.01552645842930444 -0.0136734512529099 0.002691188247923203 
0.01014357172626698 -0.00241762682072268 0.001630839462192558 
0.01088707577683069 -0.001578054358503303 -0.0004663003967436355 
0.009614822680488303 -0.01793191977647083 0.02437623282745995 
0.01284922220364373 -0.03013222866238936 0.02696822572499421 
0.01049320289097139 -0.01425999298701784 0.01349655380001851 
0.01277955255124592 0.005998722981754805 0.002947799825670876 
0.001084610801117975 0.01038015047316297 0.01866070518769469 
-0.03129902652608371 -0.005912355761326117 0.02293793620994021 
-0.01899047777456311 -0.02492139479773063 0.02901314761385351 
-0.01714342037346896 -0.01214607202860557 0.01040399336658808 
-0.02831230253664876 -0.008481719717673678 0.02883377368244159 
-0.01282266731965762 -0.02458555402225768 0.01579550676610829 
-0.02408124787395613 -0.009495333475798638 0.03721083817906578 
-0.03247967550209833 0.007379579578477946 0.02791602336869324 
-0.02696880837645256 -0.0142760412946308 0.03054245292719571 
-0.0266926876718497 -0.01890597513865113 0.03237321404426937 
-0.009681405540100659 -0.0705445030294337 0.05184147452537458 
-0.009648643056457124 -0.06738080689815042 0.04670851197851192 
-0.008989076492107478 -0.04930524849600721 0.03039532507327312 
0.006084025588120279 -0.03403574190931408 0.007980923966609431 
0.002714723962572139 -0.02223591517055189 0.01077606935767247 
-0.02336951961294462 -0.03182155655234609 0.05943192119776908 
-0.0167233701027259 -0.02725437958692417 0.04897759519762014 
-0.0199668138366477 -0.02147436715092114 0.04178090832811664 
-0.01845815366368311 -0.04980803964770036 0.04154980343649552 
-0.02105599634212036 -0.07601765994700115 0.06244622607222013 
-0.01728282582801248 -0.08118127721921975 0.06872689696198356 
-0.009001829323678956 -0.04734278850915482 0.03641033544881289 
0.0004213975275044742 -0.01481636223980279 -0.002089881219500771 
0.02413640836707573 -0.007365054918875029 -0.048006405805672 
-0.02295697218513575 -0.06591566933843221 0.0921767233996931 
-0.01201309301406682 -0.04103919985649371 0.06528417096938889 
-0.01372429279261186 -0.01503756947153666 0.03935735979686179 
-0.02733813975817928 -0.04858399138370294 0.06124310563065935 
-0.03628077650748221 -0.07891889876866055 0.07955274534927488 
-0.03563299208733148 -0.05482956428217955 0.08212622688799555 
-0.009239036898015109 -0.03842914204632815 0.02244041016187992 
-0.001702758525854994 -0.006845310277184003 -0.02234084977893734 
0.004896818077143743 -0.003628433477782787 -0.01070236829842232 
0.0005102447145083399 -0.0756861458264559 0.09436260296911864 
-0.002669277505494966 -0.04545117568766669 0.08779925393390361 
-0.009106898338555089 -0.004071260179004637 0.0382032486535021 
-0.03603044431050879 0.0407833813673999 0.004130469611352661 
-0.03242016778309229 0.05475392124264761 -0.03651664210811548 
-0.05902865205646182 0.04525402151790239 0.02103807765595688 
-0.002602579952578045 0.03176705713754811 -0.06043229038188224 
0.004303364368557576 0.0263381559266379 -0.06465126772258563 
0.01291075941504591 0.0202203137694646 -0.06308976939122643 
-0.000892914421481905 -0.08165144868920227 0.08999140795370185 
0.017631984732239 -0.06727282209576071 0.05886936973781653 
0.009500519711905152 -0.03481415044764823 0.0263369435518676 
0.01509820870187751 0.05308304364278062 -0.1146324446110734 
-0.0008986130459919534 0.09005272472534744 -0.1151730609537881 
-0.03470403362169997 0.02112189182674696 -0.003668391581042869 
0.002419413131173623 0.01902949284730551 -0.06964620913641101 
0.01113633834240134 0.02446653429724043 -0.07727742330704603 
-0.003309313591480006 0.01575644479803157 -0.02558533079300687 
0.003586349069885696 -0.08190539704146457 0.09261220003343995 
0.00459117179575633 -0.07806392287265675 0.08762854821948693 
0.000579811924587655 -0.06707437770895687 0.06612707368882263 
-0.0252515611166483 -0.008859623171898333 0.07946214410566442 
-0.01363117894176709 0.01234263447328433 0.01593157544025758 
-0.003788850443311487 -0.009357614213235629 0.01475261930807936 
-0.002888103954501918 -0.0118769590690238 0.01367732026595856 
-0.02002584964445611 -0.03161666683640522 0.0794313911580542 
-0.008445841738384778 -0.04600998387320268 0.1059685283489491 
-0.008973372039821556 -0.02325131123332953 0.04961320728468051 
-0.01109433927965211 -0.008938022222526237 0.03171576519262656 
-0.01178003833767356 -0.007996274165084137 0.04168359064646678 
0.0072142351523241 0.05060067970710979 -0.02331862765182621 
0.003105219560889709 0.0318649577555902 0.004043798651497342 
-0.003286312735397116 0.06871222909329007 -0.01599664176940514 
0.009030601841406433 0.06215383824377176 -0.04543148137151957 
0.008018888175801337 0.05363222239409903 -0.023731812336224 
0.01523377977067497 0.02202865733287128 -0.03726469889045127 
0.006207718343657399 0.05944139832920341 -0.07062722456666581 
0.003022601740136777 0.04245421232067972 -0.03940983449088523 
0.002018229454097565 0.04037186164536595 -0.03392231549854632 
0.008167266374776478 0.05492889390887264 -0.03493109918038573 
0.0180651969041221 0.04657603235672449 -0.04042279993531123 
0.02910063316932616 0.03759811219715475 -0.04647484273266324 
0.06611623552710397 0.03525606858006035 -0.08546447814090503 
0.07776216103946229 0.01110984807848479 -0.1039502459923822 
0.04257077062174684 -0.01740485919145178 -0.1077174469396323 
0.0197237401351024 0.0203922009021355 -0.09983534532375105 
-0.003853660677855547 0.003485430778151836 -0.008925414192610691 
-0.003497342117809519 0.02864953600786421 -0.01824510262022112 
0.00354135900738907 0.0458649380433921 -0.02672502587765201 
0.01308954054674115 0.03664723282366759 -0.03904160524290547 
0.03541612041161619 0.00236378741958699 -0.04774958295246806 
0.08500435094697108 -0.006384995106707638 -0.1173679612853797 
0.1697939339207699 0.02839181354613042 -0.2335945550545968 
0.02339950468161955 0.0323544090692765 -0.1540460497293574 
0.01926753754043396 -0.01989107303715824 -0.1006500064856236 
-0.008041938982268336 -0.00481758791117013 0.01328138148268163 
-0.01570637651439539 0.01591130483611881 0.01479111351125726 
-0.01108971998108639 0.04415170321551257 -0.0146056691036495 
-0.01054026145709098 0.0241222339237221 -0.003252561018836318 
0.001072893164082525 0.004833368701391736 -0.014260111461764 
0.00891888689573195 -0.01942241682478975 -0.008998697139750883 
-0.0008328348000969885 -0.05477465618561293 0.05729286807875937 
0.06170095219860145 -0.04176685509953505 -0.09432301170958168 
0.006499143806132812 0.0168983530684429 0.01167280501784033 
-0.006665438879191191 0.03374266132336581 0.01799254203452826 
-0.03427389063501064 0.04026720113183217 0.04203820168899468 
-0.04846648692872572 0.08030379369608756 -0.02783801180895991 
-0.05017982476618759 0.08235614948023694 -0.01200015327689826 
-0.03482701285810148 0.0646771634074049 -0.01627642052328097 
-0.03414235364365879 0.04787777218547128 0.0007605741899581761 
-0.0008009365398447957 0.0303709387927332 -0.03963261015503551 
0.01843003550480196 0.02720507629250803 -0.06502999122709746 
0.003947285582597404 0.04942828459385355 -0.06722855404603185 
-0.00721834840282925 0.06648828602822121 -0.05882482719073458 
-0.01290645721227516 0.06822198712160142 -0.05527082159923712 
-0.03323283191798328 0.06261360261238626 -0.03152212699309413 
-0.03203848041074603 0.09122097147137505 -0.04184645005064546 
-0.02870469088190005 0.09901422420291059 -0.06113135031329634 
-0.02749847922147011 0.07578814965862489 -0.05635080544170074 
-0.01582802961176215 0.02750458770108043 -0.003693057258007967 
-0.01725727096032385 0.002601853328279248 0.02557748747808477 
-0.01779699120903516 0.004317619748386852 0.0246170124600216 
-0.01372337569329705 0.03763480543479748 -0.02846187301765301 
-0.01653004099789653 0.01448319508108808 -0.006977413146635845 
-0.0159137786205971 0.06426308309586087 -0.03711915691600856 
-0.005184787584347975 0.01752815214569229 0.01250870228528149 
-0.004799346785501968 0.01775462655369054 0.008656070665129847 
0.0009924598052107067 0.0175166826300933 0.004894290727734483 
-0.03322829890055534 -0.00747113205549337 0.08783315044227326 
-0.004403431411859266 0.05492180615999336 -0.04190282142651265 
0.002691580030742964 0.02285042031954218 -0.004991940695233055 
-0.001240066772424002 0.04223929917056447 -0.02007961682746349 
-0.005110115810927511 0.0905423624015967 -0.08304308517648375 
-0.01303682951332866 0.05435063440011754 -0.03303783815898788 
-0.01945233122977128 0.1026444065245126 -0.07317860463348164 
-0.008661724663881099 0.1037975788163234 -0.09091736191259735 
0.002249040748650007 0.08409405213885882 -0.08042522410969957 
0.008724759804286018 0.03994380248799494 -0.05174481049503492 
-0.008392327680914084 0.1278241097437074 -0.1343559071807039 
-0.006276509569826972 0.07806370085337509 -0.07973961156851093 
-0.008811130819252017 0.0730200140711328 -0.06983760229008884 
0.004456385016487422 0.05688221597069074 -0.06044064682488985 
0.02014851403356785 0.03146019372732098 -0.05486769818064431 
0.07215921493516804 0.02877060015959685 -0.08012076730841024 
0.1549818859011486 0.06870010153609379 -0.1581268374207134 
0.176256462113577 0.05024548848044846 -0.1889008635762236 
0.08272898012234241 -0.08908405473707329 -0.06484847696549619 
0.03848590460876658 0.04076950601954328 -0.13238179721971 
-0.001312721312096895 0.03074191044582442 -0.02944045768642608 
0.0003703914904588927 0.03581050974452592 -0.04257741350482256 
0.01031908613952252 0.03033748951621413 -0.05014889707424058 
0.03173708465506319 -0.02534389118579473 -0.02149126404184963 
0.09709991925060724 -0.06350920411700703 -0.002639541700082678 
0.1742052977902477 -0.06498333492754109 -0.08112006644424828 
0.2779429180277203 -0.02816462245599775 -0.1601420568150869 
0.06654146414968014 -0.003580569827099544 -0.1437529760035622 
0.05573225299491467 -0.1337815008697594 -0.01948573890808192 
-0.0037753592524484 -0.0250318611130681 0.03791730737089603 
-0.01128218231897697 0.01167917886895979 0.0003139482061582698 
-0.01614022884157952 0.002836627911024726 0.006785389426663188 
-0.004140498160408334 -0.06427860013675217 0.05946948655317338 
0.02923361663156744 -0.1164420776999983 0.09813279866475302 
0.06010122363112645 -0.1557022237208998 0.1208615896540037 
0.04018731265520025 -0.2172316517314275 0.2347573075083544 
0.124652693714639 -0.1953458401225282 0.06801612143673615 
0.01392076107218968 -0.1315902866361549 0.209296442137813 
-0.02629865761953965 -0.05208152186949717 0.1790518374804436 
-0.03867985279289057 0.04677624048916533 0.05432689274578295 
-0.03831479902243355 0.07422527891959874 -0.02892422866068387 
-0.06376257272012076 0.001642221224673673 0.07744018955959124 
-0.05191782892622241 -0.04312801014954277 0.1169250869734468 
-0.05597219378761172 -0.09234733168003741 0.146412689648474 
0.03530587042093274 -0.1021628107177453 0.03301826742386995 
0.04576777544686947 -0.07305202328285805 0.03481014045128178 
0.01494927764089358 -0.09907558080941969 0.1087869341268015 
-0.01993358497061943 -0.02162392341075997 0.08031275297352303 
-0.01135603557161276 0.05318687914810961 -0.05595658020275145 
-0.01770659783682286 0.05731504145961703 -0.05364090566164026 
-0.02235579418726159 0.05875701538157031 -0.01240543372799072 
-0.02916981804474033 0.05421565815010359 -0.009815506466528916 
-0.02319602845646008 -0.006788562173040402 0.0269241582440479 
0.0003278485861432593 -0.08634735091797113 0.07730353590278373 
-0.02020160535903821 -0.1176116744668798 0.2055506712705157 
-0.01872941857267697 -0.1150511493239376 0.2027899565842193 
-0.008157659999179303 -0.02398590666586269 0.04964880612053053 
-0.001068130004218056 -0.03119332659973221 0.01234794974940094 
-0.004157423182241674 0.07746468002828603 -0.08407268053156489 
0.008110737916283495 -0.02738498998031361 0.01243642958759532 
0.008159264376532678 -0.0273619573437626 0.01283783033797852 
0.01896175584160193 -0.0644824724723483 0.07753965601959222 
-0.0340652403722083 -0.05444133923553968 0.2044532079380548 
0.01610337288353089 0.005222316330011014 -0.0246597951652598 
0.03412164441439818 -0.05604665574752395 0.0316866544294432 
0.01467895516913178 0.01065161056737825 -0.0172146940536226 
0.001342647037030132 0.004950121308526832 -0.009724512109621261 
