solver_type L2R_L2LOSS_SVC_DUAL
nr_class 3
label 1 0 -1
nr_feature 310
bias 1
w
0.06186733622124706 -0.1570389578617931 0.1362056382120035 
0.1106828107193828 -0.07262338529333 0.07050716382856285 
0.2316067576202729 -0.141339641361839 -0.02834058602331712 
-0.08221484255732524 0.03262179654474077 0.05309954024194502 
0.09717177845205606 -0.08313446976319688 -0.01497522489304563 
-0.01434261146130891 0.007809271749373565 -0.03126252388758372 
-0.04999697818784431 -0.003720992455961804 0.0333829058671658 
0.1502828340803321 -0.07501669978869953 -0.1407178560870065 
0.008995492291805268 0.006229743728750534 0.04584632130322939 
-0.04921363463489563 -0.07601465532198311 0.1385476253638979 
0.07300770910437868 -0.08509570288405024 0.1231394369555794 
0.1004249755455435 -0.1584688076221984 0.233423060905022 
0.03646768875265177 0.02081286446853384 -0.01631737727448929 
0.09680559653910094 -0.03044616500617752 -0.02153289815558082 
0.07851336764501288 -0.02121094739896224 -0.08547579296595867 
-0.1276655940957542 0.05452774386636153 0.0487727891511282 
0.1529115252922741 -0.1885708149216627 0.1076614661911286 
-0.1711670886191584 -0.01993739279615475 0.2409879674965132 
0.08240519780761013 0.1102539968157537 -0.4202166636251467 
-0.1367314751962996 -0.192758961009975 0.3955601031466394 
-0.09291283671608978 -0.05434569940006557 0.3104343056887089 
-0.0686551087779935 0.102747034632999 -0.004883899667160842 
0.04685032962123482 0.0988458771380441 -0.09439882777320427 
0.0185181123538692 0.1095333768105599 -0.2326290846028986 
-0.08313614327355177 0.1125231472446137 -0.09040742883295948 
-0.154526518200452 0.06717021545493165 -0.06924362069477126 
-0.1325642067424043 0.02858224568380006 0.2060293149965423 
0.2931596502363472 0.02321672317761741 -0.6589932666439062 
-0.2413171628016935 -0.004440060053871651 0.278773284272742 
-0.004753884796928261 0.02251586229414747 -0.07423508276502666 
-0.06539184086576508 0.03365296151073709 0.1118971094311356 
0.09085424150573219 0.06554431407655231 -0.08259818879774368 
0.176930642701346 -0.1162014984127053 0.04390187598265629 
-0.01505382299162646 0.01991471768618458 -0.05100503249090441 
-0.01040253734054957 -0.01100881453343133 0.04947222513728806 
-0.0576837882140533 -0.1759962851965564 0.4734370123561071 
0.01301213245625743 -0.2881678807336632 0.3600628061297035 
-0.04576807819622987 -0.3769894093756929 0.5121204688676336 
-0.0544074519842967 -0.0296377752755498 -0.1460698611815779 
-0.01203115853798541 -0.08609688343793562 0.1340250302245519 
0.1168610341951638 -0.1009547167153759 0.07587633934698977 
0.1019457985848057 -0.02175165306997579 -0.04072233150597033 
-0.0905139658295266 -0.1593806686791472 0.3248273832184427 
-0.08410468893270931 -0.1231355790895517 0.1577973610441649 
0.1541155732883663 0.002892997641469727 -0.2688448881258061 
0.1295994731255635 -0.01200013216335214 -0.2687825300498414 
-0.07702671993889547 0.01256294178273615 0.01416848618882737 
0.08268450998495977 -0.1254512794776455 -0.01742780097449004 
-0.1538819004194648 -0.09476684970237204 0.1822060021593015 
0.05394806543380568 -0.09031691761839271 8.007195229378249e-05 
-0.07137389430844554 -0.06328637953695437 0.1526662160183604 
0.01934338953816058 -0.1198021411234366 0.07755644895706784 
-0.04152711301823867 -0.01858280756328077 -0.1178011254944001 
-0.02125729456993976 -0.07098826240824682 0.05409655581975818 
0.1923384654994635 -0.08058951376113052 -0.2707089123775823 
-0.1418470036238909 0.6667105259509444 -0.3534744333928724 
0.04766295438806325 -0.02707238766493077 -0.05830853062421502 
0.03058742680822827 -0.05628904534970823 0.007829257685918434 
0.09633338672362719 -0.06498463696041158 -0.1150672078114968 
-0.001226134971313919 -0.006783340440200437 -0.08139083522779741 
0.07149236247860084 -0.1205594915411048 0.05560469686869154 
-0.01432910168904276 0.0232002286208773 -0.02096034657789075 
0.1911795329719082 -0.02710914460735623 -0.1580437868765938 
0.167442673484567 -0.04917142770206367 -0.1029446642974408 
0.1568693146658838 -0.08766690184738926 -0.03014123994730671 
0.1216826974493785 0.02805068374100702 -0.1487204834196983 
0.09336926485342197 -0.05316312941734944 0.000956935636306831 
-0.05746920486561226 -0.008884484224269488 -0.07558215598307813 
0.04509816180968933 0.06965311845507317 -0.1526736160620504 
0.04548621103919669 0.06368133639683024 -0.08199987163975568 
0.04856654671818064 0.06179419066789414 -0.08401490137187903 
0.02529434541487431 0.04809103194235424 -0.04633215117149557 
0.01131704735377396 0.0219308990204385 0.007311389884995333 
0.009877568351522242 0.00293620043205026 0.03040439695701119 
0.0110293293707617 0.01691611879023666 -0.02428700200385143 
-0.001835134836772932 0.04437049007089593 -0.0684488632638524 
0.02399013442186049 0.08520270253395286 -0.170018726771158 
0.01281395360327334 0.08046596801874714 -0.1189862477049345 
0.0154938812746392 0.08306201988000714 -0.09558740046361941 
-0.02338821525948237 0.08144084496617184 -0.02438829448613544 
0.01037736657705708 0.07490404969602286 -0.08486895891830375 
-0.02781051850399921 0.03277627998422384 0.02733728358274726 
-0.02136102367290208 0.004338297027609941 0.05474920269469537 
-0.03584082221355998 0.04927570338118514 -0.01931581220165505 
-0.028057664670629 0.07312706596886623 -0.1068940828439344 
-0.01372102426849268 0.1124108763399962 -0.1609864513786044 
-0.02045983752345327 0.08932148466742446 -0.1013886025982575 
-0.0120224419674044 0.05360978764628192 -0.06445409978496099 
-0.1497299004895424 0.04101453712590415 0.2077052680338418 
0.1804304349102406 -0.2253937314330317 -0.05232528244325645 
-0.06920491438727348 -0.03599551671165199 0.1434907391622659 
-0.05988523391077637 0.04252929987274834 0.03497176812878423 
-0.05116577288601285 0.044010972693333 0.01963588245585524 
-0.04389933358164323 0.03051539849634621 -0.007943391488613215 
-0.04544488966877382 0.06051525993777215 -0.05319136252545641 
-0.03753839867311545 0.03922655024829583 -0.01701454233505449 
-0.05515732606816742 0.0122186993498301 0.03975424051577803 
-0.07180411867975912 -0.0576458427387325 0.1449662326629808 
-0.04189565983906113 -0.05334910217946682 0.1320075889052566 
-0.05854949898533006 0.01341621537643672 0.08938997918950999 
-0.0702397197144094 0.06577034520989336 0.008006008406567738 
-0.07726724730820413 0.04046264095887894 0.03349558768746592 
-0.03320593926666329 -0.02979840563603431 0.07096174176382025 
-0.05588694023608699 0.006011252473949856 0.0248544567776174 
-0.0771148313327423 -0.01081509904906001 0.07854600600506158 
-0.1054671351826745 -0.01264620814610183 0.1067926495402713 
-0.02261846223782408 -0.05046538589062959 0.05382462974988938 
-0.07264543876947346 0.07453885347945272 -0.05617556550694267 
-0.06070731725443456 0.05664564925839147 0.006998579328612342 
-0.06056800841433985 0.103057039499653 -0.0617268863024043 
-0.06617361718224202 0.03739213134407905 0.009229175789763294 
-0.03132516231849456 -0.04325014468131578 0.08422204011744212 
-0.03448186982487618 0.0006742450471861976 -0.01044851340842106 
-0.07803905671743076 -0.03733395549945719 0.1014432045726939 
-0.0982984034265855 -0.01978886708586335 0.1123321576668432 
-0.04966152270992447 0.01989015014342515 -0.01396909505593881 
-0.03198446458211533 0.01035924059952992 -0.005684612787068013 
-0.05054688435822435 0.1078884461402181 -0.2237530334166426 
0.0005844383748973536 -0.03863792918296453 0.01673461481705499 
-0.02468119813569946 -0.0325602370690348 0.02779363738661001 
-0.0407260111704733 -0.04132299309870255 0.05659948430193957 
-0.02892850183439976 -0.03704310062520379 0.02646593551189893 
-0.01204865766197841 -0.04146432076903155 0.02484844991514389 
-0.002383024674223166 -0.02671781885264415 0.003164059622678688 
0.1116367663274456 -0.02013035953890384 -0.06308308790071065 
0.1088016877084882 -0.04129381995034907 -0.02914880158916597 
0.09317590220206026 -0.05390685357485574 0.006925555338710195 
0.05092486002972961 -0.005228239108260585 -0.01616299818551835 
0.04137370346639042 -0.04957091119989116 0.06224202894497315 
-0.09628903920766203 -0.04082661580639419 0.1053854203896887 
0.06218279401893891 0.03171865519488948 -0.1082807087374313 
0.02917862917398582 0.01041233437915725 -0.01556015233910318 
-0.009456618363300234 0.005671415246923934 0.0135134544214783 
-0.02528141966812697 -0.008892427920399657 0.0606253329696378 
-0.01635070737416492 -0.003555565405342324 0.07517030131674275 
0.01023085796253202 -0.006080480367330318 0.04233570784595155 
0.01895711818229646 0.05259444685087304 -0.06355478291838407 
-0.01191265708722222 0.112588671070131 -0.1255874713834693 
-0.007345418898116469 0.1330185494828582 -0.1729921126907618 
0.01263002656995111 0.0959966211812093 -0.1362170033777097 
0.02575909994323571 0.03545134018603381 -0.1218335575387907 
-0.02143370794976358 0.03775276179110294 -0.02456388066550813 
0.004680050220974836 0.02178160642635091 0.004241582585201655 
-0.005708322914049688 -0.01150902282105228 0.06152975872471127 
0.01603034071309675 0.02852022792042486 -0.02928666647704175 
0.003148263613063357 0.09553958679467379 -0.1111792408947674 
0.004478264162761807 0.1087844552624654 -0.1826951631119555 
-0.0007312749955626732 0.1644458409327675 -0.2271576666022344 
0.002387619910079218 0.09910848038624052 -0.136098034576894 
-0.01376052838985644 0.03353845425517436 4.459948423347236e-06 
-0.0776599770414991 0.08064928091184961 0.06848927554567703 
0.1218638165923478 -0.228770282258475 0.05271149008903882 
-0.06153207038548654 -0.05376917105170714 0.1538028374176813 
-0.01508351289572229 0.05400231931085515 -0.05809441313148794 
-0.0279067871936724 0.07511310652086582 -0.06226363403281106 
-0.01969478290032805 0.07348743891848564 -0.1036315031213519 
0.01422875786407337 0.1166689411438981 -0.2021507977292893 
-0.03761858936625792 0.1028280513516932 -0.07217422803661015 
-0.03616199767288635 0.03661364429730992 0.02963256038810845 
-0.03255245623615286 -0.03902115620596967 0.1562059389930559 
0.005019737178716971 -0.05950592454049578 0.07598493910742289 
-0.03840806380985273 -0.01510861356055305 0.08691933492009518 
-0.05967661021187983 0.04623377286611038 0.007170543636527509 
-0.0365243482879864 0.04288392463544082 -0.0249250263485209 
-0.01339275335745607 0.05058534478698819 -0.08518996382522932 
-0.01053919767680697 0.1123775384115906 -0.1417143407650186 
-0.03591628977638676 0.09609421317236501 -0.03864569267092979 
-0.01868249220384203 0.07893637600821164 -0.02094811926681174 
-0.01185050828728484 -0.03128726114788632 -0.01366848810845019 
0.04786109773747703 0.07083540423715072 -0.1551105243235992 
0.01147164626435656 0.09089218966744189 -0.1306788729138535 
-0.0306350332071928 0.07159995395115754 -0.06417331785466578 
-0.03537840060437918 0.0273854363442321 0.005913815724970157 
-0.0162306251371008 0.02455304265609132 -0.0342354580539583 
0.03009553982516657 0.07830960060236195 -0.1476870315500326 
0.01641233410539682 0.0587650618250028 -0.05962527467626416 
-0.006887303966286291 0.08874948458624496 -0.03867649766766634 
-0.01877760715448717 0.1017927544506026 -0.0793580387102686 
-0.006223074882530033 0.06031159445069335 -0.06929796762387361 
-0.05389992159102163 -0.04062250134660687 0.1927150917703734 
-0.003657628910422944 0.02103665668754165 -0.04030644878674604 
0.02286892337678546 0.01331345481990973 -0.03187594630995453 
0.00432329146101177 0.05186692510186424 -0.03507748183767255 
-0.009846722577729587 0.02921180108828877 -0.02267173035324135 
-0.01019081083869292 0.037971134416336 -0.0453625285783202 
-0.008161089156432169 0.04858955153590595 -0.08807255237677047 
-0.01122900127765174 0.07479207200445247 -0.0490989858227782 
-0.001623947517132123 0.06156637276989556 -0.04891517104428212 
0.04490663075596782 0.05133117250476294 -0.1025907944059139 
-0.01896388091957961 0.05910373920572495 -0.04032372447141809 
0.08256005164468107 0.04903588342666275 -0.133591478298369 
-0.0623629437981295 -0.0064737930994452 0.001278089755970641 
0.05248216970963769 0.04379008648608129 -0.1203006288001235 
-0.02539754063538113 0.04493349621428609 -0.03111570150664808 
-0.0559636324256834 0.04249849705993229 0.02063871497619607 
-0.05255527055103204 0.04375942723929085 0.01275626660385087 
-0.02227000494984024 0.03198427677396334 0.006344469659206281 
0.02206346509301347 0.04697576473044542 -0.0766106463649118 
0.0351927927494178 0.0462901426391505 -0.1151778947238924 
0.04969073546468066 0.005413318795233255 -0.06618292229015127 
0.02230394368788909 0.02801301263180105 -0.09486236709168636 
0.006560717643191888 0.06727714452621354 -0.1334107812826628 
-0.02576905080524974 0.05541254413065818 -0.0448794208215114 
0.1742590709530682 0.1401855701386449 -0.3867084643637363 
-0.03877504541194224 0.01946176482416133 0.02444704638716738 
-0.03612885697948155 -0.0142506997448101 0.08027409228754309 
-0.02907151231677632 0.0536646938895657 -0.06840519296490555 
-0.03548124679209271 0.07644878917856558 -0.09784721801798472 
0.03251168070824741 -0.004249217000670302 -0.06201109098147133 
0.07357701212168756 0.06002410607582154 -0.2071624338688795 
-0.00377882045939547 0.06935516603909912 -0.1345103019217734 
-0.01776937403041463 0.04341597849571772 -0.05477540522492055 
-0.1210481209140923 0.06404003604396558 0.1210163028236916 
0.08486445657335098 -0.1866258118442569 0.04976536811100496 
-0.1113741254214092 -0.03551423300062156 0.1826681228006989 
-0.1031592678775111 0.06562348527067323 0.03166149519831932 
-0.0924590937547325 0.08416612699162106 -0.0145346620438246 
-2.603906915242189e-05 -0.01357395800849118 -0.008943313198974357 
0.1255859751534192 -0.02322274398874306 -0.1824997920536495 
-0.0513854703454664 0.04708843242932917 -0.01877527984485998 
0.1831578616539523 0.1705323741928313 -0.4256694652557905 
-0.08195191220742908 -0.007500058217994801 0.0942064392665268 
-0.0346925256029216 -0.02270035061333646 0.07606111483272926 
-0.1103610036514264 -0.001862177938110077 0.1840068409991815 
-0.1173379791336474 0.06107532992657913 0.06846831415355885 
-0.02530153990962018 0.09765656804912413 -0.05398129044171313 
-0.06403062132383984 0.06499250393096107 -0.03389675808505395 
-0.03273608943432417 0.06182011470184889 -0.04056025886228368 
-0.0584707013790478 0.02262915887838744 0.04745805683203052 
-0.06101832546085754 0.04547410582906634 0.02964103414756641 
-0.0545574379414769 -0.0979038648144072 0.1725109995192275 
-0.02444761031358736 0.08463311418642396 -0.07176537575432407 
-0.06161089019299124 0.07624132803951507 -0.01146044967661226 
-0.09669586161228967 0.05802669868121968 0.05648809907143309 
-0.09601671610787979 0.04902647523208174 0.06632355821947013 
-0.06734156516043242 0.02780858901354199 0.03576769462012313 
0.02355826404760718 0.02426807962338111 -0.06914974528364637 
-0.01308985023732991 -0.03725036939632247 0.1076916918237151 
-0.02951711621365519 0.04601379440933701 0.01783763480154308 
-0.04853916564833259 0.06066861899385894 0.01458342271528892 
-0.07093506937924096 0.0340605591756398 0.05460572864492448 
-0.07793848358790918 -0.01560507554055148 0.1686574391346895 
-0.06257153854060606 -0.05850174292091738 0.1707551541936592 
-0.001408027052129234 -0.0505544802615809 0.157597477251508 
0.01282713457675936 -0.04073329301868109 0.1236913299739718 
-0.01034250812000004 0.02407262830162268 0.02207056673500528 
-0.0661706747677222 0.04352675619426184 0.03610962110732197 
-0.07299875922396619 0.08643773384171567 -0.05996077364349742 
0.04962698652904578 0.05765126263650353 -0.103731931246494 
0.06679914007481511 0.05684043273724242 -0.1175803990789051 
0.1730983692552314 0.08226326588241414 -0.2846313545389965 
0.02865850159434006 0.0660433694363896 -0.09021045000384464 
0.255517899204328 0.05216554701285617 -0.3266881823004882 
-0.01063128276311637 0.02262532158583286 -0.07944044752494804 
0.1319236631149883 0.02652133418433954 -0.1604696077878072 
-0.0117419554170512 0.02004353725072413 0.008610112392669327 
-0.0515065145979416 0.02192584671925521 0.0400174693303335 
-0.02156010023327873 0.01169267489043537 0.02162043588729232 
0.07862174621933654 -0.02325342809600463 -0.0245258047423677 
0.2067898264389165 -0.004756168283988883 -0.2069569502429017 
0.2315688923711909 -0.0380066830118199 -0.2346156736908395 
0.215793240724646 -0.1595596680423865 -0.01566977037405896 
0.1979848640034651 -0.08796424659512656 -0.1649623164212462 
0.1360215838617997 0.05611968789112394 -0.3051060663290954 
0.007139862817635652 0.03233729511572253 -0.05482153988666494 
-0.05088213143716962 -0.007767382812636761 0.1068824450910294 
-0.04819664599113573 -0.03160029645116866 0.1069288068864855 
0.03580377102499221 -0.05802186700101918 0.05233271422676403 
0.1116513540116278 -0.01639657984378216 -0.1296099692493891 
0.1153419613970626 -0.03127381550850132 -0.1656216412563402 
0.07121191915350431 -0.3500367133252903 0.4421070328445552 
0.2342710134425799 -0.1069002337782138 -0.1401122505152861 
0.1504236900037206 0.03954153361863087 -0.3114847327416624 
0.008562174773024874 -0.009931502967870718 -0.03560495463361288 
-0.1320534054673 0.03912783683340487 0.1291540590067169 
0.01578934096667521 -0.1187592527134817 0.06037629062161736 
-0.08905239328730608 -0.06305505642188279 0.179452155794326 
-0.05425088576231706 -0.009584981291174416 0.05481240739672879 
-0.04591360758074701 0.005443633910190557 0.01141320578355089 
0.08177391419249509 -0.1464570808379753 0.06140344871161068 
0.3405947645651972 -0.1986721754111206 -0.1413564417643096 
0.05832498802349023 -0.03707163404479381 -0.04848881911824796 
-0.01724070467737319 -0.01546143754015413 0.04010340930373747 
-0.05754839821986168 -0.06946663351381233 0.1585738568982903 
-0.07391718655256482 -0.06393064283324977 0.1721173153875294 
-0.1294110940911265 -0.05627107026624788 0.2359481394493906 
-0.1167278300804828 0.01357654015580998 0.1278045432650992 
-0.08798738039907211 0.01047412259232977 0.07662605134726366 
-0.04734686403506857 -0.02052366818895988 0.003097559365878476 
0.113595317850294 -0.04608105433957521 -0.09619733005059154 
0.01750495115059021 -0.1903076098005708 0.2584693535671744 
-0.06931335586171265 -0.08572885329695068 0.234976076828166 
-0.09948167629632033 -0.1598651664324564 0.2885816496105815 
-0.09043150732289058 0.0040474958586867 0.1126089804539896 
-0.09630759611092524 0.002645509706408173 0.1330256933867152 
-0.1022086033841713 0.01559277442310454 0.1125332369546883 
-0.1017352309697949 -0.01947164488988985 0.1675889033052347 
-0.07916543111985182 -0.1511656222948289 0.2830124003915844 
0.1599715407380039 -0.1561455544477621 0.006828344101819778 
0.02733848342446555 -0.3220322722672242 0.4728630223872382 
0.02097174207069115 -0.07114135998824192 0.1370365925108521 
-0.006961581208920142 -0.03284320641527752 0.09506111260970021 
-0.05534289502313915 -0.04855261724454213 0.1547681989344846 
-0.0452593640608866 0.03646076737510141 0.009328744088169593 
-0.05276958357367033 -0.2574056998734111 0.4619382431815388 
0.06749246901413893 -0.1790521241741507 0.2855889611320327 
0.1100498322351878 -0.1635727163305775 0.2058643719619736 
0.07636800671077464 -0.04288887150849262 0.03723938110478314 
-0.03688095302016588 -0.05386038041505738 0.127366945271352 
-0.02256876580863366 0.05391796551746073 -0.1342693987436508 
-0.00663295502445506 0.01064726228317855 -0.03436276381402707 
