solver_type L2R_L2LOSS_SVC_DUAL
nr_class 3
label 1 0 -1
nr_feature 310
bias 1
w
-0.08342106695471851 0.1342432478782583 0.01693269150444104 
-0.05843548707384899 0.0563282047186417 0.04132900144799376 
-0.06502357745108635 -0.1345523759201381 0.2488596917854424 
-0.06009608077516319 0.08261787137722069 0.02605226189955125 
-0.06105067839454861 -0.0732838246409841 0.09034097220356095 
0.08293417224905747 0.2289759623382899 -0.3419679533740681 
0.04603536593571797 0.04521330954240509 -0.1579829258291772 
-0.04475169706836619 0.09811403037256007 -0.0310782339801604 
-0.004926482458552599 0.04964846795413401 -0.05082631497411143 
-0.02916637341735279 -0.1011799173822322 0.1185747797473268 
-0.03353225279884935 -0.002311568431854399 0.01164896258498768 
-0.002814335007982564 -0.01268658640214811 0.001364370937443828 
-0.0451932433938999 0.001208756408751736 -0.07092738052920097 
-0.1166525609389778 0.0627685097045136 0.0172886440385611 
0.1576445099707404 0.04990023036419503 -0.2018008843611344 
0.008044332855952418 0.0417813801777241 -0.05147594195548417 
-0.002556444295809205 0.04681140172584406 -0.06595751438649868 
-0.003688513010296139 -0.0191795676664405 -0.04102396554750642 
-0.0374375448502628 -0.110738971588338 0.3406297778227977 
0.1589120016147694 -0.03514745896626052 -0.05588924370854964 
-0.03565731497720312 -0.03663679908721364 0.09691469955761768 
-0.03535293174821155 -0.09576053604531712 0.1082687139178055 
-0.04654962167271783 0.01641039942337313 0.02675299380461935 
0.1298047952232267 0.142562985202681 -0.2317473057609717 
0.05894303134115449 0.02362208546030904 -0.1187378026897641 
-0.04506232809570627 0.05160427630648974 -0.0809464700382513 
-0.04443116650805123 0.08974121334799967 -0.2909482779053078 
-0.2174856465103315 -0.1358678317916431 0.168791088102392 
0.1615099988863657 -0.01190271602491277 -0.02272648981359965 
0.07359901639653055 -0.3785795480478687 0.3368053419836998 
-0.09926105339473079 -0.0227035899841955 0.1145891427357287 
-0.1226809810532987 0.002642670999839302 0.1327179995943421 
-0.01626928493846619 0.04257206948775239 -0.06736390113420393 
0.09744570644659999 -0.03611854407931811 0.0738340046759962 
0.1058965289257997 -0.003819407787114973 -0.08502656977566725 
0.03319095090829197 -0.09424000547632916 0.05605955805314432 
-0.0958169696623893 -0.02621348927087895 0.01019865681485456 
0.06884267073616997 -0.1686166069771183 0.01005714237812609 
0.1025963192800856 -0.1743940206981218 0.01662993346937295 
0.02009034936542205 0.07732791182587578 -0.08379183891681072 
-0.1004622531153241 -0.05180023290245445 0.1826070578196143 
-0.09099905760960098 0.07547129533168123 0.01926626057742216 
-0.002093187641714034 0.07470088261641232 -0.03823082800312978 
0.122799267847515 -0.05217424507203991 -0.09274383597006366 
0.07782501621575481 -0.1151788344764097 0.06768661251086835 
-0.05254246288009275 -0.05599511221445285 0.1238751249354679 
0.03472741414218326 0.02320375355095479 0.02334478317968156 
-0.04714399134672456 0.07598750967143145 -0.139693673093712 
-0.1917268006656121 0.00338723820467231 0.1004293091557703 
-0.06785838475274954 0.002965750749766976 0.08836527398026188 
-0.04814225506376765 -0.0006118457234188773 0.01787630899504946 
-0.1058854011556096 -0.1602408778580782 0.3499251794066125 
-0.1037781201904324 -0.1296917148203651 0.1603168808918999 
-0.292430989280608 -0.04586757536314463 0.1183123971205429 
-0.1461285770352386 0.1110595375199315 0.02585423306525336 
-0.1537060314322538 0.02662789480801335 0.1023671042524413 
-0.004326849877390269 0.009587999500914175 0.1083080958612846 
0.0232236442040242 0.04642361452206527 -0.06738217307935995 
0.03397557261673913 -0.01156733643837923 0.1070500794990311 
0.04241887185738764 -0.01729453889904817 0.03797515108215953 
-0.1490464400305657 0.03005112697063692 0.136227183488132 
0.002529026469963807 -0.06860345333065529 0.1506185437416017 
-0.09565146223643223 0.1303607800814039 -0.04709805958821757 
-0.07513926069083736 0.1387144969176237 -0.08512216195548376 
-0.1113820079106989 0.1724069897586413 -0.1228681442937984 
-0.02370106101656127 0.0478253629020375 -0.04811194030454657 
-0.07248147265484044 0.124036838151131 -0.1361789532709719 
-0.02318757249156901 0.1292370226057588 -0.09923190470935864 
0.02543486935672491 0.05847283688486598 -0.06419060738773075 
0.02203880648778551 0.01117424582043134 -0.04504498903485372 
0.009137292029434748 0.01118423353999445 -0.05180579171536846 
-0.01975734709212941 0.0507285468739894 -0.08457216822641371 
-0.02084787527401338 0.07824037343830924 -0.1255786655893239 
-0.0453320878287373 0.07921530372174924 -0.09193025260524225 
-0.03520809985950778 0.08336095806141006 -0.1258281804731766 
-0.02556127822897152 0.0882268899067653 -0.1202970150490696 
0.05313961407303904 0.08303125684068162 -0.1134293284220681 
0.09243060200480389 0.02553777175194679 -0.06032987562398688 
0.06552124426610037 -0.02747400262701055 -0.02446382915633909 
-0.03108509810180048 0.06337063078610826 -0.03303720591801895 
-0.05049012851742696 0.05314184431172454 0.01917440013253533 
-0.012701950572952 0.01618555004101503 -0.02491011509913568 
-0.01605157610656037 -0.01184448661769029 -0.006032506352648238 
0.01725585550705695 -0.02660468527027482 -0.03263115444682908 
0.01796969633555383 0.01642522505032594 -0.07678501908592941 
0.08657421281770147 -0.0049247433890355 -0.03865232141091265 
0.09216162877432907 -0.02264643247962606 -0.00447603590310912 
0.06817181208712163 -0.07018855906415464 0.02612645513060647 
0.09538567742135878 -0.03576048339536052 -0.01755568686363223 
-0.09796213012389793 0.06599297863899516 0.07552809188560557 
0.01244266361351645 -0.00618225962861201 -0.01485212446353715 
0.08676506663649342 -0.008665045830870801 -0.06954688852059722 
0.06379081450919936 -0.06441754269162508 0.002526973833664187 
0.02236274597308548 -0.006579524573883332 -0.04168545023696572 
0.08867582897961565 -0.06529495780623426 0.009480199371469154 
0.06809685543561071 -0.08108190332402673 0.08563326424070382 
0.07597809698177439 -0.07162976764813028 0.04249088343676643 
0.07152410757471743 -0.09431287690032177 0.02899704046605132 
-0.01203684215126946 -0.03618065313128347 0.03090148081663056 
-0.05721505184453188 0.01722725201453121 0.03512337473546065 
0.06948788167791665 -0.07105003075058862 0.03404540742054699 
0.07159571590260126 0.00583322010598893 -0.07287760293465084 
0.05718954847816229 -0.03105371872408427 -0.02458907471903522 
0.04894586989411271 -0.01938070039398161 0.001813476053458219 
0.02626975872866857 -0.03644548763547589 0.02835046678634001 
0.0953085787598693 -0.06473311404057881 -0.006275710420680456 
0.06258690759427822 -0.1683304477415248 0.0813478804524736 
0.002952872849751565 -0.1524520780475353 0.1390336871500225 
-0.02123850117199584 -0.1657209979167936 0.1474929332168637 
0.1001789616930736 -0.04390215625811691 -0.06479476348124338 
0.1193367089427103 -0.05044601372785308 -0.0607351273491735 
0.06056429601620478 -0.06196135392759127 -0.02095966878958148 
0.0186143263062661 -0.0003395861379267845 0.01285338738947094 
0.01889136880174352 -0.05671090475857408 0.04052509775214141 
0.03892006157923418 -0.1557132714638732 0.09421195868604214 
-0.009669791460879019 -0.1086371777973445 0.06091824600824033 
0.03148334877891753 -0.06809584911013819 0.02016593078318612 
0.06914744865745992 -0.06175992222528282 -0.01311798048372398 
0.04084347103951692 -0.04588984054801901 0.002141952566687962 
-0.0167054789822025 -0.02343239721076996 0.06237141386830106 
-0.01767803178284028 -0.01265383145980914 0.03454811900004692 
0.006647861261102532 -0.06638036782295439 0.05995977486397316 
-0.001878349249615953 -0.0524451285591573 0.05818394798695975 
-0.001936013130823601 -0.05157603644419882 0.05403685269514385 
-0.01259159490303899 0.0405708304519895 0.02567026432077572 
-0.03955806146344987 -0.0007861858522847946 0.0713198663245016 
-0.0595101248484658 0.02463030393111743 0.03194794731125577 
0.0003414387777263059 0.008910193434078043 0.04685245504209068 
-0.06094840536473984 -0.01064144597797458 0.04234528449465813 
0.01478954650261934 0.1137751169312636 -0.1307359728537051 
-0.001300883571140933 0.08090137797597004 -0.04768145600300608 
0.0008101759419937672 0.03028168755645802 0.00545937930516636 
-0.02956723089927377 -0.0212600582669862 0.06568522938233579 
-0.01278423978288447 -0.0468954455559653 0.08333584939081365 
0.002810413272723263 -0.04504452877637242 0.04553848611034935 
-0.04419665315977982 -0.0477504929691641 0.04171715949530595 
-0.06195270646423993 0.01308730706088269 -0.03682550821540262 
-0.06970414574737374 0.00241772838691436 -0.005902433798280378 
-0.06165560131965448 0.1182262729065164 -0.08283657069395409 
-0.04736819004417923 0.1212117452294508 -0.03344980225422956 
-0.05615972731773831 0.05438035587681431 0.01118700823484857 
-0.03687872451604832 0.02576577865154334 0.04672279784257623 
0.0445162872070155 0.03313267643633104 -0.01855982688772153 
0.01964826923787006 -0.01441065100269127 -0.01158080442534342 
-0.04672220339558365 -0.04194922784968545 0.02385841650501848 
-0.007786131853710947 -0.02469161333117846 -0.02013318485228255 
-0.02667192481153621 0.02559876861608881 -0.03200805576956477 
-0.05364620048182966 0.00775473870368118 -0.005052082132113634 
-0.07500168779127755 0.05075094740132282 -0.01367434836139824 
-0.103290746703026 -0.0062563739816945 0.1106111339641225 
-0.05835820218011027 0.01534929619491178 0.06694664305261389 
-0.04249828503042816 0.06366924255089147 0.04100199613448749 
-0.01149338885019024 -0.002177689181112071 -0.03945860893897164 
-0.01456101820165207 -0.01060027434436584 -0.03769962960235247 
-0.05874344712730623 0.003248625051700712 0.01186441851791703 
-0.04206048726641983 0.01683704167154981 0.008430737908898823 
-0.04429285290456667 -0.01393697032270825 0.02988927903988162 
-0.03608788037178298 -0.05593028613801677 0.1128333340016928 
-0.05608559617969244 -0.03756760954885502 0.1131684508643169 
0.005054775812234796 -0.03932256563213842 0.03770960256546698 
-0.01457506348292418 0.02134937886278795 0.06847921141985602 
0.06826142781429448 0.02173301638753211 -0.07488069603889028 
0.02726271975145747 0.05620125321879778 -0.1018582296470807 
-0.008928797776430899 0.0548386844900839 -0.03458021938450104 
-0.04635454084450888 0.04513969629049033 0.005883316449696618 
-0.01317419579658705 -0.01917123720692117 0.03405937217192757 
-0.01486410022246253 -0.003343414570705573 0.01202537272558513 
0.01037829480862756 -0.02242426019504766 0.02131350797455818 
0.09281862846004321 -0.06915957754203583 0.03233823105299661 
0.1464675815433054 -0.04169985835480588 -0.01187531599753625 
0.1264143861875912 -0.01240480887057503 -0.03740797292509782 
0.1267937542362484 0.06922970002724746 -0.1487290811121825 
0.04082690263883618 0.05492552025716439 -0.05458647673939311 
0.01639561706308282 0.05556126591720573 -0.03650526132953157 
0.01063212524636267 0.0258681115602137 -0.01994321369302773 
0.03674952773296706 -0.03066160970470316 -0.0026641674534367 
0.1248023118961148 -0.04619265241736732 -0.03914283875728835 
0.1052410918347017 -0.04594759955275862 -0.02425798156804598 
0.07204862544403581 0.004899698826262759 -0.02880600880612675 
0.06708609090729958 0.06574578334706083 -0.09163309000443595 
0.008220282046590302 0.06937203818932394 -0.03328274417976258 
0.04840833987794049 0.005803502245379818 0.01618781776232359 
0.07210352933411496 0.01723580553379465 -0.0476701498552143 
0.06456597775011183 -0.01718767737505121 -0.01325784733211065 
0.059514099410055 0.002969794026000758 -0.005922002109673266 
0.03193644651622261 -0.008412149752819165 0.005079609807231298 
-0.008336890352056389 0.005731559792020861 0.06026553100199488 
0.002343254583953517 0.01992143267213101 0.04073706524115114 
0.01877443950853475 0.02744379313885617 -0.0007828814571255408 
-0.01446078622561843 -0.01883900563841099 0.08709955530241306 
0.02120865129316524 0.02603679406792227 -0.002892374311195674 
0.06230098595124785 -0.004206511864323068 -0.02869638842652166 
-0.06024683389849472 -0.1039385912442936 0.2318792074696151 
-0.04678763021015304 -0.04966007426024148 0.1524198030392022 
-0.04574700437118514 -0.01656437736194026 0.1102916606917203 
-0.03021669737579831 0.01206712395011003 0.06275780294249746 
-0.009386137495592629 0.02026419630677629 0.02163504228926203 
-0.007469319738790538 0.007700071767668222 0.003193316848752804 
-0.04264533842617031 -0.01544037717139731 0.01285276922846916 
-0.03369548680078732 -0.05737399851106516 0.05458760745827088 
-0.03751815682046835 0.1182522555865307 -0.07672609335398209 
0.01151737631998483 0.01359016580997604 -0.02017930894165628 
-0.06780977334367698 0.0542385870374745 0.01234449068752064 
-0.08793097061075102 0.009593734524166189 0.1023796364607781 
0.003594039409903097 0.05296934913056971 -0.03827300951423954 
-0.02158540718902431 0.03156188828166041 0.01064401959861609 
0.01389749807303524 0.007350017166624222 -0.01399927548624462 
0.06259020075210756 0.002366679788833961 -0.04901470662348673 
0.1890580259143693 -0.1045689806847328 -0.06038526873717744 
0.1104689516066612 -0.01260926320704962 -0.2042236026271479 
0.04759157990069458 0.01419502742650777 -0.1317823148413976 
-0.1019109805319347 0.03253949601027905 0.02971731117382174 
-0.08028871661520651 0.003622017984649877 0.08734946915144207 
-0.1130000295396024 0.07192177771033487 0.04264272722704637 
-0.0514166568248005 0.01042046275378659 0.05278760667430607 
0.02613377730849747 0.02590258377002785 -0.0566122182250177 
0.05789268196454356 0.01826019676955314 -0.06467388386449266 
0.2128624986264078 -0.1218816230730365 -0.1167755631600551 
0.1779870265709459 -0.01055383141816277 -0.1730466206609663 
0.007438110193876526 -0.0007292638826589099 0.01331612841223488 
-0.01549460413058938 0.04119455745004802 -0.004085101483426706 
-0.03354978531989411 0.03899229400649928 0.02997507783218486 
-0.05536146395448307 0.07692055665392281 -0.01340492251664968 
-0.05135568380352187 0.08150416185099017 -0.01257005108693431 
-0.05050543305840741 0.06373641329045752 -0.03144565613654418 
-0.002681277614630871 0.08290232610879179 -0.08244273365463235 
0.03423556935779512 0.06372958881519564 -0.08714705805258104 
0.009321418352160622 0.04494378969307564 -0.03113166474799069 
-0.01994858644353246 0.05029550008727261 -0.02956098732842735 
-0.0135468834200254 0.04174856198865926 -0.008877745683834292 
-0.007789399546583972 0.08218659393637916 -0.07070266021285154 
0.008639856581632549 0.0799190092968574 -0.09436464698491302 
-0.01944310474367058 0.08386697872183191 -0.0621973528371603 
-0.03657745795906547 0.1204214482962636 -0.06883850367806971 
0.02381613475142946 0.1388322654478626 -0.1648344327507416 
0.04251373274535816 0.1297350708720883 -0.1748129352931206 
-0.01395343434106146 0.07386133172871273 -0.05841143208324497 
-0.005122081983993872 0.06383181249948315 -0.07290914265589846 
0.02057825352912834 0.04479727155296991 -0.06705173182176835 
0.03901701665307146 0.06676137587601116 -0.1093012476342039 
0.024675477276943 0.08989025000587847 -0.1213507617368464 
0.04180155103575457 0.1325418076994322 -0.1714422582012597 
0.02692817925651102 0.1464952664317876 -0.1698786451876581 
-0.001531695626792351 0.007876680363791012 0.01387170251217114 
0.00429959564556811 0.06540290926832805 -0.06539163036587747 
0.03943185163150525 0.03987633723491008 -0.07740990266528387 
0.03380146308497756 0.0828080089224501 -0.1176029489500774 
0.006446744611308911 0.06969486124423419 -0.08719840839079447 
-0.03735373125431628 0.01186160872811796 -0.01984917798122064 
-0.02924199550250037 0.002475850695730976 -0.03730427333095004 
-0.02704103859743012 0.0180189964721147 -0.09924329354256697 
0.00474061602149988 -0.01223457961518503 0.0137805274565468 
-0.02148782353021026 0.03001052889917511 -0.0633782129572817 
0.14315988783895 0.00973966972628499 -0.1387370459783913 
-0.0144400106300602 -0.1601817137567656 0.2610066416918369 
-0.006314724090941231 -0.05740025666564893 0.1225423848550664 
-0.02907272536181815 -0.01386696997946238 0.06386292834787492 
-0.03034805435869033 -0.01026449168246999 0.04888839534555171 
-0.01712744846482094 0.009284059270583971 0.01252335183120202 
-0.05417248240827238 -0.005607418010000025 0.03864767190673354 
-0.08495742118425952 -0.04546650296073388 0.09006863855608437 
-0.1092121239361518 -0.03486787633643419 0.1213709885210306 
-0.1195916968370877 0.1450937300706308 0.001312715783421286 
0.05226607525374468 -0.07676430428448699 0.04526327615377143 
-0.06413129335108714 0.102646206829467 -0.04144052307608904 
-0.06854679400489981 0.01431955862526295 0.04758318136485856 
0.001862500886918544 -0.01554295310152407 0.05550880115560027 
0.0005687238952932163 0.02300288644871656 -0.003854911059637876 
0.01396051171666952 0.005927074730270042 0.005588751313362621 
0.0977562607209249 -0.01123444598916008 -0.04454856704225443 
0.3356523959262728 -0.27708689626767 -0.04725007495050208 
0.314810706216458 -0.01505895604000892 -0.4971084973688136 
0.009419277966188546 0.01633517721300893 -0.2531752474261121 
-0.1122934362452916 0.149333834596381 -0.1093814875460193 
-0.1032677314059603 0.04030661805985299 0.006026016471569992 
-0.1098627590727466 0.02912484731870248 0.07918147437438269 
-0.02114022368344356 0.05872166541717252 -0.006238034984914137 
0.05222911896626482 0.002459560728215659 -0.02026596740268128 
0.1445453061420818 -0.07548729726553179 -0.0172328246259139 
0.4760836557770389 -0.4135727399292839 -0.1688650624847979 
0.2248526533165265 0.0124687245588078 -0.293778073641026 
-0.05042045912732518 -0.0726057481035898 0.06561111933969488 
-0.08915838789441205 0.01396941652719607 -0.003976186300821249 
-0.09056781769508362 0.03321065594737189 0.02926165146760928 
-0.09404688613706648 0.05842229450673087 0.04027851607141491 
-0.09456610268341541 0.06103973239993796 0.02257020077217615 
-0.03230541046298661 -0.01142218628780742 0.04323690544124251 
0.04542258134878625 -0.02479076875025777 0.008941480221683736 
0.04013585510715798 -0.05670062588578027 0.05080246037128179 
-0.06638431707092195 -0.1612419098427316 0.2938871318067029 
0.02035214697421761 -0.0620413381204872 0.09992435883906915 
0.0119927483008269 -0.017406261339843 0.03625993671688389 
-0.03855307368315016 -0.004849904818885705 0.06005067547408718 
-0.04321218159767383 0.008601593202696271 0.03493600232675928 
-0.067738232349376 0.004202501262289047 0.04889288939723124 
-0.031391705415838 0.009021851245359029 0.01363196428325337 
-0.01258472007585897 -0.03837853846273079 0.02199419048167004 
-0.003692314173355588 -0.07298906374757202 0.08431808861494411 
-0.0199127533234885 -0.05254143827323095 0.09599924652321835 
-0.02119084698166453 -0.06258401442834531 0.08692541072211167 
-0.006280761395870492 -0.04872309407019632 0.06703237359001868 
-0.01483601708565154 -0.01387659819031728 0.03606575194941892 
-0.03791505374318354 -0.04321533239216606 0.06004881189158696 
-0.02611556060535858 -0.04393219242828989 0.04555188148521239 
-0.05594565242966582 -0.1516217416769124 0.2116928032246185 
-0.04094195956071794 -0.1030765433423809 0.1065620845850923 
-0.05121163275038772 -0.07912880193038156 0.1241172174023818 
-0.01306140405138277 -0.04061718415898669 0.02714043565800822 
-0.01622808831380931 -0.06891412137220339 0.07048858271461572 
-0.03965216490757015 -0.06183592219231435 0.06390661223532289 
0.01732992571926855 0.01622206412943418 -0.03571170127644425 
