solver_type L2R_L2LOSS_SVC_DUAL
nr_class 3
label 1 0 -1
nr_feature 310
bias 1
w
-0.01693601379610862 0.02130403571767717 0.005074399905684221 
-0.03454854977039549 0.04755421227601668 0.008769813146714931 
-0.07728579495924516 0.06380201412619757 0.03649907386132695 
-0.009828439642446292 -0.02439332451990826 0.06562904476897859 
-0.02665344704724979 -0.01006739207776589 0.001139318383722025 
0.01871878973736646 0.09725540115319858 -0.1659666549806906 
0.01936296881237013 0.04481221027011798 -0.1040990919151662 
-0.01230462351702833 0.03938624462328693 -0.00752136801308987 
-0.02337417551897589 0.02434503563791404 -0.0126909638721776 
0.0695623325909714 -0.18288824252972 0.07561648114800854 
0.0286912904122336 -0.1578423978206754 0.05253649266222712 
0.03021732492340986 -0.1569062950947472 0.0505062375288196 
0.04439993489201101 -0.08177784310891523 0.01265656670701832 
-0.04385300632447898 0.1739079365031813 -0.124695764619598 
-0.02706601260472993 0.05611208088020402 -0.002483257960615268 
-0.02280648969191008 0.05648920757470716 -0.05137060144629413 
-0.002049828824086939 -0.1291922120757816 0.09040813786979607 
0.05538490269294499 -0.1274667960111499 -0.006126958191697925 
0.00932054489541082 -0.06606583461351968 0.02270196639927679 
-0.00325277952474145 -0.1866231845317967 0.1058856631331514 
-0.05639622403848847 -0.002777188855604291 0.04919238297277432 
-0.02744994597311153 0.09406231067527056 -0.06773293774211148 
-0.04640432297620466 0.1766388027744777 -0.1239224473921608 
0.03492970708184134 -0.06952122673196494 0.02282872851105746 
0.03533924745064725 -0.04578694041930327 -0.02065841979329138 
-0.0003210244475081856 -0.07747196784727314 0.03568314467036538 
-0.1521128610709923 0.0966705564367026 0.03333722851901048 
0.0136277423711374 -0.07891730426167819 0.01564788779966742 
-0.05878750254841932 0.03153560263286001 -0.02930592064300912 
-0.02337819775273309 0.006728564421266994 -0.02707012115906279 
-0.01488516001256263 0.03032418450126326 -0.02332264344135781 
-0.07903628449308731 0.1063240153353042 0.008010873746607049 
-0.07348938862366342 0.05632590336973668 0.05135271064008368 
-0.05746287403852875 0.09903880901751856 -0.0246573492360662 
0.05974963923185775 -0.171931042773809 0.09443777849491443 
0.04049341112319029 -0.1941083263842519 0.09143360409115538 
-0.01923589475535963 -0.0007111058743744056 0.00326158254438707 
-0.1075122067208962 0.07104915136057277 0.02772888375622226 
-0.0007429729202090863 -0.04151347023814908 0.02815109653828281 
0.02487531401829457 -0.04453818595057105 -0.004306505224486688 
-0.07986717810755767 0.1074705513825634 -0.01234025461330748 
-0.01559422637456795 0.0302264916830735 -0.02876978329704079 
-0.04829504808842507 0.03790208970400882 0.003041156812477307 
-0.0358171112274441 0.02172731262736027 -0.01561522295377648 
0.0004287305593517803 -0.08502029847761293 0.06266308183054702 
-0.05305673227831485 0.03483627800367955 -0.02418383739486691 
0.04021051062674044 -0.1405593436242635 0.0305268864175441 
0.0296758716161106 -0.1201256147800685 0.07620590241386012 
0.006111884686633582 -0.0615829310075986 0.05593904163974971 
-0.08259203501853289 0.09091252388350354 -0.01806031537365958 
-0.0654281057652904 0.06291378511350169 0.04117893722494834 
-0.06587293526687188 0.06332594180400002 0.04094484405080413 
-0.1232446427804916 0.104245537079616 0.04101077396895177 
-0.04439252009542502 0.01018789582226441 0.04049992252006241 
-0.00988142110193207 -0.08178312207203697 0.09079416617266678 
-0.1056876178293337 0.06538327275502684 0.06899824651152915 
-0.1041407383086109 0.06174907990908114 0.0705843044751117 
-0.01142751885604131 0.04497076241342041 -0.01930496972872305 
-0.06272788365633744 0.07186537637878583 0.03060991327761003 
-0.02958820548088944 0.001990474260895309 0.03022467850314748 
-0.07866560300439673 0.08744469220276728 -0.003359576847948975 
-0.004671384188422082 -0.04270753037172555 0.03724557297483259 
0.007818340788916614 -0.03391022096181488 0.06250751759834042 
0.007053844653833453 -0.04227396375203708 0.07487839060803704 
0.003034274672611321 -0.03084220158653086 0.07423611075006027 
0.002266620519032435 -0.01500395068889083 0.04289562750561771 
-0.01442193375789016 0.04240680466179892 -0.004015237316859438 
0.08537354764853868 -0.03061244932675636 -0.09035971426877508 
0.008201745940309939 -0.02536984268049677 -0.02013708302747941 
0.0194011375385846 -0.02257446230561138 0.05200547023444309 
-0.0004971741481056556 0.02669457096679127 -0.009064827348442718 
0.01807360858187516 -0.04501953471350119 0.04503764304654331 
0.009301578380544552 -0.03005234190138291 0.04215420705516396 
0.007379370072348497 -0.02603744001479624 0.04118739203635606 
0.01904491633389977 0.003880721372125446 0.00412166849271436 
0.01821601880386503 0.05332618986326208 -0.05110288957128791 
0.001827504806385251 0.07799226224133653 -0.05861351968870243 
0.0007103690613350794 0.04744481467984077 -0.03218494890492469 
0.005472061367260963 -0.008029770048542648 0.0005299033269842245 
0.008325205950555437 -0.0387935571338839 0.02659459668169925 
0.01622381302329622 -0.03904623335931313 0.02882071363729445 
0.01214436144597648 -0.02338228837910436 0.0174024653828842 
0.019762664942472 -0.0104708850263721 0.00300167985273883 
0.01475277614429766 0.03648782878301367 -0.03150116417371418 
0.01716042810304782 0.05478712511422859 -0.05123439064329442 
0.01209032756637992 0.06799527368710459 -0.06435718338962983 
0.004628501913933491 0.05003975327255414 -0.0485552471569926 
-0.01491311548243162 0.0195351174219455 -0.009313955154837924 
-0.0144550137918759 -0.01270985972844263 0.01174913693949899 
-0.0634456842906098 0.02629147350605061 0.04160509106106668 
0.01375558089975557 -0.03282343919053927 0.008049557228487339 
0.004971340564823366 0.02061863371500794 -0.02368369293124594 
0.01966531665326377 0.01755125250583813 -0.03993179257134873 
0.03572065038001814 -0.002053270821394334 -0.03629059173158063 
0.02751159160607855 0.02907064683902768 -0.05368720462489607 
0.03663317730329853 -0.005544269393958741 -0.0405830606739666 
0.02360284712128995 -0.02137934190634623 -0.01815246930567887 
0.02203799745955282 -0.05542230827437154 -0.001338127621115263 
-0.02686640169629173 -0.01233683017657624 0.03113692658936968 
-0.01442749276432898 -0.0004574918122173355 -0.0005731526293738184 
0.002100115780889463 0.009592104232150126 -0.01816790792537019 
0.01721279959149901 -0.006526579098941152 -0.03044985496455097 
0.01848828004807124 -0.004866859261779606 -0.01823512027863689 
0.03841844769362937 -0.01235519117232901 -0.02534011419015427 
0.04729712359046934 -0.02154121078316814 -0.03082150941934106 
0.03218257128033427 -0.01969576513348563 -0.01755579698049911 
0.02869052635790602 -0.006724276531755246 -0.0285302429204299 
-0.04731559455680462 0.04117027829117996 0.01061676304530731 
-0.02360833152401526 0.05666285119716829 -0.03538079652061971 
-0.006737134975038243 0.03514959138612561 -0.03346114704913337 
-0.005693327338575594 0.03911372321499482 -0.03335052304917496 
0.005943348973712343 -0.003912719819054485 -0.005073139972123612 
0.02491897955478794 0.00798272027533657 -0.01587727997024931 
0.02495211921291331 0.006690170556397831 -0.01542592997069578 
-0.0002892132306961808 0.05489666633768133 -0.03085653097238663 
-0.001542590117012265 0.04597053501671605 -0.04142645611410214 
-0.01411695145273298 0.06031102822323092 -0.03707535345613475 
0.004706693670969892 0.007609814918296999 -0.008255544820461992 
0.004746903425110713 0.007288121207170859 -0.00793292332634119 
0.02788498681948024 -0.02007473831330195 0.00189239991241914 
0.01904804796467154 0.009604933118431885 -0.00502334304542785 
-0.002244543913064416 0.04740035883869026 -0.03045806806264664 
-0.01483255733254636 0.05556244570998939 -0.02277502360027629 
0.009199027041380948 0.005629920908582908 -0.004830790085562271 
-0.01937269716369514 -0.004113944058760141 0.0621647768728169 
-0.0115366418778024 -0.01834251158014504 0.07113058334438846 
-0.02206397174204656 0.009020116500331386 0.05697131190304337 
-0.02257123866970078 0.004138105709485173 0.05167805402152802 
0.1120890752526697 -0.1258083143968936 -0.04593422988496226 
0.162969006550146 -0.1272459473523921 -0.1013371569619354 
-0.03571159549849538 -0.09095760993415265 0.09880460519172141 
0.02965298094826968 -0.05101255160065112 0.05196082524668204 
-0.001759600113021099 -0.0004614609481649414 0.01469660605603333 
-0.03019247848003809 0.01093905415235585 0.04677491518592315 
-0.01579331605340682 0.005622856418726112 0.02775784548190735 
-0.01705555958582526 0.01008865363441326 0.02713694656779287 
-0.009921777975457104 0.03155394395500005 -0.0009220559344500018 
-0.003127715526142452 0.04753837912872169 -0.02867965653878676 
0.007786024144521939 0.02501293819131427 -0.02466420857270402 
0.005140779609824968 0.0001710316864494505 0.008236694992807105 
-0.009993572036566173 -0.01219103902179647 0.02872504412901032 
-0.02485304477700392 0.006232568761808423 0.03313869967193189 
-0.0360609655195075 0.02691221147988293 0.02706167187197721 
-0.02473238653206594 0.02623621517824894 0.01417307531032884 
0.00412485160522394 -0.006570972261040817 0.008132227371833903 
0.01648386646274768 -0.005419112557681313 -0.004672565194070276 
-0.003865350116018613 0.0493582039346851 -0.02950439641418163 
0.05448746393869966 -0.05030063642916953 -0.01004634856273132 
0.02566140289800302 -0.01916927541421924 -0.01114473058012125 
-0.01212925705141319 0.01143500604088806 -0.003509589287311529 
-0.02789661114417499 0.01163167443633992 0.01671499162496554 
-0.05008374691846445 0.00714957128914431 0.04164944937758357 
-0.01209912367076294 0.01007602760454109 -0.00173611874746471 
0.01704850689070038 -0.03983852964986948 0.01054875424545251 
0.01986085865541627 -0.01909516301564039 -0.007993401637116794 
0.02023781646183701 -0.003644040218409614 -0.001731380372537119 
0.0009519288011110242 0.01561199229381098 -0.02719112865575127 
0.02417423795390861 -0.01915939457808356 -0.023321841900219 
0.01547229148534712 -0.003881936336028317 -0.02520556786580186 
0.0195129748003641 -0.04282262642097452 0.0002322548786506071 
-0.0346899183897002 0.002623675909633272 0.03004588394087957 
-0.03229409794957319 0.001551558269921171 0.02517603549524089 
0.009006432239565971 -0.01736913798279486 -0.006265194903962247 
0.001166482124803109 0.0109570758746733 -0.02342448590286268 
0.003392781552399578 0.02666920461732667 -0.03177542832944924 
0.01657071709232705 -0.001871542414816229 -0.03194323228670468 
0.01490184845666043 0.0004023175806670381 -0.03430324041803655 
0.03182749959025021 -0.0336657448684362 -0.01927155422376972 
0.006094172477741584 0.0008872760570255295 -0.022780594985471 
-0.0394756637085073 0.001247378106771357 0.03561130232265525 
-0.01191353733283338 -0.0003801037287512479 -0.001972106624845969 
-0.01295277085872365 0.01973483304088854 -0.01495067049700026 
-0.009708585920225804 0.02703272911490376 -0.0191528292571487 
-0.006207739106167775 0.03332725477746475 -0.02369200081831402 
-0.004856318050432547 0.02329385495521425 -0.02651610838931464 
-0.005635662338158999 0.02587673677563333 -0.02827256295995853 
0.02344184694377599 -0.01210614938366507 -0.03399543797578543 
0.03605456330723169 -0.0299752116879425 -0.03475891213539613 
0.01266993813309336 -0.01158699283859315 -0.01455463279561946 
-0.005001290442989329 0.02616207639227441 -0.01793186848458232 
-0.005369121258635345 0.02511590379532184 -0.01641083492906382 
0.0116381361168932 -0.02061414810865268 -0.002831938014516843 
0.007344183161243885 -0.002668744441916494 -0.01508404558366671 
0.01326144672817435 -0.008041100160642927 -0.01804729025598019 
0.01107752819366422 -0.006952851616499806 -0.01306260802312191 
0.01246244776800799 -0.008314117000569049 -0.01513181792458628 
-0.03805435920221197 0.02239389045436291 0.03627268845593936 
-0.05968105878791018 0.01106152735760639 0.07943397336057477 
-0.0150995296122042 0.03145691210162865 -0.005983732327184346 
-0.01510710638126972 0.03240354872538988 -0.01443526624835533 
0.02055433956158618 0.02657552031697594 -0.08035907064448469 
0.09518678898719782 -0.09348524706684565 -0.04966412858967289 
0.001598038264818168 -0.1530014538844432 0.07298950659085847 
0.02402674701326976 -0.05781971872586845 0.05767364309557579 
-0.0006988469353160588 0.03032238323027696 -0.02509676371500213 
-0.009277588455020885 0.03068675444827796 -0.03149199133854497 
0.007426703988629569 0.02082060015826252 -0.04437212062868361 
0.009130860802122824 0.0197484864600033 -0.0445616006987336 
0.01377353580119308 0.03732747980531152 -0.0538208857011897 
0.04005916249467731 0.01330277155245441 -0.05008324896058566 
0.02619311475634839 0.06144050083383201 -0.07826228319631769 
-0.01308579364278672 0.06187880709432703 -0.0422591723386463 
-0.01023656574273446 0.03988851667656507 -0.02838984023060937 
-0.01165363662480766 0.03254527901819105 -0.02424000602588516 
-0.0291956792237408 0.06180185339836915 -0.03127169885111531 
-0.02745470969083597 0.057945123363027 -0.0327308063795693 
-0.002023285131318597 0.03897469036513732 -0.04039339617834322 
0.03372015369786068 0.01508920585793376 -0.03827482504031446 
0.03975249860226487 0.01277518265443914 -0.04847900765645114 
0.1904347093072769 -0.1919021613914836 0.00364593028526667 
0.1410495064395763 -0.07440666615691886 -0.06825552314660809 
0.01038199270664579 0.02031529881802056 -0.03165532419785827 
-0.01082838558789116 0.01622514121616835 -0.009185379378013151 
-0.01393952564481856 -0.03125863942452142 0.03845902024417825 
-0.03760018638804317 0.05561862639755161 -0.0130122277263848 
0.001939261034087253 0.01273902512875909 -0.01736242722332701 
0.03454017301785522 0.005302618350015027 -0.02781839960806343 
0.1016082988599596 -0.117016443071533 0.04901963891795561 
-0.01496588757623901 0.07499447739557458 -0.05178442158098832 
0.009752960412277712 0.04737861768936015 -0.05786198353973967 
0.007962372800445388 0.02764598188769798 -0.04259258204383393 
-0.01046658042681005 0.01749719814789498 -0.01627745671939226 
-0.01773740161492041 -0.01920416609546437 0.02970122161619613 
-0.01700277042167346 0.01874428774511615 -0.01218118005248969 
-0.005296829695872206 0.03601660681261855 -0.03766208390516181 
-0.01353328344131235 0.07354250318401928 -0.0548942653762687 
-0.01412562099151674 0.07879964584151192 -0.06094796710008449 
-0.01128743565576119 0.08773999583347011 -0.06880706241153975 
-0.02127354616134267 0.08410844798077152 -0.06169188106590864 
-0.0197530455711885 0.06306025633978499 -0.04370642856942753 
-0.03666354764731269 0.06543290815807344 -0.0274715391228769 
-0.02078939116886424 -0.008585944770581387 0.02828272738399138 
-0.0465265674948897 0.08422047726570127 -0.02806492258132253 
-0.04403492597037473 0.09927719375623623 -0.04721829015394411 
-0.04364631618777838 0.1083597813213396 -0.05501106934679775 
-0.03789995620896963 0.1044680443702948 -0.05675964751830794 
-0.03826820986061594 0.1121925142194678 -0.05903990480446508 
-0.03766636285987983 0.1110500682129634 -0.05856639891404846 
-0.01959206868655082 0.06254158323762732 -0.04121657602922038 
-0.02843728407350808 0.07322992903285107 -0.03545211402640936 
-0.05576736896934735 0.1200756247822512 -0.04480119945832031 
-0.0436378650489316 0.1070319803993066 -0.05021096474259748 
-0.04372509078679597 0.1063340202977042 -0.04979653460039824 
-0.01034557852093304 0.002260146971634255 0.008439585296060923 
-0.01405505303932141 0.03140743127871033 -0.01261374020237862 
-0.009157878846612342 0.03641201730559315 -0.02390811906009038 
-0.02248881611172806 0.05963424719514244 -0.03251547592867363 
-0.02236155413660854 0.05140445479822297 -0.03537851943944288 
-0.08103861228654406 0.007967062535046161 0.1280692577004329 
-0.1371728605107426 0.04480150255690558 0.1723921897210553 
-0.0363917253607155 0.01738477886689834 0.04610328238907507 
-0.04559357784263594 0.04021803261370635 0.03289897408056828 
-0.02830812323425881 0.04295258966176894 -0.03373877630921688 
0.1495180593300916 -0.1472992883016321 -0.0310212960009284 
-0.04704362232315334 -0.1141673024471966 0.1060766194215967 
0.03172318358009852 -0.1106206291315105 0.1035371018897558 
-0.01505071721287893 0.04717615157371969 0.01059474718273793 
-0.05521414910173863 0.05315097223610565 0.022862423953718 
-0.04224357759301189 0.03527065501812761 0.0259360892532579 
-0.04211146942131751 0.03464994319752174 0.02790464606310484 
0.02391353382332092 -0.003486487714284274 0.009522425966170615 
0.1091708294775348 -0.09911379380034661 0.006101351163812537 
0.07552022938918568 0.02367891906929566 -0.0648607256684355 
0.03021809525649392 0.01578001947600109 -0.03520494574865006 
-0.03526591606242366 0.08395672469981574 -0.01284791838122886 
-0.06292000498648094 0.09840529333364308 -4.797139245144773e-05 
-0.04046730966831528 0.0562123611605258 -0.0007561573473256391 
-0.02663685449751564 0.03327375100304329 0.007439493395181121 
0.01578089718646936 -0.009781048731655364 0.0136518804066799 
0.118457600766959 -0.120661137277912 0.03315865364027429 
0.1102401229445229 -0.09989143538837764 0.005803038564088214 
0.2636838657540416 -0.3021198662305775 0.04558824560044619 
0.1972759766201859 -0.1124351978114164 -0.06402658349915268 
0.0101792182615433 0.03613301898289399 -0.02074260168386724 
-0.03613208793037679 0.05942538859347408 -0.001840540087913844 
-0.02563585383235946 -0.0304133680818579 0.05776549643773349 
-0.01397291588871335 0.00553572569354653 0.01717531472553131 
0.02174177207510191 -0.0151690788138233 0.007085410208375578 
0.1096902069095598 -0.1486807548456441 0.06348626553901245 
0.2252514717973071 -0.4233849089678011 0.2119166736195711 
0.04098133579069647 -0.0465118065511464 0.008067639061602676 
0.05307672407047265 -0.03078742726751011 -0.01106324273608582 
0.001307319722480187 0.009604475801142605 0.002409903097817357 
-0.01832410199044596 0.003038138593082805 0.02921359214265344 
-0.03199089755760458 -0.02007615495133783 0.05298257101811465 
-0.0158496219980027 -0.009814717497570173 0.02726354519249637 
-0.001087150121513811 -0.004892987283274169 0.003545318016223997 
0.04175056417341904 -0.06209019287598347 0.02121483264472755 
0.05592206629493297 -0.08890655029936344 0.03499336099960971 
0.06620811832951799 -0.07065585656220862 -0.002148559265416137 
-0.002841503602380725 0.001249442198526865 0.0007209699868244494 
-0.01306006433718558 0.01107171015217658 -0.001924028198036686 
-0.02400126697887892 0.01996365604974294 0.0008586771572773938 
-0.03143302502324118 -0.01267632930820522 0.0497422388845781 
-0.02570413408522027 0.01919491424405151 0.004414951468569221 
-0.01071082114389129 -0.01121106592854776 0.02077865628475028 
-0.007631206957962678 -0.008801899830787167 0.01642300807474861 
0.03262247276613931 -0.06716635725033489 0.02955664713189594 
0.0103892370308984 -0.03673278613911432 0.01824002096883775 
0.009136143273468263 -0.03301440475408895 0.01787297506877587 
-0.007582279837517319 0.002582790888692548 -0.004667534102210226 
0.005260090307815539 -0.01574864125048354 -0.00111123466902481 
0.007467945386786084 -0.02490220128163307 0.006219479057297353 
0.02906424164747556 -0.06327300591549899 0.01108819036178521 
0.02878347817588027 -0.06132683873885491 0.01115081654146857 
-0.008454032550165445 -0.1099562423866027 0.1033852269502691 
-0.002170514109504574 -0.0847242260436758 0.07731375605928038 
0.01652815688386501 -0.07048262604634932 0.030521892817126 
0.01994536843483012 -0.0723601802567496 0.02153200203506898 
0.0134245641452686 -0.079644143570804 0.01976582763817127 
-0.001532022924141259 0.00863341992460662 -0.00621378012704264 
