solver_type L2R_L2LOSS_SVC_DUAL
nr_class 3
label 1 0 -1
nr_feature 310
bias 1
w
-0.01391630977091688 0.05203990775629083 0.01267156474023389 
0.03869169128636294 0.02448317997983882 -0.04890443366853411 
-0.003601099872443453 -0.005178302310243436 -0.002879837040119721 
-0.04615660870028521 0.06658186373128915 0.001139315526166886 
-0.03055399684773908 0.06103800814702461 -0.1056737808063191 
0.05300367464088742 0.05524192349587442 -0.06939039353690185 
0.0369852483595682 0.07939040728539172 -0.1143598804730949 
-0.00653233496328945 -0.02763048295866908 0.06736060796088184 
0.07367790788617994 0.03877602509448453 -0.1232192996262891 
0.2033947375588296 -0.2763775008707124 0.04546649253861595 
0.05245633105140187 -0.1026081663825633 0.02797357624378275 
0.03637210347191317 -0.01314856746091669 -0.08545962774705429 
0.1199243947142906 -0.05880212716574997 -0.1109781326390218 
0.01365114195684077 0.1719726228663614 -0.1117509520270906 
0.1005864727733664 0.04757986089739549 -0.1288376324465135 
0.05451589056714553 0.05488627946453215 -0.08077872382107068 
-0.1595120656689647 -0.07188759320602739 0.1640722404758694 
-0.1487341714054251 0.02464970092666414 0.06229540990880042 
0.08526689264262433 0.01936585920996972 -0.1491446402885888 
0.007380843846689734 -0.03294584259263745 -0.05924357425250597 
-0.209401325665994 0.2158715398998002 0.02315744290971703 
-0.005192638050993478 0.1418689296778343 -0.103750811000103 
0.1050172791259389 0.00951539255570432 -0.09989586033208382 
0.04204982628765724 0.007369472817526695 -0.001398304623714641 
0.05403041882584173 -0.001711692166570777 -0.06012632730281117 
0.001765904480018802 0.03194322382357421 -0.001087854447389866 
-0.08400366267944126 -0.02423078031301127 0.192049994256017 
0.2089739775987135 -0.07927009703907863 -0.1530416164445366 
0.04776394157121382 0.06307367962934805 -0.1522535237515241 
-0.1542930189467749 0.2582232766000096 -0.02302047827737166 
0.07471692457005276 0.09155498490426064 -0.1567205304863257 
0.2434891654688236 0.02270134221169506 -0.1599331096606638 
-0.1288661155679307 -0.1516358333018926 0.2122646113563544 
0.06680063439628904 -0.1614745223583365 -0.02330633393508395 
-0.07713980701187698 0.02187538893752607 -0.003614124756991602 
-0.1331658133708309 0.1687860606023663 0.03769827757296016 
-0.1064618311834408 -0.005048986912722918 0.06483277244267398 
-0.01519187213272208 0.1407693307911723 -0.03481880466878524 
0.161590936776132 0.01125298124357498 -0.1322300925782527 
0.09851151097326524 -0.09553544652229215 -0.03878056661260786 
0.135098756477087 -0.1153995806827721 -0.07646399731303538 
-0.1255781060082104 -0.0853571133291709 0.1300352966878845 
-0.05252349026499188 -0.07614882137597612 0.06494399094672142 
-0.1080742930858007 -0.05874315510987322 0.1340273171591633 
0.02324661298212978 -0.1658314513599072 0.101833992449531 
-0.05030606785925192 0.03238531824320428 -0.03537839048499962 
-0.1589168092024702 0.08490497726899351 0.1160847659708177 
0.06458567604029947 -0.026969454735286 -0.09595871186076786 
0.08809780974537669 -0.0973838584434156 -0.0242728038923362 
-0.1804433828113113 -0.0557965317634319 0.1646244540052743 
-0.1259749487674793 -0.09005178268400764 0.1338506528467006 
-0.125155764468398 -0.09042719602563877 0.1336760180092331 
-0.1241373672268382 -0.1107798442277957 0.1453493858993579 
-0.06719133943027179 -0.02125971233911751 0.02713237580663388 
-0.1086587619187212 -0.0277156558699225 0.04768685242463781 
-0.1029331445479293 -0.02734748023994524 0.04204182619826028 
-0.1094148132028118 -0.02692013506996562 0.04852576134927563 
-0.02038787060112895 -0.2575090916380609 0.1716098218358124 
-0.02553538571930061 -0.2564193363253074 0.1716281023995387 
-0.0165353726369299 -0.1283769452632042 0.114606577609148 
-0.1031937237267502 -0.0271000441932703 0.04218036485334108 
-0.02519768850654824 -0.02853445331153957 0.0420396999432585 
0.09156764805874493 -0.04689233106269357 -0.003516380910620949 
0.05941165379735112 -0.02926756873118502 -0.01309084731063878 
0.04765515562101332 -0.002141067070071772 -0.04248268930884949 
0.03547898232040216 -0.02694962952879605 0.04276041547529728 
-0.002258119099944878 0.003642692603622654 -0.00771464889268532 
-0.01911138758440114 0.08795055138989775 -0.01813401742981941 
0.01128585327690413 0.03960880877233729 -0.006013006158574115 
0.02393696217126401 -0.03482961629093245 0.0439232224385959 
0.02442536177627184 -0.01350568748013758 0.02794397032403311 
0.0075757834662539 -0.0338628963763075 0.05510964045015036 
0.006705672790366366 -0.02420669311116633 -0.001974384611963223 
-0.0209945935532553 -0.01702884881837141 0.01025254382393124 
-0.03352841050866066 0.08858784258724264 -0.06038213989911979 
-0.007954269875900278 0.1516646889027187 -0.1108824554302905 
-0.02816854253118202 0.08407396627890328 -0.01425595231250888 
-0.01651068528350215 0.06769755956229535 -0.005588658273564731 
-0.01590655096124461 0.01747227146684495 0.03825408265062532 
-0.02816849308784315 0.007390339185094104 0.06286982054749075 
-0.00144032891479005 -0.06925313634745267 0.09421253675035081 
-0.006685221392187327 0.008453365981299865 -0.01167520672632403 
0.003322339529374622 -0.01262231584093853 -0.006986662625602941 
0.01413619640223762 0.06436412676158124 -0.04810844506732487 
0.02313626899982613 0.1316511876401338 -0.08042479220638675 
-0.03768907478768062 0.07466204446171607 -0.02279603320005631 
-0.03126384405501364 0.02316805685558495 0.0259953313387339 
0.008697614879568192 -0.0006253099543331445 0.01229582987319886 
0.03106392567905326 -0.07191514049351427 0.01999055776014448 
-0.02735541303779069 0.02541186232611659 -0.004672774622494798 
-0.006133299737164451 0.0397114910609708 -0.03255271991541405 
0.05216289425377836 -0.04282059380462049 0.001761555256104414 
0.08857560259278478 0.005526213906678782 -0.03058644376833211 
0.0528576018112845 0.04377086315948883 -0.05002279280635295 
0.01801958290432365 -0.02017622410576153 -0.01555472870491049 
-0.01799914391480424 0.01087920829730712 1.475841342117957e-05 
0.04069036480331777 -0.02807288494034043 -0.00486582469631182 
0.04254723233363007 -0.04862102863135643 0.02825193970233351 
-0.1297582792225827 0.05996254323466989 0.1073041290907182 
0.06724661547575704 -0.05028053359415297 0.01753400895919018 
0.1107218493513948 -0.08626065314487251 0.0165449246389238 
0.05805108756106031 -0.06969552982286406 0.03111900540770064 
0.04082963082701134 -0.06280789368128227 0.02913523581891718 
0.009478451371449691 -0.05919787289067176 0.02901670462355791 
0.02965324460426602 -0.04713573966558217 0.005361171533140761 
0.04770768307374641 -0.02851343697369009 0.0002113622045094412 
-0.04010544666707228 0.07098869520868223 0.02038026881218169 
-0.03215390393683124 0.01305572635370274 0.0804307258848302 
0.01700076489750791 -0.09294535387489103 0.09891718533999021 
0.002304308588532044 -0.05116023341607023 0.06745718386173388 
0.05247776399783755 -0.0696099718450931 0.03681717388425087 
-0.03178240347212442 -0.02975194250540093 0.06129179842309966 
0.007480606040287946 -0.05750936010679482 0.0276067846010567 
0.006868855733099772 -0.05045035669938987 0.02307642972633448 
0.007796826300900646 -0.05743845554108305 0.02765482645301097 
-0.06570469849859124 0.04126202081375729 0.0423321253096874 
-0.006262529129902011 -0.06964426333816504 0.07971642682746435 
-0.0003078799639237176 -0.07119163281647707 0.07555680797665154 
-0.003498112034065681 -0.07280377744617761 0.07929594425180886 
-0.005208205849593373 -0.03523565317210522 0.02772048131444352 
-0.001051778197889838 -0.03780846109782703 0.02567461602126422 
-0.03478809926628278 -0.01698178664525305 0.04272995464342234 
-0.004102112558491489 -0.07032521593114004 0.07906871946131788 
0.01184001912586204 -0.03806864784661226 0.01179771900424899 
0.0648075525118836 0.02039912975908831 -0.05113702532964341 
0.04317492911745548 0.02239897430781152 -0.02640648027492298 
0.02450392875563508 0.04795102953259413 -0.03304418843375574 
0.05435057970832342 -0.0006401285859505345 -0.0385571660127802 
-0.0192991400282353 0.04618104783233039 -0.008271193823176863 
0.006159534614559546 0.09643444279339311 -0.07542397094026124 
0.02945601790328181 0.05100729925014356 -0.06285515854236851 
0.06732794178048891 -0.01666181050305261 -0.0470078735978768 
0.04173735699475979 -0.0147570915588606 -0.02639555595242967 
-0.04471261522313916 0.03757114918376468 0.02620907746049575 
-0.02311063753346544 0.03968814626563513 0.006905728367913195 
-0.01853042795839937 0.07759458689924323 -0.02480745622492971 
-0.0442452735179431 0.07272655334096817 -0.02400840474000857 
-0.09556805839115458 0.1623690555603332 -0.0324167839376191 
-0.06835808439050159 0.1412026982340264 -0.02987625517015567 
0.01801582286993449 0.03882241206315303 -0.04432086033881843 
0.04353367366766427 0.03074139040477293 -0.0552705837942552 
0.02476108196594307 0.02508071262860452 -0.05404134314240949 
0.003566800900749035 0.03011978530316889 0.003001449123699399 
-0.01317793541763136 0.05448510272973129 -0.006303048204416964 
-0.04793131092752077 0.01765433834011755 0.017650289617231 
-0.0705411005795564 0.118689359339671 -0.02595754710847163 
-0.1454537861585324 0.2209870644083589 -0.02505287974691551 
-0.111561191045301 0.09228113479845336 0.02067065694717922 
-0.02472471885337214 0.04569951597039113 -0.002718961648843324 
0.02715245387381273 0.01183191959873634 -0.03678114289297239 
0.05530444840102143 0.004984792203302396 -0.04123283904833834 
-0.004477470518949917 0.01597784982648019 0.02872848136351685 
-0.05329542727347816 0.04443777518224776 -0.002235273504764627 
-0.08060124560723274 0.06417127248788936 0.02557319060963773 
-0.07158219037684399 0.1444244093370173 -0.03316822473353122 
-0.07600743313374485 0.1449470552990342 -0.03651044411773869 
-0.03151210317877687 -0.008841605533811719 0.03047247404505567 
0.003043801396142184 0.03825366761287336 -0.03809739284537608 
0.04596615404075701 0.002474877031292408 -0.03786650244400279 
-0.004285676074508571 0.0378904521372642 -0.01663057758959939 
-0.0872941841480453 0.02060890013831539 0.07018772990950178 
0.004071390222536632 -0.04908757567544173 0.04079617570754163 
-0.03181917487323211 0.01247636588479034 0.0225746527053683 
0.02223498688068587 0.07890297199898282 -0.06128787340120552 
-0.009953306400182507 0.09734295412313528 -0.05645499690171171 
0.01583708957644738 -0.008395745138150057 -0.03173913843007564 
0.09085084871161421 -0.01087827845510653 -0.08513740576549472 
0.05507840215623574 0.03319676746617297 -0.05157453768401132 
-0.04458774095453284 0.08923215442703751 -0.007359653175637729 
-0.005945432221453783 0.0666033296911975 0.003622222369768339 
0.07616154521017142 -0.005158434106721199 -0.02213589382119985 
0.1007319299131074 -0.0729846190985791 -0.01610086776244254 
0.01825747448878435 0.0692796503730034 -0.05405600575985427 
-0.001204445082958646 0.07820434806197557 -0.04605265926320237 
0.009574279405488028 -0.005338824997724792 -0.02881525323432764 
0.01404312449711462 -0.003492307028238632 -0.03275923337527119 
0.008930000678257197 -0.00912985214862916 -0.02341045381598954 
-0.09213279086318116 0.1043339074301926 0.003090189962313594 
0.01822205149580336 0.05225232258627797 -0.03449029332581748 
0.01765703089705412 0.05138033036638509 -0.03231374932257954 
0.01820854999750562 0.05138851420564088 -0.03484741950181949 
-0.02430543975202452 0.001042629109863961 0.003370523330731035 
-0.02091476127797697 -0.000531546661403995 0.001159515950010126 
-0.05345122008571414 0.02899298416371034 0.01590465182531518 
0.01599032128241972 0.05327163571645314 -0.03257957480744474 
-0.0405365011456844 0.06544295178588133 -0.01801352783651557 
-0.01195685162064084 -0.003153629841340797 0.03207553890481007 
-0.01455796914804757 -0.008509922414335363 0.05338845664663699 
-0.01406454359199854 -0.00445078184290428 0.0428944476944849 
-0.02601788660056052 -0.03298562661236665 0.06565180329958424 
-0.04453375022534881 -0.01865630918221843 0.08039453025437868 
-0.07258344726356943 0.03494150485560853 0.01166355649272214 
-0.04627471365734989 0.009284196431938804 0.01181311010920033 
-0.04805029040657893 -0.02736348251827764 0.05660737467504887 
-0.04110386721613792 -0.04557405904580732 0.07641698980573695 
-0.0581173943578597 -0.07262321281966046 0.1388588957443147 
-0.03934279205632297 -0.06485253521910335 0.1067102688871248 
-0.04297681475039731 -0.0451790555319361 0.09511423502061264 
-0.04562229479831331 0.008884638864824547 0.05661827628633915 
-0.07628522089216208 0.06586375234028641 0.04230807668665312 
-0.08092920739380358 0.06651636078794289 -0.01029782150850439 
-0.06775391465079503 0.03551048385764164 0.001676920600776352 
-0.07221526719238679 -0.004362394798441927 0.05569042764015752 
-0.06545217490487525 -0.007253614571720472 0.06374450792478772 
-0.04841498952284486 -0.02639988440942864 0.08580226977549603 
-0.04178192198248878 -0.03280666981210612 0.08353402594928452 
-0.07105544360189003 -0.05591307459264224 0.1466533197761921 
-0.07047202506754208 0.08022262172729337 0.02271346865031294 
-0.05176114909914261 0.1361216117715914 -0.04754566135938807 
-0.188089990517735 0.09280377266943821 0.07732163362141518 
-0.06012130823755905 0.06331084144399828 -0.01997984931489627 
-0.03358200301867775 -0.003830990717553676 0.01769234005931697 
-0.04696702301047282 0.01899537942257471 0.02928546264183567 
0.009393207362744547 -0.0147462997750339 0.004015651503622013 
-0.02938108430384609 -0.06681739122190178 0.09285568360615079 
-0.0690463693547924 -0.03512766222371323 0.1086138889670046 
-0.07452406982929531 0.1113012326112873 -0.000479031571787274 
-0.06264652592216223 0.1534448057605514 -0.054325886725834 
-0.2011079853820609 -0.1187539252084139 0.3109816254715567 
0.006541446888226508 -0.003962767239285302 -0.01645165433768832 
0.03564371521446062 -0.01133823724440044 -0.03060100769334973 
-0.01010242124675679 0.01726741517435186 -0.01983642311484159 
-0.07927756985693439 0.02128260599979229 0.06782373053611009 
-0.05614847856190141 0.04865125829683736 0.0134473583407067 
-0.01968474725886278 -0.02757977933716766 0.04892242104147427 
0.06567460865273048 -0.01270958504276136 -0.06600459289542066 
0.0503935728590099 0.1000089837355362 -0.1514389810762634 
0.05111580704418617 -0.003525572952474922 -0.0550064007378755 
0.1704020704276501 -0.1376967868561095 -0.0446269360810562 
0.002635064026868454 0.01390530666552618 -0.03880006176256291 
-0.03518551636393072 0.07516298510327082 -0.04419147554193879 
-0.03936592581799989 0.1484991195542327 -0.09868468083023234 
-0.02963189598294484 0.1259665576109205 -0.09280661716860866 
-0.01510277874996872 0.0209916131730612 -0.02581455801619872 
0.07129833801952208 -0.01802092594528663 -0.06887039322994001 
0.05935406506572548 0.08655127504322156 -0.1344536639097343 
0.05320984875290564 -0.017321447658723 -0.04848231804936718 
0.05316678762339448 -0.01079260906340545 -0.050701494585266 
0.05376793141303537 -0.00713342026009413 -0.05462390099356052 
-0.01839074575469026 0.112293199535197 -0.09411392457188467 
0.0396129723744645 0.02308898202925203 -0.04082718307906566 
0.04598183595873949 0.01668237855712507 -0.0415601549145951 
0.04070251849100655 0.0201281611044273 -0.0383435475301216 
0.02500055056722568 0.0130505221201542 -0.0330699352832242 
0.02266475441696982 0.01032728917968499 -0.02694991602763779 
-0.03749544548098167 0.04445586097603917 -0.01715175317147133 
0.04283653485010627 0.02316440037000677 -0.04424747533107688 
-0.02857830849006052 0.0601161728529607 -0.004742129076980703 
-0.02949969516519703 0.01825153845940412 -0.01822794317966386 
-0.01826688729014831 0.005625875563355695 -0.01080190656064403 
0.01766674987696114 0.03093948317491977 -0.06406844787989524 
-0.03103122594959431 -0.03694303998888174 0.02113159287833285 
-0.01711200109300355 0.02862447960409866 -0.01806883689942177 
-0.1065999277784213 -0.05359307798211314 0.08057678559281363 
-0.06362582862135786 -0.05229696251533367 0.04362931235409207 
-0.02403130991123789 -0.06551982017670471 0.02595047101502616 
-0.02304358030924161 -0.04599947469390395 0.02168304485535577 
-0.03241471766253696 -0.001623573820876459 0.02707881231733083 
-0.001891592229036633 0.01427958270993468 -0.02352532427291046 
0.06562480354225322 -0.01165497992668495 -0.05893767206094752 
0.07816251474316958 0.01368563881398474 -0.07666971678866397 
0.06819327979278125 -0.02070079167813339 -0.02798739821497699 
0.005038002984382424 0.02809544308768624 -0.05339713752483333 
-0.05947168930033544 0.02829804075130834 -0.01620139239577078 
-0.05753014817573034 -0.01476593724532131 0.01759398209209559 
-0.03704004768785615 -0.01915515840935478 0.02025224366556391 
-0.05056208887884289 -0.005838990613234198 0.04429717388766862 
0.01756829615142319 -0.005828063524276365 -0.02441190288650964 
0.1031700461193205 -0.02235758317982591 -0.07281200252085884 
0.1606006272309601 0.003596149966523289 -0.1375310756823855 
0.1749156937738241 -0.1200958958857019 -0.05004552613160608 
-0.04662027369127814 -0.05561380323250313 0.1083492644473696 
-0.02660419258230927 0.0587305481973488 -0.04383978673693492 
-0.02274863949972193 -0.01043951358376036 -0.01546892748457469 
-0.0604333420566136 -0.02739411102674972 0.03551388113085359 
-0.0226768601049569 -0.03315157377105218 0.03558151229623834 
-0.007897624058235823 0.004754076511414984 0.02098048023476637 
0.093782063331234 -0.00471439041938498 -0.09948259718370495 
0.1636355277135649 -0.01963512905348323 -0.148915168835052 
0.1532957508688666 -0.08181408431369398 -0.08901949463138627 
-0.1408035010731966 -0.3464211642258306 0.5017174460185144 
0.06160878239482064 -0.04372856465769971 0.009832866588131713 
0.07540421822652688 -0.05957780466322263 -0.04766711777645217 
0.01023231823235297 -0.05498982807727883 0.01913752293672041 
-0.09714085488280325 0.01981699278513447 0.05155376571287138 
-0.01924115983110282 0.000680469371254621 0.00673969201768742 
0.01192522019573873 0.0001201316910098166 -0.03618958077929448 
0.04330828415343348 -0.06402387626813877 -0.02927026480203733 
0.1395297901984458 -0.04438130808540937 -0.1085847826200101 
0.1124698760777092 -0.01142682841966525 -0.09811901972494055 
0.3346860233477603 -0.2336942666358621 -0.08851845177652708 
0.05053803888933132 -0.03548133747276155 -0.04218870657315946 
0.007031780358231985 -0.01174980943775297 -0.01846623012526456 
0.02378783566766798 -0.04741689758698243 -0.01795723935133584 
-0.02750560701413343 -0.00557743938841799 0.02831031115438268 
-0.03779581211778728 -0.02476046061575004 0.06624572687694308 
0.04458804586472537 -0.05590683693179221 -0.03202298414815214 
0.1341265183949907 -0.03079485443188499 -0.0800600897994863 
0.1205870783012864 -0.01100613851798989 -0.1004194564779106 
0.1165030329882864 -0.01283973829006768 -0.1002668989197025 
0.1157311849833264 -0.014503163875083 -0.09504215185359371 
0.0879397435191023 -0.08867702377584676 -0.01283095725115373 
0.04264105905001664 -0.1247642060134912 0.1121466579700405 
0.04634584744949767 -0.1226246925216483 0.1079150188040046 
0.04562638688001213 -0.1272125534622662 0.113147534980764 
0.09769837225192876 0.02377163630260749 -0.1085356352865969 
0.1052602474955701 0.009255695855629603 -0.1007902679104763 
0.03652861619708101 -0.08662046875666944 0.02845158776057726 
0.04753895636436527 -0.1275285749320556 0.1111376549575183 
0.02148092402063702 0.009538141191914554 0.01544081988363166 
0.01807732068408811 0.005220651045566425 -0.02021944151131926 
