solver_type L2R_L2LOSS_SVC_DUAL
nr_class 3
label 1 0 -1
nr_feature 310
bias 1
w
0.01715945023102973 0.03864911329134105 -0.09430943359734284 
-0.02931305754254093 0.09929997952240063 -0.1102846764791432 
-0.002803354534064251 0.06636478691356325 -0.08439963586857237 
-0.08262488842225792 0.04322760897968846 0.05474671402944878 
0.09217112822717617 0.09311472393306987 -0.2095647003870199 
-0.03783178252774042 -0.0220631760552974 0.0549410519960664 
0.09189190368506504 0.002778281115149102 -0.1676927320668573 
0.06321027092063264 -0.07086980533403976 0.07237798082102059 
-0.1030597629616529 0.06420851810716838 0.03543973898385329 
-0.04768826363834666 0.08707566223704051 -0.06481589144635343 
0.03800318759122882 0.01641019280747658 -0.01792764264065071 
0.05238142911219851 0.008864155684963545 -0.0663360863353144 
0.1202142620701791 0.0867542523718815 -0.2043243342001413 
0.0111931389789942 0.03683946700949626 -0.05111154584824039 
0.03256675605328781 -0.04078235661942614 0.04934389834609624 
0.02559178135543876 0.02994346096313288 -0.04399244627177836 
0.01482133608243049 0.05004425422074871 0.01112741846793064 
0.06015065072425834 -0.002474904590956543 0.02411979186366269 
0.07891900482269254 0.0485005274331431 -0.1163201011197797 
0.02662611414588136 -0.09899541998229129 0.06972812679918035 
0.08876749875139434 -0.1134068531953493 0.07427245015920482 
0.08170514159800152 0.07528240955824017 -0.1795860752375069 
0.00855930095647682 0.02559051796723839 0.001274547804773619 
0.0502970319974493 -0.01863674929720298 -0.04921402029667153 
0.09373716068723661 0.02827629122044706 -0.1075046853598298 
-0.1063007663694846 -0.03472119087253872 0.1356330641602178 
0.05949221729855519 0.008708091034738857 -0.05092690861283812 
0.04006881021573248 -0.09385627551042329 0.08872855010071268 
0.05868634080070557 -0.009275613205271963 -0.03868794905185279 
-0.007179998584195314 -0.06007591644435054 0.08188437728095153 
0.01018650017137991 -0.006448851604464341 -0.01864188888964557 
0.03089031044250274 -0.03119347798768826 0.04639579237963753 
-0.02665571114402848 -0.04015655075589421 0.04686386490363432 
0.02739661790627233 0.08617022299834669 -0.1143816779958046 
-0.06524053214975169 -0.02261108454787909 0.1148511792337986 
0.02128412723390925 -0.01142740020426771 -0.03959497749604072 
-0.1048341348631406 -0.1124001529406824 0.2237760130756371 
-0.103279747375969 0.05549184177117645 0.01695279890349612 
-0.02696228317843095 -0.007949417600846668 0.05889342838145081 
-0.05610431662833645 -0.03554174201674874 0.1212553059686867 
-0.005668225442704492 0.05388334640360313 -0.05127750577465374 
-0.002913840875406459 0.0121418503172461 -0.01085441190210696 
-0.06347619769656596 0.002597993176746106 0.05255405894282509 
-0.02885417576878914 0.0199363627342979 -0.003266561391318641 
-0.04929315728551083 -0.05481168175490689 0.164199183311269 
-0.05445876634914823 0.04702916491812353 -0.05668625869202139 
-0.01887991278675211 0.05944634769754101 -0.05280316076429379 
-0.02122523353806557 -0.02903518398150941 0.02729409147161753 
-0.04087624621710032 0.02978733327314955 0.0108276541110952 
-0.01388319810377684 -0.0006268912362145687 0.01810954126636409 
0.0005434420998773342 0.03940498172206392 -0.05842645915284817 
0.0008021264803167664 0.03942297237006023 -0.05902884948122632 
-0.02115032710307051 0.02962847649325697 -0.02235476823804462 
-0.001721014074749577 -0.01733419222127342 0.05840368405885716 
-0.03456669473826856 0.04110003665643024 -0.03402476300836237 
-0.01138375177248864 0.05482318886910791 -0.0852813111560696 
-0.01010833663186848 0.05576474267966164 -0.08853877941125185 
0.006039528762049638 0.007270871031215194 -0.06659476845069309 
-0.04070145163956371 -0.05989664779936661 0.1095892941835957 
-0.01171460499508666 -0.02521459949024283 0.04554371133111899 
-0.01184745249502724 0.01956160962204358 -0.03728094283560704 
-0.01975683466448332 0.02020807919796396 -0.02249706610688288 
-0.008999294285911759 0.001248329512790766 -0.04141609154947664 
-0.009119930137902157 -0.01154039659298227 -0.0192135996969958 
-0.01058938124947341 -0.001407337204761511 -0.03295012650216566 
-0.01941608852121764 0.003915723182585363 -0.01348664961029333 
-0.01652129474824422 0.0163078111771602 -0.03584409442752276 
-0.04382689535310529 -0.04612737723177363 0.09312318774586674 
0.004164001590903391 -0.03805910679867321 -0.0109561219758289 
-0.02513765072204331 -0.05917824531966102 0.09667584160763454 
-0.01232565055761425 -0.0007987961219143754 0.003291718463207466 
-0.01280361401800762 0.001965535069928761 -0.001800502598687845 
-0.01337731724336917 -0.00910971301000566 0.006723836126959639 
-0.008974335726950416 0.0161029385571369 -0.03909053744550364 
-0.004319230799977789 0.03048488385832924 -0.06188622858581503 
0.0007067735882215257 0.01940095856461142 -0.05236308993747052 
-0.01924764803876539 -0.04594847467876575 0.07854775938988863 
-0.02205954516885369 -0.01752459419237728 0.03583013305115237 
-0.01440989286008289 0.01332421242789887 0.005752448927693245 
0.0150485396222765 0.01168713609843229 -0.03364042715358932 
-0.01216293007194622 -4.89123640550776e-05 0.008194669835202039 
-0.003439612497059268 -0.001560891506871519 -0.01765769590356029 
0.001721391164283006 0.01466977510075445 -0.04016268631159688 
-0.001059075897798984 0.02149780904465939 -0.03415921600720436 
-0.003835548457111693 0.003243334194442287 -0.001065938121931211 
-0.02267877929865173 -0.01525691816060181 0.05551359622603114 
-0.0137006197823831 -0.003547421199656934 0.02601694521101248 
-0.0163606263659169 0.001030252695439206 0.02234466544384592 
0.001129431075385176 0.009406159798392015 0.002094985988526685 
-0.00882543923486708 0.003851984898676681 0.0005038388023178732 
-0.01574513334930504 0.03574091668739409 -0.05143329648205611 
-0.003695773595273129 0.01094391343598772 -0.006863819536570651 
-0.005794633877469605 0.01334380642206577 0.005074136939373424 
-0.0001397291971418247 -0.02619932643672145 0.04176915923508363 
-0.04084824069076008 0.01161759463497865 0.01857796330436537 
-0.03229224839871628 0.02396848824950916 -0.003683449922849856 
-0.01571915576720882 0.005423853586860907 0.01921968973135773 
-0.01795198863425095 0.03045261124535333 -0.01541708699648835 
-0.00639127835738589 0.0309427382993838 -0.01947472877397288 
-0.02531909154394265 0.01935985244560867 0.01428316786365391 
0.009558845585567232 0.002754874883312971 0.01355078145093039 
0.005729744033922951 -0.009893019415895876 0.03112404849102296 
0.002918471802279264 -0.0139673798459959 0.02501619228979078 
-0.01884174518715018 0.025273334831145 -0.03684191924863479 
-0.02626030643571632 0.02294220094336484 -0.006386156655511789 
-0.007182799731098896 0.01610117524918969 -0.01314237955495956 
-0.0003989372545643292 0.005747539315379895 0.0010255347833786 
0.002431302102441732 -0.03249795113372603 0.04061141713247866 
-0.003860665416205209 -0.01725465423858375 0.04322092732921794 
0.009379721605858659 -0.01564082090038605 0.02768521603064623 
0.01120765376448309 -0.005913095218177493 0.01270910707303633 
-0.007804108386036567 -0.009307225573108356 0.03347072213556626 
-0.02370381498458048 0.0127224163603492 0.007630548672558251 
-0.02364751698569222 0.01325456152681407 0.007795588944883769 
-0.01089708574178798 -0.0007403921204075767 0.01844511280067638 
-0.002046510959950489 -0.03669745340558457 0.04907215900607433 
0.010015535801527 -0.03679317814869359 0.0465467941661717 
-0.0001886874617504838 -0.00307767656611998 0.02693267913606432 
-0.001276003835865133 -0.002997331588062321 0.03001645008007668 
-0.02533319316799967 0.006257359559832981 0.006151676295686095 
-0.02234997393431725 0.008055198685070876 0.00754299429664942 
-0.01762240211552628 -0.002558340444519445 0.01680006913800246 
-0.01125600590134098 -0.001593775414508145 0.009504414750902067 
-0.009864543630073653 -0.001830824686062337 0.008583703011746845 
0.007650084487608799 -0.01013815128346371 -0.02703732736548986 
-0.001202742231879288 0.01261025971891868 -0.03466641578014111 
-0.009139293370669588 0.01186980761034586 -0.02106495031241967 
-0.001357903474683148 0.002358356783093535 -0.008419069121353123 
-0.01891855791808292 0.03948395161523635 -0.03370510342859504 
-0.05362029343032007 -0.07190443331975681 0.1514078310211487 
-0.02710642216000616 -0.03107852872850959 0.02285690122762751 
-0.06820238296071718 -0.1865614363188024 0.3120620558140061 
-0.01005595852253918 0.01238689213793286 0.009945716905968962 
-0.007604428588243104 0.02489283768346543 -0.004709983860422797 
-0.00840799347764757 0.02403283622991547 -0.006169656025931163 
-0.01359976606254031 0.02078704542893918 0.007944244750722316 
-0.009623166897070018 0.006900159351465873 0.02015036397277494 
0.00505704979259383 -0.01689513166508954 0.02416389422946058 
-0.01142340960697204 -0.01025865321081562 0.05769695203728411 
-0.002430952462740925 0.01393374668501682 0.005916934179158024 
0.006748881347439715 0.03110432524383697 -0.03961626983191837 
0.006011915626260739 0.03434255667186856 -0.04435804056728571 
-0.01486157836181871 0.01337208033677076 0.009120717974750919 
-0.007033558275663514 0.03247954645692781 -0.02284047977725583 
-0.01827032710143099 0.01115931596780827 0.02775552366345491 
-0.01362457783124719 0.02151288087534272 0.01606551376150502 
-0.005101544779306105 -0.01678874500532409 0.05057342250673144 
0.01422010363958283 -0.07251220724871098 0.105172052964128 
-0.002736251824522614 0.0335033131067647 -0.0307077639694272 
0.001805404920204178 0.04033711052136393 -0.0522459980840967 
0.01492382721558105 0.05838281614190276 -0.09808072233029379 
-0.007134950853256799 0.06014491276461942 -0.07369484386451806 
-0.02542108733319424 0.04307858758751591 -0.004344888291428766 
-0.03411340282294294 0.02504915299918618 0.03919941705724518 
-0.01243283401549835 0.022573309034577 0.02265089569393915 
-0.004549483592237699 -0.0235906101311723 0.06183261119996499 
-0.004293127725351785 0.01098278871065535 -0.01661242403079733 
0.005971202875588109 0.03598292564645283 -0.05870233185696269 
0.01634237380080536 0.04255272968001315 -0.08121774375330594 
-0.01353333111206293 0.04527748553178233 -0.03617380055805824 
-0.009679376473943646 0.01790212964773871 -0.004160129045615073 
-0.025052774995292 0.008457773396503198 0.03637812821163731 
-0.005345598065805494 -0.0002240358499396067 0.03978825295628422 
0.007720788799268276 0.01005971753075637 0.01822354665384347 
0.008572326987422283 0.009370887622244774 0.02459377525627554 
0.06313950441607416 0.03284192031328662 -0.1842936303613432 
0.01031127014026332 0.03481886562064917 -0.05526428463443837 
0.006956429537082582 0.02294199384584433 -0.03001241999321073 
0.005134974774505671 0.01292286886537744 -0.009221112875228957 
0.003493552892297405 -0.01256195855345748 0.03197901891993593 
0.01591517717058946 -0.01732233233763866 0.02397620033562008 
0.01754126519970498 -0.01262269956956677 0.02965106819088515 
-0.001125682271332828 0.006371425444591517 0.03176171053379694 
0.0200569533728719 0.01537348966423318 -0.02248692907740621 
0.00924260324268966 0.02400983827783717 -0.03850500791495827 
0.009524966801016546 0.02663821223774264 -0.04233215532035619 
0.01168670635177053 0.01671505724851157 -0.02759932205182282 
0.01188831247106262 -0.01237643569003636 0.01500107915882109 
0.0206371368497791 -0.007992221958566949 0.01100618937118842 
0.0194944829312374 0.0146682288784114 -0.02437993226745917 
0.02065297333657213 0.01526931410556101 -0.02614990031487534 
-0.02798026820334733 0.004674131527060874 0.04632217929603472 
-0.01011290717324582 0.005380769945744602 0.0169823976027837 
-0.0130690615273454 0.003557882377465073 0.02016368746529869 
-0.008562834244204471 0.008827093703319529 0.01931611167750651 
-0.008548460506551865 0.005221959520971475 0.0240623030198922 
0.03860358719473521 -0.122557936683007 0.06327687337869041 
0.04163898438332402 -0.084814163939962 0.04695859440214383 
0.01475285250200159 -0.05386451585431607 0.0474282125706089 
0.0233045890720234 -0.08194567382689952 0.05744694253170393 
0.003829301895641869 -0.0004887755005863624 -0.009190183440481803 
-0.04673813306199662 -0.05437302179701312 0.09128845853991897 
-0.01569545872390884 -0.04698219538554621 0.04256439770632159 
-0.07871993952913325 -0.1619364143951631 0.2742120053666467 
-0.001632461126724652 -0.01829360386194854 0.02924458084176893 
-0.004203865706620421 -0.01289045966405128 0.036484171049777 
0.00341430149324848 -0.01489614828310336 0.02653721820354833 
0.00418775333372667 -0.01542760928080134 0.01496477674179408 
0.001970971316764953 -0.02148923768729306 0.0107619535790177 
0.0274009267980911 -0.04676424817596395 0.01379817411945431 
0.06442189387531884 0.01830609253863361 -0.08924728718363828 
0.07680228918698921 0.02113888370926877 -0.1355630470180031 
0.001138209822703007 0.02579078553042617 -0.05489479065273725 
-0.0004829022212627652 -0.004179611094713312 0.008088863897191224 
-0.001457826644350389 0.0007333185766084093 0.01956355209169178 
0.001638510512888691 0.006818060006641545 -0.005999964071024017 
0.002149272967633321 0.01838206009819786 -0.02942175106687874 
-0.000560091075511912 0.01997946301553134 -0.04349328852358468 
0.03101019926310931 0.001747857634965137 -0.05714322964064875 
0.06888379465585365 -0.07742465387418104 -0.007448363777782346 
-0.01231960382259449 0.03301262023417326 -0.03607010761347131 
0.003976275625457606 0.05495454303024022 -0.08793047842990782 
0.004325394621240446 0.03601847095526013 -0.04943112184023584 
-0.005046336312766456 0.03348737501135744 -0.01784286471023683 
0.004182358256636838 0.04937965271751259 -0.05339725767914616 
-0.01756623709502219 0.03548201019074274 -0.01897502449334412 
-0.0210483774281142 0.03106730155259533 -0.02184496038519464 
0.004776403699842388 -0.02507988479738044 0.004203364403081273 
-0.01950425748108075 -0.002269840179517607 0.0109483414209193 
-0.05609851772515653 0.04587115938972462 -0.01372818077488771 
-2.667296351342842e-05 0.04545414266519492 -0.05607065632504733 
-0.003249513019038129 0.03444255913231351 -0.03356473650353712 
0.007971727840833194 0.03848303183832959 -0.0282941050174437 
-0.01493599207690004 0.03783264320453809 -0.01867629184454219 
-0.01790096875519002 0.02194013161358959 0.007828197342355717 
-0.02993857858077773 0.01455135738700685 0.02008218773158423 
-0.01027580629954413 0.0126078872465195 -0.0125985283717708 
0.08124074452773747 -0.04157421730781913 -0.1240343743808817 
0.009559226030250365 0.02942322727553127 -0.06335915449459505 
0.009612938756188934 0.02286599427721504 -0.03662250803542966 
0.005743351876338411 0.02049288428181723 -0.01993266916385324 
0.007736516984026148 0.01748305427283203 -0.01502500668641088 
-0.003667184430010636 0.0121724516134202 0.0110950684945686 
-0.01184459519649531 0.0191317632880578 0.01068816755030069 
-0.0231738890415524 0.02445387629518208 0.005062805374265571 
0.02499510092220113 0.02587870683359942 -0.1041825853409061 
0.02952405251430864 0.002077459837416792 -0.06912983705069689 
0.030440625914539 0.003645315039081904 -0.07240539904708698 
0.01535805092895483 0.01128514393354154 -0.03404829789671691 
-0.001862552515942776 0.007369987317596166 0.007265296350801408 
-0.007599372394685292 0.01320637643180886 0.007329196233725709 
0.004063890499633438 0.02456642485889718 -0.04656519475828254 
0.00533512225706795 0.0265642282225546 -0.04958018001983485 
-0.03298625174762785 -0.00534889785888337 0.05411880006111944 
-0.004191753295947686 -4.750231091374903e-06 0.01311527219134046 
-0.01985504418097164 0.01403170398689339 0.01346108237829369 
-0.02420606751042888 0.01620535502118464 0.01321889495261246 
-0.02666375321109201 0.01719287375784516 0.01476808258715326 
0.09517833717909054 -0.1794515729670218 0.06598025686666718 
0.07785795993127781 -0.1607895299624971 0.07269413194324607 
0.01766549688048211 -0.1086433199212337 0.1039598814671306 
0.08039475698446394 -0.09598236102339798 -0.0197803084131775 
-0.005742298016639692 0.001406738244735645 -0.0004447247417520747 
-0.05581204905896069 -0.02358552454964784 0.06560602420446893 
0.001493942847944661 -0.06665828992489567 0.04256830071913595 
-0.06862425878049593 -0.100749373222062 0.1615731761479016 
0.02890508878602141 -0.00843384756275652 -0.05167986602124082 
0.007146177002554656 0.0005770091192190538 -0.001007573522036075 
-0.009727021449657865 -0.01219820446590158 0.04779900990965022 
0.0006166340082485609 -0.0220496620587511 0.03880191198742102 
0.02619259341964968 -0.08310129172417333 0.0821681537119979 
0.05573010856679775 -0.1476190798351812 0.1362746269232541 
0.1169588795797522 0.006019218869977411 -0.0703978457512166 
0.1200643999366415 0.005094777007910362 -0.1271357134874533 
-0.0008173677805619556 0.009597637447847213 -0.03986017360782138 
0.01611441444255374 0.01285879640671749 -0.05084675084573315 
0.0058471805983594 0.01427753703706387 -0.01527416261813172 
-0.007463403370014735 0.01522826547852259 0.01173150985838123 
-0.006865914568361919 -0.007778654367378919 0.02868912122425491 
0.005803167371393979 -0.07524695719354769 0.09559474365807558 
0.0863833522322129 -0.1058938506128167 0.06702165572542107 
0.08974819705163999 -0.09258935775755232 -0.02436802521450663 
-0.03549544229085782 0.01749001230706334 0.01962508133587125 
-0.04075049109029247 0.05475711985019738 -0.0145208290034597 
-0.0006640018907896374 0.03286460796528426 -0.02810116797132952 
-0.005229328082197372 0.04681405206247695 -0.03482828390483089 
-0.01585641257414858 0.03083736621178582 0.009059451444782048 
-0.02741453716388891 0.01842561813055717 0.02433604563096358 
-0.02127857459720933 -0.0219892331210616 0.05586855650081999 
0.03869614028770083 -0.1558615901807645 0.1539430082342437 
-0.01306345826161329 -0.05012239716508322 0.07469413451121637 
-0.1158070454811636 0.06184359044342948 0.04880432918622053 
-0.06799690231252002 0.03564638390150329 0.05995216414606833 
-0.02258560495759149 0.03127031568436549 0.01347865376614981 
-0.01465807611691464 0.04220169468770998 -0.009724450173316176 
-0.01268146119897914 0.03745887707724412 -0.01113450786854641 
-0.02629173574241524 0.03410884371149467 -9.933404278988907e-05 
-0.01864086937209626 0.03131448376209612 -0.0119429540723705 
0.03086965150343879 0.0006688286308083747 -0.04320736915199992 
0.1025973946431685 -0.1186767006521621 -0.02827254047729203 
0.02074232841239887 -0.01722506404042342 -0.02035341014949548 
-0.005393272223422939 0.00568816162880312 0.00755924063514998 
1.365354397682437e-05 0.01373036973334206 -0.008311580902387415 
0.001022053358219445 0.01813431571796066 -0.01451130472535109 
-0.005963637654962467 0.01961504653995003 -0.00597664203095895 
-0.00635140765200868 0.02257420426271998 -0.01175190702733972 
-0.00163680423544558 0.02506092600960469 -0.02397448322585475 
0.07043055782051393 0.008379394728549028 -0.1351240935200523 
0.05058498419142244 -0.04545131830163236 -0.04302141855469809 
0.05120415725264649 -0.04693254712547451 -0.04079484250426947 
0.02906258672293955 -0.01850165216556744 -0.02503343948643087 
-0.002028702011560563 -0.003626213771202169 0.007458881341213108 
0.004667174972996022 0.00561114031842101 -0.004178832236652803 
0.03480131847618672 0.01118750779272981 -0.0751943660667084 
0.03604826095958735 0.009654172664712213 -0.07443261134351721 
-0.02847719824310051 -0.02165876924536733 0.05456845257735288 
0.005356163116148799 -0.03142195714182811 0.02472982741120055 
-0.01106933914359694 -0.008879862962212636 0.02067295175476775 
-0.018045431669003 0.006757720911009023 0.01815351023393901 
-0.01711424363422018 0.006989133028430862 0.01824621812895838 
-0.003306975610280071 0.007557321952376475 -0.007556312601483137 
