solver_type L2R_L2LOSS_SVC_DUAL
nr_class 3
label 1 0 -1
nr_feature 310
bias 1
w
-0.01931140601049307 0.02620570052231206 0.02964647508880924 
0.09423041351402085 0.01189137706996251 -0.05165037572641776 
0.01216928048086447 -0.04324167283853018 0.03582096883459618 
0.01471569423067972 0.04126410927897943 -0.02745224044440244 
-0.06877946528646725 -0.02595213965473079 0.1053895525467592 
0.1564612347244358 -0.0565648633727406 -0.102756137676026 
0.1091822993380569 0.02501398832414605 -0.1253667225982522 
-0.2043823655892679 -0.04841024030770718 0.2085436568637123 
0.02434711072473691 -0.03761153896282618 0.04494491853169984 
0.04252238421253909 -0.09262013428216498 0.05126071119721438 
0.09961584404987382 0.08415254885502324 -0.1583424192502332 
-0.0614557339257529 0.04628932778286878 0.0668734789959373 
0.006464138105475741 -0.02727031686415834 0.01457558511859978 
0.02189944492657829 0.06885561846968795 -0.1360229793181166 
0.09252675499028146 0.01700322865842111 -0.1291967579605928 
-0.09659072620866198 0.1494409890644262 -0.05481474338739856 
0.008201245646835723 0.1523627902208174 -0.1698648842862378 
-0.01682865820345694 0.1012083741423333 -0.1124105852302995 
0.07446882944459071 0.1015534964518329 -0.1427991665253339 
0.04150790113115987 0.09171867420788131 -0.1216036460456797 
-0.03759398093102921 -0.04821752942516811 0.05220428090283664 
0.07891119603409115 0.09155546009662291 -0.111198563516955 
-0.02240570201036987 -0.008884139689763027 -0.003423054258875602 
0.01233255145135496 -0.02515821842807076 0.02145304020095456 
-0.0779448537621335 0.0885750583507019 0.006611815378820112 
-0.03786413876211665 -0.01041609425545042 0.06366083213327456 
-0.002630050483827339 -0.001114559444026777 -0.0626644103809731 
0.02858015561441327 0.1055077932472333 -0.09171551258793915 
0.1720688744588668 0.007774834818817745 -0.1159530392192943 
0.01617503234437357 -0.092306330743448 0.07201224723033145 
0.01958035511534507 0.04398441963947452 -0.05519842546300993 
0.005656465648276075 -0.06311741923243168 0.07802822724911834 
0.0572504206111242 0.01238831837908885 0.004994907929921319 
0.01013876044708674 0.1915731843475921 -0.1633480833958748 
-0.03897556590250627 0.07518427348011726 -0.02711353588180907 
-0.1953180491155659 -0.1003170419316344 0.2151687758394043 
-0.2424649379091376 -0.07194580321046982 0.3040581054043217 
-0.0372706482587514 -0.01820249429896697 0.07299341278909313 
0.1348289717131755 -0.04622614942393118 -0.1601485738254384 
0.04918204351369367 0.001114293962929911 0.02066496064503056 
0.05793622310111036 -0.05511468911835123 0.0244606554740009 
-0.0930791850445094 -0.04854700084802514 0.1189246456025299 
-0.003507937623601882 0.005360989927660959 -0.0190190032216175 
0.05387172362166519 0.02028045501215191 -0.0345910086984512 
-0.1460405472958494 0.1269240182632905 -0.02696550328821476 
-0.005118990957672847 0.02733250376724137 -0.06618737982494409 
-0.07748123706676997 -0.05644948775915138 0.05451923724503206 
-0.09862138011898616 0.08096213032081348 -0.01286880427460372 
0.002889835834784153 -0.05852751867087259 0.07849586845411581 
0.04611486701171778 -0.03043245827231756 -0.00484729839328261 
0.03445152154536494 -0.1151795709883183 0.04269674298243305 
-0.06240680880441456 -0.05518963216841878 0.07277038213836765 
-0.08474990327083673 0.01072312377941375 0.06265178965837903 
-0.1416800062416908 -0.04783065376276462 0.1176124001820124 
-0.1053506583809932 0.04399146429649203 0.05327663372039076 
-0.01076413858059712 -0.03658152273117686 0.03419056434197759 
-0.009691768284322973 -0.03659980134483428 0.03210540353291819 
0.008182985702744216 -0.1064565156194883 0.0802331405237206 
0.009410362066926376 -0.1083915801149885 0.08026133935464758 
-0.01701696931959734 -0.0788254960598533 0.09336442249607918 
-0.01333425121495438 -0.08276594806071323 0.05383852404716812 
-0.01273265388970703 -0.0817968695424169 0.05251329706266442 
0.04657718488521585 -0.02173328568061146 -0.004065237502089744 
0.03241534481682748 -0.03426688148338134 0.03261556173052014 
0.02727984134044759 -0.02968091136562778 0.03208536851058263 
0.01035034609101615 0.009414836981293306 -0.03093710566194222 
-0.006802637892282815 -0.0180082306119327 0.02421031118862227 
0.002345057459045081 -0.029665752976687 0.03243744146481401 
0.07094607833966103 -0.06080847690232478 -0.01110775529632358 
0.003632356621944864 -0.0777049955763944 0.06492150338987936 
0.0211750073799829 -0.08238062876662468 0.06716968667220535 
-9.561563745507829e-05 -0.05719628727729726 0.06014986864809845 
-0.02495588859849551 -0.0454037533101682 0.06518243899234587 
0.02207979437063964 0.001177157365810435 -0.01656611452799836 
0.03345998592123082 -0.02153414599169583 -0.0007906661906713769 
0.08091604232649273 -0.02952292359562693 -0.04596362517690529 
-0.0005284654336877324 0.002759251597261799 0.01195172299085155 
0.02894283389779516 -0.02377148428088546 0.004857422221193925 
0.01011444624479461 -0.0233011966419837 0.01372180686393416 
0.006102602599675769 -0.0629823568456828 0.05008235587726035 
0.009451906500201402 -0.05721648709350559 0.04094774155019687 
0.043637044693615 -0.0229940433495055 -0.02887271606075758 
0.0304872142424573 0.01032590056635296 -0.02342858400912173 
0.05162394619307817 -0.01989354312573409 -0.02988906991743473 
0.06888541008546586 -0.02141729185520587 -0.03759283826036272 
0.01435705579507389 -0.05336509982248264 0.0404730423174104 
0.03483714831161636 -0.03226267527733868 0.01324520908144304 
0.05240773696338048 -0.005189351049747278 -0.04295962308443558 
0.01748570298900811 -0.04596815829677338 0.01829465397450551 
-0.01241245220626602 -0.02243290280310324 0.02321699052277214 
0.04935205786218951 0.0194490354609846 -0.0669770027845189 
0.009841291561840814 -0.05010278333476017 0.02701179182181001 
0.02834272040668337 -0.01984083819109874 -0.005540397489006557 
0.02979936274081418 -0.05091656564037374 0.02036639769289795 
0.007267799610080859 -0.09408525044801294 0.08272416819263169 
0.02685719874738627 -0.04245014437335551 0.02248660160638739 
0.02329458275514366 -0.007097812028155676 -0.001342211483740113 
-0.05911899975217786 -0.03265732705185324 0.07405499140139048 
0.0052518954661295 0.02969990246672025 -0.06513068348236567 
-0.09335894196866786 -0.05112132130546446 0.1309767468620312 
-0.001077478849751972 -0.06171019917610824 0.06020444854147238 
0.01925719565985226 -0.06026463284840466 0.03226534042730422 
0.01733433405402793 -0.06940144509478616 0.04278858533845361 
0.01673155731682894 -0.10028490491199 0.07909054984108468 
0.02399889427588775 -0.07464426969215208 0.03687081410710425 
0.02601156754350471 -0.04769848646403704 -0.004863080466350205 
-0.0122467764237088 0.02564543666349949 -0.03102592624988769 
0.01429263890192488 -0.01115377044854824 -0.01044725463446738 
0.03739470914948424 -0.06017124927323248 0.006418988385631431 
0.006413804038194039 -0.068661808994541 0.04536188886920105 
0.03520085765793635 -0.0828681425909191 0.02842867834954341 
0.02680570731484972 -0.0632452614469762 0.02491545096649652 
0.008027703758118395 -0.09187731096733401 0.08340361180134154 
0.02437386435803432 -0.09777134955961306 0.06020910270975592 
0.005779863751777229 -0.08487291328556744 0.06399070412064259 
-0.01004456666829747 -0.008650981218126861 -0.001225866790036205 
0.03956420211442113 -0.06078135077527862 0.005822147589168257 
0.02501491932515526 -0.1045924820423599 0.05812846544603485 
0.02507957568493366 -0.1032409219210215 0.05672706744178448 
-0.01684782244069196 -0.08351411249063853 0.1093106238001639 
-0.01524328018805087 -0.0841336321886504 0.1091549687802256 
-0.03123881467279614 -0.06250579037387886 0.09633051881992048 
-0.01174410474571658 -0.07476283091720684 0.08227963362281615 
-0.01108509692822045 -0.07504634934641584 0.08188074075267936 
0.009149867760131254 0.06583692975480211 -0.08814580240014586 
0.02098416864908683 0.08071498138463974 -0.1039476552749183 
0.004740309190131687 0.07108074543095025 -0.08063570894533213 
-0.02076729145610111 0.06694296166496931 -0.05681496744086546 
-0.04607902090690261 0.08378807561602168 -0.06366176651890247 
-0.1610734607999585 -0.02525134402405772 0.1681826439479224 
0.0132702703691356 0.04686353025506669 -0.08054103798864601 
-0.06154966676069251 0.06087029407591645 -0.007011003334566453 
-0.1140574008077215 0.04434559752600456 0.0525356275317798 
-0.1101565118075258 0.02701139661189468 0.06231576075664537 
-0.1027081957621961 0.04040636434998316 0.04385686218827179 
-0.0472797916440262 0.05457007643405126 -0.01507692170382157 
0.01301755596553518 0.09090610135729132 -0.09130426785672495 
0.05144611545839113 0.1069648051628464 -0.1321198942212901 
-0.004322164462164881 0.08671072865617908 -0.08491188252990546 
-0.06156577545924104 0.06220818269549897 -0.006530855007012931 
-0.08986475711363343 0.02530243625446408 0.05770360042856106 
-0.1176734719387369 0.002284753728351147 0.09495266163659125 
-0.1112005633108948 0.005576369774586279 0.07808478570134776 
-0.04802259406283271 0.04852817491658427 -0.0003413756818502908 
0.01227457132756701 0.07819569403201276 -0.05894416832584703 
0.02305072954013605 0.1192361762030263 -0.1054982599293119 
0.04071232866835067 0.1477028934157487 -0.1582584346211079 
-0.04590307651608352 0.08132343364441939 -0.03990687996439797 
-0.08173947353193378 0.05383740398388659 0.03102689737338541 
-0.1052464975528556 0.01031371853692784 0.08647669851235618 
-0.07827955133430088 -0.04232120196732168 0.1000299424198093 
-0.0783787852699812 -0.01013143183087073 0.09026178486834911 
0.01182538382209709 -0.0473282841628406 0.04453237965585748 
-0.04660374087534722 -0.1299471324569668 0.1623772519011266 
-0.01794947232064164 0.05676974191064198 -0.01494240035530327 
0.03255435923892448 0.1164360532984307 -0.1256846955605719 
-0.03287754390150741 0.07311739555748301 -0.04665457212129654 
-0.043870161631565 0.05576682126146464 -0.01563740886212958 
-0.04995633925477509 0.009799139579494303 0.03093693505432458 
-0.1124035540523646 -0.007231902954823876 0.05498918595305966 
-0.005527121844966829 0.01132207741494997 -0.02072721036590527 
-0.03108171208338661 -0.134370119197771 0.152466164510578 
-0.05541610189788698 -0.1369867357788327 0.1787762559941572 
-0.0008456234397028368 -0.03565321048553922 0.05178389065769277 
0.04858664546625829 0.1007501882088698 -0.139440910459487 
0.007323565269614569 0.07306602751873111 -0.08977957776578595 
0.008771463390949447 0.03091536692147136 -0.05930095594349142 
-0.006552139967102691 0.01362413768993437 -0.03195302199970658 
-0.01305534701061297 0.05461445695092368 -0.06240341626571376 
-0.01198390370880499 0.06012570586017344 -0.04176103316509427 
0.02179518202601062 -0.02816536596104691 0.02796554109502801 
0.01849085966497688 -0.05825092155765762 0.05254305529434009 
0.03366656082210243 -0.02175660211875433 0.005672943666509295 
0.04670718950749111 0.08146463295116664 -0.1087085963390242 
-0.00107501176768392 0.07847015860098382 -0.09128796215707756 
0.02025865426262904 0.04976263845434425 -0.09215438734689077 
0.03562110838771707 0.04282770345019456 -0.09661523962839892 
0.02800202842997556 0.07104256571567963 -0.09203690018597345 
0.03766373544660404 0.02553948003879531 -0.04128980281365257 
0.05317933151078654 0.04852226291271164 -0.08170157857510622 
0.05309856223857474 0.0476558491724413 -0.07960355018643217 
0.001813160798817021 0.06986095114365615 -0.08178415566183378 
0.003649089070071043 0.06704122231560801 -0.08176630458912967 
0.02790423775071647 0.06851245781904999 -0.09352187508899919 
0.04015070884715467 0.09037028149594939 -0.1175924237369509 
0.04079597766812834 0.08870898475944515 -0.1165521939909821 
0.05338655931707247 -0.1127433224371454 0.01691953204553419 
-0.003672239090642074 -0.03583109796954205 0.01439890434294894 
-0.07090776835783306 -0.02458051634790361 0.06748102430868529 
0.01595676141811319 0.006574177068614263 -0.01779374227255271 
-0.07633744028522584 -0.002185198935717567 0.06362722604820165 
-0.008803158990067348 -0.007514041961248375 0.01181924435588924 
0.1011093733090362 -0.06087047034660148 -0.04767883537320787 
0.01175928625887618 0.1191839873195259 -0.1028053436983888 
-0.002356786570015287 0.01453132355076599 0.007114451174354232 
-0.02617006337664663 0.01051982364334837 0.01886600995759809 
-0.06346828302642774 -0.009529852639996568 0.06868786874867468 
-0.07437178350599871 -0.02566977669084902 0.0928125490685051 
-0.06157764014045733 -0.03374583546299788 0.09405581929841648 
0.04147650480248521 -0.0008538976979152974 -0.03545589659110879 
0.01692742055169975 0.1024225015320288 -0.1057430834554112 
0.009521257935778463 0.02966884001139275 -0.01762507755204317 
-0.02951385117357572 0.03478065279169188 0.03010929667234974 
-0.01414988456998248 0.01078272286529803 0.02487041990009385 
-0.02278620573690058 0.005564293616432348 0.022134730544169 
-0.04859860522890259 0.006589298915523908 0.04363246157060079 
-0.06397420229368475 0.02613347191771816 0.05574452238581194 
-0.01694208345916852 0.05134606282984155 -0.03535980152024923 
0.009174653204816904 0.03937067248845591 -0.04101772137295051 
0.08910162921184246 -0.03777510296141299 -0.06373986791643098 
0.007485206448820874 0.02094102781737624 -0.01253649948635241 
-0.0753616057838267 0.05330019218736465 0.04324066271105488 
0.002075251931468548 0.01401720236364783 0.006129429914058986 
-0.01784965410773022 0.007215024308289837 0.01224138759448303 
-0.02784065892687142 0.03458840832519258 0.008333873363911498 
-0.07471179576242643 -0.0145198839343682 0.1021546091619294 
0.01493676803071185 0.05346079569668181 -0.05605788437158896 
0.1338650308204046 0.004711053070849174 -0.1586813210345129 
0.05067356102837345 0.07022766253742241 -0.1230646865392864 
-0.01351076046444974 0.04586007061428829 -0.02309412050801391 
-0.03001263664773436 0.05142604300212329 -0.01685489111854967 
-0.05834667095250007 0.0336087879335581 0.006072542397341318 
0.05340689406226833 0.01182589694092599 -0.07273180188395316 
-0.03058926103081091 -0.002455106768616938 0.04967026278387227 
-0.02979177671672459 -0.005893586320220562 0.04628030392557374 
0.02460666570824986 0.02728929489884126 -0.03804244740780416 
0.05250173763720811 0.02342497697129729 -0.09253650143558852 
0.0299241846274143 0.02766936609978535 -0.05587609286149675 
0.01004792192143109 0.04915059118029856 -0.054312338224684 
-0.01542806712511054 0.06119027856904353 -0.04665475211293597 
0.009589359299928395 0.08593758358680194 -0.09429726968360622 
0.0357138842773886 0.05733823230824555 -0.08637642689634394 
0.03444476863623869 0.02899197104387404 -0.05502596066967028 
0.01552374737769874 0.01944544863687803 -0.03060565839595443 
0.02893483152187801 0.02170699657559881 -0.03225217021037534 
0.03791960800039982 0.003179243777131753 -0.04473800965808502 
0.00417411852574733 -0.01158070153469697 0.006559121881377402 
0.007877989790348386 0.02074403812416997 -0.03166554579521959 
-0.01415426555937725 0.02517189218850577 -0.00954952844505569 
0.009692027255915987 0.03763108222298769 -0.04637147645732536 
0.03557961142166973 0.03505413084541339 -0.06230989828891905 
0.04062539718893637 0.01107411745627226 -0.04536163907554994 
0.04297427688107131 0.01075837764228175 -0.04598851821981931 
-0.0240058764380258 -0.03541826501798138 0.05084701736307255 
-0.02481580402172905 -0.03570329042174034 0.05177919225424035 
0.009243683159060894 -0.007737792681766813 -0.006897431960523118 
0.0323539347489489 -0.01130465680627093 -0.03207234620697534 
0.03429529715423957 -0.01384022735456949 -0.03277052944080305 
0.01736338446602064 -0.1098134927680946 0.04878907322076125 
-0.07366427417632979 -0.01364883272175652 0.07551860287671319 
-0.1446683894712087 0.01174404124978315 0.1317043173022747 
-0.03447953048396479 0.02247059688507316 0.02006706583934423 
-0.1182458130821072 0.01193802591489822 0.09756772790727976 
-0.009659579828290391 0.0291358561011651 -0.01392848623148281 
0.03874526769873026 -0.0395996287642055 -0.001041915194370652 
0.01327845404657774 0.1829899774467845 -0.1562318266761114 
-0.016640084439292 0.02801470010480639 0.003505730456903827 
-0.0468950038763471 0.0009493760378845343 0.05827421599135215 
-0.08025958589672921 0.01507741774601749 0.08049283589307456 
-0.08227649299817798 0.01209777922877389 0.07719464866523594 
-0.09075956188061317 0.00668282735510048 0.09310851686322959 
0.06950470518949589 0.007956641873214879 -0.06342635233295368 
0.07622654048531219 0.07958461894433684 -0.1505540268726969 
-0.0005736808674312584 0.02096993205705735 0.01395679765876676 
-0.01953194488382068 0.04392253463949777 0.01193993743496931 
-0.02970250847047904 0.02465009780874207 0.02416210296101784 
-0.02302199879691265 -0.001454346176030793 0.03121832523335341 
-0.06269160978596452 0.03344554007909786 0.04810327030628358 
-0.06189489435735454 0.06233088038414629 0.03336684115371072 
0.008098696466941535 0.1194496089924143 -0.1101645249213683 
0.02493097752478246 0.08152945236361089 -0.08948905368490108 
0.1795138781312389 -0.1407181251032111 -0.04103577845893532 
0.04523389510281558 -0.008834324502298931 -0.009965267212832127 
-0.06826692152520165 0.02846974677085054 0.06736056848823317 
-0.03513566816731626 0.01604722992258984 0.02737020600499627 
-0.0162264713443231 -0.0129777540537179 0.04077735338142448 
-0.05249421041297554 0.04280383592066255 0.02380141368036045 
-0.03005360513116551 0.03367670422653452 0.01581202029599633 
0.06841075227508632 0.0005678596579215665 -0.06786960691075855 
0.1999043753747024 -0.01350752241439974 -0.2315705367492472 
0.09846688101763724 0.07375107052270677 -0.1977754356237562 
0.02256972189979396 0.00440085802510349 -0.005478246910954148 
-0.03607699072078505 0.008977700428853109 0.03366564716906875 
0.02375150099148119 0.003086371043837394 -0.03176185490294944 
0.07284182912988306 0.00645994899681413 -0.09096645285163465 
-0.07826893146267899 0.01240942922292634 0.08086174481929065 
-0.02448170549927872 0.02384818294288833 0.007497132482651994 
0.05987506911322987 0.01290270564226927 -0.06162555778256251 
0.02709314649720372 0.03378323026387095 -0.06936183724509064 
0.06343570379200114 -0.07418941090211652 0.01030396096174284 
-0.01716960905979882 -0.04214686246888522 0.06293213413793061 
-0.03391199278012658 -0.02143672376402895 0.05948527101220078 
-0.005473584675284222 0.01299033409007004 -0.01213788659234799 
-0.00296021231286364 0.007710682812511797 0.0004959934949166606 
0.01789930834460284 0.01105329211855834 -0.01467835365422684 
0.008307243508192565 0.001229461073936787 -0.01551076410149138 
0.01615735986579474 -0.00335452666602681 -0.002562039521267095 
0.040433803354684 -0.03080864860428473 -0.02781134340662557 
0.03809875806637147 -0.2034174363070853 0.1763010327618901 
-0.01986165726472501 -0.1170694320851022 0.1431380497556867 
-0.03229203603052005 -0.09020386888087148 0.1237748051933223 
-0.02631900451362892 0.0008856008152825015 0.02758225990088061 
0.03814034961881619 -0.01268439381016653 -0.02542158030276361 
0.1309268974601515 -0.05199308556380213 -0.07776870470249077 
0.1294663802877976 -0.05603508807501012 -0.07402133242148805 
0.008907406055436187 -0.2178294715838749 0.221994131231293 
0.01457852290888494 -0.2142746662478359 0.215817999258288 
0.03722473621275785 -0.07281572482000925 0.03393468610002422 
0.1782801763505412 -0.05954836521468718 -0.123918639872128 
0.1755439099224205 -0.06007281540081338 -0.1196947158593248 
0.008361940559455194 -0.006302481236955341 -0.001178968482439106 
