solver_type L2R_L2LOSS_SVC_DUAL
nr_class 3
label 1 0 -1
nr_feature 310
bias 1
w
0.06476885328309528 0.0902202988914126 -0.1692320004760364 
-0.04872288804911007 -0.01264335987376756 0.254647667263872 
-0.07328650123199318 -0.03886506736388674 0.3196060829311524 
0.04576597973035816 0.03588108080023193 -0.0932485088740032 
-0.08056587245281452 -0.07008656609537732 0.2935437220089099 
0.1178985921383476 0.09927637045949407 -0.1884478596886967 
0.1056061854626225 0.0454361452416006 -0.2665321797325649 
0.03131738153960199 0.030960974886649 -0.1860655773445527 
0.0372553704304645 0.006784845003917315 -0.08424239676387686 
-0.05767894572462735 -0.05763905688524557 0.1575734377580582 
-0.06189655191833997 -0.06545914096869951 0.2774179688535344 
0.00414253674555084 -0.08622417998106095 0.09180567457082356 
-0.09599476290588201 -0.01257350754470143 0.2511065131464985 
-0.1120848256514374 -0.0423865443359463 0.1127920266533072 
0.1313815279801636 0.03203652039619947 -0.1699799499016623 
0.1279714443041616 0.03131231058370668 -0.1836560453599927 
0.03391719270961147 0.002279677149722097 -0.04085024518242591 
0.1698658466193256 0.0009676854550550496 -0.1265388873422726 
0.06327559454476143 -0.08649162151079456 0.1640623017272249 
-0.09354733902328423 -0.03612228261678004 0.09496345756655794 
0.01559057825255727 -0.03573152215318479 0.0109997207602558 
0.1004322119283765 0.0409680165714786 -0.02521110594517842 
-0.003425445870732155 0.07519071462550095 0.03193002264681036 
0.01861581573972999 -0.06754390895257818 0.1547611304906587 
-0.01921610328283042 0.02681524871961349 0.07733567247637149 
0.0449415705940282 0.01970173575503653 -0.2210304390973472 
0.2501142017310502 0.03802979361955052 -0.2345960233372981 
-0.02747037504365759 -0.09932213309202066 0.04158726201959922 
-0.006016734232352968 -0.0006933610901587004 -0.1229238658549891 
-0.01516777403003134 0.04876869719181831 -0.1194371105790129 
-0.02054299020697167 -0.02714396214240237 -0.01974117090512662 
0.08725187363670882 -0.007930637316280752 -0.1002530606378048 
0.1030362809077281 -0.01148289356144167 -0.148336910139383 
0.08736267998307104 0.05806517342671275 -0.1474170284592828 
0.07102524252298925 0.1461335625456534 -0.2938111001256939 
0.06764029249451729 0.1457621058200559 -0.2849623734840956 
0.1310851087482305 0.08711162460181854 -0.3600417058155086 
-0.1807869057105888 -0.02073799832198225 0.1913838658861057 
-0.09475138422577735 0.0253581495333926 0.08767177766924011 
-0.07571511332920224 0.0595269306056831 -0.0314025438058024 
-0.02263657850113551 -0.1001416612336193 0.1589347322879128 
0.178592391218644 -0.08358667943768848 -0.03466587409038018 
0.1328802620563746 0.08950260314714015 -0.2279876707843982 
-0.1004047682534768 0.1117367828710706 -0.1590054943322816 
0.02437433328282129 0.04897509460037815 -0.1325085128257932 
-0.2328179316076903 0.01059549761921583 0.03066828685957064 
-0.2084555134807033 0.02175871170318206 0.1110828636012444 
-0.1729197437109134 0.02060367136338957 0.102807170689709 
-0.08729048876686368 -0.01405169187895521 0.2400873740243971 
-0.08828780085926489 0.1304255844119795 -0.02091372390334163 
0.04146073523917861 -0.1169134901941058 0.1048292568611963 
0.04175341891770552 -0.1147675441517962 0.1048295928022724 
0.03012208447072766 0.0491629447175499 -0.1331153477160424 
-0.1242822064836566 -0.0323365046289607 0.3447053680478068 
-0.05432508746032297 -0.008266538748105297 -0.1241343223170538 
-0.003936829196903456 -0.157264255190435 0.1733970011714285 
0.1005271580735406 -0.1617064522636931 0.06382616094431287 
-0.2150540199936417 -0.01277004036298744 0.202996288018956 
0.1174555912598322 -0.04349123913251051 -0.01104407896088323 
-0.09156422597817343 -0.04813032085809232 0.05318040100643875 
0.07655309634103616 -0.1222426963795212 0.1676651352991271 
-0.04570915234290583 -0.105232665070802 0.04660832805758611 
-0.05812158117595515 0.1745246561963829 -0.1815239853407799 
-0.0640915138116868 0.1704062264821025 -0.197082784307082 
-0.06458444122106348 0.1649776650600847 -0.2079806446215789 
-0.06422856980346862 0.1001167535583742 -0.004970867099031188 
-0.09210484344032942 0.09898621517235086 -0.07375536077709068 
0.008123162933394228 0.1040712726691671 -0.1386313023985995 
-0.02915343052408096 0.08051380146969421 0.005479187692156379 
-0.04841697309599235 0.0570507717210721 0.05832978856877614 
-0.06596618524107119 0.03702904303153089 0.1250222709170097 
-0.0753923635443767 0.0266543482066003 0.1437866035420199 
-0.0724699569575685 0.04477804903871535 0.04947926539834123 
-0.1087896845101546 0.06121529425647743 -0.006726525290914931 
-0.1284430455951343 0.04942528992123287 0.06565553745509166 
-0.07885387776272053 0.08194271126739586 -0.1264022467098439 
0.008829017045901688 0.04904666011748295 -0.1142890811282012 
-0.01845130989691375 0.03532428198099909 0.004305563927643874 
-0.02138017917568794 0.04812718866888351 0.002458380067022771 
-0.0160460993391165 0.02395512807442451 0.08259900066343637 
-0.007137202071334537 0.02174709502277177 0.05258847991922783 
-0.01594050643425545 0.04860832495848035 -0.0161445539733312 
-0.04859137795253215 0.0388117950714041 -0.04599267936951307 
-0.04550493649022089 0.02912634803230876 -0.05756915620931645 
-0.04743834964383609 0.01763726750195745 -0.03056314679376953 
-0.04933498888051036 -0.01156174786975286 -0.001765662832977108 
-0.07897725446780678 -0.02177806674881799 0.1014124318253054 
-0.01773404062175558 0.02260577911241045 -0.0345652176576516 
-0.0057783721151985 0.04193255993126184 -0.02555036372349299 
0.05845895145380175 0.03670104423116823 -0.01271347443185592 
0.007243166869180538 0.04959118689833891 -0.09343485003018474 
0.03040201736798576 0.03128888281370357 -0.1185235854944498 
-0.007961406980002604 -0.01575979152852583 0.01233354667232542 
-0.004226035819448081 -0.0293740152542388 0.001684785607013344 
-0.04194123870958594 -0.04575541349690477 0.07527519160165214 
-0.05753754486915633 -0.02959010689348544 0.0324459322622167 
-0.08220417522188661 -0.02820866485605441 0.04699798295871084 
-0.08306077497482325 -0.02725977634834102 0.04149874451644691 
-0.1158135872832801 0.006103998479084166 0.1046776494947644 
-0.06844257088159149 -0.0002684001345051635 0.07849162363462746 
0.01398914345213453 -0.03264751768562158 0.04319973950588202 
0.01438964451471961 -0.02268563332911386 -0.01105084980370578 
0.03560347931323274 -0.03625916265297151 -0.01140336239719178 
-0.02870378725323485 -0.04353151148240231 0.04577282558542298 
-0.03372520508838747 -0.0335173713581588 -0.01197935596266794 
-0.0124987999925794 -0.03123566976535334 -0.07207338934732084 
0.01470256090511535 -0.02893373554616201 -0.01257217233012422 
0.001475132462322353 0.005469853915297598 0.03829200414395497 
-0.00154903466794052 -0.01820545922785417 0.02395711684848511 
0.06361906754898108 0.003335533648987078 -0.143861951086501 
0.02628539077344367 -0.01887830036259907 -0.09088080955417863 
0.05735948624820271 -0.03223626303915352 -0.02597828893559093 
-0.006952503869232518 -0.043371121779329 -0.01923248417881137 
-0.008438036262902753 -0.04429169524324367 -0.009694996331543283 
0.01322520632776385 -0.03045362227727616 -0.002078016092140506 
-0.01144813559807745 -0.02700156857135752 0.03893145148618146 
-0.003585483952007715 -0.03638179920542058 0.06527032197268491 
0.05058675298071069 -0.01906669395340191 -0.07366126471622178 
0.04476958513615534 -0.02268654830365853 -0.04722067496566347 
-0.0450974187267635 -0.08047371574826526 0.1529645448597296 
-0.00972809919902359 -0.05518182512033594 0.01462435399849376 
-0.0005352351096956202 -0.06103217305486709 0.09751929527689733 
0.03560414010429021 -0.02466370729314899 0.003665879553965529 
0.027931998882207 -0.0318489540436729 0.02334849917381812 
-0.05015226144467869 0.05954351822036216 0.003243649844915718 
-0.02615804472254941 0.0611077664101898 -0.0395500860711438 
-0.005439936524277088 0.06834590471977788 -0.09587831388308529 
-0.04993833448866813 0.02261215515813197 0.04977827786168808 
-0.00161777796396968 0.03321069504995971 -0.06448640964585389 
-0.05937500163020621 0.03120453733973069 0.03617959202862955 
-0.05478060687088896 0.01757166858836836 0.05165984993117806 
-0.05215254447882454 0.01071461972481352 0.04715753558320163 
-0.04429271639896888 0.0087272770555818 0.03508335348027348 
-0.02212501640239275 -0.004813369456664444 0.04175910541156033 
0.007024010790813968 0.006789880831525658 0.01109558056166944 
0.0101130369843491 0.0151457294898137 -0.02764193732021785 
-0.0009592544382977857 0.01578599523537689 0.009177217380192951 
-0.03089873571392493 0.03037414300729678 0.01663874700453364 
-0.05898579035018162 -0.007326809228576126 0.07585246754181908 
-0.04859152357286979 -0.008538749297152804 0.1230391672239156 
-0.0497845068667729 0.003036979140355293 0.06248420868844125 
-0.01868379464393304 0.02285155672920929 -0.001894122934869957 
-0.005884619707866906 -0.0129475305891681 0.02775694742391434 
0.02698948139101008 -0.005341541927131267 0.05014349332598574 
0.03176340993215127 0.02164595126706864 -0.03867238225803628 
0.01318979428387244 0.03387903999948112 -0.05163853604857425 
0.01865395560891649 0.04076104552792546 -0.05253800541692482 
-0.040373180702813 -0.01300688231831481 0.08709784611721078 
-0.04743173453127833 -0.006024507585142589 0.1129723664173734 
-0.03893042731060633 0.0139074198733369 0.02730282653579452 
-0.0543622432199295 0.01996359005348123 0.05332038079100497 
0.0266766594238676 0.00897832823052312 8.024838078829071e-05 
0.02441605039719211 0.01910882885605102 -0.05912067419613942 
0.038061648157722 0.02947946302377914 -0.1170786509442887 
0.03034248988774393 0.0464931018837129 -0.102495688005499 
0.04987269153789405 0.03075855664674741 -0.1090838673313393 
-0.02985882717483318 -0.01411584791889849 0.04895222736832393 
-0.02749014436973416 -0.01154143809344389 0.07749439355412523 
-0.03457562011431758 0.005251007254992513 0.02250493556180568 
-0.03775526748380589 0.007236872388236017 0.02299455689212272 
-0.109770823898854 0.003727615763309326 0.07871920946128506 
0.02639174436761758 -0.0103067792701304 0.008686002229424604 
0.06486528682036727 0.0273319547505355 -0.1449222466756428 
0.03257503640192747 0.04257134287864476 -0.1623629265697054 
0.05158865611626351 0.02686796773254021 -0.1434705220236528 
-0.009875211206784085 -0.02425035608517602 0.09620422443947894 
0.01515427191120259 -0.01598008657674131 0.01061078937175035 
0.001180509882376597 -0.02405715650194001 0.04983157920919383 
0.06032627686810854 -0.01563421140288162 -0.0104708180374421 
0.09611862992454208 -0.01406640327503428 -0.04405621139647888 
0.08080383461768681 -0.01738932019080872 -0.06388249890156111 
0.08068986108412 -0.001121292889434506 -0.1011565774004572 
0.07950751076900385 0.03519902953026387 -0.1744567267560085 
0.04927494542609229 0.02661501458532948 -0.1105056754550378 
0.01425908860043189 -0.02194437521428491 0.01195505309148835 
0.0182292474218535 -0.02568757781604756 0.01645516384261825 
0.06104145579759127 -0.01605620956200676 -0.008481030820013122 
0.06788856794030719 -0.0250440063319121 -0.02623243287924448 
0.03786029362247811 -0.00251744951069885 -0.05354516047233488 
0.06130951492589179 0.0276238612867534 -0.1530035053394614 
0.05466431780647942 0.02854721866889919 -0.1439604307889313 
-0.004761949205346332 -0.05867475330912832 0.09906724799790456 
0.0127888270693516 -0.04211175832316748 0.04562049172980638 
0.01758205078110568 -0.03493324934342713 0.04197991992765503 
0.03500850982829407 -0.01234490149482931 -0.0269885380278092 
0.0110048727035557 -0.03420171383736235 0.04040545576057603 
0.01694929628069407 0.0162920697044439 -0.04241800886756267 
0.02984301397363971 0.01640234532286421 -0.04457848692640992 
0.005511475154725078 0.01897814841484997 -0.02098165356220775 
0.02246344360573308 0.0009165495076539831 -0.04475662705107306 
0.01867268704329466 -0.01185003809717263 0.002007291568985717 
-0.07782872066350956 -0.08477108488567418 0.2224179043474889 
0.02821319760840089 -0.02818875311146357 -0.0271877282588175 
0.04158250804239016 -0.01510250213215028 -0.06212134970417906 
0.0299143122188285 -0.00512706268718099 -0.05047114601428351 
0.02162250685329521 -0.01837746488431092 0.02126841707776289 
0.01782499432549894 -0.01347332268403335 0.006799003667018032 
0.007595173070711951 -0.01065499774138944 -0.006199015247558815 
-0.0204210700774499 -0.007835348126330358 0.01958479066699076 
0.01540967093665046 0.02545316084578956 -0.06080459070295335 
0.05173526499881435 -0.1074824058784222 0.02860028544653673 
0.05065194036954981 -0.0701026567468489 0.03386654720964734 
0.02611590544138878 -0.02494672776167403 -0.03202262444447904 
0.02005580913793505 -0.009167404849730497 -0.01462125733683783 
0.01086504045631001 -0.00186403239349129 -0.01979222633883631 
-0.004647849700269008 -0.004966862380421361 -0.008680380579060175 
0.0039180163236242 -0.01742804979704586 -0.002444469539134259 
-0.01590390393847597 -0.03635707293037767 0.08321619718554507 
0.03474584011068096 -0.05037520767863841 0.02869852597418568 
0.0827856775471548 -0.06073277458961648 -0.1998689906234267 
0.02476724894302511 -0.03483284639833936 -0.006079674259381826 
0.004046260217241812 -0.01564950044114124 -0.005694173004654144 
0.01510938167106311 0.007314212917099624 -0.02604871367772295 
-0.03561985579039711 0.01488483733051052 -0.03061033349691744 
-0.01466834794299425 0.01031982126878337 -0.03817402684229337 
0.02819707470099778 -0.0005832093845302561 -0.0258130466391525 
0.02386162033354052 -0.02585579574577005 0.06730146425195281 
0.1737852782792177 -0.09074656720899862 -0.1680424740327785 
-0.05271607363938472 -0.03704575056342636 0.1117457520193592 
-0.02657090401310326 -0.01026321811961723 0.0596769846118179 
-0.02887780904405476 0.0156753178236325 -0.01062702091304878 
-0.02972151955077818 0.0184851973209924 -0.02066628601648707 
-0.1418269312436506 0.007822504248076874 0.1453846626837016 
-0.04132170663052535 0.005956342741875709 0.09051200617427145 
0.03338742396591425 0.000961782478393981 0.06795273120345258 
0.02792013005461672 -0.01651258098352282 0.05947354947977763 
0.02605841505364066 -0.02687201376478895 0.04817692774074185 
-0.006022698617385933 -0.03438388651666565 0.1065063897891751 
-0.01740876015932573 -0.017665718508652 0.06007795898205016 
-0.003733444235952374 0.0002152413309997107 0.006676826992549239 
0.007898770104576649 -0.007238376310541156 0.02677937803043725 
0.02914638323628941 0.008974085909319732 -0.01438192838248099 
0.03900709369121477 -0.003768124995898387 0.01125564955076412 
0.05598253809777107 0.01075711922121439 -0.01957584758747593 
0.03827950513273577 0.005310538614824086 0.02811238077820917 
0.02642478641804678 -0.0069728318848458 0.03213261601432365 
-0.01541325225339433 -0.02394090172824763 0.07658955997304506 
-0.01238367531269484 -0.02417301129487759 0.07394788321056027 
0.004217819904786856 -0.006989650540322455 0.03069612849707061 
0.02815997385363526 -0.01556074040195425 0.03666709817824144 
0.03264871190845318 -0.009523380687600266 0.03990095901455168 
0.03454047636168556 0.002785109389471726 0.01002888269975381 
0.02959090284712552 0.007454641602746878 -0.0118608759625641 
-0.003788202209303777 -0.05102382070517266 0.1125438884045716 
-0.005901434532516924 -0.04120621556773069 0.09560718928670257 
0.009634119689625398 -0.02840508195581863 0.08660633057906175 
0.03079545771270222 -0.01368317000796049 0.03169836688160432 
0.02678162582786016 -0.02337737300998986 0.03099443299769074 
0.0004648623545671706 0.07944152569878608 -0.1007418455504831 
-0.017576522041495 0.09492137237719214 -0.1147752685331265 
-0.06982576227045477 0.1036545595116492 -0.08601799875741849 
0.03683717911649322 0.03599389744522109 -0.1506543757301187 
-0.06544268222378061 0.05211922682427059 -0.04938740655288035 
-0.1682496904304406 -0.1621050558277422 0.4778849254029855 
0.07876451280352555 -0.03766884792912145 -0.08802887891712029 
0.08755314860843674 0.000269285975529095 -0.1683796185641334 
0.03511387369036465 0.0267131633312349 -0.1474171090933703 
-0.02403547429315981 0.03891054911428376 -0.08192560152731582 
-0.05109674414023897 0.04743104081043614 -0.04613742335779415 
-0.0903297881581967 0.06379425408330215 -0.05424546156889597 
-0.1245716334563747 0.06746799690282596 -0.01474612964913976 
-0.011429980301109 0.108498045433085 -0.2321974163325567 
0.09783374987258266 -0.1985198280939561 0.2306366983704171 
0.152465074160919 -0.131838710908471 0.05296875712751549 
0.1062898667408367 -0.0403669556281101 -0.0968292589374052 
0.0353015274939587 0.01875196693769698 -0.08530853707017715 
-0.04279507196372843 0.01477503324452875 -0.02061851369643595 
-0.04391411297574901 0.03800157049905838 -0.02784871213175275 
-0.04598271979635728 0.02717462874576474 0.01019475044089564 
-0.07749502929525356 -0.01966645187855227 0.1946715863258724 
0.05373939406832766 -0.03820241580322772 0.009506420865903822 
0.2609757309348632 -0.07706483516336886 -0.4293432239253002 
0.1433415050798194 -0.05680626933991561 -0.1421609293130684 
0.06486195840750855 -0.0232801304924941 -0.07310711977274298 
0.001198060754188062 0.005726734095462047 0.03195459076890426 
-0.06629694497630409 -0.001614003534590304 0.1020540675904394 
-0.02309788115421576 0.0199696267873887 0.003598632214085465 
-0.0005255031420653597 0.02575725305492616 -0.03474095765124782 
0.007895354863834192 -0.01583820161668126 0.07581881604752583 
0.4403692529741631 -0.1486893098287631 -0.5253604147297191 
-0.2070348901880118 -0.03404692043398345 0.2963243866027341 
0.025889389938821 -0.006655212922150452 0.02154930932766799 
0.01502141534031089 0.00243637895935719 0.03135398164307337 
0.003153148438587075 0.008226194458833965 0.02975185561671865 
-0.08389461811660034 -0.01160289929144543 0.1430386633564606 
-0.05126895516674394 0.02029229519695376 0.04986519764691595 
-0.02375607873269477 0.01523021738221285 0.07564934129249101 
0.03794414153827749 0.01086342019617322 -0.05475004782156045 
0.05401223363127652 0.03105194932208241 -0.08990175076173222 
-0.01359380547575222 -0.0291790536744867 0.04786550505487898 
-0.02196086411430279 -0.01538431158446161 0.07418074351750879 
-0.02590260903682689 0.01038796453226918 0.03984517078240369 
-0.02764982152138178 5.104486956268983e-05 0.07193099929369842 
-0.04917059615960972 0.006850067899289825 0.09722164877446438 
-0.03959839864959499 0.005736975976121195 0.09177697657789628 
-0.03614426351219733 0.01393846726665425 0.05447751089437202 
0.01678728716907573 0.01783944611684168 0.00881335635012875 
0.04623295943090472 0.02638497734457344 -0.06962438504373537 
-0.02863081254079613 -0.01425573623716383 0.0870646737519689 
-0.03328290456091269 -0.0145231716107239 0.09976528284723611 
-0.02112688244332453 0.003195561455531006 0.04635547701841468 
-0.0008326609769387371 0.003922145869919666 0.04740221318843697 
-0.01398727888369316 0.004609379206730077 0.0629425818181827 
-0.001900143315023272 0.01586174799107051 0.00733978127030247 
0.02102480590877583 0.02713816266088701 -0.07475187309887461 
-0.003596084175544559 -0.01440399476950056 0.1313967123249571 
-0.02617330073694202 -0.01001650236348129 0.131493248177319 
0.02320018029132176 0.007313557959150461 0.03691424613277489 
0.01954332009128435 0.0068729524436226 0.002468481000855657 
0.03656100017946094 0.01494730817132889 -0.03145651841410236 
0.00552972734318715 0.001666951693818525 -0.0350906743250084 
