solver_type L2R_L2LOSS_SVC_DUAL
nr_class 3
label 1 0 -1
nr_feature 310
bias 1
w
-0.04880498650805122 0.1172067613764626 -0.02878512171440856 
-0.07241268576062081 0.09025372983082473 0.008646505770201426 
-0.1421322736458237 0.08509526900798052 -0.0142360785276953 
0.02116213821017069 0.137364110342144 -0.126960556205111 
-0.18668442113593 0.04822272026292808 0.1172963205257252 
0.07842847742837915 0.03773148871567048 -0.1734467255712893 
-0.01202449363415128 0.04736144667362915 -0.0369486965795612 
0.07464084095733522 0.03000941142681167 -0.1015523159161325 
0.06790767251120634 0.03068880024451912 -0.09982108606788316 
-0.1257040476234993 0.1827135271146187 -0.06937559421102772 
-0.03098476310152296 -0.0582834788458412 0.06061229091971632 
-0.2301337974430488 0.1468048199825213 0.03446115219329219 
-0.09372168138609871 0.08681551861369154 -0.1355891420050266 
-0.04854921977790416 0.1294291292590686 -0.1385734859504514 
-0.0700601481364219 0.1436416832606097 0.04918434642766788 
-0.06861573724368508 0.1467185687903956 -0.1216365528822079 
-0.01572693516302216 0.1407852530441828 -0.1681156888142798 
0.02300299042467556 -0.02545210809043145 -0.1699169371301592 
0.03811552103651526 -0.08240233174057834 0.04000228537589817 
-0.217739307306988 -0.07064485940692115 0.1992951388874452 
-0.08421408541690475 0.004042926364805075 -0.02213313730517948 
-0.1254969244943179 0.3206228957401137 -0.2527795852743397 
0.0008509559770266441 0.01202791778586242 -0.1088429186946497 
-0.107595389264871 0.08715211904363536 0.09154931031113733 
0.1376008516779213 0.1302829737167824 -0.3239619702632792 
-0.08344129879865203 -0.09061403466369733 0.05422895336756455 
0.1262109195546036 -0.2397262399288113 0.1256528452182156 
-0.01371146726543786 0.1334764535381701 -0.1056867877158977 
-0.1607964134214799 -0.1871309998662667 0.3861180804692503 
-0.02243746381562615 0.0002963117916495587 -0.05820866897551544 
-0.006113931733558894 0.06691487705571794 0.06307126172950023 
-0.06195702498427314 0.01059899042615052 0.0189057306559639 
-0.09415998823164587 0.02769513019278695 0.05959604351059485 
-0.1707645443932828 0.1464450592865972 0.1539392592896982 
-0.1627704006370102 0.06275280462653637 0.1913459188623578 
-0.1653195147492169 -0.003153194959300719 0.2131487066012437 
-0.04498328015357827 0.1335007897381915 -0.1151152216087444 
-0.1857599863793515 -0.3113018674558999 0.3808008060933337 
0.01547955272358167 -0.07071487208769174 0.008156591201202101 
0.01035727693559982 0.06472179132735485 -0.1577939904674874 
-0.03421882406568323 0.01846564634367466 0.05550559245353193 
0.1156380938546624 -0.01907802590375088 0.05001428661998131 
0.079826296806804 -0.06754226049789903 -0.04600828403740066 
0.1883210108497742 -0.03601519239691387 -0.2156312584813729 
-0.08279955117396776 -0.1500286615008225 0.1870619780080035 
0.03280949528426685 -0.1082199569996014 -0.07274927278258923 
0.2088992959512141 -0.1171477340391632 -0.242532885295437 
-0.01469855200086706 0.02770702999287631 0.01045979501475308 
0.01632989219080798 -0.06500169859392285 0.04453165693126381 
-0.03340514318152519 -0.04867444152953252 0.001235952329426723 
0.2314783793155975 -0.3274790817861875 0.1203467991838912 
0.2319442155239302 -0.3266373504241039 0.11986388544434 
-0.02345854717326925 -0.03484407527466426 0.04812045196507988 
0.07912700839436893 -0.05347973114280359 -0.09294836234233707 
0.0893217282194715 -0.09101498331496043 -0.04790023297356634 
0.08270121337492523 -0.09898963763744509 -0.02624593214765919 
0.07891681882466767 -0.1002736152159301 -0.01659738798924752 
-0.02634125637291813 -0.02822771826788522 0.05673973146753514 
-0.02447983547403923 -0.03031110975218369 0.05571805056223549 
0.1444915409702204 -0.08315139594971226 -0.1253888739931176 
0.08855574719854264 -0.08782112943723802 -0.04934525401320048 
0.07989900617616139 -0.09327848733793984 -0.04374390216246578 
0.03569767336029109 0.006680211688726805 -0.01801135708944312 
0.02856545026270311 0.004601106327608163 -0.01049874276021331 
0.002801012711308147 0.01971838270602095 -0.03654699233936289 
0.02897470128924584 0.03546645725461885 -0.0804647191013062 
-0.005458239227932553 0.03032713294620003 -0.0696338278835347 
0.02586122623909063 -0.08926572736791848 0.03852643021089404 
0.01592387881424059 -0.01314729949430714 -0.03150070667621874 
0.06608860670253106 0.006964946798709806 -0.1299575062321117 
0.05772921376791841 0.009817335819607472 -0.1264134396010055 
0.04290421224928415 0.04574958479601438 -0.1149367064362509 
0.01260905564793934 0.05647744419267377 -0.09251977247450462 
-0.009490703624636625 0.04923217891907638 -0.09397028193324702 
-0.07140288976975188 0.07048807270423763 -0.006381470860863619 
-0.02613498921374786 0.05301524540333103 0.01775703252254429 
0.04102920820459195 -0.05328554178985697 -0.01765520081468537 
0.01763884988285979 -0.02364400567126289 -0.01061945285322768 
0.04358843016104675 -0.01018323615196939 -0.07258774081688285 
0.07568763817784922 -0.02366756286759179 -0.1237034973324123 
0.07644159977088774 0.000972710790955545 -0.1469864702665475 
0.01906670157198256 0.05667847227793862 -0.1448708921538312 
-0.05178082013662988 0.08850545390505112 -0.006409831971201975 
-0.02408470457694896 0.0683501881171379 0.01663551107275925 
0.02428195308857024 -0.0124464316900579 0.02327921807544758 
0.02532092174710714 -0.04144706383529298 0.01450052152970066 
0.02120969633794663 -0.04814478943012796 0.02018262863957522 
0.01004219299659632 -0.01309056866763983 -0.01317430200456329 
0.0003286678678898097 0.003207097538161799 -0.004191477479326926 
0.01697759812112255 -0.01384443004595508 -0.04900940391716844 
-0.01974297295729377 0.05106652606344494 -0.01995164044789892 
0.00184346794381404 -0.006203728801914737 0.04706792772021448 
0.003085209421202645 0.009082230160064056 0.003298586711248537 
0.05051024927373154 -0.05956593377135833 0.02908071906864171 
0.02363452480220843 -0.04648805433823959 0.05985718160981171 
0.04197356409703468 -0.04252506508479938 0.04982570483109064 
0.03165614163753826 -0.03527040098220867 0.02652732986438816 
0.03407933541458763 -0.0206087647376508 0.02549572724164683 
0.005881066209729151 0.0326549959320144 -0.05622351065746892 
0.01827992172668904 -0.0003620857361244074 -0.008586334008568734 
0.005129104890250865 -0.007183847435821786 -0.01962857610761859 
0.03930023268392395 -0.03212787353448961 -0.001505229712178553 
0.05822940900574736 -0.06916436521376966 0.007752996574046455 
0.04238635078889055 -0.01640117178357279 0.06067980380511921 
0.06094573186885611 -0.04441618957498749 0.03679502243143499 
0.1111137350922913 -0.05464203598389589 -0.037722875470255 
0.05568155403720033 -0.022292767015427 -0.0205178428252499 
0.09472717646115725 -0.03747820095953059 0.006103459567369638 
0.09385686518086848 -0.03923459584146152 -0.01853650226880247 
0.07745929640951714 -0.03810346132369584 -0.02538005766825639 
0.05827946846822048 -0.05621947886693686 0.01642538352276706 
0.07309967879192589 -0.09168324098753285 0.01916636584449251 
0.07765460040325865 -0.01754789684064076 0.003603759109191977 
0.07961952753085003 -0.01623979190257434 -0.00242215272409727 
0.06845591120184541 -0.02113051263868184 -0.005268675306435634 
0.0478479181835406 -0.003535318712866162 0.04128958726683183 
0.07907389093626485 -0.04424576306954562 0.004061794779108183 
0.07911381515718584 -0.0443640206975785 -0.0008210815605591387 
0.08081298748359815 -0.04427371442300505 -0.00143988044981354 
0.06514780368113371 -0.01884207544747471 0.00151871015851208 
0.06770160574630681 -0.020824285185808 -0.002425165414252787 
0.05577444911241555 -0.006497376793630084 0.0001713202598076993 
0.07924294192565735 -0.04099482403016746 0.001808143467206802 
0.0781603625583078 -0.05248891184964061 0.01412854517167812 
0.01879496999161317 0.01927135864746207 0.05256475928132451 
-0.005314145033146441 0.03525816287134374 0.04183449792864721 
-0.01599198929187907 0.04681808883225921 0.03249536627426259 
0.008726281786108635 0.04593350201007223 0.01330639465532002 
-0.05624093442143813 0.05714536752622403 0.03313842124998143 
-0.2377675761947691 0.2723381507472216 0.03934646439498171 
-0.01638359146604656 0.001690486322733146 0.07277966949929113 
0.009721216296545872 0.05155276859983349 0.004452141024190618 
-0.01550920984251855 0.06020704734382323 0.0102940344656111 
-0.02447340366639508 0.10272950319785 -0.0454921922023708 
-0.03525266574528332 0.08109710816891866 -0.01807770960901628 
-0.0388493228730559 0.047384788378122 0.005245995926586844 
-0.06086187396868763 0.01021636536340623 0.09619326841791248 
-0.03143642805423116 0.04581378910984656 0.03709170516524225 
-0.01129832429254919 -0.02180308359526026 0.1034335216795377 
-0.03031192207554636 0.005210396938014937 0.07346128645517318 
-0.04363766603757911 0.02936681384602064 0.03517591817161263 
-0.03035956414768295 0.0505376051621617 -0.005316609876441579 
-0.02709622567382284 0.07836321584326413 -0.06232339714611155 
-0.0319975513206514 0.06366878158873107 -0.0541345160864412 
-0.02608630559417986 0.02007341723649606 -0.01231869005965686 
-0.0113592727838495 -0.00312144386581645 0.004884133740879114 
-0.01677910635464143 0.02238967376151277 0.02548560268344887 
0.01241640606291647 0.03029519414575794 -0.01406225803230701 
-0.02693262461844073 0.05558648595792755 -0.00924860073301091 
-0.04874363892379632 0.02418988719164333 0.003462512055355862 
-0.003325364843119361 -0.01909753172695985 -0.01304219907763974 
0.01716005567081458 -0.04402788625897116 -0.00916729934166351 
0.0510260506799656 0.02018011256405565 -0.09454679059512036 
0.01262896501886672 0.03924760746084906 -0.07840127277534875 
-0.003898709602613864 0.05802610233166131 -0.08886081347185956 
0.01263231906694999 0.02203958766784336 -0.05727762983716101 
-0.007115928331290282 0.04893456139634025 -0.004586388004991195 
-0.05761004218558808 0.04585657579544804 0.06054494360922647 
-0.01913371853225534 0.01973255013557523 -0.001244823465496075 
-0.006369250765844143 0.005513034991865884 -0.004134148875806007 
-0.003337743203454088 0.04289905992415453 -0.05301137301028731 
0.03144086738024687 0.008575580222994483 -0.08022357164620314 
0.01743202871114752 0.05949043769868077 -0.09709257508339518 
0.008614275744077714 0.0468777591760137 -0.07196755367785602 
0.01364338091533269 -0.00607153250420533 -0.056502307531049 
-0.05524689827482036 0.06739148893723382 0.02907082913975949 
-0.00642520663899408 0.0117618271809222 0.06397711061569157 
0.01194737185895509 -0.01386425508114384 0.05748237633817228 
0.01580962007663473 -0.05236369253905304 0.05230281977565673 
0.02321501509935085 -0.05443633793991932 0.07857801217649053 
-0.000687335915563869 -0.01842885390112344 0.05484273058485453 
-0.009358390862110271 0.02406672041072941 0.02784264259318257 
-0.003684192563694888 0.04832646964996729 -0.02515562149323629 
0.0004703828473592703 0.03521533148108372 -0.05052274706081895 
-0.008693364464829073 0.01504738143577964 0.04156651382132302 
-0.007564778670856754 0.01994566110878476 0.03791890295853487 
0.002937162394240609 -0.006661051337245267 0.02428499152986623 
-0.02038065182291336 -0.03034213160992606 0.08698427571084513 
-0.02042494199702219 0.01748624201719836 0.007499850664641221 
-0.01197816910780991 0.02561928180685723 -0.008741481386482699 
-0.01651600690200724 0.02048439231241123 0.001423142825540017 
-0.002560846168362778 0.00153788398433965 0.0210153315571941 
0.0006022280532261261 -0.0009224851831612392 0.02236735132015551 
-0.003305048146218854 -0.01989575149109555 0.01721783846012192 
-0.01653451015830707 0.0233483021841989 -0.0007403408529844054 
-0.01834691992895521 0.009490520770135789 0.01251247274924286 
-0.1007477668332143 0.01884658392760533 0.1549103391920258 
-0.1773533088709879 0.07835461080135751 0.1696805678084609 
-0.1352974508075392 0.09766716262208734 0.06815157754015068 
-0.04807935321431388 0.05560033642438084 0.03521517157691829 
-0.096307443981675 0.01829806800732323 0.08212362762481731 
-0.01831485024144837 0.06658271051452719 -0.07305812912581378 
-0.04089662191112177 0.02722139329655016 0.03384396831130242 
0.01630905567219383 0.04246904068222447 -0.04492809403863406 
-0.01208913073096046 0.05252141231588153 -0.03462142342079779 
-0.02224544539124367 0.07967272829590354 -0.02860372183035737 
-0.017728931280631 0.06307557283477774 -0.01330877723150715 
-0.0214325091459549 0.06126378190004697 -0.0163625224958596 
-0.05347756188699476 0.0151117031806374 0.06068079621238026 
-0.01533703647036446 -0.006254353825893189 0.03690097025741673 
0.1074804354492656 -0.1329720578555707 0.00560015969228538 
0.001997089982261063 -0.0406443360338293 0.008500033532402255 
0.004447970924167132 0.02434301533001523 -0.06282220563336227 
0.002350495010399414 0.0532068223919652 -0.08114336011995436 
-0.009167902837617646 0.07213254985102599 -0.05251791559799635 
0.003988588608893035 0.06325959738028161 -0.05504218531299531 
0.0229645374763674 0.05551387155542177 -0.0528694402060426 
-0.08788758850691815 0.0201694761939467 0.09030127066432804 
-0.0253527062533391 -0.03627923385959134 0.04947285333634954 
0.08839696139574259 -0.04252185447431707 -0.1572003600412139 
0.03144594049427741 -0.02507555091427648 -0.07559065266419399 
0.01544048357014415 0.02584759618580883 -0.07103565240360489 
0.02662361635524136 0.03113757924379347 -0.08084464921460457 
-0.02805815289715701 0.0265138765524369 -0.04024304656794048 
0.06466080100060187 0.04678004679814536 -0.1206027370797862 
0.0603171964561283 0.009292747015633871 -0.0453571821213785 
-0.03474258251482654 0.08355421448538781 -0.04081318268609885 
0.01059883063366385 0.02190391891362909 -0.06074989678217054 
0.009584239440073897 0.0007216019496329129 -0.04763921215394966 
-0.04574254502296998 -0.02970534908357649 0.1048923594879797 
0.04220300487880463 -0.003076596679196386 -0.04954916210602166 
0.03103158555895843 0.01687604829269057 -0.04640743177123643 
-0.02109521442313469 0.02211882603355686 -0.03168551857098195 
0.02925422893473402 0.05178298953945826 -0.05024001430472805 
0.03094523053485547 0.06835791164307058 -0.05638612277372362 
-0.004430925119679322 0.06824084254519645 -0.03870293049361083 
-0.02044074770125323 0.04725807503708963 -0.07851551371529839 
0.001007039273007348 0.03615129896682701 -0.0323704741687236 
0.04220323544540463 -0.0318162271246541 0.01368228997431468 
0.08516220254366035 -0.03785993802708141 -0.03009615907117139 
0.07341927815320962 -0.0202017223764696 -0.04913661008307169 
0.05822317069630034 0.001695047925958392 -0.02436393434355844 
0.03124001079187551 0.03954953655814703 -0.03342010847196356 
0.0226852764451922 0.05894827964981928 -0.0317678011828882 
0.007955432043779465 0.06025295363732313 -0.02127511611459351 
-0.01258470506566204 0.08611016159476131 -0.05926894754690864 
0.0366911363153677 -0.007926139823433946 -0.004441127525419779 
0.0351229414229234 -0.005937201880466501 -0.005739898065473413 
0.05161118493215736 -0.01653408802246552 -0.02277355786471712 
0.02020227437199228 -0.01472091801658313 0.04663226383901548 
-0.0006572362282135898 0.03710829737186494 0.003937786613906369 
-0.001599603891831888 0.04142010222421312 -0.006116964824648292 
-0.003232951537290924 0.03882928922444925 0.007024062304769805 
0.04927449550743164 -0.01696137450906919 -0.01579250249272889 
0.05075985370582731 -0.02055225832660571 -0.01632977207621183 
0.03178487268199013 -0.0176255082674169 0.01122081624127718 
0.001121596696302435 0.03509117109851277 0.004809545411619766 
0.004494913685500018 0.01671186693709401 0.009079128072265184 
-0.2513001370234462 -0.01211377463440472 0.3221956172863676 
-0.3337683189635577 0.04914190858000712 0.3409304076108448 
-0.3145241448962154 0.1214222592701764 0.2163945052364862 
-0.1854245943970397 0.06266673846153914 0.167404036854597 
-0.1998711372915584 -0.0349289157145419 0.2173998063439054 
-0.1251397619424914 0.06517516238359645 0.1199748158579364 
-0.1156587655394687 0.03538928117732668 0.1353143119282531 
-0.01242297320217655 -0.021030057613918 0.08613648699464908 
-0.06347980712393088 -0.01109369995347556 0.1127052833788405 
-0.05828306764707723 0.006775513737163074 0.0856000622992031 
-0.06305094945497973 0.01560368799069616 0.08858454175689312 
-0.07804308481686856 0.02819269309843603 0.08851154834262466 
-0.07004835545313742 -0.01112981608325022 0.1080021017791193 
0.01724191136414607 -0.0798101635373174 0.01516707295534174 
0.2921917340713715 -0.2795819534591439 -0.006824629013743936 
0.0462813087356027 -0.1413052001927324 0.04618171832642027 
0.01888866203248215 -0.03557684125553839 -0.001994722169353243 
-0.02464944431471102 -0.003815287831566781 0.03252517577203035 
-0.03524119884251516 0.03785522726017934 0.01763402517829384 
-0.05567445200719705 0.04070730917021805 0.02523794437244815 
-0.07170903485078074 0.01972128826620102 0.08173693392288298 
-0.1734120140606971 -0.1010550145639465 0.2941065734665618 
0.04370813312662801 -0.2043076680813309 0.1415651482941928 
0.2315616550449008 -0.1398687092834402 -0.2469989504784516 
0.1248717851133237 -0.1072883902164822 -0.1540427077276423 
0.04235494248564815 -0.03457136471019902 -0.0629880213391317 
0.01371313278375046 -0.00387190705439342 -0.01546977630883481 
-0.04136201567886888 0.02502603224820885 -0.008045570030132924 
-0.02899130796214488 0.02784632507479081 -0.002630894184415368 
-0.01942760215455011 -0.01317692511060701 0.06746039524124497 
-0.06165252848783811 -0.0213016854330593 0.04118623351829113 
0.1215213804678883 -0.2141831947264731 -0.01374341307763779 
0.02175630097857796 -0.1091094614984572 -0.03322532010532676 
0.01884519164392691 -0.09666268910082838 0.08324254952822949 
0.03841502283407283 -0.07959663382736729 0.04006782136484392 
0.03974718990896611 0.008028039203640449 -0.08354598413020579 
-0.02981254840074131 0.04187219395292763 -0.03172335783424692 
-0.03285946778164651 0.0298858883847509 0.0009245257127068159 
-0.006429013644505988 0.001969909893288838 0.005777283915069742 
-0.001770575941852253 -0.05767779170177518 -0.0009720753600734926 
0.08243995243094214 -0.1301808453504212 -0.1491880443789544 
-0.02688623491001857 -0.02335960690015984 -0.03145940604148623 
0.02049852728512449 -0.202377486342173 0.2541118376330784 
0.05252810549561904 -0.0930433515081763 0.08653150006848812 
0.03167909312396051 -0.008184273036399511 0.002102516452553995 
-0.01454950596153252 0.03520958690069458 -0.0207349360150386 
-0.02006548718993901 0.062139043058046 -0.045121328190598 
0.00849774857322662 0.02754084269149892 -0.03485652098964249 
0.0214109690674835 -0.02965528613157105 -0.01430109147954733 
0.0758195834549696 -0.0464570819344565 -0.1265179533641515 
0.02133385307809492 -0.1217625367047902 0.1054139978264407 
0.02416643115823383 -0.1190186405464044 0.1024313307195439 
0.001708161215338261 -0.02676999420675075 -0.02383789392402203 
0.005367617611567677 -0.02086292334682972 0.0265464943489758 
0.04377938584670332 -0.02883900916685437 -0.06163694999193816 
0.04446826616531052 -0.0269752808456123 -0.07361997202997025 
0.04278957558076131 -0.02801440567998537 -0.07309809314165631 
0.003501927288004778 -0.0384080109908565 -0.003890698828625572 
0.0004788167841091083 -0.03695890824934973 -0.004713385175897974 
0.04009851094651869 -0.05354413984924822 0.004749900700717144 
0.03677089592652052 -0.02226868543759843 -0.05743481835831723 
0.04410550089192763 -0.05336676585696822 -0.0461523960119805 
-0.002088174596339781 0.009211843312065282 -0.01102453780773241 
