solver_type L2R_L2LOSS_SVC_DUAL
nr_class 3
label 1 0 -1
nr_feature 310
bias 1
w
0.008302032234563458 -0.01116790460859348 -0.005205130955862707 
0.01707994836197594 -0.02843384292921261 0.006220551523685808 
0.01346410822798796 -0.01661378869012158 -0.006043141312963984 
0.005037938397616807 -0.008861257640296801 -0.01552709092997066 
-0.0174228662884548 -0.05413316694733943 0.02461127553949247 
0.02890128905334666 0.02792154953445912 -0.0821545733899 
0.001343373707896991 -0.01346995617996547 -0.009997155722632427 
-0.01692966065727998 0.0115004079948908 -0.01038504262072147 
-0.01485034205745202 0.02340566036212634 -0.01145828976179294 
-0.02502348804112753 0.03899605950772697 -0.009633841045777487 
0.02388129282336677 -0.01224865331716686 -0.007857938134562203 
0.02543397947437544 -0.02105874083048657 -0.02318431342138693 
0.02618448788978741 -0.02229262222676393 -0.02270528921040372 
0.02661683118444262 -0.02229247858852265 -0.02336143569712556 
0.02305384761173939 -0.02263518086512573 -0.0002403721352775717 
0.07984905952781071 0.07133138351952061 -0.1089887717111785 
-0.01426550809165197 -0.01513028805906637 0.02554063306484696 
-0.01782708752741075 -0.0222100502743642 0.03871520099975542 
-0.07477094912311008 -0.05035268204652573 0.06941821306665337 
0.006753685901918584 -0.008744849038661578 0.01637956696180595 
0.004270768516007583 0.001263296181591318 -0.00980053509962339 
0.02073462281170053 -0.03820786789092029 0.006402552717504123 
0.02871517081686893 -0.05140217323054598 0.00461035993688623 
0.02864351271074243 -0.03259255434993202 0.01012773932121391 
0.0181396083085248 -0.01116903918986438 -0.009474647531227537 
-0.0006468169842119713 -0.04402261927213131 0.04207135427766854 
0.0114623450802361 0.1286326291766521 -0.06927788328184815 
0.02472045454239537 -0.06526399668550642 0.04019622962477133 
0.03097324964517774 -0.07230795524995751 0.04441946005119807 
0.02063990953890229 -0.03401936106552438 -0.02041803199267733 
0.01623771376803812 -0.03492175959699139 0.01472571325967393 
0.03481026711397649 -0.02654141649737499 -0.00312475673939451 
0.004757556909712524 -0.01900066862673676 0.03327631583238377 
0.004308054085891137 -0.01104817655433138 0.02061975611536657 
0.01208149875212086 -0.008259304402656591 -0.009153338593760609 
0.02097123844824304 -0.04194286200254335 0.04459750044744366 
0.1601556171560158 -0.2206815018815292 0.1146623404026799 
0.001526734897500436 -0.01223979150618404 0.005528992947540244 
0.01230389575821242 -0.03206252420900278 0.005104683785909192 
-0.03569944520908289 0.03749861943381191 -0.01975865244346648 
0.02124101258167938 -0.06865620862824301 0.05293717937674805 
0.01918732407102371 -0.02767379358585034 0.01386062719188615 
0.01052991179935358 -0.01576877854552644 0.007224436560216567 
-0.03195637165819505 0.08430460780758242 -0.06843145430495637 
-0.03275284550478466 0.02331504561939472 0.01564048385714284 
-0.01129655407374575 0.01660626239704055 0.01416010833999915 
-0.00781403827787072 -0.009992452389632114 0.04467695619265665 
-0.02192597447447798 -0.03604777579249106 0.03455546698075439 
0.01034186672750423 -0.04323884092759184 0.03717051800405628 
0.01496384146037373 -0.06606296754914533 0.04832162666600764 
0.005107433229353809 -0.03173708986887675 0.02593375792866221 
0.005480039348481416 -0.0326881298125973 0.02676483008877184 
0.01352787422759327 -0.003506443186474822 -0.011328738406317 
-0.00684222368477115 -0.009366837758500996 0.01848821577787593 
0.0145707868004544 -0.03283462301949058 0.007291757674605998 
-0.01712446358956382 -0.01647302065077669 0.03866466006965454 
0.01512472385692771 -0.03275827460994774 0.007021099823587364 
0.003728735284278535 -0.02268007433829334 0.01420320000195216 
0.004023633914834186 -0.02376935112096611 0.01498285532351898 
0.01119572661013143 -0.01950826231653814 -0.005898833097659347 
0.01512130292041884 -0.03822965333328085 0.01470799376591451 
0.02590869797525987 0.005058231895531696 0.01539165918422202 
0.02947677241811824 -0.0756264306782945 0.03996224271643139 
0.02991746282821522 -0.07482699010229486 0.03908643307589727 
0.02344477885986746 -0.06451324320449565 0.03191082765670288 
0.01345137707821475 -0.04393281147368297 0.02689515545686627 
0.01714731967534348 -0.05767465853762493 0.02109918717311304 
0.03993048814895891 0.001148948306512831 -0.05540141997406897 
0.03434213851744491 -0.01908040076937981 -0.02128492924290023 
-0.01645642379295802 -0.03287813406580115 0.04302295471245868 
-0.001833730298716535 -0.02216538145768737 0.02464491103000559 
-0.004897035832580231 -0.01484237665029335 0.02398297730770916 
0.002537167624045955 -0.007871771664957495 0.01103106288755553 
-0.00361721974360881 -0.01116220438716402 0.01260184604118313 
-0.002905694090857787 -0.01194876445474399 0.01239556450950561 
-0.002799824500264448 -0.01219563739258019 0.01212626966757622 
0.01518400544682287 -0.01641775113078069 -0.004111188675723069 
-0.02240516891115427 0.1045002909567655 -0.05293222550960819 
0.002152759630681858 -0.02203496456099591 0.02141529752728288 
-0.002775646022507106 -0.02123136340886132 0.02785391205905329 
-0.002781955918546968 -0.06074509034473891 0.0215315418664642 
-0.0309543401248203 0.03969690363435329 -0.002085188481619837 
-0.008089353856073147 -0.001721588614997217 0.0125058472966774 
0.008382760085735576 -0.02304906231881023 0.005953737560379545 
0.01797634887375094 -0.02726767068939806 -0.004361565255723808 
0.01489419653358087 -0.01445459248251517 -0.00172642038556276 
0.0079424274549913 -0.01572512551201252 0.006578633944893724 
-0.0006786696505144854 -0.009755006103482853 0.0143672635815616 
-0.04180211162406322 0.1337984549192326 -0.08503581344524944 
-0.003412797024139816 -0.03434529101068629 0.04697445585349438 
-0.01012602277151465 -0.008006539501221576 0.02884337256554806 
-0.006030517936137123 0.006003219508669539 0.003083417160897346 
0.01055169808876385 -0.0216004861160538 -1.933726859853198e-05 
0.02076139853854894 -0.03224360594778694 0.0009967921319761557 
0.0001553463890551217 -0.02160860609466668 0.02634102445449561 
-0.002208261495029568 -0.008523980369157146 0.01507665451757186 
-0.005437005582847757 0.008869080624566676 0.01156570780688643 
-0.008570421037042229 -0.0004746512406228755 0.02303836322629554 
0.002532841040529043 -0.02973118185754174 0.04630639284981402 
-0.001417932818667996 0.004746662298840047 0.01193652082774147 
0.006835529816629843 -0.01401563601110486 0.007182699576868655 
-0.04553609155931353 0.03199905862256429 0.003830480630690486 
0.01334888867118858 -0.03450690798933519 0.01123658905608385 
0.01006693057256691 -0.03512134285312212 0.03570703448104591 
-0.003222381832944031 -0.02488471936153296 0.01214443098362805 
0.00710970934729729 -0.01443918052363897 -0.01383694615025687 
0.006717088167903862 -0.03227657490038378 0.03323943936398016 
-0.002225594388790988 -0.02284574722315892 0.03673524232963614 
0.001356233373738604 -0.01856923843478176 0.03656497770172118 
-0.0415644847267341 -0.01625278436782242 0.05198776288633825 
0.005809939633640664 -0.0205333803153967 0.01159468828992759 
0.01117723893974671 -0.03013355532649358 0.0155805140773148 
0.008548742027551796 -0.03569612711229681 0.03464618954229827 
0.00843927859644549 -0.0353838057398399 0.03470105063081281 
-0.004179245587562975 0.01129169083046877 -0.009434792825618097 
0.02276918867641829 -0.06252066116345618 0.0525536572420171 
0.01057275132294419 -0.03497269230640705 0.03380217091876628 
-0.00841998222126342 -0.01116966493301247 0.02577146455670492 
0.01036039987440402 -0.03509470521909885 0.03383579424073334 
0.01603079015041022 -0.04236514541995339 0.03399423788203115 
0.0160815968387081 -0.04238335415547938 0.0338672893792425 
0.01620682751373017 -0.04762979367877134 0.04224299796268492 
0.01244448885204533 -0.03675592356003262 0.03394539661556046 
-0.02662335100215244 0.0429804116855731 -0.02782121623242372 
0.003113371022304146 -0.02037615447302928 0.0153598149037445 
0.003039249754568532 -0.01653921218648463 0.007387370147993226 
-0.004911833973359517 -0.007709963293599907 0.007906739448467181 
-0.02093743782816201 0.03602571404153156 -0.02075989773216839 
0.02177621387888603 -0.06172502130797947 0.02834806275571633 
0.04510104595952407 -0.01138185030873245 -0.03403109446326978 
0.03907005638156588 0.02085235230011222 -0.0639033664925044 
-0.04847534052215818 0.05172504627069989 -0.01631929871269491 
-0.0379941773386195 0.06729305578986243 -0.03464013925299245 
-0.04070758622921812 0.07465695682102924 -0.03866485405215604 
-0.0002129310587265876 -0.00363155470918822 0.002204375298780262 
-0.03630806855487095 0.06462845940477818 -0.03527168057758995 
-0.03573195966998673 0.06385670086506033 -0.03547532033368556 
-0.03583284608339227 0.06303725729084844 -0.03459456786289587 
-0.01311966543246719 0.04061695085524049 -0.02958410534611983 
-0.1287086785560035 0.1146947276337777 -0.01233045449819276 
-0.04047483636055997 0.07665636757212677 -0.03882084491343783 
-0.04488422158399856 0.08604406247458478 -0.04432680206912096 
0.01213607737293785 -0.04582130570394911 0.01241622330599611 
-0.02810185428671923 0.04358222426453023 -0.008959905195122655 
-0.03849648922051967 0.06064356716462338 -0.02609192067786519 
-0.02254232778728554 0.03356546386601129 -0.01426450809306456 
-0.02487885990776292 0.03838075442378367 -0.01812099327659522 
0.01959015476380066 0.03470099835581986 -0.06066830494999452 
-0.01730697235008076 0.03320831195255843 -0.020983653070122 
-0.02964460663055376 0.01723691447655048 -0.001448708871267602 
-0.02175282947404049 0.09289646112105103 -0.07602809580603047 
-0.04607741005068675 0.06844460864847342 -0.0191276276723226 
-0.03657806763863408 0.03843898650079933 0.0003817373493423663 
-0.03283664156299106 0.04833913455803434 -0.01846155592480511 
-0.02672905038899697 0.0491749834672049 -0.02726518846180552 
0.009462193971046385 0.04989066863905071 -0.05965618594268991 
-0.02334670402902655 0.04307217423370275 -0.0179339575118041 
-0.01788247729970719 0.02883189464072674 -0.01614660675821493 
-0.02520647362099394 0.02053432107142586 -0.008379368982997791 
-0.03718300748919899 0.03744187163525381 -0.008508934740105769 
-0.02125137376220973 -0.01405588790995915 0.05889919076399967 
-0.03900219996858354 0.07896392566508233 -0.04279787386301169 
-0.03427764005156442 0.06701054925488056 -0.04006482024612524 
-0.02253506039247484 0.02518207073034463 -0.006336343433510152 
-0.03885848475848148 0.05770901000069133 -0.01825693796581952 
-0.02014168523391342 0.04456340765564255 -0.02948302683626023 
-0.0004846299604874288 -0.03541685525905239 0.02553855974589292 
-0.02035678614836763 0.03107475130091166 -0.0279901561764141 
-0.0196590819360517 0.01993536266925995 -0.007194118456943955 
-0.01029078926503501 0.003454004816403593 0.006621129051736938 
-0.01671396517239906 0.02993956457780914 -0.01567310338905682 
-0.04566816235335306 -0.008458333062408556 0.04738858877303771 
-0.03184415329109564 0.0540417542533191 -0.02491797191517687 
-0.03549168425771908 0.04756581248402752 -0.01339671549507469 
-0.02683338170577845 0.0534771631835149 -0.03030567191542208 
-0.02651312700912138 0.05289307888173788 -0.03023510797206888 
-0.004166759434243339 0.00309829655955278 -0.01055901628708187 
-0.003446676448708953 0.002543558090458372 0.003383792612882751 
-0.02325243710327941 0.03303934704508098 -0.01417285561979775 
-0.02949617537725253 0.01976679994288835 0.009042592914010638 
-0.02304969065204271 0.03265899515433078 -0.01377293722316052 
-0.03191315546898681 0.04154779660639726 -0.007410677941424115 
-0.03179721324703851 0.04091014399384944 -0.007109430481936348 
-0.02892786639358523 0.03446698101500688 -0.00775902783655103 
-0.02602323426375868 0.03339471077649544 -0.01226127476077534 
-0.02505017357043313 0.02201599969091185 -0.02516462964026168 
-0.03179338773105044 0.05901116479441537 -0.02228212604863914 
0.00800850101354126 -0.04108213599466718 0.03096847195575965 
-0.004200608527198907 -0.01553317485316567 0.02317016500030209 
-0.0225767553025032 0.04558442417790825 -0.01800049745504149 
0.01262012093663956 -0.04338482639123132 0.03279153852516233 
0.03075767603355587 0.01084410985771347 -0.02940177872068297 
0.06701358386209484 0.009082217718284812 -0.06955168938142893 
-0.02519593749013816 -0.01604619626267954 0.0381287465130693 
-0.00954485449596091 0.002296263797198805 0.00988595727848551 
-0.01056146615413563 0.0007056115470536041 0.01634358802973282 
0.0007985692379241905 -0.00629414116163078 0.01255851042822329 
-0.007439763278025776 -0.01410416809926546 0.02610073062425446 
-0.007225190204986459 -0.01458937608699815 0.02630904741494619 
-0.006920841605147755 -0.01461516877303142 0.02602911352630035 
0.003733926121003975 0.03721569035870222 -0.04456245896986877 
-0.04362421726042699 0.1012498913969786 0.005793906425538791 
-0.009897329532411377 0.01078692535042124 0.002302161946432137 
-0.01485816017561912 0.008951366706653715 0.00922411056388709 
0.009871640197959067 -0.008651166457162712 -0.004562577178190316 
-0.04381576477520031 0.05636848456656809 0.003196537173817326 
-0.009146259192813547 -0.01254233554518865 0.0283569275955414 
0.02235061297687478 -0.0378686457767267 0.01229668846130857 
0.02547349072863957 -0.03568487868009441 0.005091605498664949 
0.1171774129879995 0.07048375821824678 -0.1803407215974642 
0.02583698758455964 -0.003118462763040303 -0.02577004275744175 
-0.01062783962369653 -0.005215079681133687 0.01870841897423552 
-0.04041270199630682 0.1342017927075527 -0.08510908002518253 
-0.01955755801632209 0.01105016413800659 0.01339771915913181 
-0.02034348166214229 -0.0003773674356485334 0.02945415742929181 
-0.004797261550914318 -0.00471887271450877 0.01655192274679143 
0.02962165412290955 -0.02348716620888899 -0.01320448121019433 
0.114123837382112 0.0732190540266745 -0.2041793826573377 
0.02178054950566383 -0.02773599941097557 -0.002932965808702905 
0.0103148146785236 -0.01462930192369354 -0.0004704217109046457 
-0.01544722525289398 0.002809334762441696 0.01662494117859602 
-0.02134617645670655 0.006535917156509113 0.01983759949659112 
-0.02650235089783781 -0.0119738831724053 0.05583388491808215 
-0.0160510253630965 0.02356069261214168 0.003518270994715151 
-0.01393353806960724 0.01586364707209709 0.003166670109955097 
-0.04219163706186383 0.0427772947631297 -0.009891155898487004 
0.02039131106209103 -0.0124003713215929 -0.01269134537111006 
0.01363900812729266 -0.02359455498871911 0.003180243613500005 
-0.002963648189798136 -0.03586810460768194 0.03902350129334663 
-0.01528393794677886 0.01362166440167238 -0.01687331781278155 
-0.01800356503331219 0.01005248026358731 0.007922758286350478 
-0.01595276504214174 0.006253315337984528 0.01403553170514783 
-0.0201106406526352 0.01917523894730786 0.007271901219676441 
-0.04320287691140188 -0.01733790487417124 0.04601576928345559 
-0.0131265686162725 0.0161289539592093 -0.003214621932336565 
0.002394776628793646 0.002381203298072541 -0.01002631672307855 
0.003524240344410095 -0.000157586937872361 -0.01327190615795504 
0.003778392384858163 -0.0008703726900871878 -0.01285607513453662 
0.001657193952941296 -3.974212687561431e-05 -0.01641287909505964 
-0.01504873285346019 0.01017656092602087 0.007233385131992197 
-0.02180673780672508 0.01986913358273796 -0.001603182333797871 
-0.02125785399127206 0.001004477390015725 0.01728334120137682 
-0.0212446039436629 0.01911380531282149 -0.001585129037123755 
-0.02001438444053153 0.0007249276751025785 0.01986831071775317 
-0.02010582976167719 0.000869587914898159 0.02011087038629979 
-0.01763262278319219 0.01009357154614798 0.007237193498934609 
-0.02272773467077189 0.01789834487665675 0.001115584614260319 
-0.02525210960439716 0.05466671860659028 -0.03536754270520363 
-0.07889585503132193 0.1173084477875137 -0.03018319887936056 
0.01061674193328047 -0.07411308894278901 0.06614900324222237 
-0.01237332302083331 0.002217924747061433 0.02070853297981502 
-0.05776352045109574 0.1422503012832094 -0.0709687989849835 
0.008113366652328587 -0.03300374532309164 0.02657455454521123 
0.0208723304725226 0.01458058961907272 -0.01613252699790689 
0.0878477916818801 -0.002968118589893669 -0.07137832921650741 
-0.01716648614270516 -0.007469331598852072 0.03579240369942696 
-0.008820902273195931 0.02546408160126423 -0.001847604167074486 
-0.0160414481578975 0.01517915840566319 0.01434791791401956 
-0.01123813431496122 0.01035829648852033 0.0009901212067603673 
0.01553733039202912 -0.02877125354659726 0.02407833074007885 
0.01767623191343172 -0.03207040486554064 0.02468497995710669 
0.01779651916315946 -0.0313301778555514 0.02404438387957955 
0.04073131269013405 0.05706410663449525 -0.0924031349833042 
-0.07986047703381752 0.04185187889056125 0.04320059167159212 
0.01376068744447282 0.002008540759935969 -0.0006493123600556877 
-0.007578057713085794 0.01565371034641871 0.006593841948278908 
0.007055849923404406 0.008525532536512949 -0.002790435574784827 
-0.03711278635654838 0.0573743593380342 -0.004855411369597686 
0.0171336893470283 -0.01705143578700424 0.007650161241568529 
0.09015587168981383 -0.09882500755247026 0.003572771777218253 
0.1102354912148449 -0.1044208551632565 -0.01369079131595376 
0.1489465920283087 0.1324544016215438 -0.2548550318727071 
0.08564456209842067 -0.03266050266253958 -0.04553500614093438 
0.02818863661822017 -0.0170209918227964 -0.001941284615089927 
-0.04428143931492165 0.111810424024045 -0.07202930484764858 
-0.02447589080215806 0.02427849665459039 0.0154117129744102 
-0.01046796956062726 0.006403104237359664 0.01983858456139598 
0.01846611534674852 -0.0142194455940984 0.004757946383406346 
0.09822638074931586 -0.05821494053885355 -0.03820632134314879 
0.1778292238022335 0.1285296001304266 -0.3308547883691699 
0.07040393157526628 -0.07426788069966686 0.009944520674787771 
0.07412741484662971 -0.07716339446412787 0.009169658159723494 
0.01512878243416508 -0.02026048978524182 0.01334024413062425 
-0.001734963451599219 -0.01045972593817706 0.02369383068270934 
-0.02213925512305126 -0.02238427272085815 0.06053119092538501 
-0.01931263092261921 0.01525458285853528 0.0200260063972985 
0.01342233045010755 -0.007745201889449763 0.000490539850852048 
-0.02679991712761668 0.03473947192844471 -0.003334670863601263 
0.110039153321465 -0.05121270494561394 -0.07325469543948947 
0.05236729995920962 -0.0979243186418894 0.04112780132539962 
-0.01040854543517538 -0.02041432523235577 0.03319190618497589 
0.002431538186681605 -0.01470454132155763 -0.009201094725142927 
-0.01600222785949235 0.005841889856252683 0.02409417138372805 
-0.0223383130031401 0.02036004675928318 0.01840698672896042 
-0.01680851208064117 0.02692192078350574 0.007181613670082527 
-0.05007194175442595 0.002154046538227343 0.04583929522720036 
0.04256444712859951 -0.03801949971550122 -0.0083077334370071 
0.07430207574342228 -0.05375383552131369 -0.0337075432452713 
0.04613378312040193 -0.09109380260454814 0.03946225829193271 
0.04779427015491824 -0.09230572958356044 0.038955250782667 
-0.004351965937002964 0.004075817104634071 -0.01133213028726492 
-0.009250730714324638 -0.002519713634713596 0.01918045049585488 
0.01052466930425644 -0.01157632354159173 -0.008084993025003271 
-0.01799269331477198 -0.001807589763175715 0.01919287725311266 
0.01018550939111072 -0.0109505159441176 -0.008316921638344866 
-0.01261944568068457 -0.07507693182539966 0.09981589847340717 
-0.01292926003936687 -0.07623782642344755 0.1018373346679733 
-0.007379715987584449 -0.01310364746305331 0.02384665660476329 
-0.0007021179575841061 -0.00442547450759632 -0.004622944016336453 
-0.02778719518963357 0.03823101358203729 -0.03632499500125846 
-0.001331092323806194 0.007237007357825988 -0.009273440571944172 
