solver_type L2R_L2LOSS_SVC_DUAL
nr_class 3
label 1 0 -1
nr_feature 310
bias 1
w
-0.007078591524604749 0.04932613129772188 -0.02417883537919025 
-0.01231825077409871 0.05416409543231482 -0.01715217172140733 
-0.01509511565573407 0.04925122023493334 -0.02437839597174019 
-0.02315467169152262 0.025049076713364 -0.01868845070890281 
-0.01205927497971257 0.01993561384225243 -0.006667319972811708 
0.01980830280279937 -0.1090161029178909 0.0541671622750688 
0.01955821714688103 -0.01417361041033407 0.007037484858894574 
-0.009508993781346283 0.04620112922985359 -0.006819003640863132 
0.0004168065181362545 0.01453786157690515 -0.01031503841745545 
-0.02989149293833091 0.01772537383194086 0.01052548864483218 
-0.0005865590970065509 -0.06723515292590708 0.02796077697072614 
-0.003893327343227334 -0.03859131065435664 0.03181431140531319 
0.02304524688560507 -0.02624941400424575 -0.03119987524590288 
-0.02227241033273317 0.0105980925911485 -0.02004226332465061 
0.01334637751269704 0.00433858913893925 -0.009185061505606659 
0.006114285355968228 -0.001598542539439256 0.002775137782850037 
-0.00706186103206632 0.02688681365933194 -0.02591973375093678 
0.001654347243316471 -0.01498571585975868 -0.01281643770981356 
-0.0007565049653074903 -0.01859456329095442 0.02610814664212935 
0.007436337691096299 -0.03518928296981459 0.01477005056276473 
0.01855689510115794 -0.0377243378309732 -0.008518184477743582 
-0.00291029217172041 0.001722616764171027 0.002037723267506826 
0.006614524430312112 0.01006812341381208 -0.02229757346144016 
0.005894890816357567 0.03236099032285353 -0.01023735371830816 
0.00885073821451968 -0.01531449153153125 0.03614029641969892 
-0.000236021326205114 -0.01429020224896095 0.0296439776359402 
-0.00918350407101763 0.007217733008524387 0.0005406492057565689 
-0.00472487294746945 0.02633586799344536 -0.008949623642594454 
0.009892234707935542 -0.05565901522076482 0.003651029056039231 
0.002446159943845257 0.007678274205306377 -0.01285017608216663 
0.01687176975272712 -0.00695338739808244 -0.01179328807000742 
0.005900090442688253 -0.01733673596680679 -0.004275584410510159 
0.0006505561039477577 -0.02017951155531142 0.02255706945368667 
-0.01321226575281256 -0.001141548288666507 0.02697184299671365 
0.03120969367370255 -0.05783814449943775 0.01482013777916545 
-0.01695723592452249 0.02832019307327546 -0.0053305192360756 
0.002090233617072538 0.01615251168672311 -0.00690858058586917 
-0.01274605595011037 -0.03514835645914467 0.05809248847874035 
-0.007648765289464543 -0.02663510356096301 0.002869242784703609 
0.005426380262004185 -0.02691108705756183 0.006235286613184894 
0.01157896130704021 -0.06636467079605171 -0.0008464165277265397 
0.009891371323535819 -0.07910529769648347 0.03353238869549652 
0.003604200213111545 -0.0513902954509563 0.0254724833578515 
-0.006729702688937151 -0.006636350147787692 0.02729616066930317 
0.002916020322937756 -0.0343435184397896 0.02742364380318639 
0.01014428426104178 -0.1078502640513828 0.07921094682060034 
0.00113745748708645 -0.04448978073027311 0.04140587842151205 
-0.00275275041494752 -0.03512575140143044 0.03269881883359788 
-0.003550033006338892 -0.03154672544415247 0.01753546034419384 
0.01160607208153677 -0.06639427124697153 -0.0008562809001671738 
0.0002691051463336846 -0.06563288422754954 0.0487291364434168 
-0.03023272915750102 0.03825833288234996 0.007200893936884886 
-0.0008713303460626872 -0.04300400048083394 -0.003093237628855301 
-0.01696121328526054 -0.02791600533998159 0.02846365886995892 
-0.006941236009371408 0.001054745339666593 0.01551742940120295 
-0.006592995986815267 -0.04763679150105345 0.0289556560003805 
-0.006692090295690973 -0.04768525884130855 0.02916145244594202 
-0.008631325522025352 -0.02452343817439218 0.03298518389889792 
-0.02297277428884761 0.005959236777735982 0.01779421738752366 
0.01282698316893384 -0.04066640758478331 0.03699955309152706 
-0.006646416804672724 0.001493620816206376 0.01511566122873838 
-0.006358323753410742 0.0004579345945012653 0.01598105722943542 
-0.007385911332970063 0.0445248376644292 -0.05324630705919246 
-0.008289499246745968 0.04502864598155156 -0.05159480883423983 
-0.01199996324092144 0.05692676509688336 -0.05812463188106447 
-0.01719911340570367 0.04250451520888401 -0.0427069215481501 
-0.01566262499589985 0.03764760347260183 -0.03700949503733704 
0.0008155684959282462 -0.002765969728776636 0.0196781713695925 
0.04050275506074499 0.003655529830060348 -0.009232315278876749 
-0.02756213876691709 0.02532263198429962 -0.008665336958487341 
-0.01278253185033278 0.03269089027301512 -0.02726655583678162 
-0.01622007809323379 0.03771737586353446 -0.01864187383867526 
-0.0181509858720069 0.01662996621936122 -0.01387702384762448 
-0.01278361566758798 0.02249910490502691 -0.0322842400371864 
-0.01039392528452922 0.03599239040336474 -0.03666585232034716 
-0.00871192661436546 0.02804528960979886 -0.03306506156132479 
0.004667359363105797 0.005288704540568177 -0.01262627030805386 
0.003218591261750189 0.007839601944147899 -0.01358448752785286 
-0.00286601009813131 0.01386681761873675 -0.01370423743911259 
-0.01218436412988128 0.03001131836406141 -0.01761246302857499 
-0.009779498075269137 0.02697677186112734 -0.01298514954864018 
-0.00662980308651633 0.01775549642605662 -0.02146448570555674 
-0.00681807498436434 0.02900251919322592 -0.0253444940601157 
-0.00466594537743154 0.02425011320194222 -0.02179991888390013 
-0.001381226050543075 0.01539871392702897 -0.01435580156122927 
0.005833236878385962 -0.008748194151088051 0.002719088908031865 
0.004292551892027101 -0.01061319374530125 0.003835101971295707 
-0.0006812675651960554 -0.0006328252453712682 -0.002937986885555803 
-0.0007988321513560392 -0.00509455793743328 -0.001238528721153958 
-0.009812024769409955 0.01917915584220652 -0.002421190951723503 
-0.00616918914341712 0.001995705557949978 -0.01306286141354864 
-0.004306376831886454 0.02072638300926357 -0.009824680539475888 
-2.91053224681621e-06 0.03633603441891156 -0.02296690890446459 
-0.006726605911797139 0.0294356798510079 -0.01119328902526684 
0.0009878036462558108 0.0007881587919364489 -0.0023151741743003 
-0.0003067608504683572 -0.004136646909646177 0.002535284002802983 
-0.0001312250709468019 0.005790806681561687 -0.002169731584601653 
-0.005925872497388929 -0.004746623001514502 -0.008557488638491588 
-0.007259965609810646 0.01248233334374454 0.003497894274428699 
-0.01031176734051939 0.02134804981973621 -0.002510024437743779 
-0.004559949649518918 0.001824857980560071 -0.00766619976085325 
-0.006073747986360365 0.02704453442388513 -0.009174244885655897 
-0.006092956615609398 0.02626034948564726 -0.00533834282213459 
-0.00243345889602164 -0.003178951058780639 -0.0007473034492322939 
-0.003684327437438532 0.003372144380221697 -0.002247975368462718 
-0.007593284769589453 0.01210873988502576 -0.005468446466988255 
-0.003158803280431297 6.696640108230865e-05 -0.005956536098980274 
0.002261385731962364 0.008458195075043744 -0.003156608751837104 
0.00137819626769995 0.0005542874284679397 0.007109077127833118 
-0.004062055302275928 0.005290116416978501 0.009217734320270626 
-0.005702070753770835 0.01346228285321157 0.002205586815003244 
-0.006181721280394386 0.02652213511689732 -0.005326129051928561 
-0.01093506108280101 0.007578709902965803 0.004542785676285339 
-0.01402128787085324 0.01493122534919065 -0.002520048877280948 
-0.007919958373214242 0.01640336164746612 -0.001179704927901463 
0.00626171095676802 -0.01677925831381817 0.01203917869110167 
-0.001590015938030054 -0.01401358142487205 0.01765641753821006 
-0.007444271464763693 0.004698975020343969 0.0081289127239258 
-0.007262661212958523 0.00328004364287076 0.009268781324055347 
-0.009355779497988914 0.01793791043493798 0.003973687912250863 
-0.004280886509467586 0.003285211020424367 0.004801584489692682 
0.003980066066887907 -0.01426337537588387 0.01158423944421378 
-0.001364750417024371 -0.0134330146801906 0.01702744704726449 
-0.00146623494633486 -0.01314468916411539 0.01718612626202832 
-0.004766748753545143 0.03703477690263431 -0.03320776675508479 
-0.004936833070181545 0.04107032938072026 -0.03759678173498885 
-0.005433010054930539 0.04286906582755341 -0.03667703732144788 
-0.009393066987875216 0.04217523167904474 -0.02757877000259649 
-0.01093005377357632 0.03887179349658198 -0.02711856984461718 
-0.01129778022730065 -0.008508014373512172 0.02303930275956953 
0.05741191231309081 0.01711461608934155 -0.0198635418651408 
-0.05608797222453402 0.05197233585536177 -0.02626695342776008 
-0.01273519674112625 0.04368140740668199 -0.02472897306410083 
-0.01604498103188451 0.04353976079006619 -0.02134970289964351 
-0.01394267358165202 0.02889529550135007 -0.006550341992859574 
-0.0139697306314661 0.03735445067326351 -0.02150335691637769 
-0.008619155460407256 0.04250091796820154 -0.02328582723917732 
-0.01142296966925951 0.01633522051352775 -0.01727036729395887 
-0.01252332987817713 0.04282809897557839 -0.02077335408986229 
-0.0147922369728947 0.04564764793460877 -0.02297956409568634 
-0.01995363865617729 0.0502374122019414 -0.02413365429294242 
-0.01933170955257519 0.05528043669154487 -0.02391815877552129 
-0.01833905112173276 0.04923118194530433 -0.01988749959625446 
-0.01089347056693509 0.03452199573576495 -0.0177049840248499 
-0.01150897139463887 0.02359462568337569 -0.0194921671015597 
-0.01221070688591038 0.009487622003674073 -0.01135414041020589 
-0.002736621969226197 -0.00238253455957287 -0.0121375798974466 
0.004814850487501333 0.01216220602170797 -0.02105752515518256 
-0.009189152491935587 0.03093508584539737 -0.02480950444991143 
-0.02018036135487132 0.03081346825165166 -0.01297273944756091 
-0.02040946200782177 0.0385875319287653 -0.01581598302176109 
-0.01166245937150395 0.01380966293492253 0.00287976588760239 
-0.02397595850840492 0.06610346577903091 -0.014730814479427 
-0.02521734274881754 0.06392050135707908 -0.0137151666005525 
-0.01428359574141223 0.04526830231752198 -0.01338725196457675 
-0.001942769101595754 0.01344870291846057 -0.007762292565760186 
-0.01258525281900022 0.03202565226976167 -0.009159862319524533 
-0.01318992069239583 0.03390485200741009 -0.01684332152699486 
-0.0160019252559117 0.01733329400694898 -0.00461472735462767 
-0.02005667691420105 0.003260924653564229 -0.002036215749889045 
-0.01604923968146725 0.02174580641448476 -0.0005852298467314828 
-0.02475303434840178 0.06268961997936648 -0.01958642361607228 
-0.02432067951646202 0.0558392137821896 -0.01580968694297701 
-0.01645301750936307 0.04428628208640121 -0.006932970095313173 
-0.006887472032554923 0.0228079908677008 -0.002668287093479753 
-0.0117069031750418 0.03113889183686861 -0.01018303301397288 
-0.003740771147762892 0.02277100342527337 -0.0181503489255075 
-0.01615427933587481 0.02001504230030821 -0.0112929234712031 
-0.01339995494987528 -0.003783977524014811 0.00199763477459862 
-0.005725482377754743 0.0006823065847519059 0.001786512923262787 
-0.008460730984862551 0.01556825929419063 -0.002429653770116042 
-0.0183462680563484 0.03976376951689599 -0.00393803070603458 
-0.01146294123959414 0.03323042783728865 -0.001513366781788877 
-0.007068986740450038 0.0238262700682417 -0.002747461307177502 
-0.004752487058991983 0.03005175475942059 -0.01333467746573861 
-0.01253153948088551 0.02978901975133558 -0.01370561435053396 
-0.01417643429344044 0.01651362507590672 -0.003491281566204955 
0.005472288147941523 -0.02086204707451069 0.005122440303997913 
-0.001281666371253243 -0.01473412079779104 0.01680966888583399 
-0.006693240407118532 0.01161273069704059 0.01191895431207676 
-0.006921969858178169 0.01087391085858868 0.01214174232164593 
-0.01025743617191531 0.003058766794103964 0.01527565546154163 
-0.004844209729103269 0.004688767402432477 0.006859545489374634 
0.003265770760050873 -0.01925595808760234 0.009065355753338264 
-0.001471332721003182 -0.01498969401559637 0.01714353283510236 
-0.001583228287308056 -0.01531725653391343 0.01741998745994262 
-0.01330101600907424 -0.01802935427165453 0.04126623957967815 
-0.00622997187827453 -0.03499191286954446 0.0286323139750516 
-0.01884050106222733 0.009628156409544253 0.02037938733584668 
-0.01292382249993226 0.005493627583976712 0.00447051861219389 
-0.01099586139495363 -0.004955607281218075 0.006679059665994594 
-0.01768000977754404 0.002390110900717898 0.01889269864221648 
0.05657778296958366 0.04245412213092866 -0.04691542340997019 
-0.03037559405186947 0.02662327884596975 -0.01287202621925243 
-0.01185334939682215 0.0128489838536889 -0.000668161334792498 
-0.0149649608592512 0.0160997092756486 -0.003013163661000747 
-0.0112625744971576 0.009450578750608864 0.005012907250854559 
-0.01091476358130252 0.01465609382139561 0.0002355588516730977 
-0.01347810898916587 0.01435607613936812 0.005160247666035511 
-0.009192537592696377 0.01236956046612256 -0.002264615267519847 
0.00204380712806523 -0.0016231342765948 -0.008571729345170954 
0.00732981009832943 0.005071684587070159 -0.01083844383680506 
-0.004350540192347967 0.009793834963985788 -0.0007894343134406392 
-0.01243528100514218 0.01328155419864437 0.0009234206591854589 
-0.01410404012499079 0.01876679434827027 -0.006674855270433956 
-0.01056977862772854 0.01433697790744737 -0.00616760445488256 
-0.006812012310476798 0.01050459121814611 -0.004371123535927148 
0.0131745122329708 -0.005062135223638228 -0.0127517160961924 
0.06322347287709072 -0.06428852809019418 -0.02843462411696189 
0.04098138552678721 0.03305013961175228 -0.06803463899607744 
0.038821515457015 0.000396821277549495 -0.04843474092276908 
0.001931286518076224 0.005453444506240341 -0.007792258354560268 
-0.004949427161141728 0.008410039320691393 0.001014333460776886 
-0.01341235076412639 0.0200040426434154 0.006374706085711131 
-0.01217351850770754 0.02143883371427685 -0.0009264675872247104 
-0.006475211154239305 0.01815526665285044 -0.00389157008605309 
0.01175461823510875 0.001005032662038372 -0.006561854285445391 
0.06570244218886273 -0.07943130807665175 -0.02088601846138996 
0.008478684268598678 0.00555818583636287 -0.0197163929088199 
0.01346448154080966 -0.0038029651381289 -0.01933301633489799 
-0.01154111262602936 0.01392100002708758 -0.007100087767349315 
-0.01526472245613014 0.01263744844290431 -0.0008295189571845258 
-0.01638904250817849 0.0214347934666056 0.009146049008973315 
-0.01233553268771345 0.01718963635603827 0.0006897602726681238 
-0.009771322172546393 0.01550498929349385 0.002321681879883766 
-0.003498963312318797 0.01344898322778408 -0.0008826507019527096 
0.005363299810000187 0.007673149137665434 -0.003984545607066907 
0.00473809676674475 0.01407219647662836 -0.03278695631676227 
0.01092953812185813 0.006274672055550142 -0.02252739263835197 
-0.01376556103179967 0.02358302527576304 -0.007659693391041421 
-0.01533795665067834 0.02313221197439257 -0.006166835362275636 
-0.01219865170709942 0.02552228103584741 -0.007966279690378058 
-0.007272694126432199 0.02116162017701327 -0.007751185454158931 
-0.007732821227493429 0.0202254898574484 -0.002199665279487228 
-0.008527858665537081 0.01489131955291495 0.001727912900183752 
0.005443187138866187 0.007423377705838541 -0.004061328942820849 
0.02009799076316308 -0.001968048913589899 -0.02227812600855959 
0.003569613798366047 0.02512103380401427 -0.0203131547393937 
-0.01775580038744182 0.04003373206707302 -0.00837057757681752 
-0.01172503883816244 0.02170829687752509 -0.008136728105577805 
-0.01176790413356497 0.007703330136447639 0.00869035527017897 
-0.002769912977582152 0.007673042032282144 0.002266346737845377 
-0.002542371457826648 0.007315901276513093 0.002378818118141511 
-0.01990085832237802 -0.006135281413044127 0.03794707194244798 
-0.01485075542584211 0.02270184497663816 0.01007577819806249 
-0.01179901346463434 0.01877806216865074 0.0001754429505344709 
-0.01162964198703741 0.006774355086315951 0.008836888577785048 
-0.01161100890410808 0.007147388562493515 0.009281225037891984 
0.009005626349026892 -0.0790841701935712 0.1090868958247194 
0.02928899698017148 -0.1744791048679076 0.1303036768741213 
-0.003186551910666349 -0.05276799809460032 0.07315180968664307 
0.004230195097698179 -0.04160834841720769 0.04453370980282104 
0.0004426410465331168 -0.06404457068251866 0.05100330175380433 
-0.01231595948890022 -0.003450664214570022 0.02269524109810752 
0.05758100435085078 0.05879235924317307 -0.04911293828302494 
-0.05272907031996176 0.0361446284514698 -0.002177993212703452 
0.002777875620720612 -0.02572015683656208 0.02479988094858882 
-0.01499351539139744 -0.0109849912394984 0.01918860892039957 
-0.008327104662149122 -0.02125733412667051 0.01789051253578768 
-0.007088799350613266 -0.006774764924603753 0.01551066731010699 
0.002803356207333513 -0.006709932519816858 0.01616676515508766 
0.00770936391330927 -0.01488605720954249 -0.002579729424423579 
0.04352685823205414 -0.05280633251184536 -0.01056728920743025 
0.0466913879200219 -0.04090941665011209 -0.01145276147066357 
0.02978203969780803 -0.0375391007524736 0.002864147255096312 
0.005441639847836445 -0.02248272587738976 0.01102388547956423 
-0.009327777426868871 -0.002848119315371512 0.01046228653017724 
-0.001955606369482589 -0.0007258298788003246 0.005335114267450913 
0.01473601451525315 -0.01040449253459554 -0.01446077166699995 
0.04753328979786277 0.004918215288923053 -0.0641914012751537 
0.1174898762797433 -0.07626179253133603 -0.08420793043235325 
0.08645359853147816 0.06844083990089317 -0.1171803113717765 
0.08603042681591358 0.003806198805802902 -0.08887753387376489 
0.04370208200827702 -0.04047217601446573 -0.0153383705565468 
0.01320919391876755 -0.01499280010551123 0.0008347388599237265 
-0.01142268395143687 0.01848063993645005 0.006540915012160167 
-0.01064248934232508 0.01947735404831099 -0.003292503808292228 
0.008987913127822536 0.002136248418694196 -0.006398461492726584 
0.05081334294068735 -0.0132913703817551 -0.04249827786801402 
0.1087825894189748 -0.1062260003770063 -0.03702372480756091 
0.05044984237133068 -0.01840420161859922 -0.03729770663069615 
0.07067212564340809 -0.06584324132756991 -0.0186521388897351 
0.01839465773152183 -0.01980511248190063 0.0005998248585492778 
-0.002466490373252327 0.00540313182084089 0.003233638476985401 
-0.01251644297002169 0.03722100139669237 0.001975406654042698 
-0.01309810218356506 0.009920566602681846 0.008763322924381849 
-0.0008869485841361273 0.001141403796485668 0.004627314483363064 
0.02983899124443182 -0.008663452657062247 -0.01122759906444699 
0.04801755909300974 -0.005698491337377811 -0.0146658773810124 
0.03741083093720261 -0.02647603727404236 -0.06036887617479361 
0.06281861821745938 -0.0827035736279591 -0.003720402419982827 
0.01816842895996425 -0.03382919287243683 0.0105255877941613 
0.0003455134943203632 -0.00686413797495877 0.01221113399503926 
-0.004232275323383172 -0.005273132523227861 0.01530197928049045 
-0.002881855929119551 -0.01437481575331757 0.02151006909935222 
0.0001981792256702847 -0.01605725652885384 0.02298038927783704 
0.006318948175781685 -0.02533639831915352 0.0219414661889765 
0.04758839759069405 -0.006200583354494029 -0.01456429896803643 
0.06597352958968183 -0.1126320011898325 0.02255688923416094 
0.05024635271464107 -0.07598326199976022 0.01240726596886079 
0.005987293448868448 -0.02008287211026506 0.02021185334736831 
-0.00459136862668579 -0.01857928213552022 0.02651298370497385 
-0.001433618298552349 -0.1256965862037777 0.1147531620057956 
0.04246568783859067 -0.1406595965221586 0.07682516165752767 
0.04223745786415498 -0.1393151930241879 0.07558138977996891 
-0.03287726785759704 -0.05954472507104917 0.122811726634515 
-0.01121102208816979 -0.03582960480196661 0.07540236581051062 
-0.008599817185254171 -0.04242825763723748 0.06194570454737237 
-0.00154576768154983 -0.1258797412481258 0.1160210453769913 
-0.001165132709388241 -0.1274976912115549 0.1172557899051042 
0.00342114715944285 -0.01016585267088379 0.002082637157630149 
