solver_type L2R_L2LOSS_SVC_DUAL
nr_class 3
label 1 0 -1
nr_feature 310
bias 1
w
0.03592350312493147 0.05771241499432694 -0.1377280705856233 
0.01246026544662012 0.0630374770256376 -0.0843676172417461 
-0.1183911540198042 0.06399943707686197 -0.02345532371943651 
0.01202180102766236 0.03312336480848228 -0.07821318487875882 
-0.05057113688948243 -0.02196465546079755 0.03994164619477336 
0.01272792586363159 0.07400217857556592 -0.1370247878676148 
0.175283612779673 0.03396879789499865 -0.1668177867826784 
0.08333171474961902 0.01862992998204947 -0.07948077337752532 
0.008872430641131386 -0.069990336702887 0.001833404989830659 
0.01363420723477122 -0.008198221742050857 -0.04008014743481047 
-0.04159708687151372 -0.02057404079556095 0.08392191282257827 
0.01643275377711945 -0.03030276340700621 0.05642903359563187 
-0.1002488231022981 0.09186122643693674 -0.01124868959165505 
-0.03850747412154541 0.1018772486042095 -0.08336558662798059 
0.03213906907669221 0.02458630835276726 -0.04419927942685196 
0.0009297381755267596 0.03477223527540513 -0.05540555034508112 
-0.002613859706235503 -0.04118572297545359 0.06693527132743483 
-0.0788561979275829 0.02348465141755286 0.06489499642990404 
-0.1965555261487607 -0.03668976246237853 0.2245184865626824 
0.0026609574149232 -0.03526394769203896 0.04674695932397708 
0.06320349170820033 -0.02483830481384186 0.04040304342472414 
-0.1058694693385209 0.09419407181515446 0.05535388218517768 
-0.04275739613870898 0.07022707491181288 0.003935024993895296 
0.1763168224348483 -0.000935418126261632 -0.1746225456421741 
0.07339419136601007 -0.03660782936159283 -0.02549138369993181 
-0.03011683665531216 -0.1409343637840502 0.245854001714164 
-0.2571051537340796 0.002129711025441187 0.2271005507522897 
-0.1072398221757058 -0.06485630989776346 0.1725313800969522 
-0.2474327279404079 0.0196414735035127 0.2128253073094414 
-0.1439248346112844 0.007507599415030532 0.1917762281252854 
-0.0698589272105833 0.0727569798899485 -0.06866964560088339 
-0.07386021441643949 0.03651363285311524 0.07289377076262593 
0.005461046396910369 -0.1082051102444468 0.08355385220722911 
0.1428704360492659 -0.1127562591256578 -0.04272942916121274 
0.06806435257562402 0.002742248107628598 -0.06238096960795102 
-0.08700146112889713 -0.02921684911799263 0.0664574074443889 
-0.02419458451964994 0.0623293358515186 -0.03644492305297572 
-0.07004664678413416 -0.03577945759326226 0.1295488005353524 
0.1166104442882892 -0.01595896652146851 -0.1154018137010894 
-0.03113110749893374 -0.01541710609492929 0.01844351232640672 
0.1223604980047423 0.000809134698961062 -0.1298925356414011 
-0.08523248260208661 -0.08258988366991904 0.1978815323936138 
-0.06855402527698658 -0.02676727644112814 0.05462265573086603 
-0.1018460210465049 -0.03530341947515574 0.1153711924192758 
-0.03291163149115957 -0.02629471410764324 0.07162805329826037 
0.01388591232413052 -0.02839993857412612 0.03861487260385607 
0.006786983752969049 -0.02095140618072377 0.04474132285244527 
-0.01501871309274926 -0.05029341587770515 0.06581574907287523 
-0.01672815807871777 -0.002555818342021354 0.03960807506876716 
0.102511140646136 -0.0007028514975286092 -0.1177520771263884 
-0.05104724782993422 -0.03578000193884983 0.06862347324711694 
-0.05214475142899155 -0.03589634710917829 0.07002854587839955 
-0.0523741367549302 -0.0351350792883696 0.06925823365811501 
-0.0142887087456607 -0.02164926432342886 -0.007321343170512486 
-0.07217411898622753 -0.008813772613352162 0.07154168781256298 
-0.002590338040503035 -0.0287872953063447 0.0316971813365412 
-0.007189326885730722 -0.02753844133027017 0.03435461345576452 
-0.004961282078687981 -0.007818902392101762 -0.07755162537543563 
0.02897395518898845 -0.06651792087552787 0.0928960789089982 
0.1000474448866311 -0.06828770292915752 -0.02748603161239737 
0.02315590073644952 0.005340562091566045 -0.07551736686186489 
0.06702945653703951 -0.05110403247690892 -0.01469950470269426 
0.02666358153950214 0.0789183627332731 -0.09403297902811286 
0.01195239745590059 0.1023698354572849 -0.1196641292927421 
0.01842773016562925 0.09299269660073735 -0.1271513095563815 
0.01029193796403681 0.05757812227223653 -0.06480121917181723 
0.03317929475394478 0.07242348328981089 -0.1145059493749998 
0.04755158966984169 0.02053980567564137 -0.02938183776476311 
0.04418753215350878 0.01836156982980921 -0.02929506165272954 
0.02104017725647669 0.02071086603103153 -0.02827670381822112 
0.07182481229387977 0.01300551530307497 -0.07923245011699893 
0.023340752256709 0.03471348012779022 -0.06411700057018187 
0.04526474305684124 0.02658973303731388 -0.07506864472442618 
0.02090221318662128 0.03877413190651278 -0.06467406551558522 
0.006051910944650093 0.04322619322434904 -0.0486149645395124 
0.01440316477040072 0.05276303504007541 -0.06167560624328932 
0.0490739519121272 0.01022448752806714 -0.03449988803747202 
0.06180036338456282 0.005700418554590936 -0.03230929903837384 
0.07633139183406523 -0.002695247934573135 -0.04008429112174988 
0.0584517698351262 0.02435848572330254 -0.05668431034871851 
0.02696623513762229 0.04010178013586756 -0.08422567913450879 
0.04592454117899911 0.007511150719263546 -0.05103124812076884 
0.009138926765939434 0.02043355729082394 -0.02643799261915439 
-0.00161771978998298 0.007916944689380251 0.009509501899843091 
-0.007427862064334559 0.01879304109670477 0.004866570061558389 
0.05042754856919148 -0.01819452384849087 -0.02140475716831322 
0.05734285438409601 -0.01269202435519353 -0.02885165896693275 
0.04701973767375896 0.001051154685642129 -0.02870456708344097 
0.04308138718988388 -0.01932590736836354 -0.03379155385428598 
0.03705844105805997 0.003467005754208271 -0.01457796143352195 
0.007697044184551888 0.00126938853610422 0.003251913844831558 
-0.004053864700910383 -0.008781527793583262 0.03112353203687093 
0.002608958612203754 -0.008495525990730552 0.01543594713659945 
0.0003335855288008516 0.001319316833809943 0.004744757078848853 
0.02958403322365172 -0.01933602413988885 -0.0009737455093653145 
0.05972479672339738 -0.03445157839667731 -0.01152433828804707 
0.04409843223656568 -0.009181704794489539 -0.01997209089370937 
0.02847086193401305 -0.005650183452909362 -0.01185916843139874 
0.01934661501634881 -0.01477842161580308 0.002340083268982036 
0.07676457984112579 -0.02537471852623708 -0.01601852131555819 
0.04437231800194254 -0.01556495884392419 -0.0172970765807079 
0.03521238011940969 -0.01421610419245988 -0.01389332092368208 
0.02526160608657225 -0.01975429285522749 -0.01287929752328856 
0.04155483901235448 -0.02882072411600211 -0.0003232579798510448 
0.04972579610665516 -0.04146206218634919 0.00647822472069763 
0.03578245603892629 -0.02122585393609689 -0.00713925569666215 
0.04545240410175668 -0.02914120119933971 0.01631196872340713 
0.05247533497109991 -0.03149038921633219 0.01358049024104678 
0.02916186798145926 -0.03607128572006348 0.02656123484835585 
0.03970831195323887 -0.04570488505008054 0.02932973358364571 
0.04061236137424043 -0.04144287142247733 0.01662673687249771 
0.01773531130929085 -0.03414038162614753 0.01923299390987019 
0.002069076053981406 -0.01796370133477015 0.03167055812372744 
0.0004331372613358758 -0.01685138481439001 0.03083710407471005 
0.002434654177579588 -0.01779121551289407 0.02975103318967162 
-0.003924158327388354 -0.02556307739143933 0.0540414329156546 
0.000918704292720797 -0.03259232557354054 0.04973840400825712 
0.02466015103150639 -0.03902006386049672 0.03074900401362685 
0.02211890902142995 -0.03792469803873259 0.0327779874229062 
-0.01068487062718357 0.004986766498837891 0.006177970946845537 
-0.006108296821768213 -0.007548999323227067 0.02362707734353487 
-0.01580909793160573 -0.008567720562473674 0.03979413413776094 
-0.01014250041349078 -0.01089480006444202 0.0407948284962588 
-0.00417455587951292 -0.007864383321471992 0.01490438460849907 
0.04552014300720602 0.03006259006860558 -0.06349350920672171 
0.05104759518515984 0.02752076384035963 -0.07200480471112621 
-0.009709909791151355 0.04019130602769774 -0.0485983329370645 
0.005766203132899147 0.02533506702604896 -0.02735167644922681 
0.01872929894908403 0.02546949747990715 -0.05439308403561059 
-0.05589662430707656 0.06441710049797296 -0.02369790918444407 
-0.04689288103487003 0.04361464593771534 6.412521459301407e-05 
-0.01950896857400502 0.03382183162965591 -0.02265157420170207 
0.02246621617470368 0.02736901957488565 -0.05661356236773276 
-0.01166543405138989 0.03142137591766967 -0.02866894870414017 
0.02676385596532351 0.02821646990364616 -0.06608025018663785 
0.01077014227328698 0.0163324753573737 -0.03898650285509967 
-0.03739047057108005 0.01489134862835776 0.01071264007681845 
0.01073763448259632 0.02637008658365589 -0.04024276847723914 
-0.06353297585489281 0.04826027027013502 -0.01756298235820128 
-0.06333579691756859 0.04906002182531817 -0.007102117786987956 
-0.03163214387625301 0.04829392594150856 -0.03126556426591365 
0.005515848902610568 0.03102925798427724 -0.0417120521627156 
-0.04779830031026566 0.03513855686386007 0.006757917314718949 
0.02245199196086168 0.01089580305113493 -0.03354311957322279 
0.004105240226779503 0.0215753776975865 -0.03241347741816304 
-0.01703777531179038 0.009267451627995128 -0.001150495880054954 
-0.01714214647777267 0.02183132313027716 -0.02568508845902902 
-0.04657255819636579 0.00269244095332406 0.01387692933313752 
-0.0837522864193856 0.06922592569159731 -0.02257594697388925 
-0.06745613001600473 0.05959007910752587 -0.0219703849953457 
-0.0224131758671213 0.01871854897601819 0.0004548207173136154 
-0.004585595625304216 -0.00252113818099706 0.02146176341998556 
-0.0150041518023242 0.01695326380755329 0.001736947649522909 
-0.04255650698956707 0.04229475821415794 -0.02725547699661068 
-0.01271951496445158 0.003879843809772621 -0.005999436904749752 
-0.02306549459057633 0.01202592021960182 -0.006944485354689865 
-0.02627421155402368 0.06303653207499496 -0.06620177152414908 
-0.03380511465348773 0.06932545624498573 -0.07278735550232389 
-0.04231189670504402 0.08156347207696965 -0.08276797913994914 
-0.02142483799770929 0.0579331387026399 -0.0686452909891558 
-0.02837964812540345 0.002685576721784514 0.02769356161034343 
0.01467065296373277 0.00848663090027217 -0.03327687501416361 
-0.05167467394638545 0.03385122979360215 -0.01836858020677457 
-0.06161192592608303 0.02827672095464005 0.01122500310781434 
-0.02846977737065475 0.01149239245922469 -0.01050705181639842 
0.01891163073438967 0.04466338334599536 -0.08486902788024837 
0.003342665348067438 0.04948691230584033 -0.07796218584396256 
-0.008393020876658157 0.05861601953092854 -0.08091052967869292 
0.004652284564685754 0.01718664272963372 -0.02908876121290988 
0.02307134284059625 -0.02174976304544789 0.004447507366302066 
-0.006856080858986548 0.002660871934009171 0.0004678065732961183 
-0.0131861390277479 0.001922854282257386 0.004013509375830865 
-0.02306696534857715 0.01010748529605227 -0.008718581651138545 
-0.03122073002263249 0.02725350376096361 -0.005738758000996087 
0.01119440267371728 0.03042779882995201 -0.04592529186959946 
0.01155619492519246 0.02956513735805641 -0.04346395553477709 
0.008944651701116727 0.03020097613953256 -0.0431378589773435 
0.009208410367815667 0.005148747615818799 -0.001669587042035283 
0.01326134707114459 0.005803652581730891 -0.01271230818176311 
0.005576933337466123 0.01719196123204679 -0.02146178658522574 
0.004319499466489679 0.01709642446963098 -0.01847560132693491 
-0.0233874759230146 0.02296595093641671 -0.001212255960584521 
-0.01122597164121613 0.02508203289217899 -0.0123290490132959 
0.00143976740943924 0.0186291397164178 -0.01001825164727022 
0.01006801738055758 0.01707702945004391 -0.01694353052286772 
-0.01947709650614914 0.02427454254458642 0.006055597323182278 
-0.03784113163779898 -0.02227266750398659 0.06153015378818354 
-0.004306483446648223 -0.01481270097701829 0.02546161214298888 
-0.03967762206984164 -0.01692014410526716 0.07230520923037878 
-0.05431068290806729 -0.008253592262466166 0.06086346624438502 
-0.04388426232254037 -0.005064066600361779 0.05568817335108119 
-0.08423498930681633 0.05551445599677721 0.02344733035674019 
-0.1255896698986168 0.008230226624851629 0.1268416160225576 
-0.05220167568031944 -0.005751622508673494 0.05577625046040585 
-0.01551225254098844 0.006198556551662213 0.00221774359474452 
-0.05046312863854183 0.02643807152678071 0.01083696051832865 
-0.02752978401088897 0.0105068199238664 0.01635087391879084 
-0.04181701324356102 0.006463682579740671 0.0379885791881158 
-0.1103564664012682 -0.01836509104526673 0.1419473471417371 
-0.01684725487409305 0.0007840099802682133 0.01834366163594159 
0.04996182891456329 -0.0641602479620046 -0.01749203766962381 
0.03259102855480055 -0.0405160750395317 -0.02169970340797827 
-0.0120581790842051 0.009707687269459805 -0.02744688705707116 
0.002223366976279036 0.01766824690955534 -0.03162191513073347 
-0.1012123026025762 0.03745138777298606 0.04450653247445029 
-0.02758626296339855 0.006767012660668377 0.02534685495508643 
-0.005903057487319332 0.03893410042209348 -0.04723296510518247 
0.01744298710494049 0.005285096778873305 -0.01399377019217799 
0.02386173458729049 -0.006316011370559754 -0.01540895543109788 
0.1620310007450844 -0.1788589158844386 0.0577204589715846 
0.004257633309481108 0.001919734350552709 -0.02003689649966446 
-0.02757371653522074 0.03845669868960316 -0.04745680892089494 
0.01088949334601965 0.009282488204207528 -0.02874094739279734 
-0.03686379972781715 -0.004650897316691202 0.06426902435265425 
0.01876382047900768 -0.007755330711283513 -0.005330767825607854 
0.0563294099798133 0.01889813185644922 -0.1148947091873051 
0.1005841815012202 -0.04647319677280783 -0.03619979739515327 
0.1108818138766559 -0.03648074489928217 -0.05145028331854688 
0.00217236970310657 0.002568167231835523 -0.01445297842562491 
-0.02612214636632671 0.06228998824100373 -0.05602649914287828 
-0.01879549936746451 0.04710993982916459 -0.03868213345654218 
-0.005136598608426853 0.03250491775996104 -0.04233434202524348 
-0.03475117790026572 0.001009657919012033 0.04232852384877071 
0.03060069965429092 0.01614789608910881 -0.0445626581515336 
-0.02148365132434628 0.04924034476573365 -0.07252914722044654 
-0.04995540083127133 0.03479615032568733 -0.04151498565941078 
0.08752299554853413 -0.04088181893326876 -0.05216226319093333 
0.03369664688841877 0.01194542022796407 -0.05767220581162769 
0.00587759707135173 0.02085805119014135 -0.03013831434085123 
-0.02129141418521966 0.02556872322982617 -0.0106847813796644 
-0.01990129005502797 0.01138613820979721 0.009626482363643519 
-0.02556396294321273 -0.003725562991631826 0.03915498144256897 
-0.05423610758681643 0.01958166907207131 0.02517451029890541 
-0.03341665334400851 0.03322051978579328 -0.02868579783161179 
-0.003940724350000583 0.01520214550264392 -0.04021669952101289 
0.03160624734524685 -0.03136897935394021 -0.0183072591172629 
0.006609496762946449 -0.001107221590051254 0.002138345264248559 
0.0034857990211898 -0.0002071803235270622 0.002994750578504483 
0.002418205717430868 -0.0004510010788822581 0.003652438777121426 
-0.02184281431138795 0.0007726853977274924 0.02206878103515653 
-0.01364078150263305 0.01426876151090644 -0.01305874164157173 
0.008609812197877605 0.002201149561765063 -0.02709083150588568 
0.004987643317749218 0.004049227670363177 -0.02723226349135751 
-0.0358968164609989 -0.009083447570310623 0.04548487235216009 
-0.03007035837161219 -0.01363846807022442 0.04876287652081089 
-0.01923948177520862 -0.01516092523817695 0.03805537788431571 
-0.024184802126447 -0.004393998978935016 0.02718114619830133 
-0.01938301605961094 -0.01199101509687123 0.036139446687069 
0.01242233125663237 -0.08913564423389576 0.1060002526544317 
0.05742766342287388 -0.07051912782236444 0.04478278910885555 
0.01073783588668147 -0.06277966080965457 0.08096989792520336 
-0.004869647220753056 -0.08519359482414542 0.123600352675407 
0.01092098156605125 -0.04377760226744684 0.06132750115931496 
-0.04032619925494799 0.08264543800437291 -0.05622769317350036 
-0.1190224960660978 0.03104290924711398 0.1105305306178056 
-0.06045131888845329 -0.0062031710455164 0.08331499111306043 
0.03097385976322459 -0.03341275118492913 0.0212056402469273 
-0.006915123240067757 -0.001582817534848467 0.02464314837747924 
0.000997484969967285 -0.01828542454551506 0.04317951702345864 
-0.043129783127541 -0.00987595434521925 0.07171136260002133 
-0.1979576311642779 -0.0170398027239484 0.2348108209721588 
-0.08726833400768609 0.02843150649875398 0.04416984635542592 
0.1339076402947824 -0.08139605470424641 -0.09584241606033232 
0.07494405869013927 -0.0520949404209309 -0.05658003226337957 
0.005835126394663569 -0.01846601651399334 0.010207408402983 
0.04343725038440321 -0.01187782874212663 -0.02598312280532461 
-0.06572908463063774 0.01979462706765286 0.04763972381765377 
0.008711963308053943 -3.826936178576768e-05 0.01100217312781159 
-0.04266021254837243 0.1039686833697819 -0.09401193178046609 
-0.02065442178908657 0.05143551028663717 -0.03501533883906915 
-0.01291303460617955 0.0344149347795517 -0.02916655145670022 
0.158938815045716 -0.1623074493455978 0.04169797891801117 
0.03367207362892881 -0.00427753976971504 -0.03090687636158868 
0.02422772022207798 0.01470688697461051 -0.04762612908218008 
0.04591875973528436 -0.03132522374844238 -0.01463349197361409 
-0.047327420167686 -0.01522609334692997 0.1039888017369297 
0.06361011546572028 -0.01539521735001676 -0.02405803470585213 
0.07123410746124363 0.01044513267712664 -0.07544738337973356 
0.1401932532212625 -0.1032055013950406 0.03449122375987702 
0.08990383579851219 -0.04907728944846763 -0.0197203615554143 
0.04347117213146653 -0.0314507558569015 -0.02636557129913623 
-0.05128195052059904 0.1161854185510452 -0.07357345325664021 
-0.01390889212420003 0.05689137123366163 -0.03781548550811101 
0.01814888164911255 0.004167080306182372 -0.002168285789394055 
-0.003491498340645409 -0.008578133119483567 0.03203275965188919 
0.05994801232428218 -0.003180931522525541 -0.04454539937106351 
-0.02727793735582905 0.02800449664429432 0.006326948641048409 
-0.04964524541579395 0.006973704805440288 0.02164301670653125 
0.1145517557928937 -0.06208923366501449 -0.03523361067883086 
0.1059170122139631 -0.04100767494240525 -0.08448431799824853 
0.06203978479573641 -0.01565914973825898 -0.04341121624621586 
0.009846890442888757 -0.003955143555749108 0.002641287687771805 
0.02544175102819324 -0.02326887723395466 0.01700086947369732 
0.01781304743514735 -0.04330048979886311 0.05130821774115731 
-0.05089151252710516 -0.003933441749912467 0.05138394437580592 
-0.05351184331956771 0.0125233991484733 0.03740223442183689 
-0.04467332997472973 -0.01941822941954043 0.07632391708195868 
0.1903642989132555 -0.1098634499543899 -0.07417327385261846 
0.02437590844108632 -0.0315781362104354 0.01840349835449141 
0.02043885002987376 -0.03328956473539529 0.02429964772785231 
0.02671247950372664 -0.03187635841049084 0.01735269169379348 
0.0004695476604402522 -0.04831234065078601 0.06062090347710134 
0.002738787868696716 -0.04957979835388539 0.04998791402213659 
0.1153481041351947 -0.0902697098863455 -0.03828559457151343 
0.109242741178696 -0.08930305429691607 -0.0346333775712192 
-0.06094714232826223 -0.03018481499357517 0.08900043181578782 
-0.06926340493548101 -0.02545506000312607 0.1064682192186557 
-0.04460422450484849 -0.0624942247175844 0.1111768635724789 
-0.06842679055390341 -0.06407851841754138 0.1344780200870142 
0.02160037482634261 -0.05899547774606697 0.0446090624750332 
-0.004398784412072379 0.006478135749369643 -0.0140310836095368 
