solver_type L2R_L2LOSS_SVC_DUAL
nr_class 3
label 1 0 -1
nr_feature 310
bias 1
w
-0.05788918686048952 0.05853945070880497 0.01323643695587803 
-0.0460660535485466 0.09950858920554552 -0.03253921641881505 
-0.03679550396951761 0.09466432383516188 -0.0572567529229379 
-0.03971038172716169 0.03458856982202907 0.0001834961133622612 
-0.02329525257077562 0.03985452604924592 -0.01073615963391867 
-0.007518070592413863 -0.03926274014582266 0.01608299952527435 
-0.01405752132316438 0.01235339549425355 0.003313471799866451 
-0.01339827558724966 0.009548181407536677 0.005872242500419907 
-0.02648259167111964 0.06741061480795933 -0.01233445804533168 
-0.03396651798258107 0.09409374182288045 -0.04061675449408221 
-0.03682406190708095 0.1050765491129694 -0.05307132362611737 
0.0049412795933436 0.02168043797878506 0.004198605741406823 
-0.02037817069414196 0.048626835259951 -0.02273306618796888 
-0.01609692996280437 0.04591277165441978 -0.03093375911606649 
0.009618871456795609 -0.032280704247586 0.009467147479158349 
-0.00553330067911648 -0.006199358159942004 -0.01315052700459089 
-0.001451532569546142 0.08680109742396598 -0.08008328047385196 
-0.0004131180175632415 -0.1038131317142026 0.1150419494807943 
-0.03167176320276931 0.05622530027172604 -0.02503300208789569 
-0.02863451043523307 0.1248571046434307 -0.1122368733289656 
0.003471776805276524 0.03929473258258064 -0.04884335475786052 
-0.01121830961905422 0.05793156068919127 -0.04358877026034629 
-0.006679188053481424 0.03843705664813426 -0.05281355672501989 
0.01072431272707107 -0.1581215523843382 0.1291669908910947 
0.01629522477679606 0.03095042753319878 -0.02000010975135367 
0.02265190943725013 -0.001502335929135773 -0.01664574456482212 
-0.03594402172044876 0.1293983782658198 -0.07492998210690496 
-0.04883520603081229 0.08034987914014077 0.001824505501511449 
-0.01351586976773726 -0.029057243931156 0.001484739959019711 
-0.01025379128747374 -0.1036009036754018 0.1422843255878667 
0.01758730573951267 -0.06021219681399304 0.025156944745503 
0.01625971631354286 -0.02846630780864949 0.02122006933161067 
-0.01013827869234855 0.05697843642437318 0.02235499647329713 
0.008704595639897077 -0.05896659303517662 0.01498008535228099 
0.02779559781445935 -0.01070282768946347 -0.04167469608153421 
0.02629921652656351 -0.1334627959578692 0.160822171239328 
-0.00397787746839246 -0.1098453205352087 0.04104375410229739 
-0.002882555444859017 -0.006362521077381639 0.1068922008198566 
0.03356615455044406 -0.08566900665192131 0.1206156750110034 
0.002199799307446911 0.0268339492633639 -0.02463682526232969 
0.01295144912969341 -0.05458645421666377 0.02437736723870718 
0.001808225319077487 -0.06604123346655393 0.01668479597176483 
0.01131475339563249 -0.02741224067997005 -0.0117658788146132 
0.01238896229139046 -0.06163061379770799 -0.005657318185183612 
0.0196617405478 -0.06216826279991115 -0.00823050774213064 
0.01151364580639757 -0.08616495692713246 0.1321048747782924 
0.02797597553695091 -0.1872519698318729 0.1545622387971462 
-0.001489901962212842 -0.05696994357896809 0.06382645002963357 
-0.01279582522734329 0.04304455261437563 -0.01522649563101448 
-0.003415204484445168 0.04211927717156703 -0.03127290596271442 
0.0154145422834286 -0.02222873833836005 -0.04083521717644222 
0.01581708554415437 -0.02122129268387754 -0.0419566344190762 
0.01230558585298697 -0.01813123888832509 -0.03443643871320016 
-0.002736115778155366 -0.07624898371986664 0.04453531991679196 
-0.002767522188029209 -0.03513062756722191 0.02260192867743772 
-0.003889695539281483 0.04259217663017329 -0.0312762851370848 
-0.003690070862243563 0.04399166136840233 -0.03261620339796682 
-0.004763618045310124 -0.03224316544112486 0.0361257315829319 
-0.004730764829698712 -0.03126110814020268 0.03513192812192699 
0.001304611049373676 -0.04762543290283249 0.02796074395688329 
-0.002999412370609587 0.007044296391438608 0.02197560626284277 
-0.01070514674644161 -0.03675884570258649 0.1011294828229111 
-0.02283867646317514 0.0400401684834096 -0.04097838063968919 
-0.02459419095270585 0.0412528712058219 -0.04910304410195034 
-0.02444824985469862 0.03131715071938171 -0.03609587313913556 
-0.01736988341387892 0.03701180377523956 -0.03842905149370929 
-0.02071873437867884 0.03840481373293096 -0.03577798221497837 
-0.003866441935854705 0.00738906420296884 -0.02194470516824273 
-0.006776936562989932 0.01287061184333457 -0.01996861075565094 
-0.006772209420064898 0.01362570103047575 -0.01958225025337467 
-0.01268511816040335 0.03407802215827358 -0.03227648102694614 
-0.01461730423797455 0.0534796501492054 -0.04092676480658713 
-0.01520018831032501 0.04389291335538967 -0.0333716561194669 
-0.01276300153562225 0.03310676686982282 -0.0214646225240817 
-0.005490012191448503 0.005608918745423244 -0.001099396022925097 
-0.0005842429880108218 -0.0118940445498848 0.003283345731486963 
0.004191465840058556 -2.455221697056792e-05 -0.01429960359851913 
0.00181892628632908 -0.002245951745181951 -0.008636808447648301 
-0.001740607961198391 -0.003679121994006886 -0.0005423022392749078 
-0.004309168454954879 0.01620652588787676 -0.01808919709857171 
-0.01032211839142872 0.05209745872316887 -0.03099546307963212 
-0.00761267310955694 0.0381017013143063 -0.02748335256386517 
-0.004501231271992863 0.02003969384671544 -0.006706129652382065 
0.002861131073367413 -0.002676625255191431 0.003283451841260929 
0.007791881394734426 -0.0197429807778625 0.01726325152839388 
0.009288153349708641 -0.01346179921263262 0.006271556375159445 
0.00314887738592967 0.002375964064368479 -0.007878776501026606 
0.0001148435714965913 -0.00763996401594226 0.009229304755337075 
-0.0006029190158363921 -0.01302477206780634 0.008539542967450376 
-0.003702267498640634 0.033750815869491 -0.003567849204033965 
0.001756762192193482 0.008730147063216981 0.006349250022489919 
0.006219482210455644 -0.01296605814756056 0.01723569484499789 
0.006867650063421807 0.0002755095171340645 0.00438338439652668 
0.01056136003421342 -0.005771291297103476 0.004798211270586448 
0.008798286066777516 -0.03687339725038523 0.02755695943035532 
0.00656422124944792 -0.01471879006069125 0.01417878834027726 
0.006440463546385965 -0.02010689737001652 0.02092937824973046 
0.00367055244035912 -0.01318014977330847 0.02913981084609069 
-0.007348256381072582 0.06464536613618191 -0.04057421940242632 
0.007559387361191956 -0.01466287705836614 0.02121380394912462 
0.006965030095072078 -0.01570857267145652 0.01511747982064917 
0.003737936130640822 -0.001396808465040177 0.0067945649268036 
0.004934093475127986 -0.0120288372615534 0.01421034654744109 
0.004280825609417842 -0.01924934765265085 0.01095934771064935 
0.006003916409127776 -0.03309275822889997 0.022285533970934 
0.007007556983114184 -0.01825156969029376 0.01086514570837963 
0.003091114116564921 -0.008001789440524029 0.01102384585401137 
-0.005158414882602623 0.02751979643697171 0.00113457414609144 
-0.002079296857003528 0.02419113343348294 0.002355878800797633 
0.001459310103040911 -0.01262234214051425 0.01483656426401095 
0.001538451440255826 0.002022893334442327 0.001594137453064298 
6.93670600333396e-05 0.002074410301876299 -0.001959682769364426 
0.0005686224379934244 -0.00787024935766413 0.003777829371893405 
0.0003426228782373331 -0.006837405189281168 0.002758377520600112 
5.322184720742569e-05 -0.005487428587369757 0.007116410621129473 
-0.003013076699075182 0.02153491772493478 -0.01075852997948633 
-0.003313910200983859 0.02896080333422026 -0.008935579681591907 
0.0001093183776704521 0.0004483637705538655 -0.0009445489907412048 
-8.601837693855166e-06 0.001664941141455737 -0.001846037175667546 
-0.001252717284027439 0.008390004437777463 -0.009471724914772594 
-0.001200221553161783 0.008929315377123921 -0.010339673556223 
-0.00297919757554423 0.01591373162374565 -0.01327644156190327 
-0.002259368959449778 0.01571561939186201 -0.01172712257025687 
-0.002488400443075471 0.009483237704332945 -0.007510015391719744 
-0.008035196663732343 0.02148924315700748 -0.03510027236753775 
-0.009835558798646792 0.02095746972416239 -0.03572398187517876 
-0.005391111226473008 0.01248307385782742 -0.03275690790441708 
-0.005300975505620637 0.02721200983486398 -0.03971004965313269 
-0.001983930459290964 0.01125833088335115 -0.02804082054947827 
0.0008043926329161799 0.02713958106811629 -0.04101691050729551 
-0.0004406656948664845 0.02317804183555232 -0.03147368301720192 
-0.0004701562480689238 0.02139783595295257 -0.02895909677840226 
-0.0007074322708452193 0.01694753006291773 -0.02743623601507187 
0.0006018204726662223 0.01510405121653304 -0.02272358807215758 
0.0009543214274251935 -0.004868418563867399 -0.003592741249365079 
0.005148683624112497 -0.009869513457632756 -0.006152179638786395 
0.006211869264322573 -0.016917863138914 0.001032897510032066 
0.005674080928092412 -0.01155896330884049 -0.004116718858714759 
0.005304359762972881 0.03919553699218692 -0.04306584003759395 
0.006255993904344448 0.02461992793196112 -0.03434086705559292 
0.003182112089460077 0.01185128911334491 -0.02017575019035766 
0.003279622675564161 0.0002334065373907866 -0.01006419274786392 
0.00586943483871709 -0.01899690354359953 0.01169969730614274 
0.01025316735471493 -0.03257226769485222 0.01595845981628304 
0.009976139924172591 -0.0206430598429484 0.01055928011440312 
0.01056504472004869 -0.009825996553640344 -0.007286506132406409 
0.007273890625705093 0.02116588590799119 -0.02888375677800467 
0.0001249415372907839 0.05051388473154506 -0.03023547829146216 
0.001677620296151564 0.04434388932160347 -0.03959589546343633 
0.001274533084448697 0.02329579960217954 -0.02599641828721381 
0.003299280844852864 0.01946382140437377 -0.023428084080107 
0.008034818024821271 -0.0262561289178587 0.03658500055739266 
0.008924521223246638 0.008812417822909629 0.007578181525441781 
0.01035751168834256 0.02798806270306422 -0.0233107343077674 
0.006374352898424302 0.02674989394342452 -0.02745572243211232 
0.0167964892811858 0.03725948337494414 -0.05362900246575911 
-0.0008402923091519768 0.02615504614444112 -0.01511814000283655 
0.003022229350245374 0.01910385531268621 -0.02266211652316454 
0.0005419283379370543 0.01241976308515037 -0.006540001758352816 
-0.00304396415840106 0.01711273076270203 0.008359140464241252 
-0.02069934882972269 0.09432085387646912 -0.05208849846687953 
0.005047807923762844 0.01092762518739393 0.003011113771135364 
0.009765410720918908 0.0213820570384439 -0.02528653668071308 
0.004396514762157722 0.02196895875544045 -0.02403089772100815 
-0.0005732805957091558 0.02820647977843939 -0.02072149294609223 
0.002333289828740403 -0.002965967551378928 0.005789186602496867 
0.001402726000571438 -0.006467697648415399 0.01165337121439733 
0.004926947266479126 -0.02545244009886348 0.02766923779963423 
0.003729762411434351 -0.03081098721609862 0.04689201670471409 
0.005401148528526658 -0.03854167073609801 0.05544033861539235 
0.008965933668512831 -0.03697827817320573 0.03897369647339854 
0.008820164826123075 -0.01832736288564544 0.007350384809040103 
0.003219200876078337 0.01039643262212275 -0.01170486872764093 
-0.0005394936403868106 -0.00655194827775906 0.002903150829072414 
0.0006764025605162266 -0.05494217409995523 0.05831531588835995 
0.000128214831168473 -0.05495913085463621 0.05941236648605076 
0.0003113310524028442 -0.06024464432171939 0.06836512878164186 
0.0007789087873822072 -0.04520803940808487 0.05347117637781532 
0.002229983990622832 -0.02485815122682876 0.02799657968296349 
-0.000821794675347899 -0.005018192695297546 0.002927166619174471 
-0.0008870159347597422 -0.003339856307209282 0.0008134733171668283 
-0.001197597056083477 -0.01123736794394485 0.01429118672428464 
-0.0007985271537170772 -0.01284034637259919 0.0151006525190267 
0.0009580789517438371 -0.01819451418912814 0.01221252238060456 
-0.002193639745570978 -0.02711572384652888 0.0278972465022812 
-0.001428248958513007 -0.00337850490777245 0.003258977724840139 
0.01108347159338333 0.01107529156546761 -0.03666130581968886 
0.001362424308940269 0.003344156098835835 -0.003825028776015667 
0.002032204497675906 0.02123205166258915 -0.02153886811344445 
0.00521839506768986 0.01809323491526559 -0.02518600349305185 
0.004859049184035936 0.0105126005405722 -0.0191992350512355 
0.005256415177148226 -0.001026076454948671 -0.0008585417255839947 
0.003717368518532273 0.00844589855658286 -0.008237137951497523 
0.003257116772460569 0.008020710412642636 -0.007410761037764216 
-0.002943247376558572 0.02955155929686314 -0.01972543085384872 
-0.003912252433147201 0.03965068902118267 -0.02878565866329234 
-0.00195488271645018 0.01799500875066939 -0.01538146402323417 
0.008726650576294299 -0.004512448298685738 -0.01594308719080217 
0.01764949897820059 0.006990605686772527 -0.0432987383142803 
0.01656198543166587 0.01115115587610139 -0.03758944583256117 
0.03185641064363389 -0.02242553323384087 -0.02495659779558469 
0.01971711456886804 0.03407158468297843 -0.08333591952159788 
0.004283802773759292 -0.01931934754544643 0.005475023633834012 
-0.003943688150840256 0.03170336515156996 -0.01929986260935809 
-0.002349159165531784 0.0387878837625306 -0.0277053117978717 
0.001593076040347412 0.009764297868181334 -0.007101583453908066 
0.01630373531299468 -0.01197860508314741 -0.01576324715526221 
0.03688087011055131 0.008556191637470659 -0.0764779759819873 
0.06455888389224593 0.01070867153068064 -0.09693905924867444 
0.02747165954919805 -0.004018958987577776 -0.01634912476011597 
-0.0009539522811290923 0.03129669659023707 -0.0276038903733363 
-0.003027717113816618 0.02196046197053363 -0.01539234537786534 
-0.005009725697221031 0.03758039076695588 -0.02458924964909877 
-0.0066780395855297 0.04262949022133612 -0.01509191007844573 
0.0001411931274332799 0.03418843468486939 -0.01072858112493518 
0.00471859454197071 0.01940766269994167 -0.01880707305608926 
0.02519927956562888 0.01175653323589209 -0.05381003778693848 
0.092542451486014 0.05251873406049398 -0.155881892351942 
-0.006500821943872733 0.02956782222059434 -0.002484975209440157 
0.001722382936663065 0.0239613520215407 -0.02619668294944136 
-0.006845449504730817 0.03212378063854297 -0.01303890646967751 
-0.00658885310755691 0.0364926761859924 -0.01100601742188768 
-0.02105302675545894 0.09297746552967161 -0.0435584729850046 
-0.01166955031726858 0.08402302537419241 -0.033827375219187 
-0.01138047778911817 0.0617547796460919 -0.02190514307526412 
-0.00997088012500021 0.04750169600580163 -0.02309397612145746 
0.03210203652810301 -0.01046689984514217 -0.04646282236974556 
-0.01167748044451734 0.01671087176339795 0.0109802203299993 
-0.01127469130156459 0.01120357620925003 0.006510963990528232 
-0.0098383076112888 0.01613187090273947 0.005290307251150447 
-0.006998603055963679 -0.006017330364778506 0.02962781933735048 
-0.009385456721220225 0.01916161182504413 0.01502748180978835 
-0.01535121085914294 0.0640762024317629 -0.01974473105363576 
-0.01774469766053157 0.08230049961615478 -0.04021087024898097 
-0.01541031638490887 0.06692191407373728 -0.0349731657918468 
-0.01424588008514073 0.03949043843233873 -0.02053599693664462 
-0.01896811925792044 -0.03727674440263232 0.05411165223740927 
-0.01881220480697432 -0.03740403208560121 0.05452245263958526 
-0.01748397644214871 -0.03716065710283051 0.0596314892638532 
-0.0140033496192451 0.01466107893260033 0.01892753490394657 
-0.02222828539644475 0.05703045072565729 -0.01269821737781095 
-0.01538433463879955 0.0414584221193673 -0.02022514530124195 
-0.0150643323302425 0.04094511549912305 -0.02053155199089155 
-0.01717434561205275 0.02051883750740397 0.005199780104439267 
-0.01735151726219137 0.02061475932599758 0.004993089667207433 
-0.01800288428259116 0.0448398300469599 -0.01327280227084457 
-0.02888813700591046 0.04959440263745232 -0.004346638162358011 
-0.01679318107796379 0.04696011564988754 -0.01263944956893683 
0.01730142594182822 0.0006161521031532127 -0.03731369551925399 
0.003254990347596782 -0.01771047684523402 0.02440946957730901 
-0.003508102356034888 0.03668799661894924 -0.02806542381791491 
0.004780460695943424 0.01586546328805906 -0.02212025996148472 
-0.001662633029556203 0.03625802261253235 -0.04239073343233692 
0.02216368344945712 -0.0460661609202191 0.02400797960581847 
0.01418533095761568 -0.01843887535623532 0.004975602322616939 
0.01328084989692535 -0.01944350813319245 0.007209844563853778 
-0.008379008447457677 0.01677539436192692 0.006144106944154712 
-0.01556784282039255 0.04246580882070328 -0.007320500349393931 
-0.009405408158499018 0.02348616388818553 -0.01614267271809194 
0.01394537195505705 -0.001756304312480547 -0.04761825280404548 
0.03028372227827355 0.008605589656523735 -0.08550143473257969 
0.03504310908270234 -0.03094466733744005 -0.0375824160966347 
0.07537463025733809 -0.1218076307661678 0.03273265917744447 
0.04324573019270418 0.008962511815624364 -0.09837138564111335 
0.02026430250886764 -0.1175634043399145 0.07621908711543264 
-0.008342773911922919 0.003370708064133714 0.01758450465167506 
-0.01699600252441442 0.05056702567408444 -0.009759073155209986 
-0.001246117598175995 -0.007012619685873798 -0.001887575153882999 
0.03519326155241916 -0.08673797435902424 0.004203549127286763 
0.06069732415850203 -0.05843591579946641 -0.0670609479782605 
0.1080652026787846 -0.07715789748331178 -0.08215897201083151 
0.07686397854888728 -0.1435965721671797 0.07052839545315528 
0.0214697172277461 -0.05461645859864245 0.02535136961451206 
-5.01944503892841e-05 -0.0610045189852018 0.07091460386042892 
-0.01459876240002058 0.01245506347721666 0.02465518326631698 
-0.01892187425500403 0.04188969567584967 0.006928453602604528 
-0.002162942774498701 -0.02003889485563325 0.02591520809527301 
0.01721135869771218 -0.09691242131590094 0.05081815256018777 
0.05352184136041455 -0.08280611921996002 -0.01966255405774935 
0.125613056118036 -0.01116593077819653 -0.1323452899608989 
0.02015089151097929 -0.09238197321822376 0.08946437025356935 
0.0290774640036538 -0.09679470612315157 0.05665168073778244 
-0.009009557982287824 -0.05409952596130441 0.07571474746476541 
-0.01571573405221329 0.003313733486431457 0.04065639574978982 
-0.0217906738953922 0.07666860645163363 -0.03360260296672516 
-0.01945465465135337 0.04121654580801905 0.02236059297372618 
-0.012338800925637 -0.03306787538423966 0.06052859989630676 
-0.004835049932288202 -0.06691580657297128 0.07302096662760335 
0.08166302762939885 -0.1882728278013915 0.04966477623643251 
0.001482709685707977 -0.06392872174104676 0.07630511266087371 
-0.002867259767283116 -0.09868247880006004 0.08807826536860115 
-0.01367224974271875 -0.06200132799980101 0.07389307834480681 
-0.01835221652609001 -0.04170751839176834 0.06258860371277737 
-0.02428681202178625 0.01046618433931783 0.03251329563084213 
-0.02707549621720784 0.04850087135933256 0.002257917213153333 
-0.02807653003307605 0.0343994143671264 0.0102962778191621 
-0.01156083953415494 -0.01579427378548644 0.02109224419628284 
-0.008552221556670599 -0.05355134767648673 0.03560279748131036 
-0.02875330434931273 -0.1064653223292658 0.09820561017314802 
-0.02790127551480706 -0.1081217017569399 0.09804996906136294 
-0.02837690389867381 -0.1030989699564827 0.1027850817029372 
-0.03102147423946923 0.007332317254191722 0.02520471654152237 
-0.03851018060596007 0.04775151099892433 0.003094485966092959 
-0.009733142174451615 -0.04952977531427465 0.0343403715830894 
-0.01006642318549577 -0.04980982042734149 0.03432788814837608 
-0.02567301057606351 -0.03781851612754945 0.04356099290277277 
-0.02645810324394075 -0.03607313193427866 0.0421373725358526 
-0.03038611092152734 0.02718349362010794 0.003657230823880445 
-0.04817939404478482 0.03228723485643624 0.02169667593332999 
-0.02244256182747535 -0.001956665970914882 0.02834096451059225 
0.0002954736111349203 -0.006030794789851951 0.004144305920134128 
